4
784 256
0.276471 0.158824 0.056863 0.029412 -0.190196 0.492157 -0.131373 -0.190196 0.201961 0.170588 -0.476471 0.166667 0.233333 0.292157 -0.445098 -0.088235 -0.441176 0.492157 0.080392 0.350980 0.170588 -0.296078 0.080392 0.441176 0.488235 0.456863 -0.252941 -0.229412 0.480392 -0.194118 0.052941 0.264706 -0.445098 -0.311765 -0.001961 0.170588 0.249020 -0.103922 0.260784 0.366667 0.221569 0.362745 -0.386275 -0.092157 0.049020 -0.370588 -0.460784 -0.456863 0.088235 -0.437255 0.029412 -0.143137 0.343137 0.354902 0.049020 -0.464706 0.492157 0.072549 -0.303922 -0.339216 0.150980 0.045098 -0.245098 0.041176 -0.394118 0.409804 -0.096078 -0.437255 -0.201961 -0.394118 -0.139216 0.178431 -0.480392 -0.449020 0.076471 -0.029412 -0.147059 -0.347059 0.441176 -0.088235 -0.382353 -0.017647 -0.084314 0.303922 0.009804 0.386275 0.088235 0.033333 0.484314 0.182353 0.017647 -0.350980 -0.256863 -0.425490 0.378431 0.049020 -0.209804 0.249020 0.021569 -0.135294 -0.268627 -0.092157 -0.001961 -0.300000 -0.350980 0.100000 -0.127451 -0.311765 0.256863 0.190196 -0.080392 0.288235 -0.221569 -0.201961 -0.331373 0.460784 0.060784 0.433333 0.311765 -0.492157 0.209804 -0.280392 -0.464706 -0.052941 0.331373 0.154902 0.350980 -0.166667 -0.025490 -0.064706 0.492157 0.139216 -0.390196 0.021569 0.213725 0.076471 -0.092157 -0.249020 -0.237255 0.221569 -0.213725 -0.280392 0.229412 0.072549 0.049020 -0.158824 0.343137 -0.366667 -0.366667 0.213725 0.182353 0.001961 -0.417647 0.209804 -0.421569 -0.115686 0.347059 -0.068627 -0.088235 0.158824 -0.496078 -0.209804 -0.252941 0.162745 -0.088235 0.092157 -0.170588 -0.013725 -0.115686 0.398039 -0.154902 0.025490 0.354902 -0.456863 0.049020 -0.174510 0.382353 -0.378431 0.049020 0.421569 -0.162745 0.288235 0.045098 -0.484314 -0.433333 -0.194118 -0.272549 0.433333 0.480392 0.127451 -0.100000 -0.425490 0.029412 -0.492157 0.037255 0.111765 -0.366667 0.421569 0.405882 -0.174510 -0.339216 -0.272549 -0.327451 -0.076471 0.249020 -0.229412 -0.264706 0.260784 0.088235 -0.468627 -0.158824 -0.033333 -0.029412 0.092157 0.409804 0.127451 0.425490 0.464706 0.068627 0.343137 0.335294 -0.182353 0.166667 0.476471 -0.045098 -0.390196 -0.162745 -0.182353 -0.115686 -0.190196 0.107843 -0.311765 -0.319608 0.276471 0.303922 -0.425490 -0.001961 0.029412 0.303922 -0.429412 0.225490 0.194118 0.052941 -0.296078 -0.382353 0.245098 -0.037255 0.115686 -0.205882 0.186275 -0.119608 -0.107843 -0.323529 -0.209804 -0.013725 0.194118 0.198039 0.307843 -0.413725 -0.394118 0.398039 -0.496078 -0.241176 -0.300000 -0.178431 0.029412 0.284314 -0.500000 0.343137 -0.182353 -0.154902 0.260784 0.327451 -0.354902 -0.449020 0.021569 -0.303922 -0.327451 -0.076471 -0.178431 -0.174510 0.068627 -0.315686 -0.064706 0.425490 0.476471 -0.343137 0.166667 0.009804 -0.288235 0.033333 -0.068627 -0.276471 -0.107843 0.327451 -0.394118 -0.464706 0.358824 -0.186275 -0.460784 -0.049020 -0.347059 0.233333 0.460784 -0.468627 -0.217647 -0.135294 0.154902 -0.147059 0.213725 0.072549 -0.433333 0.186275 -0.366667 0.449020 -0.296078 0.378431 -0.472549 -0.296078 -0.347059 -0.292157 -0.241176 -0.150980 0.256863 -0.041176 -0.025490 0.084314 -0.398039 0.158824 -0.280392 0.103922 0.374510 -0.033333 0.201961 -0.182353 -0.221569 0.292157 -0.115686 -0.005882 -0.225490 -0.009804 0.186275 0.433333 -0.268627 -0.013725 0.296078 0.103922 -0.170588 -0.362745 -0.339216 0.374510 0.080392 -0.080392 -0.072549 -0.123529 -0.500000 -0.119608 0.409804 -0.127451 -0.170588 -0.147059 -0.323529 -0.292157 -0.488235 -0.370588 -0.139216 -0.045098 0.135294 -0.103922 0.072549 -0.107843 0.476471 0.174510 0.123529 0.280392 -0.358824 -0.221569 0.449020 -0.272549 0.194118 -0.323529 -0.374510 0.378431 -0.213725 -0.005882 0.464706 0.390196 0.272549 -0.425490 0.374510 0.241176 0.496078 0.256863 0.288235 0.166667 -0.017647 0.292157 0.280392 -0.249020 -0.225490 0.296078 -0.111765 0.092157 0.315686 0.068627 -0.131373 -0.311765 0.182353 -0.096078 0.409804 0.052941 -0.029412 -0.213725 -0.260784 -0.068627 0.398039 -0.115686 0.084314 0.166667 0.245098 0.296078 -0.072549 -0.476471 0.460784 0.221569 0.147059 -0.123529 -0.088235 0.080392 0.327451 -0.456863 0.496078 0.182353 0.162745 -0.143137 0.484314 -0.382353 -0.339216 -0.500000 0.084314 -0.362745 -0.194118 -0.005882 0.300000 -0.300000 -0.119608 -0.111765 0.174510 -0.464706 0.464706 -0.362745 -0.150980 0.162745 0.335294 0.041176 0.068627 -0.064706 -0.366667 -0.201961 0.170588 -0.158824 0.131373 -0.460784 -0.425490 -0.401961 -0.174510 0.362745 -0.178431 -0.107843 0.488235 -0.237255 -0.268627 0.068627 0.417647 -0.331373 0.096078 0.005882 -0.225490 0.390196 0.021569 -0.201961 -0.256863 0.350980 -0.354902 0.088235 -0.307843 0.041176 0.358824 -0.162745 -0.303922 -0.013725 -0.366667 -0.233333 0.335294 0.417647 -0.190196 0.241176 -0.221569 -0.496078 -0.433333 -0.496078 -0.449020 0.272549 -0.398039 -0.319608 -0.111765 -0.437255 0.484314 -0.445098 -0.100000 0.315686 -0.060784 0.194118 -0.445098 -0.366667 -0.084314 -0.096078 -0.060784 -0.147059 0.354902 -0.429412 -0.311765 0.088235 -0.100000 -0.174510 0.237255 -0.323529 0.449020 -0.158824 0.229412 0.154902 -0.394118 0.401961 0.009804 -0.021569 0.280392 -0.143137 0.300000 0.056863 0.441176 -0.025490 0.307843 -0.398039 0.409804 -0.150980 0.445098 -0.327451 -0.394118 0.166667 -0.398039 0.417647 0.029412 -0.339216 0.421569 0.170588 -0.394118 -0.162745 0.111765 0.100000 0.394118 -0.068627 -0.037255 -0.284314 -0.425490 -0.354902 -0.331373 0.147059 0.005882 -0.335294 0.249020 0.331373 -0.272549 0.292157 -0.209804 0.476471 -0.178431 -0.284314 -0.394118 0.060784 -0.064706 -0.276471 0.433333 0.009804 0.358824 -0.468627 0.394118 -0.456863 0.280392 -0.237255 -0.398039 -0.017647 0.005882 -0.370588 -0.390196 -0.025490 -0.268627 0.045098 0.064706 -0.468627 -0.319608 -0.241176 0.382353 -0.139216 0.021569 0.405882 0.166667 0.315686 0.272549 -0.468627 -0.449020 -0.213725 -0.115686 -0.103922 -0.229412 -0.119608 0.201961 0.468627 -0.178431 0.464706 -0.413725 -0.284314 0.170588 0.409804 0.398039 0.241176 0.374510 0.154902 0.147059 -0.182353 0.300000 -0.460784 -0.221569 -0.464706 -0.437255 -0.311765 -0.041176 -0.013725 0.374510 -0.017647 0.409804 0.107843 0.398039 -0.354902 0.358824 0.347059 0.398039 -0.072549 -0.272549 0.339216 0.139216 0.300000 0.456863 -0.252941 0.417647 -0.096078 0.492157 -0.370588 -0.076471 0.339216 0.303922 -0.060784 -0.213725 0.041176 0.154902 0.225490 -0.170588 -0.249020 -0.256863 0.147059 -0.245098 0.021569 0.284314 0.480392 -0.245098 -0.405882 -0.033333 0.284314 -0.068627 -0.182353 -0.292157 -0.084314 -0.370588 -0.401961 0.441176 0.241176 -0.201961 -0.452941 -0.401961 0.205882 -0.115686 0.107843 -0.049020 -0.186275 0.492157 -0.025490 -0.076471 0.249020 -0.319608 0.119608 -0.150980 0.472549 -0.378431 -0.178431 0.205882 0.143137 0.311765 -0.092157 -0.001961 0.449020 0.260784 -0.080392 0.174510 0.429412 -0.476471 -0.127451 0.241176 0.288235 0.143137 0.260784 -0.174510 0.198039 0.068627 -0.162745 -0.150980 -0.378431 -0.425490 -0.009804 -0.041176 -0.198039 -0.178431 -0.452941 -0.292157 0.052941 -0.460784 0.017647 0.296078 0.221569 -0.088235 0.268627 0.417647 -0.209804 0.001961 -0.264706 0.143137 -0.311765 -0.229412 0.358824 -0.288235 -0.500000 0.382353 -0.001961 0.150980 -0.158824 0.300000 0.041176 -0.441176 0.064706 0.201961 -0.347059 -0.362745 -0.323529 -0.496078 -0.449020 0.264706 0.147059 -0.072549 -0.049020 -0.245098 0.429412 -0.033333 0.323529 0.166667 -0.005882 -0.060784 0.300000 0.194118 -0.417647 0.131373 0.178431 -0.158824 0.394118 0.347059 0.347059 0.225490 -0.217647 0.280392 0.131373 -0.260784 -0.378431 0.390196 0.441176 -0.429412 -0.300000 0.056863 -0.343137 0.429412 -0.072549 0.072549 0.064706 0.201961 0.327451 0.449020 -0.280392 -0.029412 -0.252941 -0.264706 0.107843 0.111765 0.452941 0.280392 0.307843 -0.245098 0.225490 0.500000 0.252941 -0.174510 0.103922 0.017647 -0.492157 0.339216 -0.311765 -0.300000 -0.190196 -0.429412 0.178431 0.335294 0.460784 0.088235 0.064706 -0.150980 -0.205882 0.252941 0.335294 -0.088235 -0.398039 0.147059 0.060784 -0.488235 -0.378431 0.315686 0.460784 -0.343137 0.017647 0.445098 0.398039 0.080392 -0.009804 -0.107843 0.103922 -0.264706 -0.484314 -0.374510 0.264706 -0.476471 -0.166667 -0.045098 -0.072549 0.323529 -0.072549 0.076471 0.049020 -0.092157 -0.437255 0.041176 -0.221569 -0.119608 -0.143137 -0.143137 -0.362745 -0.394118 0.029412 -0.394118 0.464706 -0.425490 -0.056863 0.449020 0.370588 0.417647 0.158824 -0.398039 -0.209804 0.194118 0.158824 0.449020 -0.362745 0.045098 0.245098 0.174510 0.339216 -0.107843 0.045098 -0.076471 -0.111765 0.029412 -0.088235 0.319608 -0.288235 0.213725 -0.127451 0.260784 0.190196 -0.343137 -0.476471 0.350980 -0.386275 0.449020 -0.052941 0.480392 -0.033333 -0.060784 -0.139216 0.198039 0.327451 0.064706 -0.354902 0.166667 -0.205882 0.029412 -0.017647 0.252941 -0.252941 0.335294 -0.492157 0.221569 -0.150980 -0.382353 -0.296078 -0.092157 -0.264706 0.025490 -0.056863 -0.382353 -0.233333 -0.464706 -0.464706 -0.280392 -0.335294 -0.198039 0.288235 -0.060784 -0.300000 0.178431 -0.158824 -0.339216 0.056863 0.441176 -0.292157 -0.135294 -0.264706 0.029412 -0.362745 0.339216 0.382353 0.276471 0.264706 -0.347059 -0.178431 -0.413725 0.386275 -0.358824 0.150980 0.484314 0.150980 -0.284314 0.147059 0.190196 0.456863 -0.241176 -0.303922 0.374510 -0.052941 -0.013725 -0.249020 0.072549 0.092157 0.350980 0.390196 0.307843 -0.264706 -0.217647 0.429412 0.158824 -0.100000 -0.492157 -0.472549 0.347059 -0.303922 -0.496078 -0.033333 0.005882 0.284314 0.123529 0.005882 0.021569 0.417647 -0.225490 -0.480392 -0.327451 0.370588 0.480392 -0.488235 0.362745 -0.045098 0.405882 0.186275 -0.107843 0.229412 0.433333 0.147059 0.476471 0.131373 0.139216 -0.025490 -0.147059 0.323529 0.068627 -0.323529 0.017647 0.127451 0.350980 0.366667 0.500000 -0.029412 -0.366667 -0.288235 0.049020 -0.170588 -0.080392 0.150980 -0.092157 -0.378431 0.456863 -0.174510 -0.394118 0.374510 -0.398039 -0.021569 0.456863 -0.080392 -0.096078 0.319608 -0.201961 -0.186275 0.386275 -0.476471 -0.496078 0.358824 -0.354902 0.331373 0.476471 -0.296078 0.484314 -0.358824 -0.456863 -0.143137 -0.080392 0.209804 -0.319608 -0.209804 -0.260784 0.107843 -0.366667 0.366667 -0.331373 -0.347059 0.354902 0.025490 0.452941 -0.068627 -0.366667 -0.119608 0.413725 -0.092157 -0.362745 -0.025490 0.268627 -0.460784 -0.252941 0.417647 -0.468627 -0.190196 0.111765 -0.033333 -0.049020 -0.350980 0.311765 -0.147059 -0.107843 -0.147059 -0.327451 -0.241176 0.158824 -0.158824 -0.362745 -0.464706 0.178431 0.076471 -0.217647 0.107843 -0.217647 -0.092157 0.029412 -0.217647 -0.437255 -0.127451 -0.311765 0.245098 -0.213725 0.013725 0.029412 0.464706 0.107843 -0.029412 0.456863 0.500000 0.107843 -0.021569 -0.229412 -0.370588 -0.056863 -0.256863 -0.041176 -0.374510 -0.272549 -0.139216 0.225490 -0.386275 0.111765 -0.339216 -0.249020 0.060784 -0.347059 -0.264706 0.347059 -0.386275 0.092157 -0.158824 -0.292157 0.429412 0.433333 0.107843 -0.041176 0.241176 0.249020 -0.092157 0.119608 -0.452941 0.327451 -0.417647 0.225490 0.476471 -0.386275 0.378431 -0.041176 0.190196 0.041176 0.339216 -0.064706 -0.056863 0.233333 0.123529 0.096078 -0.358824 0.096078 0.174510 -0.049020 -0.405882 0.449020 -0.472549 -0.213725 -0.445098 -0.001961 0.362745 0.319608 -0.476471 -0.147059 0.296078 0.029412 0.100000 -0.150980 0.190196 -0.429412 -0.327451 -0.409804 -0.182353 -0.500000 0.233333 0.056863 -0.166667 -0.315686 -0.205882 -0.484314 0.088235 -0.276471 -0.335294 0.021569 0.425490 -0.127451 0.284314 0.084314 -0.433333 -0.492157 0.476471 0.092157 -0.358824 0.068627 0.417647 -0.115686 -0.452941 -0.092157 -0.072549 0.268627 -0.127451 0.123529 0.052941 0.072549 -0.041176 -0.049020 -0.464706 -0.178431 0.056863 -0.303922 0.001961 0.260784 -0.417647 0.370588 0.441176 0.307843 0.150980 0.468627 0.139216 -0.319608 -0.209804 0.303922 -0.229412 -0.335294 0.307843 -0.107843 0.198039 -0.350980 -0.080392 0.064706 0.394118 0.382353 -0.037255 0.001961 0.433333 -0.127451 -0.060784 -0.496078 -0.437255 0.256863 -0.068627 -0.111765 0.354902 -0.233333 -0.245098 -0.119608 -0.323529 -0.347059 0.425490 -0.221569 -0.354902 0.205882 0.045098 -0.272549 -0.186275 -0.460784 0.378431 0.229412 0.107843 -0.374510 -0.005882 0.021569 0.456863 -0.213725 0.186275 0.370588 0.135294 -0.049020 0.292157 -0.307843 0.182353 -0.056863 0.249020 0.127451 0.264706 -0.119608 -0.335294 0.100000 0.198039 -0.233333 0.303922 -0.135294 0.174510 -0.480392 -0.437255 0.468627 0.339216 0.092157 -0.339216 -0.123529 -0.252941 -0.378431 0.260784 -0.233333 0.292157 0.292157 -0.405882 0.456863 -0.449020 -0.280392 -0.017647 -0.280392 -0.123529 -0.370588 0.456863 -0.115686 0.303922 0.123529 -0.221569 -0.323529 0.331373 -0.449020 -0.484314 -0.115686 -0.323529 0.331373 0.492157 0.021569 0.080392 -0.260784 -0.241176 0.276471 0.472549 0.303922 -0.119608 -0.429412 0.221569 -0.001961 -0.123529 0.260784 -0.056863 -0.072549 0.480392 -0.088235 -0.033333 -0.405882 -0.425490 0.260784 0.154902 0.111765 -0.284314 0.052941 0.127451 -0.205882 0.350980 -0.339216 0.154902 0.249020 0.194118 0.135294 -0.158824 0.033333 -0.339216 -0.268627 0.178431 -0.429412 0.276471 -0.472549 -0.311765 -0.115686 0.429412 0.037255 -0.233333 0.194118 0.347059 -0.441176 0.107843 0.052941 0.123529 0.409804 -0.064706 0.084314 0.256863 0.496078 -0.021569 0.378431 -0.201961 0.339216 -0.421569 -0.378431 -0.401961 0.072549 0.480392 0.358824 -0.127451 0.107843 -0.327451 -0.366667 -0.405882 -0.354902 -0.052941 0.335294 0.480392 -0.264706 -0.033333 -0.354902 -0.370588 -0.107843 0.296078 -0.339216 -0.009804 -0.076471 0.158824 0.186275 -0.072549 0.307843 -0.268627 0.041176 -0.339216 -0.296078 0.213725 0.001961 0.029412 -0.331373 0.323529 0.280392 -0.500000 0.311765 0.225490 0.437255 -0.080392 0.268627 -0.300000 0.103922 -0.311765 -0.213725 -0.037255 0.347059 -0.245098 -0.296078 -0.437255 0.452941 -0.088235 -0.017647 -0.288235 0.013725 0.233333 0.119608 -0.111765 0.386275 -0.182353 -0.072549 0.107843 -0.025490 -0.315686 -0.268627 -0.162745 0.041176 0.009804 -0.421569 0.421569 -0.021569 0.409804 -0.013725 -0.343137 0.401961 -0.398039 -0.080392 0.331373 -0.049020 -0.162745 -0.056863 -0.107843 -0.280392 -0.198039 0.080392 0.013725 -0.288235 -0.398039 0.488235 -0.272549 -0.405882 0.288235 -0.150980 -0.205882 0.303922 0.252941 -0.127451 -0.323529 0.500000 0.150980 0.190196 -0.366667 -0.331373 -0.260784 0.123529 -0.460784 -0.198039 -0.366667 -0.088235 -0.166667 0.072549 0.476471 0.413725 -0.233333 -0.064706 -0.315686 -0.182353 0.476471 -0.288235 -0.088235 0.186275 0.401961 -0.245098 -0.084314 -0.017647 0.456863 0.288235 -0.464706 0.052941 0.292157 -0.092157 -0.374510 0.021569 -0.405882 -0.460784 -0.272549 -0.205882 -0.154902 -0.025490 -0.425490 0.268627 -0.496078 -0.064706 0.398039 0.311765 0.421569 -0.107843 0.441176 0.080392 0.492157 -0.405882 -0.370588 -0.500000 -0.241176 -0.441176 0.249020 0.429412 0.268627 0.319608 0.249020 0.319608 -0.229412 0.492157 0.300000 -0.335294 0.256863 0.076471 -0.060784 0.480392 0.100000 0.084314 -0.052941 -0.100000 0.268627 -0.300000 -0.147059 0.237255 0.139216 0.315686 -0.405882 0.441176 0.025490 0.076471 0.103922 -0.178431 0.178431 -0.072549 -0.409804 -0.449020 0.162745 -0.190196 -0.370588 -0.413725 -0.009804 0.456863 0.315686 0.276471 0.178431 0.452941 -0.401961 0.088235 0.131373 0.417647 0.343137 0.331373 0.272549 0.452941 -0.405882 -0.386275 -0.347059 0.417647 0.052941 -0.280392 -0.013725 0.009804 -0.139216 0.045098 -0.378431 0.001961 0.460784 -0.268627 0.437255 -0.245098 -0.452941 -0.076471 -0.347059 -0.449020 -0.166667 0.029412 -0.237255 0.017647 -0.154902 -0.484314 0.496078 -0.303922 0.194118 -0.264706 0.401961 0.154902 0.315686 -0.049020 0.001961 0.421569 0.488235 -0.276471 0.362745 0.205882 0.033333 -0.445098 0.433333 0.441176 0.229412 0.386275 0.327451 -0.127451 -0.319608 0.343137 -0.288235 -0.252941 0.107843 -0.429412 0.413725 0.147059 0.150980 0.401961 0.092157 0.476471 -0.488235 0.064706 0.080392 -0.009804 0.033333 -0.092157 0.103922 0.135294 0.252941 0.021569 0.107843 -0.464706 -0.229412 0.221569 -0.178431 0.280392 0.500000 -0.284314 -0.300000 0.350980 0.276471 -0.150980 0.272549 0.456863 0.115686 0.072549 0.111765 -0.049020 -0.366667 -0.049020 0.198039 -0.249020 -0.311765 -0.256863 0.021569 0.374510 -0.401961 0.347059 0.100000 -0.488235 0.382353 -0.421569 0.025490 -0.213725 0.378431 0.198039 0.500000 -0.468627 -0.025490 0.088235 -0.288235 0.170588 -0.421569 -0.147059 -0.025490 -0.425490 -0.272549 -0.390196 0.429412 0.437255 0.068627 0.256863 -0.021569 0.072549 -0.147059 -0.421569 -0.272549 -0.103922 -0.225490 0.092157 0.131373 0.456863 -0.119608 0.484314 0.162745 0.060784 0.449020 -0.017647 -0.350980 0.147059 0.460784 0.139216 0.323529 -0.464706 -0.452941 0.150980 0.343137 0.488235 -0.205882 0.276471 -0.256863 0.409804 -0.264706 0.311765 0.041176 0.025490 -0.468627 0.190196 0.358824 0.366667 -0.076471 0.488235 0.147059 -0.139216 -0.339216 -0.421569 -0.264706 -0.076471 -0.154902 -0.374510 -0.092157 -0.092157 0.370588 -0.284314 0.480392 -0.029412 -0.441176 -0.221569 0.111765 0.127451 -0.064706 -0.064706 -0.472549 0.409804 0.217647 -0.362745 0.182353 -0.307843 -0.401961 0.468627 0.143137 -0.052941 -0.045098 -0.041176 -0.456863 0.303922 -0.060784 -0.307843 -0.013725 -0.476471 -0.217647 -0.005882 0.092157 -0.386275 -0.154902 0.300000 -0.401961 0.425490 -0.001961 -0.335294 -0.425490 -0.303922 0.221569 0.017647 -0.464706 -0.480392 -0.480392 -0.182353 0.335294 0.001961 0.009804 -0.100000 0.429412 0.170588 0.096078 -0.331373 0.331373 0.441176 0.307843 0.339216 -0.386275 0.307843 0.370588 0.107843 -0.150980 -0.488235 -0.021569 -0.268627 -0.347059 0.056863 0.170588 -0.311765 -0.060784 0.092157 0.147059 0.072549 0.241176 -0.088235 -0.107843 -0.186275 -0.456863 -0.496078 -0.131373 0.398039 -0.009804 0.123529 0.033333 0.245098 0.045098 0.288235 0.437255 0.303922 0.115686 -0.233333 -0.029412 -0.425490 -0.166667 0.280392 -0.472549 -0.264706 -0.072549 -0.350980 -0.280392 -0.452941 -0.460784 0.398039 -0.084314 0.468627 -0.009804 0.017647 -0.268627 0.025490 -0.021569 -0.456863 -0.382353 0.350980 0.249020 0.252941 0.060784 0.398039 0.123529 -0.347059 -0.358824 0.331373 -0.096078 -0.339216 0.150980 0.311765 0.276471 0.131373 -0.362745 -0.374510 -0.327451 0.433333 -0.382353 0.500000 0.319608 0.143137 0.249020 -0.472549 -0.437255 -0.441176 0.268627 0.488235 0.088235 -0.347059 0.123529 0.009804 -0.178431 -0.492157 0.445098 0.190196 -0.347059 -0.492157 0.127451 -0.480392 0.182353 0.413725 -0.080392 -0.327451 -0.476471 0.311765 -0.229412 0.358824 -0.288235 -0.500000 0.190196 -0.370588 -0.354902 0.452941 0.033333 -0.343137 -0.056863 -0.021569 -0.119608 0.370588 0.284314 0.245098 0.198039 0.472549 0.041176 0.178431 -0.343137 -0.382353 0.260784 0.233333 -0.417647 -0.166667 -0.198039 -0.492157 0.217647 -0.323529 -0.092157 -0.350980 0.401961 0.464706 -0.496078 0.405882 0.139216 0.433333 0.386275 -0.425490 0.029412 -0.221569 -0.394118 0.280392 0.437255 0.068627 0.072549 -0.311765 -0.343137 0.150980 -0.268627 -0.037255 -0.401961 0.241176 0.441176 -0.456863 0.209804 0.456863 0.045098 0.421569 0.378431 0.021569 -0.445098 -0.245098 -0.245098 -0.319608 -0.127451 -0.103922 -0.158824 0.158824 0.284314 0.056863 -0.456863 0.288235 0.280392 -0.425490 -0.417647 -0.103922 0.068627 0.033333 0.107843 0.331373 -0.480392 -0.186275 -0.390196 0.315686 -0.233333 -0.488235 0.456863 -0.413725 -0.492157 0.025490 -0.307843 0.358824 -0.386275 0.115686 -0.143137 0.370588 -0.468627 -0.209804 0.476471 0.080392 -0.076471 0.013725 0.492157 -0.154902 0.464706 0.174510 0.319608 -0.327451 0.166667 0.398039 -0.178431 0.382353 0.182353 -0.029412 -0.307843 0.280392 0.103922 -0.350980 0.170588 -0.049020 -0.174510 -0.366667 -0.186275 0.037255 -0.162745 0.468627 0.496078 -0.162745 0.178431 -0.178431 -0.264706 -0.449020 -0.468627 -0.092157 -0.025490 0.480392 -0.417647 0.084314 -0.307843 -0.468627 -0.041176 -0.311765 0.107843 0.347059 0.001961 0.005882 0.476471 0.256863 0.252941 0.252941 0.437255 -0.331373 -0.127451 -0.347059 0.303922 -0.205882 -0.221569 0.001961 -0.382353 0.366667 -0.382353 0.472549 -0.029412 0.386275 -0.350980 0.005882 -0.429412 0.339216 0.127451 0.064706 -0.284314 0.045098 -0.178431 -0.233333 -0.107843 0.115686 0.037255 -0.127451 -0.264706 0.049020 -0.005882 -0.166667 0.186275 0.068627 -0.190196 0.170588 0.052941 -0.201961 -0.350980 0.374510 -0.272549 0.245098 -0.237255 0.347059 -0.492157 -0.480392 0.100000 0.405882 0.001961 0.327451 0.139216 -0.201961 -0.264706 0.162745 0.084314 -0.049020 -0.272549 0.378431 0.492157 -0.296078 -0.150980 -0.445098 -0.425490 0.394118 -0.076471 0.147059 0.150980 0.347059 0.123529 -0.382353 -0.150980 -0.394118 0.154902 -0.480392 0.025490 0.452941 -0.127451 0.272549 -0.284314 -0.084314 0.350980 -0.374510 -0.315686 -0.296078 0.107843 -0.052941 -0.378431 -0.276471 0.013725 0.049020 -0.186275 -0.037255 0.249020 0.037255 -0.119608 -0.425490 0.045098 0.029412 0.064706 -0.276471 -0.464706 -0.100000 -0.366667 0.456863 0.229412 0.041176 -0.366667 -0.358824 0.049020 -0.021569 0.456863 -0.378431 0.143137 -0.033333 0.249020 -0.484314 -0.103922 0.437255 -0.500000 -0.476471 0.092157 -0.370588 0.362745 -0.123529 -0.139216 0.256863 0.205882 -0.272549 0.162745 -0.452941 0.170588 0.264706 0.433333 -0.429412 0.201961 -0.492157 0.472549 -0.319608 -0.437255 0.492157 0.123529 -0.472549 0.343137 0.103922 0.249020 -0.488235 0.233333 -0.300000 -0.237255 0.150980 -0.229412 0.107843 -0.354902 -0.386275 0.013725 0.021569 0.362745 -0.135294 -0.500000 0.386275 0.284314 0.374510 -0.107843 0.103922 0.484314 0.276471 0.315686 0.037255 -0.033333 -0.131373 -0.272549 -0.096078 0.500000 0.378431 -0.072549 0.213725 0.225490 0.311765 -0.492157 0.429412 0.335294 -0.296078 -0.284314 0.209804 0.143137 -0.264706 -0.033333 0.029412 -0.441176 0.005882 0.456863 -0.307843 -0.460784 -0.221569 0.358824 -0.394118 0.339216 -0.456863 0.205882 0.449020 0.072549 -0.005882 0.064706 -0.484314 -0.013725 0.186275 -0.186275 0.103922 -0.045098 0.045098 0.354902 0.119608 0.445098 -0.401961 0.021569 0.194118 -0.186275 -0.154902 0.096078 0.017647 -0.166667 0.127451 0.464706 0.182353 0.460784 -0.205882 -0.229412 -0.154902 -0.394118 -0.190196 0.445098 -0.096078 -0.217647 -0.170588 -0.347059 0.456863 -0.339216 0.413725 0.198039 0.264706 0.449020 0.327451 -0.358824 -0.300000 -0.394118 -0.037255 -0.045098 0.292157 -0.233333 0.056863 -0.100000 -0.076471 -0.331373 0.421569 -0.017647 -0.029412 0.068627 0.088235 -0.292157 -0.158824 -0.060784 0.292157 0.433333 -0.213725 -0.127451 -0.170588 -0.496078 0.445098 -0.170588 0.209804 -0.056863 0.421569 -0.162745 0.072549 -0.452941 0.303922 -0.437255 -0.437255 0.441176 0.009804 0.398039 -0.072549 0.001961 0.484314 0.456863 -0.390196 0.460784 -0.154902 -0.319608 0.276471 -0.123529 -0.460784 0.492157 -0.464706 0.143137 -0.425490 -0.186275 0.154902 0.492157 0.292157 0.201961 0.433333 0.480392 -0.472549 -0.331373 0.045098 0.456863 0.296078 -0.386275 0.492157 0.017647 0.221569 -0.409804 0.468627 -0.221569 0.413725 0.441176 0.217647 0.037255 -0.119608 0.378431 0.201961 -0.021569 -0.500000 -0.131373 0.201961 -0.288235 0.276471 0.198039 0.484314 0.154902 0.452941 -0.307843 0.119608 0.072549 -0.186275 -0.029412 -0.096078 0.166667 -0.300000 -0.394118 -0.049020 -0.052941 0.147059 -0.166667 0.229412 0.170588 0.076471 0.198039 -0.237255 -0.198039 -0.358824 -0.358824 0.201961 -0.272549 -0.166667 0.241176 -0.323529 -0.496078 0.009804 0.433333 -0.080392 -0.268627 -0.127451 0.107843 -0.323529 0.225490 0.013725 0.052941 -0.276471 -0.468627 -0.009804 -0.480392 -0.096078 0.488235 -0.256863 0.449020 0.386275 -0.049020 -0.229412 0.358824 0.492157 -0.209804 0.303922 -0.096078 -0.119608 -0.307843 0.045098 0.252941 -0.056863 0.276471 0.480392 0.127451 0.409804 -0.170588 0.194118 0.009804 -0.143137 -0.323529 -0.468627 0.449020 0.468627 -0.386275 0.370588 0.241176 -0.127451 0.076471 -0.343137 0.056863 0.417647 -0.358824 0.452941 0.386275 -0.488235 0.131373 -0.194118 0.041176 0.100000 0.405882 0.096078 -0.480392 0.052941 -0.021569 -0.468627 0.186275 -0.398039 -0.311765 -0.256863 -0.480392 -0.441176 -0.084314 -0.115686 -0.331373 0.229412 -0.033333 -0.280392 0.135294 -0.041176 0.331373 0.229412 0.025490 0.358824 0.303922 0.123529 0.127451 0.005882 -0.013725 0.021569 -0.178431 0.119608 0.343137 -0.084314 -0.100000 -0.280392 -0.296078 -0.088235 0.194118 -0.394118 0.378431 -0.084314 -0.401961 -0.154902 0.209804 0.154902 0.013725 -0.358824 -0.033333 -0.017647 0.092157 -0.213725 0.362745 -0.417647 0.186275 0.354902 0.339216 0.311765 -0.037255 0.241176 -0.068627 0.390196 -0.370588 0.390196 0.288235 -0.272549 0.182353 -0.221569 0.398039 -0.456863 0.233333 -0.276471 -0.366667 0.068627 0.111765 -0.045098 -0.350980 -0.064706 -0.205882 0.029412 -0.025490 -0.009804 0.103922 -0.221569 0.201961 -0.049020 -0.119608 0.068627 0.331373 -0.201961 0.017647 0.382353 0.292157 -0.464706 -0.162745 -0.311765 -0.496078 0.052941 -0.033333 -0.441176 0.480392 0.303922 0.166667 0.233333 0.139216 0.115686 0.366667 0.103922 -0.245098 -0.347059 -0.217647 -0.170588 0.354902 0.237255 0.339216 -0.480392 -0.366667 0.382353 -0.158824 0.370588 -0.323529 -0.394118 -0.268627 -0.327451 0.311765 -0.492157 -0.229412 -0.496078 0.331373 0.288235 -0.315686 0.005882 0.350980 0.394118 -0.178431 0.037255 0.339216 -0.323529 0.029412 0.060784 0.437255 0.292157 0.480392 -0.139216 -0.500000 0.217647 0.107843 -0.111765 -0.080392 -0.064706 0.472549 0.284314 -0.158824 -0.127451 -0.401961 0.452941 0.409804 -0.374510 0.303922 0.472549 0.464706 0.139216 0.433333 -0.413725 0.315686 -0.107843 -0.229412 -0.350980 -0.131373 -0.021569 0.088235 -0.092157 -0.280392 -0.198039 0.449020 -0.319608 0.060784 -0.405882 0.088235 -0.292157 -0.288235 -0.241176 -0.025490 0.409804 -0.072549 0.252941 -0.441176 0.201961 0.476471 0.300000 0.217647 -0.041176 -0.241176 -0.280392 0.284314 -0.127451 -0.292157 0.041176 0.417647 0.292157 0.131373 0.045098 0.284314 -0.154902 -0.092157 0.374510 0.260784 0.429412 -0.147059 -0.413725 -0.413725 -0.331373 -0.111765 -0.190196 0.264706 0.429412 0.335294 -0.496078 0.025490 0.472549 -0.366667 -0.445098 0.425490 0.311765 -0.068627 0.037255 -0.076471 0.456863 -0.307843 -0.405882 -0.296078 -0.292157 0.052941 -0.072549 -0.358824 0.319608 0.292157 0.433333 -0.449020 0.382353 0.033333 -0.378431 -0.362745 0.009804 0.468627 0.378431 0.217647 -0.264706 -0.405882 -0.358824 -0.100000 -0.182353 0.088235 -0.100000 0.358824 -0.386275 -0.041176 0.335294 -0.401961 0.425490 0.045098 0.386275 -0.060784 0.092157 -0.331373 0.143137 0.374510 0.209804 -0.347059 0.241176 0.178431 -0.229412 0.119608 0.127451 0.060784 -0.001961 0.041176 -0.500000 -0.311765 0.131373 -0.017647 0.315686 0.190196 -0.103922 -0.143137 0.323529 0.135294 0.072549 -0.370588 0.492157 0.107843 -0.170588 0.405882 0.409804 0.068627 0.186275 0.362745 0.417647 0.343137 -0.052941 -0.374510 0.127451 -0.413725 -0.280392 -0.350980 -0.311765 0.409804 -0.237255 -0.405882 -0.045098 -0.264706 -0.300000 0.013725 0.421569 -0.449020 0.350980 -0.170588 -0.201961 -0.252941 0.241176 -0.033333 -0.378431 0.060784 -0.100000 -0.103922 0.323529 0.374510 -0.335294 0.041176 0.327451 0.413725 -0.064706 0.068627 -0.198039 0.060784 0.374510 -0.339216 0.174510 0.264706 0.323529 0.409804 -0.460784 0.405882 -0.205882 0.103922 0.347059 -0.331373 -0.268627 0.147059 0.421569 0.366667 -0.182353 0.394118 0.198039 0.100000 0.484314 0.319608 -0.166667 -0.100000 0.421569 0.401961 -0.264706 -0.382353 0.123529 -0.452941 -0.201961 0.017647 -0.276471 -0.264706 -0.464706 0.158824 0.111765 -0.037255 -0.303922 0.127451 0.452941 0.190196 0.366667 0.103922 0.327451 -0.154902 -0.413725 0.358824 -0.339216 -0.123529 -0.370588 0.033333 0.001961 0.103922 -0.315686 0.292157 0.480392 0.398039 0.252941 0.249020 -0.315686 -0.096078 -0.150980 -0.229412 -0.292157 -0.033333 -0.045098 0.366667 0.354902 0.080392 -0.229412 0.260784 0.029412 -0.033333 -0.441176 0.194118 -0.252941 0.354902 0.437255 -0.229412 0.052941 -0.409804 0.488235 0.401961 0.100000 0.131373 0.103922 -0.335294 0.084314 -0.339216 -0.052941 0.241176 -0.217647 0.343137 -0.029412 0.315686 -0.260784 -0.468627 0.264706 -0.476471 -0.045098 -0.350980 0.162745 0.154902 -0.111765 0.492157 -0.115686 -0.060784 0.311765 -0.362745 -0.100000 -0.339216 -0.488235 -0.284314 0.468627 -0.131373 0.335294 -0.496078 0.041176 -0.350980 -0.182353 0.025490 0.311765 -0.358824 -0.260784 -0.264706 -0.037255 -0.037255 -0.484314 0.390196 0.264706 -0.150980 0.052941 -0.335294 -0.100000 -0.143137 0.280392 -0.409804 -0.166667 0.213725 0.445098 -0.198039 0.437255 -0.139216 -0.174510 0.315686 -0.072549 0.088235 0.154902 0.154902 -0.370588 0.343137 0.033333 -0.107843 -0.249020 -0.225490 0.190196 -0.405882 0.213725 0.323529 0.394118 0.178431 -0.068627 0.233333 -0.158824 0.264706 -0.472549 0.252941 -0.103922 0.194118 -0.154902 0.366667 -0.021569 -0.198039 0.158824 0.401961 0.460784 0.394118 -0.198039 -0.182353 -0.445098 -0.433333 -0.382353 0.154902 -0.013725 -0.311765 0.401961 0.307843 0.429412 -0.496078 0.084314 -0.194118 -0.288235 -0.154902 0.398039 0.037255 -0.182353 0.088235 0.323529 0.292157 0.111765 -0.437255 -0.296078 0.037255 0.280392 -0.103922 0.170588 0.339216 -0.143137 -0.303922 -0.272549 -0.268627 -0.147059 -0.401961 0.147059 -0.425490 -0.029412 0.111765 -0.115686 -0.005882 -0.170588 -0.115686 0.178431 -0.413725 0.288235 -0.009804 -0.100000 0.264706 -0.249020 -0.292157 -0.245098 0.303922 0.135294 0.041176 0.413725 0.213725 0.449020 0.441176 -0.386275 0.398039 0.147059 -0.460784 -0.456863 -0.241176 0.331373 0.354902 -0.111765 0.394118 -0.009804 -0.205882 0.390196 0.100000 -0.237255 -0.241176 0.182353 -0.174510 -0.025490 0.158824 0.366667 0.358824 -0.480392 -0.005882 -0.131373 -0.449020 0.150980 -0.405882 -0.260784 0.052941 0.292157 -0.433333 0.358824 0.017647 0.092157 -0.249020 -0.276471 0.272549 -0.307843 0.135294 0.300000 -0.131373 0.111765 0.241176 -0.382353 0.429412 -0.386275 0.417647 -0.119608 -0.398039 0.115686 -0.107843 0.186275 -0.425490 -0.421569 0.205882 0.323529 0.135294 -0.166667 -0.052941 -0.417647 -0.350980 0.343137 0.472549 -0.025490 0.272549 0.021569 -0.013725 -0.245098 0.154902 0.147059 -0.103922 0.111765 -0.484314 -0.382353 -0.182353 -0.017647 -0.417647 -0.456863 -0.131373 0.405882 0.092157 0.480392 -0.131373 -0.150980 -0.150980 0.449020 -0.323529 -0.221569 -0.288235 -0.162745 0.076471 0.456863 0.401961 0.350980 0.107843 -0.088235 0.245098 0.335294 0.315686 -0.213725 -0.429412 -0.096078 0.107843 -0.056863 0.068627 -0.072549 -0.060784 0.096078 -0.201961 -0.178431 -0.433333 0.374510 0.433333 0.480392 0.445098 -0.256863 -0.268627 0.111765 0.378431 -0.284314 0.100000 -0.386275 0.249020 -0.335294 0.284314 0.398039 -0.241176 0.178431 0.092157 0.456863 -0.445098 0.001961 0.390196 0.398039 0.303922 0.350980 -0.084314 0.280392 0.339216 -0.166667 -0.182353 -0.225490 -0.170588 -0.425490 0.001961 -0.017647 0.492157 -0.445098 0.284314 0.241176 0.433333 0.088235 -0.409804 -0.033333 0.300000 -0.127451 -0.405882 0.441176 0.241176 -0.386275 -0.198039 0.366667 -0.194118 -0.158824 0.194118 -0.433333 0.496078 -0.005882 0.041176 -0.001961 0.107843 -0.496078 0.421569 0.468627 0.060784 0.425490 -0.041176 0.049020 -0.041176 -0.464706 -0.350980 -0.343137 0.245098 -0.433333 -0.150980 -0.362745 -0.080392 -0.072549 -0.303922 0.476471 -0.374510 -0.041176 -0.064706 0.162745 0.307843 0.401961 -0.013725 0.013725 0.017647 -0.064706 -0.292157 -0.288235 -0.205882 0.398039 0.245098 -0.001961 -0.303922 0.135294 0.249020 -0.115686 -0.088235 0.115686 -0.468627 -0.037255 -0.390196 -0.009804 -0.064706 0.421569 -0.115686 -0.143137 -0.319608 -0.429412 0.401961 0.064706 -0.413725 0.425490 -0.284314 -0.264706 -0.119608 0.060784 -0.174510 -0.147059 -0.500000 0.307843 -0.476471 -0.009804 -0.033333 0.433333 -0.241176 0.186275 -0.009804 0.315686 -0.362745 -0.131373 0.398039 -0.500000 -0.319608 0.045098 0.398039 -0.037255 -0.158824 -0.358824 -0.072549 -0.366667 -0.033333 -0.472549 0.225490 0.433333 -0.245098 -0.150980 -0.041176 0.229412 0.209804 -0.001961 -0.135294 0.460784 -0.409804 0.492157 0.115686 0.441176 0.060784 -0.303922 0.347059 -0.303922 0.323529 0.476471 0.390196 0.123529 -0.323529 -0.064706 -0.476471 0.354902 -0.080392 0.201961 0.033333 0.272549 0.139216 -0.280392 0.284314 -0.456863 0.080392 0.025490 0.390196 0.111765 0.409804 0.245098 0.390196 -0.072549 0.096078 0.252941 0.194118 -0.225490 0.343137 -0.468627 0.025490 -0.131373 -0.264706 0.213725 -0.154902 0.354902 -0.252941 0.088235 0.178431 0.288235 -0.292157 -0.401961 -0.229412 0.421569 0.186275 0.119608 -0.421569 0.398039 -0.311765 -0.394118 0.229412 -0.025490 0.456863 -0.249020 0.276471 -0.354902 0.084314 -0.080392 -0.354902 0.096078 -0.292157 0.080392 0.147059 -0.190196 0.049020 0.237255 0.300000 0.300000 0.421569 -0.076471 0.323529 0.064706 0.029412 -0.084314 -0.245098 0.186275 -0.343137 0.033333 -0.500000 0.401961 0.013725 0.456863 -0.092157 -0.045098 0.241176 -0.119608 0.182353 -0.033333 0.405882 0.488235 0.060784 -0.013725 0.445098 0.056863 -0.401961 -0.409804 -0.178431 0.143137 -0.249020 -0.315686 0.260784 -0.009804 -0.441176 -0.233333 -0.296078 0.052941 0.088235 -0.335294 -0.252941 0.139216 -0.362745 -0.076471 -0.409804 0.162745 -0.378431 -0.154902 -0.123529 -0.472549 -0.076471 0.460784 0.170588 0.394118 0.201961 0.237255 0.464706 -0.150980 -0.049020 0.178431 -0.178431 0.194118 -0.398039 0.135294 -0.456863 -0.190196 -0.201961 -0.056863 -0.076471 -0.449020 0.103922 0.343137 -0.386275 0.241176 -0.103922 0.186275 -0.417647 0.060784 -0.115686 -0.354902 0.492157 0.154902 -0.162745 -0.001961 0.092157 0.041176 -0.080392 -0.327451 0.362745 -0.021569 0.398039 -0.217647 0.311765 -0.378431 0.092157 0.405882 -0.245098 -0.064706 0.449020 0.401961 -0.123529 -0.394118 -0.013725 -0.437255 0.178431 -0.237255 0.041176 0.005882 0.045098 0.327451 0.339216 0.029412 0.292157 -0.237255 0.209804 0.217647 -0.445098 0.080392 -0.045098 -0.147059 0.405882 -0.425490 -0.080392 -0.276471 0.350980 -0.017647 0.198039 0.084314 -0.182353 -0.496078 -0.029412 -0.052941 0.186275 -0.264706 0.025490 0.370588 -0.284314 -0.296078 0.449020 -0.072549 0.484314 -0.331373 -0.370588 0.052941 0.347059 0.213725 -0.217647 -0.170588 0.445098 -0.162745 -0.045098 -0.096078 -0.233333 -0.496078 -0.382353 0.500000 -0.327451 -0.405882 -0.417647 0.150980 0.315686 0.139216 0.025490 -0.500000 0.252941 -0.366667 -0.158824 -0.339216 0.158824 -0.370588 0.237255 -0.041176 0.049020 -0.472549 0.147059 -0.452941 -0.237255 0.127451 0.323529 -0.166667 0.378431 0.272549 -0.225490 0.170588 -0.343137 -0.319608 0.476471 0.429412 -0.323529 0.049020 -0.045098 0.119608 0.174510 -0.013725 0.327451 0.398039 -0.441176 -0.127451 -0.143137 -0.009804 -0.354902 0.394118 0.315686 0.107843 -0.464706 0.221569 0.350980 0.268627 -0.449020 -0.417647 0.437255 -0.315686 -0.394118 -0.480392 -0.237255 -0.460784 0.135294 0.437255 -0.315686 0.147059 0.178431 -0.029412 -0.115686 -0.374510 -0.319608 -0.350980 -0.111765 0.068627 0.143137 -0.115686 -0.150980 -0.429412 -0.001961 0.452941 0.154902 0.292157 -0.237255 -0.476471 -0.143137 0.366667 0.056863 0.154902 -0.013725 -0.233333 -0.139216 0.260784 0.060784 -0.084314 -0.421569 0.245098 0.331373 -0.319608 -0.500000 0.190196 0.033333 -0.362745 0.213725 0.445098 -0.037255 0.213725 0.398039 -0.178431 -0.268627 0.100000 -0.456863 0.409804 0.421569 -0.217647 -0.409804 -0.201961 0.327451 -0.060784 0.484314 -0.190196 0.409804 -0.472549 -0.154902 0.143137 0.452941 -0.084314 0.143137 -0.382353 0.272549 -0.088235 0.237255 0.229412 -0.296078 -0.476471 0.096078 0.001961 0.496078 0.084314 -0.280392 0.307843 0.343137 0.029412 0.162745 -0.225490 0.025490 -0.198039 0.331373 -0.492157 0.029412 -0.237255 -0.245098 -0.178431 -0.288235 -0.347059 0.111765 0.252941 0.476471 0.311765 -0.123529 -0.013725 0.390196 0.186275 0.378431 0.037255 0.147059 -0.194118 -0.319608 -0.154902 -0.178431 -0.103922 -0.186275 -0.221569 0.005882 -0.417647 0.029412 0.111765 -0.021569 0.174510 -0.425490 -0.229412 0.037255 -0.096078 0.241176 -0.413725 -0.209804 0.339216 0.021569 -0.170588 -0.288235 0.296078 -0.213725 0.284314 0.390196 -0.378431 -0.347059 0.194118 -0.339216 -0.025490 0.354902 0.417647 -0.064706 0.017647 0.186275 0.017647 -0.296078 -0.209804 0.162745 0.394118 0.111765 0.205882 0.072549 0.221569 -0.139216 0.445098 0.056863 -0.327451 0.049020 0.354902 0.229412 0.147059 0.096078 -0.025490 -0.484314 -0.358824 0.252941 0.201961 -0.417647 0.472549 0.421569 0.476471 0.115686 -0.205882 0.378431 0.131373 0.221569 -0.103922 -0.037255 0.339216 -0.084314 -0.139216 -0.201961 -0.441176 -0.390196 0.162745 0.260784 0.064706 -0.213725 0.009804 0.319608 -0.366667 0.401961 0.166667 0.500000 0.366667 0.045098 -0.264706 -0.064706 0.131373 -0.056863 -0.311765 0.158824 -0.005882 0.080392 0.441176 0.107843 -0.398039 0.045098 -0.374510 -0.037255 0.307843 0.037255 -0.064706 -0.260784 -0.131373 0.456863 0.272549 -0.100000 -0.370588 -0.150980 -0.123529 0.072549 -0.374510 0.150980 0.049020 0.272549 0.072549 0.382353 0.135294 -0.131373 0.409804 -0.500000 -0.119608 0.303922 0.429412 -0.464706 -0.127451 -0.307843 0.123529 -0.307843 -0.001961 -0.445098 0.296078 0.303922 0.205882 -0.401961 0.103922 -0.127451 0.417647 0.084314 0.460784 0.111765 -0.492157 -0.433333 0.076471 0.370588 -0.484314 -0.190196 0.237255 0.190196 0.182353 -0.080392 0.401961 -0.327451 -0.323529 0.256863 0.233333 0.327451 0.429412 -0.358824 0.209804 -0.323529 -0.339216 0.347059 -0.107843 -0.001961 0.229412 0.366667 -0.221569 0.323529 0.496078 -0.429412 0.123529 -0.452941 0.237255 -0.468627 0.362745 0.135294 0.025490 -0.496078 -0.205882 0.492157 -0.182353 0.370588 -0.425490 0.029412 0.127451 0.182353 -0.186275 0.260784 -0.135294 -0.374510 0.001961 0.088235 -0.488235 -0.468627 -0.374510 -0.441176 0.150980 -0.264706 -0.005882 0.131373 0.033333 -0.005882 -0.135294 -0.001961 0.045098 0.198039 -0.488235 0.009804 0.186275 -0.460784 0.025490 -0.370588 -0.052941 0.441176 0.343137 0.327451 -0.170588 -0.409804 -0.437255 -0.186275 -0.052941 0.437255 -0.064706 0.417647 0.166667 0.221569 0.154902 -0.096078 0.331373 -0.194118 -0.358824 0.417647 0.347059 0.476471 -0.154902 0.068627 0.103922 0.100000 -0.378431 0.025490 0.154902 0.276471 -0.033333 -0.437255 -0.331373 -0.378431 0.480392 0.386275 0.154902 0.362745 -0.343137 -0.409804 -0.480392 0.045098 -0.198039 0.358824 -0.394118 0.245098 -0.464706 -0.303922 0.488235 0.100000 0.378431 -0.237255 -0.386275 0.390196 0.264706 -0.143137 0.068627 -0.378431 0.468627 0.182353 -0.382353 0.178431 -0.072549 0.252941 -0.464706 -0.194118 -0.425490 0.398039 0.374510 0.013725 -0.456863 0.484314 0.115686 -0.335294 -0.256863 -0.241176 -0.390196 0.080392 -0.017647 -0.056863 0.425490 0.280392 0.374510 0.382353 0.476471 -0.241176 0.260784 -0.441176 -0.198039 0.327451 -0.437255 -0.041176 -0.264706 -0.347059 -0.413725 0.354902 0.303922 0.390196 -0.441176 0.296078 -0.370588 0.492157 -0.468627 -0.288235 0.456863 0.198039 0.484314 0.139216 -0.131373 -0.452941 0.327451 -0.045098 -0.096078 0.143137 0.225490 -0.170588 -0.143137 0.249020 0.143137 -0.233333 0.429412 -0.009804 -0.237255 -0.198039 0.201961 0.056863 -0.456863 -0.323529 0.072549 -0.150980 -0.409804 -0.064706 0.288235 -0.119608 -0.052941 0.311765 0.343137 0.103922 -0.323529 -0.033333 -0.386275 0.366667 0.041176 -0.080392 -0.049020 -0.001961 0.213725 -0.437255 0.139216 0.166667 -0.276471 0.347059 -0.241176 0.017647 -0.350980 0.205882 -0.088235 -0.260784 -0.194118 -0.190196 0.174510 -0.147059 0.272549 -0.311765 -0.005882 -0.033333 0.339216 -0.178431 0.049020 0.237255 -0.158824 -0.233333 0.213725 0.041176 -0.005882 -0.100000 -0.225490 -0.178431 0.229412 0.139216 -0.456863 0.084314 -0.315686 0.205882 0.096078 0.468627 -0.472549 -0.484314 -0.123529 -0.162745 0.456863 0.437255 -0.405882 0.131373 -0.084314 0.296078 -0.154902 0.284314 0.100000 -0.484314 -0.307843 -0.492157 -0.464706 0.488235 -0.150980 -0.417647 0.319608 -0.056863 0.111765 -0.343137 -0.198039 0.476471 0.143137 0.441176 -0.260784 -0.190196 -0.037255 -0.056863 0.025490 -0.068627 -0.178431 0.107843 -0.354902 -0.256863 0.452941 0.433333 0.237255 0.252941 -0.060784 -0.413725 -0.088235 0.464706 -0.331373 0.245098 0.476471 -0.021569 0.268627 -0.398039 0.260784 0.233333 0.103922 -0.386275 -0.445098 0.425490 -0.201961 0.280392 -0.398039 0.111765 -0.213725 -0.147059 -0.358824 0.139216 -0.190196 0.158824 0.468627 0.005882 0.088235 0.327451 0.492157 -0.398039 -0.088235 0.394118 0.115686 0.127451 0.147059 -0.115686 0.488235 -0.429412 0.217647 -0.378431 -0.343137 0.021569 -0.205882 0.366667 0.072549 0.303922 -0.143137 -0.005882 0.303922 -0.327451 0.252941 -0.174510 -0.386275 -0.464706 -0.362745 -0.268627 -0.084314 -0.025490 0.198039 0.472549 -0.449020 0.123529 0.476471 -0.182353 0.103922 -0.107843 0.476471 0.201961 -0.433333 -0.256863 -0.386275 0.456863 0.472549 0.154902 -0.096078 -0.170588 0.460784 -0.496078 -0.158824 -0.252941 -0.347059 -0.421569 0.182353 -0.221569 -0.256863 0.276471 -0.154902 -0.484314 0.166667 -0.115686 -0.205882 -0.480392 0.354902 -0.033333 -0.045098 0.213725 0.025490 -0.103922 -0.150980 0.119608 0.029412 -0.449020 0.021569 0.292157 0.307843 -0.076471 0.425490 -0.135294 -0.107843 0.107843 0.237255 0.472549 -0.401961 0.464706 -0.084314 0.484314 -0.241176 0.229412 -0.233333 0.472549 0.335294 -0.252941 0.323529 -0.166667 0.100000 0.256863 0.343137 -0.268627 0.072549 0.064706 0.049020 -0.370588 0.064706 -0.378431 0.178431 0.147059 0.358824 0.139216 0.139216 0.401961 -0.029412 0.374510 -0.268627 0.123529 0.433333 -0.307843 0.398039 0.033333 -0.260784 -0.001961 -0.025490 -0.300000 -0.111765 -0.445098 -0.217647 -0.288235 0.300000 -0.370588 0.327451 -0.452941 0.339216 0.056863 -0.292157 -0.417647 -0.162745 -0.378431 0.343137 0.229412 -0.280392 -0.139216 0.264706 0.017647 0.468627 -0.072549 -0.378431 0.401961 -0.217647 0.394118 -0.213725 -0.103922 -0.268627 -0.076471 0.143137 0.049020 -0.186275 -0.201961 0.358824 0.358824 -0.252941 0.025490 -0.217647 0.347059 0.378431 -0.009804 -0.425490 -0.100000 -0.154902 0.492157 -0.339216 -0.280392 -0.401961 0.056863 -0.296078 -0.311765 -0.437255 0.386275 0.147059 0.256863 0.421569 0.296078 0.135294 -0.147059 0.252941 0.362745 0.092157 -0.256863 -0.433333 0.362745 -0.335294 -0.460784 0.119608 0.064706 -0.107843 0.135294 0.398039 -0.488235 0.249020 0.123529 -0.484314 -0.201961 -0.472549 -0.194118 0.386275 0.241176 -0.496078 -0.025490 0.374510 0.233333 -0.096078 -0.037255 -0.225490 -0.056863 -0.319608 0.460784 -0.488235 -0.382353 -0.331373 0.056863 0.347059 0.409804 0.300000 -0.088235 0.150980 -0.037255 -0.323529 0.190196 -0.064706 0.327451 -0.001961 -0.111765 -0.272549 -0.186275 -0.056863 -0.327451 -0.280392 -0.445098 -0.092157 -0.045098 -0.021569 -0.182353 -0.315686 -0.272549 -0.374510 -0.350980 0.245098 -0.452941 -0.366667 0.401961 -0.186275 0.143137 -0.429412 -0.311765 -0.154902 -0.060784 -0.115686 0.045098 -0.178431 -0.441176 0.068627 0.245098 -0.205882 0.280392 -0.178431 -0.143137 -0.147059 -0.009804 0.245098 0.480392 0.150980 -0.103922 0.072549 0.068627 -0.033333 0.386275 0.229412 0.009804 -0.500000 -0.335294 0.452941 -0.386275 -0.158824 0.237255 -0.452941 0.190196 -0.460784 -0.174510 -0.131373 0.119608 -0.472549 -0.500000 -0.347059 0.213725 -0.280392 0.292157 -0.433333 0.433333 -0.460784 -0.315686 0.201961 -0.170588 -0.131373 -0.354902 -0.080392 0.319608 -0.441176 0.284314 0.174510 0.049020 0.347059 0.260784 0.092157 -0.276471 -0.476471 -0.292157 0.194118 -0.484314 0.468627 0.425490 -0.260784 0.060784 -0.390196 -0.256863 0.221569 0.198039 0.041176 0.272549 -0.237255 0.280392 0.390196 -0.272549 -0.284314 0.052941 0.288235 0.323529 -0.288235 0.001961 -0.060784 -0.390196 0.147059 0.209804 -0.417647 -0.300000 -0.111765 -0.225490 -0.029412 0.390196 -0.370588 0.394118 0.319608 -0.303922 0.386275 0.339216 -0.033333 0.041176 0.394118 -0.468627 -0.166667 0.280392 -0.327451 0.060784 -0.456863 0.378431 -0.225490 0.221569 -0.198039 -0.323529 -0.221569 0.092157 0.268627 -0.123529 0.390196 -0.154902 0.127451 -0.307843 0.401961 -0.311765 0.111765 -0.452941 -0.288235 0.025490 -0.123529 -0.143137 -0.433333 0.072549 0.476471 -0.386275 0.390196 0.484314 -0.139216 -0.303922 -0.213725 -0.064706 0.347059 -0.100000 -0.076471 0.056863 0.080392 0.292157 -0.425490 0.241176 0.382353 -0.319608 -0.437255 0.303922 0.280392 0.088235 -0.307843 -0.229412 0.390196 0.311765 0.343137 -0.194118 -0.276471 0.249020 -0.441176 -0.319608 0.288235 0.445098 0.331373 0.080392 0.335294 -0.421569 -0.327451 -0.096078 -0.209804 -0.123529 0.201961 -0.080392 -0.374510 0.213725 -0.100000 0.017647 0.115686 -0.217647 0.378431 -0.488235 0.350980 0.096078 -0.080392 0.500000 0.280392 -0.292157 0.421569 0.472549 0.472549 0.464706 -0.037255 -0.445098 0.237255 0.154902 -0.335294 0.170588 0.390196 -0.429412 -0.052941 0.123529 -0.307843 -0.084314 -0.409804 0.033333 0.445098 0.209804 0.335294 0.398039 -0.460784 -0.398039 0.347059 0.303922 0.350980 0.001961 0.241176 0.386275 0.292157 0.358824 -0.296078 -0.390196 -0.460784 -0.170588 0.131373 -0.276471 0.394118 0.417647 -0.264706 0.292157 -0.284314 0.327451 0.150980 -0.174510 -0.033333 -0.292157 0.076471 -0.245098 0.386275 0.488235 -0.264706 0.264706 -0.205882 0.417647 -0.201961 0.225490 0.382353 0.319608 -0.445098 -0.300000 0.441176 0.268627 0.229412 0.127451 -0.272549 0.268627 -0.056863 0.201961 0.021569 0.049020 0.001961 0.480392 -0.088235 0.198039 -0.013725 0.213725 -0.390196 0.107843 0.131373 0.480392 0.268627 0.272549 -0.311765 -0.319608 0.323529 -0.429412 -0.441176 0.284314 0.249020 0.315686 -0.300000 0.209804 -0.401961 0.256863 0.123529 0.001961 -0.194118 -0.237255 -0.001961 -0.119608 0.049020 -0.060784 -0.433333 -0.421569 -0.370588 0.350980 -0.488235 0.170588 0.335294 0.209804 -0.256863 0.241176 -0.468627 0.150980 -0.225490 -0.119608 0.025490 0.233333 -0.445098 -0.072549 -0.449020 0.135294 -0.311765 -0.017647 0.080392 0.096078 -0.315686 -0.154902 0.354902 -0.225490 0.107843 -0.037255 0.452941 -0.233333 0.241176 -0.311765 -0.339216 -0.052941 -0.500000 0.327451 0.401961 -0.080392 0.335294 -0.405882 0.476471 -0.064706 -0.147059 -0.382353 -0.009804 0.488235 0.437255 0.496078 0.425490 -0.198039 0.009804 -0.229412 -0.154902 0.135294 -0.319608 0.154902 0.350980 0.492157 -0.390196 0.162745 -0.182353 -0.272549 -0.182353 -0.049020 -0.460784 0.174510 -0.300000 0.060784 0.111765 -0.174510 -0.209804 -0.182353 -0.476471 -0.343137 0.178431 -0.347059 0.394118 0.013725 -0.417647 -0.045098 0.460784 0.147059 -0.296078 0.417647 -0.107843 0.339216 0.386275 -0.496078 -0.374510 -0.339216 -0.013725 -0.445098 0.468627 -0.398039 -0.245098 -0.284314 0.123529 -0.347059 -0.005882 -0.064706 -0.492157 -0.382353 0.143137 -0.464706 -0.327451 -0.331373 -0.237255 -0.076471 0.209804 -0.405882 0.449020 -0.339216 -0.288235 0.417647 0.115686 0.170588 -0.456863 -0.484314 0.296078 -0.123529 -0.476471 -0.468627 0.437255 0.354902 -0.182353 -0.060784 -0.017647 -0.445098 0.335294 0.162745 0.241176 -0.280392 -0.076471 -0.209804 0.135294 0.158824 0.280392 0.111765 -0.315686 0.233333 -0.456863 0.005882 -0.001961 -0.354902 0.280392 -0.398039 -0.323529 -0.107843 -0.303922 -0.362745 0.327451 0.272549 -0.366667 0.076471 -0.307843 -0.209804 -0.449020 -0.131373 0.354902 0.049020 -0.421569 -0.292157 0.343137 0.264706 -0.017647 -0.158824 -0.464706 0.096078 0.182353 -0.009804 0.166667 0.049020 0.096078 0.417647 -0.464706 -0.088235 0.037255 -0.139216 0.174510 0.131373 -0.264706 -0.433333 -0.217647 -0.170588 -0.198039 0.327451 -0.123529 -0.005882 0.072549 -0.127451 0.347059 -0.088235 0.413725 -0.398039 -0.139216 -0.205882 0.049020 0.292157 -0.358824 0.092157 0.394118 -0.456863 0.013725 -0.300000 0.060784 0.025490 -0.201961 -0.350980 -0.041176 0.323529 -0.409804 0.500000 0.449020 0.264706 0.158824 0.076471 0.072549 0.264706 0.088235 0.409804 -0.280392 0.268627 -0.268627 -0.029412 -0.056863 -0.288235 0.296078 0.311765 -0.390196 -0.237255 0.429412 0.013725 -0.323529 -0.347059 -0.268627 0.013725 -0.413725 -0.354902 0.362745 0.315686 0.315686 0.041176 0.480392 0.139216 0.170588 0.307843 -0.264706 -0.284314 -0.068627 -0.350980 0.264706 0.080392 -0.194118 -0.350980 0.249020 0.213725 0.166667 -0.064706 -0.264706 -0.139216 -0.213725 0.205882 -0.425490 -0.417647 0.390196 0.496078 0.009804 0.315686 0.174510 -0.264706 -0.300000 -0.084314 0.025490 0.464706 -0.249020 0.394118 0.413725 -0.315686 -0.041176 0.111765 0.256863 0.190196 -0.343137 -0.021569 -0.452941 -0.150980 0.476471 -0.452941 0.025490 0.319608 -0.166667 -0.052941 -0.127451 -0.056863 -0.111765 -0.268627 -0.209804 0.331373 -0.221569 0.127451 0.339216 -0.237255 -0.445098 -0.492157 -0.347059 0.237255 0.084314 0.178431 -0.256863 0.464706 0.096078 -0.362745 0.268627 0.041176 0.413725 0.229412 0.492157 0.362745 0.382353 0.276471 0.056863 -0.378431 -0.205882 -0.390196 -0.378431 -0.437255 -0.409804 0.029412 0.433333 -0.064706 -0.009804 -0.319608 -0.452941 -0.045098 -0.025490 -0.445098 -0.386275 0.276471 0.107843 0.307843 -0.449020 -0.433333 0.417647 -0.076471 0.056863 0.190196 -0.060784 -0.292157 -0.378431 0.437255 -0.005882 0.233333 -0.072549 -0.472549 -0.307843 -0.492157 -0.256863 0.307843 0.123529 -0.405882 -0.127451 -0.417647 0.496078 -0.449020 0.241176 0.096078 -0.017647 0.311765 -0.256863 0.052941 -0.166667 0.158824 -0.343137 0.323529 0.425490 0.256863 0.056863 0.150980 -0.100000 -0.315686 0.350980 0.335294 0.292157 0.460784 0.052941 -0.472549 0.100000 -0.162745 -0.064706 -0.245098 0.182353 -0.037255 0.409804 -0.417647 -0.072549 0.221569 0.158824 0.370588 -0.272549 -0.386275 0.319608 -0.033333 -0.088235 0.005882 0.076471 0.013725 0.135294 -0.264706 -0.437255 0.339216 0.394118 0.484314 0.366667 -0.260784 0.343137 0.119608 0.029412 0.276471 0.080392 -0.311765 0.150980 0.111765 0.460784 -0.421569 -0.245098 0.480392 0.033333 0.213725 -0.076471 0.064706 -0.433333 0.500000 -0.472549 -0.464706 -0.284314 0.429412 -0.456863 0.194118 0.449020 -0.398039 0.001961 0.233333 0.476471 -0.217647 -0.249020 0.347059 -0.319608 -0.096078 -0.131373 0.174510 0.033333 -0.233333 0.292157 0.143137 -0.225490 0.174510 0.088235 0.209804 0.025490 0.390196 0.303922 0.107843 -0.033333 0.213725 -0.370588 0.441176 -0.209804 -0.409804 -0.221569 0.488235 -0.460784 -0.307843 -0.198039 -0.445098 0.237255 -0.354902 -0.386275 0.213725 0.339216 0.350980 -0.315686 0.425490 0.198039 0.056863 -0.464706 -0.280392 -0.401961 -0.084314 0.233333 0.382353 0.241176 -0.170588 0.225490 0.056863 -0.162745 0.088235 -0.449020 -0.064706 0.158824 -0.154902 -0.127451 -0.343137 -0.480392 -0.429412 0.472549 -0.311765 0.445098 0.347059 -0.339216 0.237255 0.221569 -0.182353 0.139216 -0.056863 0.041176 0.076471 -0.288235 0.449020 -0.350980 0.029412 -0.025490 -0.162745 0.288235 0.268627 -0.350980 0.500000 0.390196 -0.366667 0.154902 0.327451 -0.456863 -0.449020 -0.492157 0.229412 0.190196 -0.107843 0.021569 0.205882 -0.033333 0.394118 0.437255 0.135294 -0.041176 0.158824 0.500000 -0.445098 0.162745 0.080392 0.162745 0.068627 0.394118 -0.088235 0.096078 -0.425490 -0.166667 0.347059 0.335294 -0.096078 -0.150980 -0.323529 0.041176 0.284314 0.205882 -0.476471 0.045098 0.064706 0.386275 0.331373 -0.162745 0.441176 -0.323529 0.143137 -0.041176 0.178431 -0.260784 0.166667 0.237255 0.382353 -0.413725 -0.468627 0.084314 0.339216 0.025490 0.150980 0.092157 0.021569 0.409804 0.260784 -0.421569 0.170588 -0.358824 0.190196 -0.292157 -0.025490 0.460784 0.056863 0.437255 0.288235 0.441176 0.362745 0.284314 0.350980 0.284314 -0.472549 -0.237255 -0.158824 -0.201961 -0.268627 -0.178431 0.401961 0.288235 -0.264706 -0.319608 -0.468627 -0.241176 -0.480392 0.064706 0.343137 0.049020 0.084314 -0.249020 0.088235 0.264706 -0.249020 -0.421569 -0.013725 0.496078 -0.049020 0.013725 -0.500000 -0.064706 0.150980 -0.166667 -0.154902 -0.147059 0.143137 0.500000 -0.492157 0.272549 -0.005882 -0.335294 -0.245098 0.327451 0.182353 0.123529 -0.323529 -0.021569 0.354902 -0.433333 -0.139216 -0.111765 0.272549 0.060784 -0.382353 0.382353 0.143137 0.315686 -0.013725 -0.300000 -0.194118 0.445098 -0.284314 -0.311765 0.405882 -0.284314 -0.005882 0.386275 -0.029412 -0.488235 0.464706 0.013725 -0.280392 -0.001961 -0.013725 0.311765 -0.256863 -0.409804 0.394118 0.201961 0.468627 -0.045098 -0.135294 0.237255 0.445098 -0.021569 -0.135294 -0.460784 0.323529 0.241176 0.209804 -0.366667 -0.280392 0.500000 -0.139216 0.092157 0.421569 0.319608 0.307843 0.123529 0.307843 -0.237255 -0.217647 0.472549 0.131373 0.229412 0.249020 0.225490 0.049020 -0.370588 -0.425490 0.147059 -0.245098 0.119608 -0.445098 0.445098 -0.096078 0.382353 0.464706 0.292157 0.005882 0.174510 -0.343137 0.268627 0.025490 0.233333 -0.335294 0.029412 0.064706 -0.374510 -0.025490 0.409804 0.452941 0.429412 -0.339216 -0.335294 -0.413725 0.139216 -0.433333 0.198039 0.460784 -0.425490 0.178431 -0.296078 0.343137 0.296078 0.143137 0.480392 -0.366667 0.201961 -0.488235 0.452941 0.107843 0.405882 0.013725 -0.472549 0.421569 0.339216 0.198039 -0.052941 0.284314 -0.362745 -0.292157 0.339216 -0.398039 0.049020 0.158824 -0.076471 -0.354902 -0.001961 0.190196 0.076471 0.500000 0.170588 0.111765 0.045098 0.186275 -0.080392 0.221569 0.460784 0.162745 0.237255 -0.456863 0.496078 0.092157 -0.303922 0.354902 0.150980 0.425490 -0.292157 0.025490 0.241176 -0.452941 -0.158824 0.264706 0.445098 -0.468627 -0.256863 -0.413725 0.092157 -0.374510 -0.045098 -0.288235 0.064706 0.311765 -0.158824 -0.143137 -0.217647 0.378431 0.425490 0.119608 -0.366667 -0.009804 -0.421569 -0.390196 0.060784 -0.496078 0.213725 0.198039 -0.339216 -0.413725 0.398039 0.323529 0.076471 0.127451 0.190196 -0.445098 0.319608 -0.221569 -0.401961 0.370588 -0.437255 0.056863 -0.327451 0.307843 0.162745 -0.150980 -0.064706 -0.198039 0.327451 0.331373 0.127451 -0.076471 0.198039 0.147059 -0.162745 0.009804 -0.080392 0.076471 0.378431 0.405882 0.143137 0.500000 -0.249020 -0.331373 -0.225490 -0.052941 -0.468627 0.076471 -0.209804 -0.190196 0.476471 0.052941 0.009804 -0.343137 0.166667 0.186275 0.366667 -0.123529 -0.296078 -0.021569 0.468627 -0.378431 -0.025490 0.025490 0.103922 0.441176 0.327451 -0.484314 0.264706 -0.488235 -0.488235 -0.229412 -0.488235 -0.374510 0.370588 0.425490 0.037255 -0.127451 -0.201961 0.021569 0.441176 -0.272549 -0.319608 0.268627 0.092157 0.421569 -0.088235 0.354902 0.268627 -0.307843 0.107843 -0.260784 -0.468627 -0.096078 0.378431 0.350980 0.068627 0.394118 0.268627 -0.331373 -0.107843 0.256863 -0.315686 -0.449020 0.292157 -0.092157 0.056863 0.249020 0.025490 0.237255 0.064706 -0.492157 -0.323529 -0.147059 0.480392 -0.135294 -0.213725 -0.260784 -0.068627 0.449020 -0.225490 0.484314 0.092157 -0.245098 0.021569 -0.280392 0.441176 -0.021569 -0.033333 0.488235 0.013725 -0.307843 0.468627 -0.041176 0.417647 0.080392 -0.374510 -0.264706 0.264706 -0.472549 -0.347059 0.072549 -0.449020 -0.158824 -0.009804 0.045098 -0.296078 0.315686 -0.201961 -0.421569 0.135294 0.476471 -0.174510 0.268627 -0.225490 -0.088235 -0.390196 -0.049020 0.245098 0.292157 0.476471 0.488235 0.029412 -0.452941 0.092157 0.229412 0.060784 -0.296078 0.488235 -0.343137 0.037255 0.323529 -0.064706 -0.311765 -0.170588 0.115686 -0.107843 -0.245098 0.300000 0.068627 -0.260784 -0.445098 -0.484314 0.009804 -0.111765 0.150980 0.449020 -0.009804 0.045098 -0.049020 -0.080392 -0.029412 -0.315686 0.013725 -0.080392 -0.100000 -0.131373 0.401961 -0.194118 -0.009804 -0.001961 -0.194118 0.076471 0.272549 0.370588 0.237255 0.378431 -0.201961 0.209804 0.307843 -0.303922 -0.449020 -0.037255 0.186275 0.076471 0.241176 0.143137 0.362745 0.417647 0.331373 0.001961 -0.092157 -0.390196 -0.001961 -0.245098 0.390196 0.009804 -0.045098 -0.429412 0.362745 0.319608 0.354902 -0.084314 -0.335294 0.096078 -0.288235 -0.272549 -0.237255 -0.354902 -0.276471 -0.170588 0.005882 0.370588 -0.398039 -0.354902 -0.154902 -0.315686 0.425490 0.437255 -0.229412 -0.186275 -0.041176 0.429412 -0.182353 0.284314 -0.107843 -0.374510 -0.354902 -0.315686 0.347059 -0.143137 0.241176 0.464706 -0.100000 -0.370588 -0.366667 0.417647 -0.001961 -0.496078 0.492157 -0.484314 0.433333 0.303922 -0.362745 0.135294 0.080392 0.496078 -0.190196 -0.198039 -0.088235 0.052941 0.449020 0.045098 0.484314 0.350980 0.147059 -0.072549 -0.017647 0.198039 0.378431 -0.398039 -0.362745 0.068627 -0.460784 0.370588 -0.366667 0.500000 0.025490 0.401961 0.456863 -0.131373 -0.292157 -0.213725 0.092157 0.394118 0.198039 -0.052941 0.076471 -0.307843 -0.143137 0.292157 0.421569 0.492157 0.339216 -0.256863 -0.413725 -0.174510 -0.425490 0.033333 0.021569 -0.150980 -0.449020 -0.343137 0.441176 0.409804 -0.347059 0.158824 0.272549 0.405882 0.445098 -0.347059 -0.150980 -0.315686 -0.429412 0.233333 0.492157 0.131373 -0.370588 0.021569 0.268627 -0.241176 -0.425490 -0.417647 0.198039 -0.029412 0.456863 -0.009804 0.127451 0.041176 0.374510 -0.315686 -0.280392 0.449020 -0.500000 0.374510 -0.013725 0.398039 -0.037255 0.096078 -0.056863 0.158824 0.300000 0.409804 -0.045098 -0.162745 0.241176 -0.139216 0.425490 0.460784 0.045098 0.052941 0.437255 0.303922 -0.190196 0.209804 0.186275 -0.472549 -0.335294 -0.327451 -0.005882 -0.201961 -0.437255 -0.390196 -0.166667 0.500000 0.072549 -0.139216 -0.339216 -0.209804 -0.154902 0.362745 -0.158824 -0.100000 0.037255 0.303922 -0.307843 0.041176 -0.150980 -0.174510 -0.358824 -0.264706 0.056863 -0.272549 0.115686 -0.366667 0.464706 0.103922 -0.386275 0.221569 -0.143137 0.241176 -0.300000 -0.390196 0.100000 0.237255 -0.256863 0.288235 -0.182353 0.382353 -0.480392 0.339216 0.088235 0.217647 -0.492157 -0.339216 -0.288235 -0.143137 0.496078 -0.331373 -0.139216 0.115686 -0.476471 -0.401961 -0.221569 0.382353 0.150980 -0.241176 0.394118 -0.158824 0.162745 -0.437255 0.464706 0.221569 -0.284314 -0.005882 0.033333 -0.025490 -0.064706 -0.221569 0.072549 0.201961 -0.174510 -0.456863 0.300000 -0.292157 0.127451 -0.005882 0.307843 -0.327451 -0.060784 -0.143137 -0.147059 0.386275 0.186275 0.186275 -0.170588 -0.276471 0.386275 0.154902 -0.280392 -0.421569 -0.052941 -0.166667 -0.272549 0.147059 0.374510 -0.139216 -0.362745 0.056863 -0.374510 -0.441176 0.096078 0.237255 0.311765 -0.190196 -0.421569 0.080392 0.084314 0.394118 0.107843 -0.303922 0.350980 0.366667 -0.178431 -0.280392 -0.225490 0.194118 -0.111765 0.441176 -0.225490 0.252941 0.331373 -0.143137 0.096078 -0.264706 -0.456863 0.429412 0.390196 0.468627 -0.331373 -0.001961 0.390196 0.268627 -0.327451 -0.386275 0.064706 -0.245098 0.456863 0.021569 -0.409804 -0.256863 0.190196 0.327451 -0.194118 -0.496078 -0.284314 -0.386275 0.009804 0.001961 0.088235 -0.456863 -0.182353 0.350980 -0.421569 -0.343137 0.135294 -0.264706 0.260784 -0.260784 -0.127451 0.319608 -0.425490 0.100000 0.413725 -0.378431 -0.194118 0.017647 0.139216 0.186275 0.201961 0.347059 0.476471 -0.143137 0.201961 0.013725 0.433333 -0.421569 0.064706 -0.292157 0.417647 -0.143137 0.382353 0.100000 -0.492157 0.190196 -0.123529 0.154902 0.315686 -0.398039 -0.394118 -0.472549 -0.033333 -0.315686 -0.249020 0.213725 0.037255 -0.437255 -0.170588 0.045098 -0.449020 -0.198039 0.229412 -0.382353 -0.229412 0.076471 0.100000 0.315686 -0.013725 0.045098 -0.139216 -0.103922 0.119608 0.076471 0.233333 0.441176 -0.001961 0.347059 0.131373 0.500000 0.017647 -0.209804 0.464706 -0.484314 0.139216 0.205882 0.292157 -0.049020 0.033333 0.162745 0.311765 0.307843 -0.339216 -0.249020 -0.300000 0.268627 -0.021569 -0.209804 0.170588 -0.472549 0.103922 -0.350980 -0.249020 -0.366667 -0.025490 -0.437255 0.492157 -0.476471 -0.315686 -0.049020 -0.413725 -0.468627 -0.166667 -0.013725 0.378431 -0.296078 -0.350980 0.064706 0.107843 -0.272549 0.045098 -0.292157 0.260784 0.001961 -0.064706 -0.311765 0.103922 -0.311765 -0.154902 0.154902 0.488235 0.405882 -0.323529 0.182353 -0.041176 0.476471 0.005882 -0.425490 -0.460784 -0.139216 0.496078 -0.378431 0.417647 0.256863 0.041176 -0.139216 -0.390196 -0.103922 0.335294 0.221569 0.445098 -0.350980 0.064706 -0.339216 -0.464706 0.127451 0.303922 -0.496078 0.374510 -0.476471 0.421569 0.327451 -0.107843 -0.350980 -0.143137 0.394118 0.366667 -0.421569 -0.276471 0.296078 0.186275 0.158824 -0.484314 -0.213725 -0.405882 -0.480392 -0.300000 0.390196 -0.017647 -0.166667 0.049020 -0.276471 -0.245098 0.354902 -0.147059 0.037255 0.307843 -0.449020 0.025490 -0.111765 0.386275 0.186275 -0.339216 -0.162745 -0.335294 0.088235 0.335294 -0.288235 0.092157 0.005882 0.292157 0.307843 -0.049020 0.327451 0.476471 -0.111765 0.072549 -0.158824 0.500000 0.421569 0.394118 -0.013725 -0.119608 0.096078 -0.096078 -0.280392 -0.296078 0.052941 0.249020 0.449020 -0.417647 0.068627 -0.045098 -0.115686 0.001961 0.327451 -0.276471 -0.064706 -0.103922 0.154902 0.460784 -0.021569 -0.076471 0.033333 0.045098 -0.166667 -0.492157 -0.280392 0.307843 -0.064706 0.056863 0.370588 0.284314 -0.476471 -0.386275 -0.017647 0.421569 0.103922 0.158824 -0.170588 0.209804 0.064706 0.029412 0.037255 -0.382353 0.005882 0.445098 0.088235 0.488235 -0.190196 0.194118 0.468627 -0.296078 0.315686 0.060784 0.021569 -0.335294 -0.158824 0.460784 -0.260784 0.378431 -0.307843 -0.390196 -0.378431 0.021569 -0.017647 0.311765 -0.370588 -0.166667 0.370588 -0.103922 -0.260784 0.198039 0.084314 -0.127451 0.229412 -0.398039 0.237255 -0.421569 -0.296078 0.154902 -0.017647 0.323529 -0.445098 0.456863 -0.080392 -0.327451 -0.174510 -0.217647 -0.476471 0.119608 0.374510 -0.166667 0.421569 0.460784 -0.366667 0.076471 -0.127451 -0.292157 0.068627 0.233333 -0.127451 -0.158824 -0.496078 -0.386275 -0.437255 -0.378431 -0.072549 -0.088235 -0.221569 0.186275 -0.084314 0.260784 -0.362745 0.401961 0.390196 0.100000 -0.347059 0.335294 0.150980 0.060784 -0.068627 0.147059 0.476471 -0.092157 0.221569 -0.068627 0.394118 0.390196 0.147059 0.327451 0.296078 0.252941 -0.190196 0.398039 0.409804 0.464706 0.398039 -0.288235 0.460784 0.303922 0.205882 -0.386275 0.233333 -0.021569 0.115686 -0.456863 -0.111765 -0.072549 0.033333 0.076471 -0.017647 0.123529 -0.311765 -0.123529 0.162745 0.500000 0.209804 0.084314 0.386275 -0.052941 -0.064706 -0.366667 -0.174510 0.315686 -0.292157 0.029412 -0.178431 -0.041176 -0.264706 0.056863 0.292157 -0.268627 0.327451 -0.488235 0.009804 -0.225490 -0.233333 -0.013725 0.009804 0.076471 -0.472549 -0.186275 -0.311765 -0.005882 -0.409804 -0.229412 -0.456863 0.013725 0.331373 0.311765 -0.476471 -0.092157 0.425490 0.409804 0.127451 -0.166667 0.076471 -0.272549 -0.307843 0.327451 -0.021569 0.468627 -0.354902 -0.123529 -0.001961 0.150980 -0.064706 -0.488235 -0.100000 -0.378431 -0.292157 0.370588 -0.413725 0.237255 -0.237255 0.354902 0.398039 0.433333 0.464706 -0.241176 0.425490 0.464706 0.256863 -0.182353 -0.237255 -0.343137 0.354902 0.127451 0.456863 0.456863 0.276471 0.335294 0.229412 0.386275 -0.229412 -0.464706 -0.421569 -0.272549 -0.033333 -0.001961 -0.056863 -0.139216 0.096078 -0.409804 -0.276471 0.296078 -0.425490 0.021569 -0.037255 0.096078 -0.017647 0.029412 0.378431 0.433333 -0.143137 0.158824 -0.327451 -0.158824 0.264706 0.339216 0.127451 -0.307843 0.425490 0.327451 -0.096078 0.307843 0.343137 0.166667 -0.150980 -0.029412 0.476471 0.335294 0.056863 0.201961 0.307843 -0.252941 -0.268627 -0.025490 0.398039 -0.480392 0.001961 -0.092157 0.484314 -0.437255 -0.033333 -0.221569 -0.382353 -0.264706 -0.158824 -0.033333 -0.005882 0.401961 0.127451 0.100000 -0.315686 -0.107843 -0.460784 0.311765 -0.158824 0.417647 -0.409804 0.288235 0.331373 0.343137 -0.186275 0.492157 0.158824 0.178431 -0.437255 0.217647 -0.186275 -0.001961 0.017647 0.060784 0.347059 -0.209804 -0.084314 -0.107843 0.409804 0.472549 -0.343137 -0.037255 -0.147059 0.425490 0.452941 -0.260784 0.394118 -0.041176 -0.472549 -0.111765 0.100000 -0.229412 -0.496078 -0.096078 0.496078 0.476471 0.135294 -0.060784 0.319608 0.362745 -0.374510 0.107843 -0.001961 0.476471 -0.241176 -0.209804 0.029412 0.221569 0.429412 0.472549 -0.472549 -0.468627 0.492157 0.456863 0.147059 -0.296078 -0.100000 0.233333 0.460784 -0.009804 -0.135294 -0.241176 0.327451 0.343137 -0.460784 0.445098 -0.115686 -0.209804 0.300000 -0.378431 -0.237255 -0.198039 -0.225490 -0.331373 0.033333 0.013725 -0.001961 -0.123529 0.390196 -0.080392 0.041176 0.049020 0.174510 0.284314 -0.335294 0.354902 0.025490 -0.045098 -0.292157 0.033333 -0.190196 0.190196 0.186275 0.045098 0.354902 0.413725 0.276471 0.001961 0.256863 -0.284314 0.292157 0.001961 0.131373 -0.182353 0.205882 0.272549 -0.205882 -0.198039 0.413725 0.221569 0.323529 0.303922 -0.268627 -0.350980 -0.413725 0.335294 0.068627 0.209804 -0.425490 -0.339216 0.362745 0.296078 -0.111765 -0.378431 -0.303922 0.307843 0.037255 0.017647 0.237255 -0.037255 -0.029412 0.264706 0.154902 -0.350980 -0.217647 0.174510 0.076471 0.080392 0.029412 -0.190196 -0.343137 0.100000 -0.194118 -0.162745 0.260784 0.268627 0.354902 -0.268627 0.139216 0.272549 0.433333 -0.350980 0.201961 0.194118 0.017647 0.103922 0.205882 -0.476471 0.076471 -0.413725 0.409804 -0.029412 0.096078 -0.241176 0.366667 -0.103922 -0.001961 -0.205882 0.056863 0.260784 0.131373 -0.084314 -0.437255 0.037255 0.315686 -0.158824 -0.331373 -0.378431 -0.005882 0.241176 -0.237255 -0.409804 -0.029412 -0.213725 0.013725 0.150980 -0.460784 0.480392 -0.135294 -0.084314 -0.350980 0.323529 0.303922 -0.339216 -0.456863 -0.284314 0.405882 0.013725 0.147059 -0.037255 -0.433333 0.060784 -0.052941 -0.068627 -0.441176 0.064706 0.080392 -0.378431 -0.394118 -0.327451 0.366667 -0.221569 -0.198039 -0.413725 -0.119608 0.127451 -0.194118 0.135294 0.049020 0.080392 -0.135294 0.300000 0.178431 0.500000 -0.111765 -0.017647 -0.139216 0.303922 -0.229412 -0.382353 -0.323529 0.288235 0.476471 -0.480392 -0.292157 -0.335294 0.198039 -0.480392 -0.484314 -0.123529 0.409804 -0.174510 -0.158824 -0.288235 -0.233333 0.358824 0.068627 -0.425490 -0.315686 0.127451 -0.198039 0.076471 0.374510 0.296078 -0.201961 -0.421569 -0.292157 0.001961 0.327451 0.037255 -0.374510 -0.186275 -0.064706 0.045098 -0.045098 -0.060784 0.484314 0.280392 0.280392 -0.252941 -0.421569 -0.135294 -0.205882 0.139216 0.449020 -0.201961 0.123529 -0.386275 -0.413725 0.484314 -0.107843 -0.150980 0.445098 0.217647 -0.233333 0.492157 -0.194118 -0.009804 -0.343137 -0.370588 0.496078 0.421569 0.327451 -0.480392 -0.405882 -0.413725 -0.256863 -0.280392 0.198039 0.154902 -0.103922 -0.103922 -0.178431 0.162745 -0.170588 -0.115686 0.170588 0.154902 0.241176 -0.150980 0.001961 -0.186275 0.472549 0.394118 -0.272549 0.080392 0.500000 -0.362745 -0.374510 -0.060784 -0.221569 -0.123529 -0.143137 0.276471 -0.421569 -0.468627 -0.464706 0.472549 -0.272549 -0.362745 -0.354902 0.382353 -0.492157 0.213725 0.331373 0.127451 -0.147059 -0.092157 -0.135294 -0.307843 0.135294 0.449020 0.245098 0.449020 -0.319608 -0.425490 0.425490 -0.488235 0.335294 0.009804 0.049020 0.049020 -0.013725 -0.123529 -0.421569 -0.315686 0.386275 0.103922 0.198039 -0.249020 0.096078 0.311765 -0.072549 0.292157 0.260784 0.041176 -0.076471 -0.170588 -0.292157 0.252941 -0.150980 -0.158824 -0.303922 -0.127451 -0.343137 -0.339216 0.096078 -0.370588 -0.115686 -0.331373 -0.041176 -0.182353 -0.405882 0.194118 0.456863 -0.374510 0.225490 0.037255 -0.413725 0.476471 -0.115686 0.217647 -0.484314 -0.221569 0.303922 -0.213725 0.001961 0.245098 -0.194118 -0.449020 0.484314 -0.484314 0.382353 -0.343137 -0.201961 0.045098 -0.217647 0.331373 0.080392 0.209804 0.229412 0.080392 -0.088235 0.460784 0.378431 0.386275 0.025490 -0.072549 0.260784 -0.115686 0.103922 0.386275 0.276471 0.237255 -0.025490 0.488235 0.084314 -0.366667 -0.147059 0.052941 0.194118 0.001961 0.323529 -0.170588 0.437255 0.413725 -0.311765 0.405882 0.131373 0.150980 -0.441176 -0.354902 -0.115686 0.115686 -0.080392 -0.347059 -0.025490 0.303922 -0.245098 -0.107843 -0.076471 0.158824 0.229412 -0.198039 -0.252941 0.092157 0.229412 0.049020 -0.088235 0.037255 0.484314 -0.315686 0.005882 0.315686 -0.472549 0.339216 0.245098 0.476471 -0.370588 0.409804 0.327451 -0.001961 -0.268627 0.150980 0.009804 -0.217647 -0.068627 -0.127451 0.260784 0.119608 0.413725 -0.076471 0.103922 -0.370588 -0.009804 -0.441176 -0.139216 -0.009804 -0.256863 0.433333 0.080392 -0.437255 0.209804 -0.103922 0.001961 -0.339216 -0.476471 0.092157 -0.421569 0.213725 0.209804 0.398039 0.194118 0.476471 -0.084314 -0.233333 0.260784 0.472549 -0.315686 0.186275 -0.354902 0.382353 -0.331373 0.394118 0.460784 0.398039 -0.029412 0.084314 -0.013725 0.390196 0.429412 0.150980 -0.386275 -0.166667 0.276471 0.307843 0.233333 0.186275 0.170588 -0.178431 0.072549 -0.194118 0.272549 0.009804 -0.354902 -0.421569 0.111765 -0.147059 0.343137 -0.221569 0.347059 -0.115686 -0.284314 -0.135294 0.029412 0.241176 -0.076471 0.417647 -0.068627 -0.150980 -0.319608 0.284314 0.268627 0.233333 0.249020 -0.182353 0.339216 -0.005882 0.339216 -0.449020 -0.335294 -0.480392 -0.280392 0.445098 0.386275 0.080392 0.350980 -0.162745 -0.300000 -0.319608 -0.229412 -0.429412 -0.421569 0.358824 -0.049020 -0.319608 -0.256863 -0.456863 -0.307843 0.249020 -0.237255 -0.354902 0.354902 0.245098 -0.049020 -0.221569 0.401961 0.421569 -0.201961 -0.092157 -0.013725 -0.276471 -0.052941 -0.437255 0.264706 0.245098 0.339216 -0.358824 -0.229412 -0.441176 -0.115686 0.068627 0.378431 -0.060784 -0.386275 -0.001961 0.386275 0.021569 -0.205882 -0.229412 -0.088235 -0.205882 -0.072549 0.056863 -0.076471 0.456863 -0.323529 0.229412 0.111765 0.021569 0.339216 0.186275 -0.386275 -0.217647 -0.166667 -0.296078 -0.390196 0.413725 -0.229412 -0.056863 0.150980 0.194118 -0.319608 -0.484314 0.190196 0.245098 0.217647 -0.331373 -0.311765 -0.413725 0.139216 0.021569 0.001961 0.209804 -0.107843 0.480392 -0.350980 -0.284314 0.280392 0.417647 0.456863 -0.425490 -0.025490 0.190196 0.433333 0.272549 0.045098 -0.056863 0.437255 0.190196 0.343137 -0.233333 -0.190196 0.456863 -0.103922 -0.229412 0.331373 -0.472549 -0.358824 -0.064706 0.221569 -0.366667 -0.139216 -0.111765 0.378431 0.405882 0.052941 -0.241176 0.170588 -0.115686 -0.225490 -0.103922 -0.115686 -0.174510 0.174510 -0.009804 -0.005882 0.413725 0.252941 -0.264706 -0.139216 -0.500000 0.096078 -0.398039 -0.123529 -0.056863 0.296078 0.076471 0.405882 0.264706 -0.072549 0.131373 0.123529 -0.484314 0.319608 -0.449020 -0.186275 0.198039 0.143137 -0.119608 -0.221569 0.245098 -0.378431 0.139216 0.131373 0.201961 0.186275 0.500000 0.009804 -0.205882 -0.484314 0.072549 -0.288235 -0.264706 0.492157 0.052941 0.476471 0.358824 -0.017647 -0.107843 -0.080392 0.068627 -0.413725 0.131373 -0.084314 0.245098 -0.366667 0.362745 -0.100000 0.249020 0.382353 0.198039 -0.500000 -0.358824 -0.139216 0.009804 0.382353 -0.382353 -0.307843 -0.409804 -0.056863 0.347059 -0.460784 -0.401961 0.131373 -0.288235 0.041176 -0.500000 0.284314 -0.131373 -0.194118 0.437255 -0.492157 -0.111765 -0.433333 0.433333 0.347059 0.127451 -0.237255 -0.260784 0.127451 -0.331373 -0.233333 0.358824 0.111765 -0.143137 0.382353 0.111765 0.354902 -0.472549 0.456863 0.437255 0.139216 -0.045098 -0.441176 -0.060784 0.358824 -0.147059 0.213725 0.241176 -0.437255 -0.311765 0.284314 0.284314 0.139216 0.354902 0.021569 -0.401961 -0.452941 0.037255 0.049020 0.362745 -0.390196 0.452941 0.119608 -0.033333 0.178431 0.045098 -0.413725 0.056863 0.213725 0.064706 -0.468627 -0.186275 0.354902 -0.049020 -0.205882 0.005882 -0.417647 -0.264706 0.241176 0.484314 -0.229412 -0.100000 -0.323529 0.135294 -0.229412 0.311765 0.209804 0.178431 0.162745 0.460784 -0.390196 -0.186275 0.021569 -0.166667 -0.488235 0.186275 -0.084314 0.484314 0.201961 -0.174510 0.409804 0.123529 0.378431 0.421569 -0.347059 0.484314 0.225490 0.409804 -0.084314 -0.064706 0.162745 0.021569 0.272549 -0.119608 0.056863 0.225490 0.205882 0.100000 -0.445098 0.194118 -0.209804 -0.425490 -0.037255 -0.449020 -0.158824 -0.080392 0.096078 0.445098 -0.260784 -0.445098 -0.201961 -0.150980 0.449020 0.386275 -0.484314 0.456863 0.111765 -0.088235 0.405882 -0.347059 -0.311765 0.268627 0.398039 -0.378431 -0.154902 0.064706 -0.229412 -0.111765 0.347059 0.060784 -0.323529 0.150980 0.056863 0.319608 0.049020 -0.296078 -0.409804 0.315686 -0.315686 -0.150980 0.174510 -0.205882 0.311765 -0.174510 -0.229412 0.456863 0.150980 0.154902 -0.480392 -0.209804 -0.045098 -0.072549 -0.264706 -0.162745 -0.150980 0.178431 -0.107843 0.194118 0.409804 0.139216 -0.429412 0.143137 -0.225490 -0.370588 0.288235 -0.500000 0.264706 -0.276471 -0.127451 0.405882 0.107843 0.417647 0.154902 0.464706 -0.049020 -0.417647 -0.272549 -0.394118 0.017647 0.292157 0.284314 -0.052941 -0.150980 0.433333 0.386275 0.480392 -0.249020 -0.143137 0.182353 -0.068627 0.084314 -0.100000 0.217647 -0.335294 -0.394118 -0.370588 0.158824 -0.398039 -0.398039 -0.150980 0.029412 0.029412 -0.111765 -0.041176 0.311765 0.001961 0.421569 0.488235 0.143137 0.260784 0.413725 0.107843 0.280392 -0.139216 0.284314 -0.405882 0.429412 -0.370588 -0.150980 -0.421569 -0.366667 0.374510 -0.390196 0.252941 -0.237255 0.201961 -0.288235 0.245098 -0.080392 0.119608 0.472549 0.229412 0.358824 0.150980 -0.209804 -0.256863 -0.135294 -0.296078 -0.060784 -0.092157 0.205882 -0.319608 0.300000 0.350980 0.080392 -0.056863 -0.405882 -0.174510 0.084314 -0.021569 0.158824 -0.433333 -0.331373 0.080392 -0.088235 0.300000 -0.464706 -0.284314 -0.092157 0.421569 -0.194118 -0.303922 0.390196 0.488235 -0.484314 -0.123529 0.350980 -0.284314 0.107843 0.080392 0.307843 -0.205882 0.401961 -0.115686 0.272549 -0.147059 -0.029412 0.021569 0.052941 -0.296078 -0.358824 -0.492157 -0.037255 0.464706 -0.264706 0.456863 0.072549 0.327451 0.107843 0.123529 -0.060784 0.064706 -0.272549 -0.103922 0.017647 0.103922 0.154902 0.413725 0.170588 0.276471 -0.076471 0.217647 0.335294 -0.084314 0.303922 -0.076471 0.076471 -0.362745 -0.366667 0.068627 -0.456863 0.252941 -0.045098 -0.370588 0.339216 -0.460784 -0.217647 -0.256863 0.327451 0.496078 -0.166667 -0.127451 0.103922 -0.064706 0.292157 0.013725 0.131373 -0.441176 -0.390196 -0.425490 0.213725 -0.256863 -0.284314 -0.362745 0.170588 0.484314 0.476471 0.370588 -0.300000 0.429412 -0.405882 -0.001961 0.241176 -0.049020 -0.154902 0.260784 0.292157 -0.245098 0.358824 0.433333 -0.076471 0.021569 -0.005882 -0.174510 0.264706 -0.217647 -0.264706 0.229412 0.049020 0.135294 0.315686 0.339216 -0.049020 0.347059 -0.174510 0.413725 -0.347059 0.182353 0.343137 -0.370588 0.429412 -0.335294 -0.033333 -0.049020 -0.472549 -0.205882 0.264706 0.370588 -0.354902 0.201961 0.245098 -0.437255 0.464706 0.241176 -0.311765 -0.319608 -0.249020 0.127451 0.472549 -0.468627 -0.088235 0.468627 0.217647 -0.009804 0.496078 0.201961 -0.190196 -0.213725 -0.390196 -0.292157 0.390196 -0.390196 -0.319608 -0.276471 -0.339216 0.072549 -0.409804 -0.045098 0.437255 0.096078 -0.260784 -0.162745 -0.001961 0.119608 0.111765 -0.068627 0.256863 -0.084314 -0.237255 -0.264706 0.370588 -0.111765 -0.194118 0.405882 0.496078 -0.441176 0.080392 0.417647 -0.166667 0.107843 0.182353 -0.405882 0.303922 0.076471 -0.041176 0.378431 0.033333 0.249020 -0.327451 0.394118 0.370588 0.241176 0.327451 -0.056863 -0.460784 0.496078 -0.190196 -0.139216 -0.441176 -0.170588 0.421569 -0.288235 -0.143137 -0.323529 0.115686 0.178431 0.103922 0.084314 0.433333 0.358824 -0.103922 0.496078 -0.119608 0.037255 0.390196 -0.358824 0.315686 0.013725 0.472549 -0.472549 -0.323529 -0.268627 -0.366667 -0.182353 0.296078 -0.425490 -0.005882 -0.123529 -0.115686 0.398039 -0.264706 -0.025490 -0.076471 -0.182353 0.194118 0.300000 0.001961 0.468627 -0.398039 0.201961 -0.331373 -0.452941 0.076471 0.496078 0.256863 -0.292157 -0.123529 -0.029412 -0.488235 -0.319608 0.162745 -0.339216 0.213725 0.127451 0.268627 0.496078 0.076471 -0.190196 0.241176 -0.131373 0.056863 0.296078 0.492157 -0.237255 -0.115686 -0.347059 0.017647 -0.029412 0.037255 -0.413725 -0.303922 -0.233333 0.162745 -0.190196 -0.441176 -0.394118 0.398039 -0.374510 -0.009804 0.343137 0.049020 -0.272549 0.084314 0.354902 0.186275 -0.335294 0.076471 -0.147059 0.500000 0.194118 0.111765 -0.139216 -0.092157 -0.017647 -0.123529 -0.394118 -0.343137 -0.170588 0.386275 -0.064706 0.009804 0.260784 -0.213725 -0.154902 -0.413725 0.182353 -0.327451 0.021569 0.284314 0.143137 -0.264706 0.256863 0.417647 -0.476471 -0.080392 0.017647 0.029412 0.045098 -0.139216 0.319608 -0.088235 -0.354902 0.154902 0.378431 -0.350980 0.162745 0.080392 -0.009804 0.484314 -0.241176 0.150980 -0.382353 0.437255 0.205882 0.401961 0.068627 -0.445098 0.394118 -0.241176 -0.401961 0.041176 -0.256863 0.398039 0.150980 -0.284314 0.233333 -0.150980 -0.080392 -0.174510 0.327451 -0.139216 -0.382353 -0.307843 0.331373 -0.315686 -0.143137 0.347059 0.260784 0.488235 -0.025490 -0.449020 -0.347059 0.045098 -0.205882 -0.100000 -0.158824 -0.123529 -0.174510 0.150980 0.068627 0.311765 0.378431 -0.335294 -0.382353 0.107843 -0.319608 -0.409804 -0.409804 -0.209804 -0.303922 -0.111765 0.296078 -0.374510 0.052941 -0.382353 -0.429412 -0.150980 0.103922 -0.343137 0.370588 0.401961 -0.166667 0.433333 -0.425490 -0.500000 0.339216 0.417647 -0.205882 0.464706 -0.135294 0.347059 -0.476471 0.449020 -0.201961 0.111765 0.398039 0.280392 -0.186275 -0.100000 -0.041176 0.225490 0.433333 0.237255 0.476471 -0.088235 -0.288235 0.139216 -0.178431 0.496078 -0.413725 0.370588 0.382353 0.413725 -0.358824 -0.025490 0.229412 -0.441176 0.307843 -0.147059 0.037255 0.068627 -0.480392 0.182353 -0.339216 0.366667 -0.449020 0.260784 -0.005882 -0.378431 0.139216 -0.198039 -0.198039 0.256863 -0.409804 -0.460784 0.500000 0.378431 0.327451 -0.045098 -0.488235 0.131373 0.280392 0.103922 0.300000 -0.445098 -0.276471 -0.398039 -0.354902 0.370588 0.166667 0.068627 -0.425490 0.370588 -0.049020 -0.417647 -0.300000 0.437255 -0.225490 0.421569 0.484314 0.268627 0.029412 0.288235 0.045098 -0.311765 -0.139216 0.056863 0.100000 -0.272549 -0.201961 -0.182353 0.041176 -0.025490 0.037255 0.029412 -0.186275 0.217647 0.343137 0.319608 0.115686 0.237255 -0.456863 -0.315686 0.350980 0.433333 0.437255 -0.139216 -0.343137 -0.017647 -0.449020 -0.484314 -0.249020 0.276471 -0.468627 0.115686 0.143137 0.378431 0.166667 -0.488235 0.123529 0.225490 0.323529 -0.484314 0.292157 -0.303922 -0.221569 -0.229412 -0.154902 0.413725 0.205882 -0.335294 -0.072549 -0.276471 0.472549 -0.249020 -0.268627 0.370588 -0.103922 -0.425490 -0.045098 0.319608 0.323529 0.076471 0.398039 0.150980 -0.323529 -0.194118 0.421569 -0.382353 0.343137 0.476471 0.005882 -0.037255 -0.323529 0.107843 0.358824 -0.135294 0.182353 -0.186275 -0.437255 -0.205882 0.354902 0.103922 0.017647 0.237255 0.280392 0.409804 -0.323529 0.315686 -0.252941 0.221569 0.072549 0.449020 -0.405882 -0.452941 -0.347059 0.300000 -0.111765 -0.433333 0.001961 0.190196 0.366667 0.209804 -0.194118 -0.056863 0.437255 0.350980 0.378431 -0.413725 0.029412 -0.103922 0.280392 0.421569 0.292157 -0.468627 0.131373 -0.347059 0.280392 0.460784 0.315686 -0.311765 -0.307843 0.209804 0.186275 0.111765 0.158824 -0.182353 0.476471 -0.390196 0.374510 0.429412 0.241176 -0.233333 0.225490 -0.354902 -0.139216 0.456863 -0.280392 0.143137 0.452941 0.154902 -0.147059 0.088235 -0.123529 0.241176 -0.476471 -0.460784 -0.405882 -0.472549 0.001961 -0.213725 0.068627 0.460784 0.307843 -0.476471 0.386275 -0.280392 -0.080392 -0.417647 -0.307843 0.284314 0.449020 -0.060784 0.264706 -0.013725 -0.468627 0.017647 0.178431 0.217647 0.037255 -0.358824 0.158824 -0.347059 0.237255 -0.480392 0.343137 -0.280392 -0.296078 0.245098 -0.362745 -0.154902 0.135294 -0.252941 0.335294 0.076471 -0.268627 0.394118 -0.178431 0.233333 0.468627 0.476471 0.029412 -0.386275 0.174510 -0.229412 0.186275 0.256863 0.374510 0.460784 -0.182353 -0.374510 0.417647 0.147059 0.201961 -0.492157 0.378431 -0.480392 0.001961 -0.401961 0.366667 -0.398039 0.327451 0.052941 -0.327451 -0.139216 0.386275 0.080392 0.315686 0.362745 -0.174510 -0.441176 0.331373 0.241176 0.378431 -0.013725 0.139216 0.072549 -0.072549 -0.464706 -0.417647 -0.449020 0.405882 0.076471 -0.021569 0.300000 -0.445098 0.272549 0.041176 0.154902 -0.045098 0.182353 -0.103922 0.311765 -0.205882 -0.323529 0.452941 -0.205882 0.354902 -0.331373 -0.472549 -0.221569 0.484314 -0.064706 0.237255 0.049020 -0.249020 -0.107843 -0.378431 0.452941 0.241176 0.272549 0.307843 0.092157 -0.092157 -0.092157 0.480392 -0.366667 0.394118 -0.123529 -0.480392 0.409804 -0.001961 0.241176 -0.123529 0.456863 0.327451 0.311765 -0.382353 -0.096078 0.398039 0.347059 -0.209804 0.194118 -0.488235 -0.366667 0.001961 -0.221569 -0.409804 0.045098 -0.390196 0.037255 -0.103922 -0.096078 0.300000 0.468627 0.405882 -0.445098 0.233333 0.319608 -0.288235 -0.174510 -0.445098 0.225490 0.370588 -0.413725 -0.433333 0.041176 0.492157 -0.135294 -0.186275 -0.496078 -0.468627 -0.488235 -0.378431 0.343137 0.480392 0.441176 0.182353 -0.500000 0.033333 -0.001961 0.233333 -0.347059 0.492157 0.488235 -0.480392 -0.139216 -0.009804 -0.107843 0.335294 0.437255 0.029412 -0.335294 0.268627 0.480392 -0.437255 -0.245098 -0.107843 0.135294 -0.292157 -0.492157 -0.107843 -0.056863 0.084314 0.464706 0.080392 -0.323529 0.154902 0.413725 -0.300000 0.143137 0.276471 -0.390196 -0.488235 0.119608 0.460784 -0.249020 -0.127451 0.260784 -0.029412 -0.045098 -0.186275 -0.409804 -0.370588 0.366667 0.472549 -0.468627 -0.013725 -0.076471 0.390196 0.021569 0.362745 0.029412 0.170588 -0.225490 0.429412 0.409804 0.468627 -0.249020 -0.390196 0.445098 -0.354902 0.374510 -0.335294 -0.433333 0.319608 0.103922 0.182353 0.362745 0.229412 0.194118 -0.225490 -0.060784 -0.190196 0.041176 -0.021569 0.339216 0.260784 -0.354902 -0.096078 0.080392 0.182353 -0.139216 0.001961 0.249020 0.311765 0.315686 -0.131373 -0.190196 -0.076471 -0.292157 0.296078 0.354902 0.162745 -0.041176 0.131373 -0.370588 -0.166667 0.213725 0.056863 0.264706 0.449020 0.076471 -0.186275 0.303922 0.272549 -0.045098 -0.092157 -0.331373 -0.186275 -0.433333 -0.225490 0.315686 -0.009804 -0.115686 -0.150980 -0.025490 0.064706 0.045098 -0.154902 0.370588 -0.315686 0.080392 0.456863 -0.284314 0.100000 -0.025490 0.500000 0.139216 0.103922 -0.119608 -0.037255 -0.472549 -0.292157 -0.425490 -0.366667 -0.080392 0.052941 0.209804 -0.068627 0.190196 -0.429412 0.362745 0.429412 -0.033333 0.464706 -0.421569 -0.401961 0.233333 0.433333 -0.005882 0.319608 0.303922 0.084314 -0.009804 -0.115686 0.386275 0.080392 0.096078 -0.205882 -0.221569 0.272549 0.315686 0.300000 -0.182353 0.249020 -0.049020 -0.049020 0.315686 -0.339216 0.268627 0.480392 -0.064706 0.358824 -0.068627 0.323529 0.194118 0.021569 0.186275 -0.201961 -0.072549 -0.225490 -0.496078 -0.288235 0.401961 -0.456863 0.405882 -0.225490 -0.013725 -0.409804 -0.382353 0.076471 -0.417647 0.201961 0.460784 -0.021569 -0.123529 0.468627 0.096078 0.429412 0.374510 0.488235 -0.464706 -0.068627 0.166667 0.460784 -0.249020 -0.268627 0.084314 0.001961 0.303922 0.001961 0.350980 -0.464706 0.370588 -0.201961 0.398039 0.178431 0.147059 -0.068627 0.107843 0.437255 -0.460784 0.307843 -0.009804 0.060784 -0.296078 0.252941 0.190196 -0.347059 -0.064706 -0.100000 -0.017647 -0.464706 0.480392 0.241176 -0.009804 0.456863 0.084314 -0.170588 0.464706 0.339216 0.221569 0.166667 0.378431 0.025490 -0.331373 -0.170588 -0.131373 0.166667 -0.315686 0.084314 -0.131373 -0.413725 0.492157 0.500000 -0.272549 0.241176 -0.119608 0.256863 0.480392 -0.174510 -0.029412 0.382353 -0.096078 -0.115686 0.378431 -0.401961 -0.405882 0.064706 0.009804 0.276471 0.225490 0.370588 -0.405882 -0.417647 -0.194118 -0.311765 -0.311765 -0.233333 -0.174510 0.245098 -0.064706 -0.370588 0.021569 0.335294 -0.382353 0.300000 -0.111765 -0.429412 0.170588 0.225490 -0.100000 0.272549 0.409804 -0.096078 -0.339216 -0.264706 -0.300000 0.088235 0.398039 -0.433333 0.441176 0.417647 0.331373 0.178431 -0.256863 -0.135294 -0.005882 -0.170588 0.374510 -0.476471 0.154902 0.476471 0.323529 0.064706 0.315686 0.186275 -0.190196 -0.139216 -0.158824 0.496078 -0.190196 0.449020 0.272549 0.500000 -0.029412 -0.025490 -0.111765 -0.366667 -0.323529 -0.037255 -0.131373 -0.315686 -0.166667 -0.080392 0.409804 0.107843 -0.229412 -0.331373 0.268627 -0.292157 -0.001961 0.217647 -0.205882 0.045098 -0.013725 0.147059 -0.413725 0.119608 -0.460784 -0.068627 0.327451 -0.249020 -0.421569 -0.445098 0.366667 0.237255 0.272549 0.052941 -0.005882 -0.080392 0.229412 -0.111765 0.339216 -0.252941 -0.386275 -0.229412 0.025490 0.076471 0.249020 -0.409804 -0.437255 -0.009804 0.182353 -0.001961 -0.233333 -0.409804 0.241176 -0.441176 -0.088235 -0.213725 -0.139216 0.480392 -0.119608 0.374510 -0.205882 0.480392 -0.123529 -0.280392 -0.296078 -0.460784 -0.390196 -0.492157 0.072549 0.280392 0.229412 -0.037255 0.217647 0.386275 0.409804 -0.009804 -0.107843 0.017647 -0.323529 -0.096078 -0.131373 -0.092157 0.068627 -0.119608 -0.115686 0.441176 0.288235 0.303922 -0.221569 0.209804 -0.280392 0.174510 0.464706 0.221569 -0.303922 -0.456863 0.072549 -0.013725 0.143137 0.135294 0.045098 0.013725 0.092157 0.123529 0.492157 -0.013725 0.080392 0.398039 0.347059 0.347059 0.350980 -0.170588 0.484314 0.103922 -0.339216 0.072549 0.358824 0.464706 -0.362745 0.209804 -0.068627 0.017647 0.252941 -0.449020 -0.092157 -0.174510 -0.217647 0.005882 0.362745 -0.005882 -0.107843 0.350980 0.154902 -0.378431 -0.476471 -0.107843 0.198039 0.386275 0.272549 0.033333 0.276471 0.005882 -0.303922 0.343137 -0.213725 0.096078 0.154902 0.347059 0.276471 0.350980 0.331373 -0.127451 0.096078 -0.260784 0.150980 -0.484314 -0.029412 0.327451 0.500000 -0.311765 0.315686 -0.005882 0.225490 -0.013725 0.029412 -0.339216 0.268627 -0.205882 0.127451 -0.252941 0.084314 -0.139216 0.064706 -0.154902 -0.452941 0.076471 0.154902 0.088235 -0.103922 -0.060784 -0.005882 0.260784 -0.198039 0.354902 0.252941 -0.350980 0.472549 -0.241176 -0.194118 0.127451 -0.154902 0.229412 -0.225490 -0.441176 0.072549 0.150980 -0.398039 -0.127451 0.343137 -0.343137 -0.347059 0.252941 0.209804 0.013725 -0.013725 -0.268627 -0.284314 -0.429412 0.088235 0.378431 -0.445098 -0.041176 0.264706 0.068627 0.005882 -0.064706 0.468627 0.025490 -0.029412 0.186275 0.445098 0.033333 -0.131373 -0.429412 -0.437255 -0.135294 0.260784 -0.100000 -0.339216 -0.045098 -0.296078 0.013725 0.492157 -0.060784 0.386275 -0.350980 -0.005882 0.139216 -0.492157 0.390196 -0.382353 -0.401961 -0.311765 -0.123529 -0.276471 0.264706 0.405882 -0.441176 0.464706 0.296078 0.217647 -0.119608 -0.500000 -0.013725 -0.401961 0.362745 0.398039 -0.088235 0.358824 0.449020 -0.292157 -0.135294 0.252941 -0.166667 0.166667 -0.201961 0.264706 -0.429412 -0.233333 -0.417647 0.029412 0.103922 -0.433333 -0.311765 -0.229412 -0.111765 0.272549 -0.433333 0.221569 -0.417647 -0.464706 0.484314 -0.323529 0.233333 0.029412 -0.480392 -0.186275 -0.417647 -0.045098 0.374510 -0.456863 -0.276471 -0.017647 0.233333 -0.366667 0.252941 -0.166667 0.366667 -0.115686 -0.280392 -0.315686 0.005882 -0.060784 -0.245098 0.045098 0.119608 0.472549 0.186275 0.229412 -0.127451 -0.209804 -0.500000 0.303922 -0.315686 0.492157 -0.190196 0.347059 0.139216 0.335294 -0.103922 -0.492157 -0.127451 -0.103922 0.331373 -0.021569 0.170588 0.241176 -0.045098 -0.292157 0.441176 -0.421569 0.488235 -0.072549 -0.194118 -0.256863 -0.296078 -0.496078 0.150980 -0.256863 0.260784 0.303922 -0.421569 0.296078 -0.319608 0.401961 -0.484314 -0.437255 0.358824 -0.417647 -0.147059 -0.041176 -0.303922 -0.347059 -0.084314 -0.472549 -0.429412 0.331373 -0.260784 -0.292157 0.464706 -0.366667 -0.339216 0.221569 0.139216 -0.088235 -0.409804 0.484314 0.060784 -0.382353 0.182353 0.264706 0.166667 0.256863 -0.300000 -0.147059 -0.496078 0.260784 0.300000 -0.350980 0.362745 -0.029412 0.496078 -0.225490 0.135294 0.103922 -0.135294 -0.158824 -0.170588 -0.127451 -0.347059 0.092157 -0.350980 0.394118 0.488235 0.264706 -0.135294 -0.096078 0.213725 -0.198039 0.205882 -0.178431 -0.456863 -0.241176 0.327451 -0.041176 0.390196 0.190196 0.386275 0.315686 0.303922 0.158824 0.170588 0.103922 -0.068627 0.264706 -0.068627 0.425490 -0.182353 0.378431 0.417647 0.472549 -0.037255 -0.221569 -0.162745 0.449020 -0.041176 -0.417647 -0.488235 0.370588 0.150980 -0.092157 0.449020 0.143137 0.445098 -0.013725 -0.276471 -0.249020 -0.386275 0.068627 -0.170588 0.107843 -0.296078 -0.225490 0.068627 -0.472549 -0.500000 -0.425490 -0.307843 -0.064706 0.472549 -0.033333 0.449020 0.323529 -0.480392 -0.433333 0.052941 0.374510 0.433333 0.135294 -0.033333 -0.394118 -0.476471 0.111765 0.162745 0.492157 -0.374510 0.264706 -0.362745 0.300000 -0.319608 0.092157 -0.445098 -0.170588 -0.476471 -0.158824 -0.260784 -0.049020 -0.260784 -0.425490 0.092157 0.131373 -0.370588 -0.374510 -0.064706 -0.041176 -0.441176 -0.307843 0.288235 0.343137 -0.378431 -0.013725 -0.013725 0.390196 0.088235 0.080392 0.366667 0.201961 0.111765 -0.421569 -0.472549 0.488235 0.421569 0.143137 -0.190196 -0.241176 0.296078 -0.252941 0.209804 -0.488235 -0.154902 0.362745 -0.096078 0.131373 -0.276471 -0.300000 -0.213725 0.303922 0.484314 -0.437255 -0.092157 -0.268627 0.315686 -0.476471 -0.386275 0.170588 -0.084314 -0.500000 -0.084314 -0.182353 -0.052941 -0.366667 -0.276471 -0.084314 0.347059 -0.280392 -0.386275 0.056863 0.452941 0.052941 0.150980 0.370588 -0.056863 -0.280392 -0.378431 -0.190196 0.421569 -0.237255 0.154902 0.205882 -0.045098 -0.131373 -0.500000 0.468627 -0.096078 0.319608 0.245098 -0.437255 0.272549 0.480392 -0.166667 -0.264706 -0.045098 -0.496078 0.198039 -0.331373 0.276471 -0.284314 0.103922 0.460784 0.225490 -0.413725 -0.052941 0.060784 -0.100000 -0.233333 -0.460784 0.139216 -0.421569 -0.476471 -0.417647 -0.076471 -0.213725 0.315686 0.296078 0.492157 0.233333 -0.323529 0.437255 -0.300000 0.225490 0.386275 0.311765 0.135294 -0.021569 -0.084314 0.217647 -0.303922 -0.213725 0.041176 -0.452941 -0.401961 -0.013725 0.150980 0.256863 0.311765 0.249020 -0.354902 -0.084314 -0.335294 -0.186275 -0.233333 0.347059 0.009804 0.296078 0.092157 0.472549 0.245098 -0.280392 -0.005882 0.315686 0.096078 -0.339216 -0.092157 0.284314 -0.005882 -0.449020 -0.170588 0.480392 -0.417647 -0.033333 0.166667 -0.449020 0.060784 0.245098 -0.374510 0.398039 -0.429412 -0.378431 -0.205882 -0.445098 -0.237255 -0.358824 -0.433333 -0.327451 0.100000 0.417647 -0.064706 -0.480392 -0.021569 -0.264706 0.252941 0.421569 0.366667 -0.264706 0.119608 -0.347059 -0.315686 -0.103922 0.233333 -0.386275 0.115686 0.001961 -0.492157 -0.300000 -0.421569 0.276471 0.198039 0.131373 0.245098 -0.398039 0.362745 -0.209804 0.037255 0.001961 -0.276471 0.433333 -0.386275 -0.484314 0.354902 0.300000 0.100000 0.347059 0.013725 -0.260784 0.115686 0.284314 0.366667 0.021569 -0.064706 0.272549 -0.068627 0.362745 -0.021569 -0.449020 0.460784 -0.319608 0.084314 -0.350980 -0.225490 0.229412 -0.162745 -0.350980 0.343137 -0.017647 0.123529 0.437255 0.323529 0.500000 -0.033333 -0.327451 0.213725 0.150980 0.268627 -0.194118 -0.468627 0.366667 -0.256863 0.390196 0.123529 0.386275 -0.315686 0.468627 -0.370588 0.492157 -0.229412 0.456863 0.064706 -0.319608 0.394118 0.194118 -0.237255 -0.245098 -0.209804 -0.241176 -0.009804 0.382353 -0.190196 -0.088235 -0.052941 -0.135294 -0.111765 0.221569 0.311765 0.056863 -0.107843 0.378431 0.405882 -0.378431 0.456863 0.096078 0.272549 0.170588 -0.080392 0.178431 -0.327451 -0.100000 0.256863 -0.484314 -0.405882 -0.347059 -0.472549 -0.390196 0.225490 -0.241176 0.445098 -0.472549 0.072549 0.319608 -0.025490 -0.103922 -0.150980 -0.252941 -0.005882 0.225490 0.256863 0.496078 0.064706 -0.237255 -0.107843 -0.350980 0.264706 -0.480392 0.237255 0.041176 -0.037255 -0.264706 -0.096078 0.386275 -0.213725 -0.374510 0.017647 0.362745 0.488235 -0.378431 0.354902 -0.111765 -0.229412 0.245098 0.241176 0.456863 0.386275 -0.492157 -0.131373 0.119608 -0.045098 -0.464706 0.311765 0.354902 -0.049020 -0.472549 0.409804 -0.366667 0.390196 0.296078 0.115686 0.103922 0.437255 0.437255 -0.049020 -0.315686 -0.354902 -0.205882 -0.209804 -0.158824 -0.088235 -0.331373 -0.237255 0.366667 0.029412 0.084314 -0.500000 0.249020 0.049020 0.405882 0.245098 -0.256863 0.198039 0.496078 0.268627 0.045098 -0.080392 -0.072549 -0.213725 0.252941 0.264706 0.198039 -0.347059 -0.315686 -0.131373 -0.472549 0.398039 -0.056863 0.135294 -0.401961 0.139216 -0.331373 0.170588 -0.052941 0.452941 -0.135294 0.186275 -0.103922 0.264706 0.386275 -0.378431 -0.166667 0.068627 0.315686 0.072549 0.480392 -0.201961 0.150980 0.229412 0.049020 -0.080392 -0.315686 0.456863 0.480392 0.139216 0.394118 0.072549 0.366667 0.194118 -0.449020 -0.323529 -0.449020 0.115686 0.437255 -0.319608 -0.092157 0.331373 0.096078 -0.068627 0.221569 -0.276471 0.178431 0.382353 -0.413725 -0.170588 -0.005882 -0.284314 0.194118 -0.484314 0.468627 -0.256863 0.264706 0.335294 0.370588 0.327451 -0.260784 0.315686 0.366667 -0.488235 0.001961 0.080392 -0.068627 -0.241176 0.154902 0.045098 -0.170588 0.484314 -0.017647 0.205882 -0.005882 0.500000 0.178431 -0.100000 -0.107843 0.366667 0.319608 0.198039 -0.194118 0.178431 -0.072549 0.045098 0.139216 -0.421569 0.425490 -0.017647 -0.303922 0.492157 -0.339216 -0.307843 -0.272549 -0.374510 0.311765 -0.264706 -0.135294 -0.225490 -0.143137 0.115686 0.143137 0.025490 0.284314 -0.343137 0.029412 0.409804 -0.198039 -0.143137 0.194118 0.398039 -0.068627 0.394118 -0.209804 -0.115686 -0.343137 -0.166667 0.456863 -0.374510 0.194118 0.476471 -0.198039 -0.315686 0.052941 -0.088235 -0.225490 0.476471 0.037255 0.449020 0.033333 0.060784 0.413725 0.386275 0.249020 -0.401961 -0.460784 0.394118 -0.390196 -0.166667 0.225490 0.041176 -0.280392 -0.480392 -0.127451 -0.217647 -0.013725 -0.107843 0.350980 0.441176 0.088235 0.162745 -0.245098 -0.013725 -0.068627 0.311765 0.382353 -0.029412 -0.049020 -0.194118 -0.398039 0.045098 -0.233333 -0.339216 0.488235 0.084314 -0.252941 -0.245098 -0.194118 -0.190196 -0.343137 0.476471 0.386275 0.319608 0.300000 -0.092157 -0.496078 0.147059 -0.103922 0.276471 0.209804 -0.049020 -0.154902 -0.135294 0.300000 -0.398039 -0.139216 -0.354902 0.131373 -0.413725 -0.476471 -0.170588 0.158824 0.468627 0.500000 -0.198039 -0.123529 0.456863 0.131373 0.343137 0.484314 -0.394118 0.319608 0.268627 0.386275 -0.158824 0.084314 0.362745 0.433333 -0.429412 -0.374510 -0.198039 0.374510 0.327451 0.390196 -0.209804 0.319608 0.221569 -0.405882 0.154902 -0.201961 0.264706 -0.080392 -0.476471 0.484314 0.358824 0.292157 0.390196 0.386275 -0.182353 0.339216 0.394118 -0.480392 -0.468627 -0.072549 0.143137 0.009804 -0.182353 -0.225490 0.245098 0.300000 -0.068627 -0.198039 -0.021569 -0.382353 0.162745 -0.288235 0.374510 -0.017647 -0.292157 -0.025490 -0.280392 0.366667 0.005882 0.249020 0.209804 -0.096078 0.009804 0.013725 -0.339216 0.374510 -0.088235 0.370588 -0.119608 -0.417647 -0.421569 -0.468627 -0.260784 0.323529 0.143137 -0.468627 -0.217647 -0.217647 0.476471 0.421569 0.229412 -0.354902 -0.009804 0.445098 0.076471 0.433333 -0.119608 0.237255 -0.064706 -0.468627 0.358824 0.127451 0.484314 0.382353 -0.449020 -0.401961 -0.147059 -0.225490 0.343137 -0.398039 0.488235 0.064706 -0.198039 0.037255 -0.382353 0.378431 -0.276471 0.272549 0.386275 -0.037255 0.488235 -0.452941 -0.107843 -0.068627 -0.147059 0.394118 0.147059 0.111765 -0.076471 -0.213725 -0.288235 -0.017647 -0.449020 -0.366667 -0.049020 -0.037255 0.241176 -0.268627 -0.425490 -0.088235 0.076471 -0.480392 -0.456863 -0.162745 0.111765 0.209804 -0.213725 -0.029412 0.492157 0.249020 0.072549 0.390196 -0.029412 0.272549 0.362745 0.339216 0.213725 0.205882 -0.300000 -0.233333 0.245098 -0.437255 0.213725 0.147059 0.256863 -0.300000 -0.049020 0.284314 -0.131373 -0.500000 0.417647 -0.056863 -0.131373 -0.366667 -0.178431 -0.445098 -0.382353 -0.111765 0.249020 0.390196 -0.276471 -0.162745 0.096078 -0.441176 0.049020 0.021569 -0.460784 0.409804 -0.162745 -0.092157 0.119608 -0.107843 -0.484314 0.001961 0.025490 -0.272549 0.378431 -0.029412 0.080392 -0.229412 0.033333 -0.052941 -0.350980 0.480392 0.264706 -0.307843 -0.060784 -0.111765 -0.433333 0.205882 -0.029412 -0.080392 -0.401961 0.037255 0.425490 -0.464706 -0.288235 -0.264706 -0.052941 0.394118 -0.174510 0.437255 -0.480392 -0.386275 -0.429412 0.249020 -0.421569 -0.170588 -0.347059 -0.307843 -0.445098 0.480392 0.390196 -0.084314 -0.460784 0.123529 -0.252941 -0.260784 -0.182353 0.190196 -0.005882 -0.276471 0.323529 0.064706 0.100000 0.370588 -0.288235 -0.468627 0.311765 0.045098 -0.484314 -0.292157 0.480392 -0.425490 0.225490 0.209804 -0.009804 -0.005882 0.237255 0.343137 0.100000 0.166667 -0.378431 0.492157 0.331373 0.100000 0.170588 0.237255 0.072549 0.472549 -0.237255 -0.186275 0.111765 0.472549 -0.460784 0.017647 -0.249020 -0.186275 -0.456863 -0.433333 -0.017647 -0.280392 -0.150980 -0.378431 -0.127451 -0.280392 -0.021569 0.103922 0.029412 -0.111765 -0.045098 0.362745 0.300000 -0.413725 0.374510 0.382353 0.178431 -0.037255 -0.382353 0.476471 -0.143137 -0.170588 0.464706 0.472549 0.158824 0.009804 0.096078 0.115686 0.182353 0.068627 0.394118 0.154902 -0.217647 0.123529 0.241176 0.307843 -0.315686 -0.017647 0.107843 -0.429412 -0.370588 -0.472549 0.001961 -0.131373 -0.260784 0.339216 -0.221569 0.347059 -0.170588 0.488235 0.452941 -0.472549 0.092157 -0.500000 0.072549 0.115686 0.052941 0.115686 0.198039 -0.307843 -0.182353 -0.354902 -0.119608 -0.413725 -0.480392 0.072549 0.154902 0.170588 -0.162745 0.237255 -0.256863 0.280392 -0.339216 -0.076471 -0.464706 -0.158824 -0.437255 -0.107843 0.303922 -0.284314 0.319608 -0.119608 -0.264706 0.017647 -0.394118 0.100000 0.472549 -0.049020 0.178431 -0.068627 -0.064706 0.496078 0.190196 -0.080392 0.037255 -0.092157 0.060784 0.449020 0.131373 -0.366667 0.056863 -0.405882 0.178431 -0.005882 0.284314 0.488235 0.272549 -0.076471 0.229412 0.331373 -0.288235 -0.417647 -0.052941 -0.060784 -0.111765 0.492157 0.052941 0.343137 -0.441176 0.213725 -0.496078 0.339216 -0.413725 -0.186275 -0.323529 -0.500000 0.276471 -0.115686 -0.201961 -0.249020 0.319608 0.449020 -0.119608 -0.378431 -0.315686 0.111765 -0.480392 0.394118 -0.162745 -0.358824 -0.331373 -0.025490 0.229412 -0.288235 -0.488235 -0.280392 0.143137 0.049020 0.249020 0.272549 -0.390196 0.150980 0.492157 -0.154902 -0.127451 -0.107843 0.319608 0.245098 0.045098 -0.452941 0.198039 0.056863 -0.182353 0.264706 0.241176 -0.256863 -0.182353 -0.233333 -0.496078 -0.013725 -0.445098 -0.072549 -0.441176 -0.252941 0.335294 -0.292157 0.307843 0.347059 0.452941 0.378431 0.413725 0.300000 0.182353 -0.174510 0.296078 0.013725 -0.303922 0.409804 0.170588 0.350980 0.374510 -0.005882 -0.001961 -0.456863 0.123529 -0.150980 0.229412 0.456863 0.056863 0.296078 -0.307843 -0.103922 0.464706 0.252941 0.115686 0.374510 -0.409804 -0.080392 0.107843 0.049020 0.480392 -0.405882 -0.076471 0.272549 -0.225490 -0.092157 -0.209804 -0.045098 -0.401961 -0.425490 -0.001961 0.162745 -0.001961 0.182353 0.076471 -0.084314 -0.268627 0.492157 -0.276471 -0.405882 -0.276471 -0.284314 0.111765 0.354902 0.382353 0.441176 -0.429412 0.492157 -0.166667 -0.480392 -0.123529 0.492157 -0.111765 -0.182353 -0.480392 -0.350980 0.398039 0.378431 0.182353 0.445098 -0.056863 -0.158824 -0.241176 -0.327451 -0.484314 -0.072549 -0.166667 0.354902 0.021569 0.292157 -0.127451 0.107843 -0.131373 0.060784 -0.080392 -0.319608 -0.249020 0.139216 0.327451 0.409804 -0.492157 0.052941 0.303922 0.201961 0.449020 -0.103922 -0.331373 0.296078 -0.472549 0.100000 0.327451 0.009804 -0.119608 -0.135294 -0.033333 -0.111765 0.103922 0.421569 -0.468627 -0.370588 -0.256863 -0.088235 0.335294 -0.468627 0.284314 -0.315686 0.088235 -0.170588 -0.052941 0.323529 -0.280392 0.339216 -0.170588 -0.041176 0.068627 -0.029412 0.405882 -0.100000 0.260784 0.476471 -0.025490 -0.213725 -0.315686 -0.409804 -0.468627 -0.398039 -0.343137 0.358824 0.139216 0.441176 0.201961 0.205882 -0.311765 -0.280392 -0.107843 0.347059 0.425490 0.378431 0.001961 -0.017647 0.029412 0.366667 -0.245098 -0.084314 0.166667 -0.017647 0.194118 0.229412 0.150980 0.366667 0.417647 0.170588 -0.378431 0.005882 -0.025490 -0.049020 0.433333 0.343137 -0.166667 -0.213725 0.311765 0.276471 0.072549 0.413725 -0.429412 0.225490 -0.186275 -0.225490 -0.492157 0.037255 -0.390196 0.472549 -0.143137 0.382353 -0.401961 -0.303922 0.288235 0.013725 0.272549 -0.307843 0.268627 0.378431 -0.343137 -0.452941 -0.284314 -0.139216 0.366667 0.029412 0.056863 0.417647 0.037255 0.464706 0.111765 -0.162745 0.233333 0.162745 -0.472549 -0.107843 0.205882 0.123529 0.194118 -0.135294 0.229412 0.390196 -0.056863 0.249020 -0.366667 0.237255 0.241176 -0.484314 0.488235 0.343137 0.429412 -0.256863 -0.315686 -0.013725 0.468627 0.217647 -0.033333 -0.398039 -0.386275 0.131373 -0.472549 0.437255 -0.237255 -0.135294 0.421569 0.107843 -0.241176 -0.072549 0.221569 -0.182353 0.350980 -0.441176 -0.252941 -0.417647 0.143137 0.201961 0.480392 -0.143137 -0.056863 -0.056863 0.311765 0.076471 0.292157 -0.347059 0.127451 0.190196 -0.198039 -0.386275 0.374510 0.311765 0.335294 -0.433333 0.025490 0.021569 -0.323529 -0.480392 -0.241176 0.135294 0.103922 -0.205882 -0.488235 0.154902 -0.374510 -0.272549 0.217647 0.119608 0.452941 -0.194118 -0.241176 -0.445098 -0.033333 -0.170588 0.441176 -0.209804 -0.405882 -0.072549 -0.080392 0.209804 0.484314 -0.103922 