6
784 256
-0.092157 0.413725 0.201961 0.296078 0.339216 -0.292157 -0.401961 -0.021569 -0.350980 0.158824 0.339216 0.472549 0.139216 0.331373 -0.107843 -0.347059 0.445098 0.072549 -0.107843 0.249020 0.405882 -0.437255 -0.445098 0.409804 -0.158824 -0.347059 -0.100000 0.260784 0.049020 0.401961 -0.280392 0.154902 -0.374510 -0.092157 -0.252941 -0.358824 0.409804 -0.103922 0.052941 -0.468627 -0.256863 0.198039 -0.323529 -0.425490 0.252941 -0.143137 -0.452941 0.449020 -0.472549 0.496078 -0.366667 -0.245098 0.209804 -0.209804 0.170588 -0.347059 -0.464706 0.468627 0.401961 -0.021569 0.139216 -0.045098 -0.127451 0.217647 0.143137 0.339216 -0.213725 -0.037255 0.049020 -0.303922 0.201961 -0.288235 -0.084314 0.135294 0.052941 -0.496078 0.264706 0.319608 -0.362745 -0.252941 -0.154902 0.323529 -0.311765 0.288235 0.135294 0.484314 -0.147059 -0.315686 -0.500000 0.229412 0.484314 -0.194118 -0.464706 -0.025490 -0.315686 0.107843 -0.496078 -0.492157 -0.386275 0.300000 -0.303922 -0.135294 0.056863 0.033333 -0.041176 -0.080392 0.433333 -0.331373 -0.343137 0.311765 -0.154902 0.429412 0.178431 -0.464706 0.052941 0.096078 -0.174510 -0.088235 -0.213725 0.468627 -0.296078 0.241176 0.268627 -0.013725 -0.292157 0.409804 0.182353 0.260784 -0.347059 -0.119608 0.288235 0.288235 -0.088235 -0.500000 -0.425490 0.245098 -0.123529 0.076471 0.378431 -0.409804 -0.409804 -0.401961 0.339216 -0.225490 0.276471 -0.398039 -0.323529 0.441176 0.323529 -0.472549 0.100000 0.154902 -0.072549 0.374510 -0.033333 -0.425490 0.127451 0.480392 -0.194118 -0.374510 -0.174510 -0.033333 0.256863 0.496078 0.296078 0.052941 -0.300000 0.484314 -0.072549 0.374510 -0.292157 0.452941 -0.056863 -0.300000 -0.092157 -0.452941 -0.343137 0.147059 -0.068627 0.366667 -0.339216 0.060784 0.303922 -0.225490 0.131373 -0.052941 -0.421569 0.229412 -0.307843 -0.194118 0.241176 0.468627 0.280392 0.096078 -0.319608 0.166667 -0.343137 0.147059 0.252941 0.268627 0.292157 0.280392 -0.162745 0.370588 -0.452941 -0.060784 -0.056863 0.374510 0.072549 0.154902 0.049020 0.398039 -0.496078 -0.464706 -0.201961 -0.213725 0.205882 -0.417647 -0.186275 -0.103922 0.166667 -0.260784 -0.174510 -0.441176 -0.025490 -0.382353 0.127451 0.449020 0.445098 0.198039 -0.021569 0.472549 -0.041176 -0.064706 0.084314 -0.115686 0.033333 -0.182353 0.154902 0.315686 0.464706 0.488235 0.456863 -0.288235 -0.201961 0.021569 -0.154902 -0.162745 -0.194118 0.217647 -0.013725 0.111765 0.488235 0.100000 0.080392 -0.084314 0.080392 -0.096078 0.394118 -0.147059 0.237255 0.347059 -0.025490 0.017647 0.382353 -0.401961 -0.335294 0.147059 -0.017647 0.037255 -0.139216 0.441176 -0.366667 0.033333 0.370588 0.225490 -0.300000 -0.311765 0.452941 -0.021569 -0.068627 -0.241176 0.107843 0.123529 -0.115686 0.092157 0.107843 0.319608 0.496078 -0.288235 -0.213725 0.005882 -0.339216 0.021569 0.213725 -0.209804 -0.147059 -0.182353 0.103922 -0.229412 0.343137 -0.056863 0.276471 0.362745 -0.052941 -0.488235 0.354902 0.350980 0.476471 0.307843 0.464706 0.315686 -0.460784 0.135294 0.319608 -0.123529 0.260784 -0.492157 0.272549 -0.445098 -0.225490 -0.484314 -0.115686 -0.496078 0.292157 0.484314 0.154902 0.378431 0.484314 0.429412 -0.374510 0.480392 -0.264706 0.001961 0.268627 0.237255 0.331373 -0.335294 0.390196 -0.033333 -0.186275 -0.358824 -0.358824 0.217647 0.370588 -0.025490 0.362745 0.358824 0.029412 0.158824 -0.147059 0.123529 0.394118 -0.354902 -0.100000 -0.198039 -0.303922 -0.252941 -0.480392 0.060784 -0.143137 0.425490 -0.029412 0.127451 -0.213725 0.319608 -0.417647 0.256863 0.135294 0.460784 -0.417647 -0.166667 -0.131373 0.111765 -0.154902 0.131373 -0.237255 0.033333 0.245098 0.049020 -0.472549 -0.480392 -0.480392 0.405882 0.354902 -0.005882 -0.166667 0.186275 0.425490 0.476471 0.327451 0.394118 0.143137 -0.249020 -0.194118 -0.488235 0.382353 0.303922 -0.190196 0.260784 0.049020 0.413725 -0.029412 -0.401961 0.182353 0.484314 0.401961 0.441176 -0.492157 -0.111765 -0.029412 -0.276471 -0.315686 -0.072549 -0.021569 0.452941 -0.343137 -0.135294 0.382353 -0.292157 -0.123529 -0.088235 -0.409804 0.166667 0.390196 -0.476471 -0.331373 0.413725 0.029412 -0.115686 -0.064706 -0.225490 0.076471 -0.100000 -0.429412 0.315686 0.421569 0.323529 -0.303922 -0.162745 0.437255 0.017647 0.496078 0.182353 0.335294 -0.460784 -0.170588 0.331373 0.021569 0.417647 0.319608 -0.143137 0.017647 0.421569 -0.362745 -0.460784 0.111765 0.029412 0.072549 -0.158824 -0.158824 -0.100000 0.339216 -0.174510 0.382353 -0.080392 -0.135294 -0.186275 0.437255 -0.425490 0.292157 -0.237255 -0.468627 -0.158824 -0.005882 0.374510 0.394118 0.178431 -0.492157 0.256863 0.225490 0.170588 0.296078 -0.229412 0.213725 -0.049020 0.198039 0.468627 0.307843 0.331373 -0.190196 -0.405882 -0.284314 -0.119608 0.245098 -0.190196 -0.060784 -0.158824 0.056863 0.229412 0.417647 0.256863 -0.358824 -0.131373 -0.174510 0.452941 0.076471 0.005882 0.362745 -0.280392 0.339216 0.339216 -0.362745 0.280392 0.331373 0.370588 0.437255 0.017647 -0.492157 -0.307843 -0.194118 0.194118 -0.456863 -0.288235 0.252941 -0.366667 -0.268627 -0.378431 -0.072549 -0.092157 0.115686 0.052941 -0.158824 -0.174510 0.088235 -0.480392 0.123529 0.096078 0.280392 -0.409804 0.123529 -0.386275 -0.056863 -0.456863 0.131373 0.131373 0.127451 0.198039 -0.009804 0.433333 0.158824 -0.452941 -0.452941 0.221569 -0.300000 0.111765 0.115686 -0.303922 0.017647 0.229412 0.225490 -0.245098 0.241176 0.182353 -0.409804 0.103922 -0.405882 -0.190196 -0.307843 -0.311765 0.021569 -0.405882 0.127451 -0.394118 -0.284314 0.335294 -0.245098 -0.460784 0.107843 -0.331373 0.084314 0.084314 0.335294 0.115686 0.500000 -0.056863 -0.480392 -0.127451 0.296078 0.045098 -0.123529 -0.284314 0.374510 -0.221569 -0.056863 -0.452941 -0.421569 0.484314 0.052941 -0.178431 0.092157 0.229412 0.449020 -0.252941 -0.021569 -0.147059 -0.041176 0.170588 0.056863 -0.280392 0.488235 -0.119608 0.382353 -0.307843 0.249020 -0.221569 -0.347059 0.139216 0.123529 0.252941 -0.068627 -0.103922 0.358824 0.190196 0.303922 -0.103922 -0.237255 0.378431 -0.488235 -0.472549 0.268627 -0.135294 -0.268627 -0.103922 -0.049020 -0.033333 0.249020 -0.280392 0.350980 -0.127451 0.390196 -0.045098 -0.288235 0.401961 0.362745 -0.488235 -0.343137 -0.374510 -0.456863 0.068627 0.496078 -0.421569 -0.252941 0.488235 0.088235 0.217647 0.080392 -0.433333 -0.198039 -0.017647 0.056863 -0.147059 -0.484314 0.272549 0.123529 -0.300000 -0.135294 0.417647 0.182353 0.378431 0.135294 -0.307843 0.170588 -0.386275 -0.476471 -0.143137 -0.405882 -0.386275 -0.405882 -0.307843 0.268627 -0.217647 -0.480392 -0.205882 0.307843 0.264706 -0.264706 -0.041176 -0.041176 0.276471 0.158824 0.398039 0.488235 0.221569 0.217647 0.480392 0.221569 -0.056863 0.154902 -0.217647 -0.339216 -0.252941 -0.139216 -0.045098 0.229412 -0.076471 0.374510 0.084314 0.225490 -0.319608 0.409804 -0.119608 0.025490 0.217647 -0.319608 0.260784 -0.280392 -0.229412 -0.292157 -0.213725 0.429412 -0.390196 0.311765 0.052941 -0.060784 0.186275 -0.347059 -0.350980 0.343137 0.252941 -0.009804 -0.201961 0.143137 -0.178431 0.068627 0.209804 -0.370588 -0.182353 -0.421569 0.460784 -0.264706 -0.190196 -0.452941 -0.072549 -0.421569 -0.429412 0.386275 -0.150980 -0.492157 0.331373 0.147059 -0.041176 0.264706 0.154902 -0.260784 0.452941 0.217647 -0.119608 0.449020 -0.080392 0.182353 -0.417647 0.300000 -0.213725 -0.217647 -0.472549 -0.225490 0.178431 -0.354907 -0.488235 -0.037255 0.084283 -0.488243 0.150980 -0.111768 -0.378436 0.123528 -0.409756 0.315684 0.398039 0.064706 0.041193 -0.307842 -0.280401 -0.358827 -0.127446 -0.017647 0.496078 0.476469 -0.229421 0.370588 0.178431 -0.382353 0.315686 0.076458 -0.299987 -0.429409 0.033350 0.280392 0.378430 0.292139 -0.005892 -0.394113 0.343137 -0.347059 0.205881 0.296047 0.190196 0.362745 0.449020 0.139229 -0.296078 0.068657 -0.147055 0.084304 -0.201961 -0.327488 0.092161 0.045059 0.233333 -0.205878 0.064706 0.496068 0.237252 0.249071 0.425484 0.496077 -0.335294 -0.401966 0.041176 0.492157 0.343137 -0.307843 0.296078 0.468633 0.323520 0.296078 -0.284312 0.037255 -0.343107 -0.154891 0.358825 -0.464707 -0.496084 -0.241177 0.315690 -0.068631 -0.150982 -0.045098 0.076473 -0.041176 0.103923 0.347058 -0.284314 0.339205 0.150984 0.276471 0.221592 -0.480393 0.072542 0.080432 -0.217653 -0.500000 0.488266 -0.350981 0.100000 0.437255 -0.409806 -0.296050 0.366669 0.009837 0.052939 -0.209812 0.496078 -0.464716 0.347043 -0.437255 -0.147090 -0.198039 0.162742 -0.311782 0.249023 -0.374496 -0.166667 0.049020 -0.162745 0.060733 0.041178 -0.237255 -0.033333 0.096078 0.468627 -0.103922 -0.292218 0.433343 0.221569 0.056853 0.182353 -0.445101 -0.033331 -0.245103 0.354902 0.417647 -0.029412 -0.249027 -0.033333 -0.378431 0.170586 -0.452952 0.029402 -0.296104 0.433342 -0.025493 -0.288279 -0.049020 -0.343135 -0.460833 -0.115689 -0.225489 -0.025493 0.186275 -0.084313 0.241198 0.123534 -0.437255 0.401968 0.103919 0.209805 0.331373 0.084327 0.009804 0.390196 -0.013725 -0.370604 0.174522 -0.103924 0.362733 0.449020 0.335299 -0.382353 0.170587 0.100000 0.166668 0.119606 -0.072551 0.484314 0.276471 -0.205886 0.127461 0.468627 0.241168 0.496078 0.197974 0.276460 0.476481 0.272563 -0.425492 0.221554 0.300025 0.260798 0.025491 0.135317 -0.488236 -0.315687 -0.331373 -0.096099 -0.460780 -0.323533 -0.119609 0.021569 0.162729 -0.076471 0.186275 0.249021 -0.347047 0.492136 0.217648 0.170547 -0.021570 0.178425 -0.241187 0.354963 -0.386275 -0.409806 -0.194140 -0.162745 0.100000 0.307844 -0.445098 0.166648 -0.029412 -0.068627 0.186276 -0.272578 -0.201961 0.013719 0.143135 -0.370567 0.150938 0.001965 -0.209804 0.115686 -0.268628 0.252954 0.088235 0.174492 -0.413725 0.217646 0.350980 -0.233334 -0.409804 0.033333 -0.500000 -0.445099 -0.445123 0.017630 0.252917 0.480392 0.225490 0.001965 -0.288235 0.096061 0.264706 0.237255 -0.195532 -0.301629 0.038127 0.465208 -0.096294 0.241718 0.468366 -0.465197 -0.053263 0.288819 -0.217086 0.159005 0.298552 0.468560 -0.024303 -0.469173 -0.416584 -0.188861 -0.285078 -0.182282 -0.374372 0.091421 0.292830 0.084705 -0.138995 0.182426 0.500355 0.427870 -0.472598 0.501164 0.245012 -0.130162 0.178093 0.109743 -0.189438 -0.484254 0.251278 0.135627 0.138014 0.187776 0.138993 0.143263 0.156435 0.244749 0.451630 -0.277148 0.413549 -0.447024 0.019783 0.162722 -0.045645 0.167660 0.102777 -0.019006 -0.055662 -0.316246 -0.047127 -0.484710 0.064278 -0.284858 0.359208 0.422885 0.222672 0.303948 -0.484542 -0.413743 0.312889 0.030006 -0.424457 -0.144781 0.339393 0.236231 -0.266680 -0.052435 0.223724 -0.457465 -0.413224 0.108595 0.436879 0.303443 0.465386 0.411387 0.406123 0.441197 -0.212801 -0.429254 0.480628 0.027369 -0.024865 0.077818 0.338621 0.264231 0.165481 -0.179781 0.496423 0.385100 0.232536 0.425344 -0.206083 -0.223566 0.310429 -0.280917 0.165318 0.292173 0.415206 0.238050 -0.256830 -0.363752 -0.127720 -0.439781 0.452674 0.361815 -0.305252 -0.306451 0.167632 -0.083295 0.268337 -0.284315 -0.160213 0.035041 -0.025887 -0.247602 0.492095 -0.339233 0.499144 -0.024920 -0.221845 0.001640 0.170846 0.480344 0.401420 0.064691 0.249625 -0.499600 0.117380 0.173511 -0.037057 -0.242415 0.293987 0.442087 -0.059673 0.122601 -0.274333 0.023354 0.191428 0.080245 -0.447659 -0.216453 -0.370977 0.377680 -0.309158 -0.185835 0.216549 0.387800 -0.446614 0.178263 0.035619 -0.362738 0.274093 -0.183832 0.476321 0.367136 -0.239013 -0.300752 -0.378735 0.280117 -0.343568 -0.405438 0.234963 -0.236912 0.404644 -0.159165 0.440265 -0.406895 -0.437175 -0.161303 0.378839 0.237268 -0.362406 -0.092809 0.342866 -0.082413 0.107563 -0.417704 0.455114 -0.085871 0.486055 -0.192507 0.393020 -0.218929 -0.411042 0.202365 0.343944 -0.263496 -0.154662 0.056376 0.338975 -0.058386 0.156573 0.010204 -0.131506 -0.147504 0.376068 -0.033085 -0.464334 -0.302257 -0.424830 -0.114921 0.216814 -0.002660 0.072835 -0.462665 -0.004359 0.454902 -0.133739 -0.257181 0.108861 -0.448771 -0.025538 -0.087390 0.361325 0.238642 -0.237170 -0.497090 -0.497012 0.050287 -0.216662 0.198569 0.383086 -0.030200 -0.386571 0.061307 0.135183 0.092327 0.013744 0.488981 0.486368 0.396861 0.008977 -0.214433 0.374364 0.275417 -0.331961 0.088904 -0.282216 0.021473 -0.494377 -0.443700 0.362004 0.045085 -0.213571 0.220714 0.290386 0.192510 -0.312139 -0.163650 -0.366732 -0.487810 -0.125964 -0.006199 -0.054479 0.495063 0.103206 0.146194 -0.286685 0.197511 -0.398041 -0.322013 0.145904 0.039423 -0.252032 -0.017115 0.304210 -0.426425 -0.343993 0.074435 -0.064927 -0.195299 0.014745 -0.013472 0.388478 0.092535 0.152539 0.495638 0.059007 -0.202260 0.210931 0.305088 -0.198983 0.151474 0.065366 0.450366 0.029087 -0.097106 0.107740 0.215074 0.103529 -0.487215 -0.102167 -0.484965 0.409329 0.068033 -0.272839 0.040127 0.173326 0.058733 -0.424060 -0.403157 0.095270 -0.207741 0.167943 -0.345715 0.416449 0.183231 0.341271 -0.423421 -0.070794 -0.244442 -0.174296 -0.154430 0.280734 -0.465638 0.078656 0.019076 0.314826 0.213167 -0.301136 0.090779 0.464239 -0.047118 -0.503651 0.454128 0.134303 -0.233534 -0.450202 -0.041525 0.051816 -0.131957 -0.164774 0.288110 -0.168087 -0.089909 -0.202474 0.352023 0.233876 0.200051 -0.105878 0.395291 -0.453082 0.192691 0.349407 0.067861 0.122015 0.002213 -0.202505 -0.193876 -0.389350 0.194522 -0.137208 0.294274 -0.071625 0.250117 -0.113979 -0.022972 0.440523 -0.382213 -0.228532 0.319429 -0.082136 -0.400194 0.104798 -0.344040 0.311355 -0.499909 -0.197413 0.255006 0.066380 -0.474610 0.069723 0.267271 -0.499191 -0.122962 0.171349 -0.223333 0.435446 -0.076333 -0.234614 0.405339 0.252284 -0.227885 -0.220421 0.165068 -0.096263 -0.424163 -0.198872 0.174063 0.429899 -0.479209 -0.076623 -0.321791 0.389067 0.265676 0.351829 -0.439554 -0.256839 0.114871 0.244550 -0.336976 -0.152238 -0.475061 0.198115 0.355322 0.080877 0.221102 -0.420455 -0.332388 0.278670 0.139671 0.267972 -0.261699 0.263160 -0.346542 0.265728 -0.226081 -0.169134 -0.222805 -0.142021 0.001827 -0.035017 0.198797 -0.298860 0.505807 -0.353044 -0.211554 -0.438384 0.221450 0.059369 0.137082 -0.375654 -0.310971 0.398320 -0.501801 -0.142900 -0.368584 0.079323 -0.255383 -0.122808 0.484424 0.431919 -0.383432 0.163810 0.292788 0.432285 0.021464 0.486419 -0.325093 0.317947 0.464842 0.091726 -0.007066 0.171228 0.286453 0.010920 0.222083 0.365160 0.248291 0.360811 -0.426527 0.328741 0.493502 -0.250533 0.357287 -0.366767 0.324378 0.076970 0.281517 0.045203 0.414687 0.154594 0.267678 0.188538 0.301192 0.424349 -0.019057 -0.359142 0.372461 -0.479283 -0.255962 -0.089479 0.309317 -0.166371 -0.350515 -0.273345 0.256097 0.230747 0.188092 -0.350211 0.017958 0.405103 -0.092533 0.367975 -0.079223 0.245228 -0.271189 -0.305232 0.237094 -0.314681 0.267523 -0.404740 -0.492393 0.373110 0.470347 -0.329328 -0.416685 -0.226740 0.102428 -0.275501 0.207609 0.117617 0.432529 0.124978 -0.315104 0.072245 -0.486470 0.359920 0.402202 -0.024902 -0.251355 0.149222 -0.093845 -0.176385 -0.346379 0.195381 0.452836 0.450281 0.043854 -0.429027 0.258968 -0.446481 0.114324 0.127291 0.104963 0.388296 0.032466 -0.391067 0.103260 -0.460237 -0.032083 0.400148 0.351749 0.243799 0.466719 0.117499 0.176705 0.402563 -0.280926 0.018142 -0.505899 -0.409775 -0.244572 0.424122 -0.117294 0.480820 0.019589 0.491357 0.165906 -0.202542 0.221480 -0.438886 0.030916 0.345327 0.039438 -0.047035 0.189320 -0.426649 -0.032776 -0.162080 0.276204 -0.220053 -0.157343 -0.073948 -0.317888 -0.225655 -0.405183 -0.332791 0.421455 0.048717 -0.033735 0.298490 0.471634 -0.212787 0.478159 -0.029648 -0.435432 0.099283 0.323938 0.006656 -0.040064 -0.141301 -0.183744 0.100443 -0.222963 -0.074832 0.260857 0.269337 -0.213222 0.052820 0.382619 -0.374218 -0.326382 0.038870 -0.325453 -0.383571 -0.227983 -0.399872 0.362666 0.090786 -0.050841 0.041073 -0.058691 0.342522 -0.422774 0.093160 0.280993 0.155141 -0.396741 0.447976 0.168336 -0.025623 -0.240508 0.480135 -0.319763 -0.428868 0.374999 0.164269 0.271797 -0.003853 0.392767 0.200308 -0.103217 -0.268281 -0.006331 0.269716 -0.357448 -0.250111 -0.095773 0.309577 0.004822 0.283500 -0.003153 -0.191828 0.182702 -0.405991 -0.088688 -0.007417 -0.359103 0.442643 -0.030872 -0.188084 -0.385929 -0.328594 0.509096 0.473060 0.039137 -0.253682 0.321093 -0.061420 0.142853 0.134383 -0.134841 -0.502907 0.249129 0.293928 -0.061592 0.037897 0.459010 -0.355663 -0.254093 -0.129486 0.047194 0.122469 0.144930 0.098999 0.271952 -0.462803 0.286971 0.324244 -0.353578 -0.180511 -0.189631 -0.024512 -0.356744 -0.485766 -0.089308 -0.388055 0.380880 0.479358 -0.156286 0.257241 -0.113307 0.064310 -0.205916 0.052336 0.344204 -0.011937 0.087144 0.259960 -0.208824 -0.259687 -0.030138 0.121321 -0.488726 -0.267262 -0.200837 -0.078525 0.326400 -0.045258 -0.129856 -0.234969 0.454030 0.211717 0.138916 0.150677 0.009487 0.234365 -0.352394 0.197840 -0.183711 -0.390813 -0.023855 0.397982 -0.448730 -0.152618 0.148145 0.002969 -0.123607 0.228407 -0.234250 0.045208 0.362749 -0.247857 0.373340 -0.344006 0.498847 0.246065 0.287290 -0.137086 -0.157411 0.127771 0.091810 -0.343723 0.126042 -0.323496 0.018282 0.224735 -0.107866 0.467518 -0.260145 -0.164109 -0.261911 -0.158550 0.306253 0.386047 -0.161840 -0.162727 -0.488993 -0.069268 -0.424530 -0.214819 0.134901 -0.060475 -0.291291 0.110150 -0.318654 0.176645 -0.042593 0.277414 0.499401 0.282297 0.265098 0.227930 0.066334 -0.451960 -0.357062 -0.095592 0.070363 -0.010874 0.237038 -0.137438 -0.186776 -0.216694 -0.253978 -0.014010 0.478598 -0.265846 0.459695 -0.123068 0.412240 0.449418 -0.411093 0.303968 0.192156 -0.165635 0.149261 0.399351 0.246656 0.286210 -0.241254 -0.073521 0.388482 -0.030744 0.312597 -0.128790 -0.401053 0.145356 -0.042699 -0.081958 0.248301 0.314925 -0.034087 -0.226739 0.356199 -0.032914 0.054505 0.471201 0.056386 -0.298829 0.428630 0.263174 0.015793 0.155351 -0.499164 0.246194 -0.332426 0.477069 -0.153627 0.476732 0.206660 -0.234633 -0.371328 -0.292150 0.118219 -0.449710 0.219458 -0.466955 0.314934 0.120580 0.242644 0.006930 0.512810 -0.479737 -0.026261 -0.487126 0.391752 0.481501 0.226186 0.346914 0.170046 0.334421 -0.378291 0.193141 0.476718 -0.375239 -0.139320 -0.487186 0.108908 -0.134238 -0.136277 -0.230554 -0.055280 0.347695 -0.332256 0.253808 0.013375 0.450491 0.122577 0.155091 -0.321735 0.415642 0.292037 -0.027992 0.062505 -0.244697 0.266314 -0.307799 0.155014 -0.030859 0.068538 -0.211954 -0.259158 -0.156841 0.021729 -0.459006 0.072473 -0.361112 -0.227678 -0.267318 0.237609 0.308359 0.255681 -0.028066 -0.103960 0.097733 0.467844 0.465233 0.050111 0.358743 0.341669 0.463290 0.123499 -0.466663 0.252502 0.299682 -0.238884 -0.312877 0.068946 -0.102268 0.484822 0.032949 0.461624 -0.330386 0.219011 0.224423 -0.464772 -0.018944 -0.077068 0.194783 -0.453168 -0.344077 -0.173868 0.199468 0.408075 0.027620 0.121609 -0.177673 0.483402 0.416930 0.207696 0.406787 -0.185937 0.187124 0.269635 -0.454015 0.306108 -0.254928 -0.390092 -0.245046 0.143841 0.474084 0.384426 -0.214155 0.006613 0.355546 -0.081785 0.398669 0.228672 -0.132743 -0.048751 -0.129779 -0.186349 0.093006 -0.416869 0.192534 0.390553 0.231867 0.383427 0.280400 0.378768 -0.332700 0.052014 0.406602 0.092555 -0.288891 0.073899 0.287487 0.207249 -0.379256 0.255701 -0.390996 -0.080224 -0.311497 0.281321 -0.212030 -0.250035 0.102994 0.481333 -0.202670 -0.331165 -0.308366 -0.482887 -0.182608 -0.127678 0.377146 0.394499 -0.381718 0.267733 0.303533 0.237105 0.283131 -0.359246 0.261736 0.473559 -0.450151 -0.255447 0.159732 0.055277 0.448319 -0.347683 -0.444839 0.334363 0.197460 -0.482969 0.157534 -0.241254 0.185249 -0.270103 0.228645 -0.168302 -0.227168 -0.170729 0.104092 0.462943 0.317317 0.431274 0.390368 0.048035 0.139034 0.115980 0.459634 -0.088102 -0.164265 0.226662 0.037312 -0.257515 -0.021129 0.280011 0.169939 -0.427914 0.224992 -0.309589 -0.496348 -0.234267 0.283301 0.172527 0.373144 -0.449268 -0.310284 -0.422586 -0.071331 -0.229920 0.279591 -0.149236 -0.107474 -0.314228 -0.231296 0.358894 0.151375 -0.218069 -0.398432 -0.157963 0.142816 0.209608 0.218794 0.019229 -0.230638 -0.145682 -0.288330 0.078581 -0.427322 0.043566 0.003515 0.103037 0.384400 -0.315347 0.098127 0.370029 -0.007503 -0.279187 -0.170067 -0.406470 -0.037979 -0.429239 0.332613 0.062010 -0.129983 -0.091222 -0.435001 -0.119847 0.208609 0.061167 -0.346729 0.408003 -0.112988 0.234062 -0.414449 0.366794 -0.432862 0.405458 -0.370566 0.395837 0.412242 -0.019706 -0.006028 0.145982 -0.059542 0.412678 0.443512 0.247022 0.056834 -0.002753 0.194142 -0.423376 -0.455801 0.199835 0.236692 0.126548 -0.068618 -0.387043 -0.126670 0.104300 0.441768 0.258115 0.069632 0.191337 -0.505455 0.390748 0.272776 0.290041 0.204143 0.193593 0.026092 0.368496 0.186565 0.236850 -0.109147 -0.151531 -0.137674 0.119983 0.359371 0.302137 -0.473071 0.202406 0.024301 -0.223829 -0.227078 -0.101370 -0.052947 -0.024366 -0.398101 0.102123 0.219575 0.028043 -0.163794 -0.124643 -0.004853 -0.359191 0.321719 -0.410215 -0.401048 -0.423028 0.178727 0.190873 0.489865 -0.193475 -0.476274 0.280297 -0.262149 0.482968 -0.412129 -0.378590 -0.330070 0.039349 0.169632 0.489303 -0.403251 -0.096756 0.490814 0.236581 0.300510 -0.432169 0.354273 0.314787 -0.012299 -0.173845 -0.504233 -0.084064 0.417172 -0.364296 -0.276769 0.176386 -0.041812 0.235565 0.506152 0.205828 -0.179622 -0.270670 0.113213 -0.185963 -0.482763 0.242101 0.016783 0.032147 0.139202 -0.325822 -0.097652 -0.313946 0.448249 0.052672 0.257406 -0.303743 0.418875 -0.180474 0.073035 -0.481182 0.044455 0.163939 -0.443861 0.477354 0.245866 -0.006916 0.366536 0.388717 -0.441552 -0.472693 -0.307105 -0.400402 -0.390971 -0.103699 -0.115084 0.439074 -0.412891 -0.038723 -0.472890 -0.355819 0.201148 -0.172959 0.182668 -0.195744 0.353202 -0.241452 0.363863 -0.477051 -0.191013 -0.205620 0.102030 -0.319687 0.355909 -0.413023 -0.352687 0.075250 0.131060 0.023795 -0.344221 -0.216380 0.008707 0.363520 -0.141905 -0.120672 0.230320 -0.162146 -0.442400 -0.184868 -0.434295 0.240518 -0.356763 -0.190071 0.045284 0.252234 0.483253 0.253104 -0.198274 -0.124817 0.107091 -0.230960 0.115857 0.004599 0.289176 -0.146755 0.347081 -0.037505 -0.008759 -0.314044 -0.177054 -0.071478 0.422755 -0.029341 0.236146 -0.227109 0.060311 -0.325906 0.411156 0.254703 0.127975 0.250049 -0.444165 0.055303 0.246790 -0.241819 -0.234031 0.489219 0.052839 -0.194183 -0.354185 0.444019 -0.034002 0.386867 0.079762 -0.112734 0.191436 0.037970 -0.126283 -0.144244 -0.036405 0.131429 0.473911 -0.391783 0.494380 0.309673 0.128215 -0.458361 0.187533 0.237712 -0.077130 0.000250 -0.398664 0.037098 0.052511 -0.358584 0.406445 0.496623 -0.359535 -0.118095 -0.064709 -0.359919 0.348183 -0.340297 0.268937 -0.058780 0.262098 0.187948 -0.326144 0.035906 -0.137541 -0.015060 -0.403641 0.469082 -0.456912 0.409198 -0.314096 -0.480054 -0.061182 -0.361455 -0.191176 0.383501 0.295485 0.444126 -0.389581 -0.289099 0.247357 -0.223469 0.171282 0.034753 0.283373 0.227877 0.365913 -0.268990 -0.016942 0.467272 0.286788 0.145183 -0.256940 0.217352 -0.248377 -0.049086 -0.500333 0.403025 0.087766 -0.321269 0.203042 -0.225059 -0.459436 -0.255058 -0.310338 0.151705 0.253022 0.243380 -0.273867 0.232258 -0.166920 0.065895 -0.395268 0.078657 -0.058827 -0.384304 -0.312788 0.248736 -0.172358 0.168387 0.235734 -0.330890 -0.283346 0.476503 -0.292605 -0.427940 0.319089 0.154901 -0.144815 0.376208 0.432934 0.200731 -0.021517 -0.031869 -0.102134 -0.267477 -0.214342 0.432242 -0.183668 -0.400530 0.499726 0.291705 -0.260170 0.304986 -0.280982 -0.361336 0.211462 0.336278 0.338437 -0.104833 -0.430899 0.257550 -0.256819 0.500278 -0.088235 -0.322104 -0.174991 -0.321617 -0.286812 -0.086967 0.213580 0.217643 0.165432 0.482383 0.072086 -0.338401 0.481402 0.050947 -0.459928 -0.204731 0.200355 -0.011738 -0.372087 -0.025336 0.425881 0.145338 -0.182387 0.428608 -0.022001 -0.471069 0.435865 -0.478918 -0.237976 -0.132535 0.164873 0.373623 0.040718 0.353071 -0.152384 -0.467672 0.227122 0.133861 -0.050458 -0.364420 0.184810 0.257391 0.222646 0.277799 -0.194240 -0.033214 0.415503 0.278825 -0.151086 -0.010758 0.002944 -0.499640 -0.480565 0.037844 -0.155500 -0.319515 -0.096893 0.240354 0.308587 0.013386 0.090214 -0.411396 -0.119527 -0.287831 0.044964 0.445441 0.082315 0.013196 -0.177557 0.367124 0.155563 0.351601 0.270969 0.209170 -0.243524 0.388289 -0.351553 -0.048427 0.450447 -0.294069 0.426919 -0.232280 0.321969 0.148034 -0.401039 -0.197001 0.368097 -0.480772 0.130389 -0.268794 -0.302218 -0.117895 -0.495761 0.101648 0.101592 -0.440593 0.451588 0.301493 -0.357319 0.167923 0.366488 0.057987 -0.179307 -0.355071 0.385800 -0.347391 -0.334945 0.441417 -0.363930 -0.151164 -0.467830 -0.042796 0.022174 0.139775 0.269333 0.288333 -0.495435 -0.111300 -0.251798 0.146397 -0.261625 -0.431406 0.128464 -0.323825 -0.118101 -0.413089 -0.367770 0.326199 -0.495048 0.191461 0.454004 -0.354725 -0.096226 0.385659 -0.368023 -0.123207 -0.256636 -0.135277 -0.233801 -0.492021 0.249683 0.122991 -0.120498 -0.327831 0.182482 0.186149 0.225428 -0.372971 0.417068 -0.073620 -0.342656 -0.123316 -0.416948 0.276639 0.178179 0.501711 -0.447174 -0.034517 -0.456855 0.072901 -0.276747 0.037640 -0.040643 -0.094795 0.347278 0.244991 -0.137065 -0.260519 0.432939 0.056012 -0.029573 -0.224315 -0.480034 -0.013972 -0.225207 0.422282 -0.229011 0.305134 -0.004571 0.027701 -0.304325 0.049334 -0.428859 0.158557 0.372891 -0.386299 -0.243727 0.211757 0.025050 0.011118 -0.405092 0.237519 0.258840 0.443658 -0.055639 -0.146752 0.132284 -0.419289 -0.461081 -0.265516 0.011002 -0.099958 -0.119582 -0.315832 0.489602 -0.365695 0.409382 -0.497230 0.405451 -0.494705 0.393066 0.449954 -0.030061 0.381762 0.213627 0.358376 0.107269 0.330277 0.302314 0.454593 -0.425061 0.115051 -0.155218 0.489086 -0.166024 -0.005940 -0.091639 -0.459671 0.156753 -0.132149 -0.154744 -0.339030 0.477831 -0.449285 0.168556 0.107417 -0.042341 -0.158455 0.329729 -0.058840 0.464339 -0.236705 -0.112867 -0.470617 -0.077438 -0.048634 -0.440295 0.422095 -0.107762 -0.000719 0.306731 0.420923 0.327966 0.045116 -0.296065 0.457424 0.158414 0.105697 -0.342295 0.176741 -0.277211 0.014109 -0.229035 0.289069 0.156749 0.374020 -0.341108 -0.468646 0.137520 -0.196998 -0.181333 -0.401494 0.115145 0.196093 -0.410798 -0.393826 -0.374492 0.492385 0.396506 -0.087975 -0.465184 0.162445 -0.169668 0.414315 -0.330999 -0.069586 -0.373803 -0.204932 -0.335266 0.110524 -0.011009 -0.303848 0.013551 -0.298203 -0.401177 -0.109464 0.118461 0.009959 0.182518 -0.417593 0.088331 0.335959 -0.119427 0.380792 -0.107704 0.326796 0.322969 0.205224 0.239094 -0.229728 -0.346251 0.308962 0.108657 -0.075674 0.266535 0.283625 0.045860 0.445157 0.464175 -0.059855 -0.203041 0.378447 0.418326 -0.486579 -0.192336 0.273933 -0.319314 -0.442960 -0.026147 0.477672 0.406722 0.006067 -0.010415 0.267532 0.064927 -0.463606 0.217668 0.354749 0.480696 0.113208 0.376651 0.321294 0.056264 -0.417075 -0.109651 -0.394231 0.048197 -0.218388 0.462101 -0.150690 0.017140 0.413991 0.102339 -0.178210 -0.268836 -0.329174 -0.009273 -0.205292 0.468947 0.261384 -0.068574 0.139010 -0.123069 -0.390543 -0.072551 0.111952 -0.449063 -0.107619 0.308663 -0.436913 0.174693 -0.397830 0.194202 -0.362754 -0.233854 0.138821 -0.492063 0.436875 0.382329 -0.492302 -0.170294 0.449513 0.499405 0.229133 0.268366 -0.063538 0.018852 -0.134997 0.154940 0.119343 -0.477857 0.044945 0.394332 0.496221 0.064778 -0.276253 0.232677 -0.460519 -0.394423 0.284476 -0.315340 -0.292120 -0.084155 0.155191 -0.225460 -0.456983 -0.296060 -0.084048 0.390825 -0.048939 0.441071 -0.415787 -0.040885 -0.154932 -0.351203 0.123709 0.233376 -0.350580 0.437201 0.187038 0.272514 0.080421 0.072508 -0.182490 -0.147553 -0.037094 0.245305 -0.122817 -0.342282 -0.393758 -0.272367 -0.346966 -0.248127 -0.383912 0.336685 -0.209720 0.417977 0.374600 -0.261123 0.154624 -0.300076 -0.405982 -0.041163 -0.366717 -0.025757 0.037286 0.214376 0.072001 0.316013 0.476403 -0.445154 -0.068669 -0.139135 -0.390299 0.229233 0.342929 0.285112 0.095725 -0.009350 0.304195 0.357906 -0.193021 0.021794 0.084365 0.202243 0.190348 0.397704 -0.288142 0.460930 0.401852 -0.225535 -0.080557 0.048934 -0.499867 0.292275 -0.352623 -0.448695 -0.182110 0.425465 -0.464693 -0.307477 -0.186283 0.221228 -0.170566 -0.013401 0.499827 -0.005906 -0.225715 -0.079413 -0.225554 0.321414 0.433119 -0.409994 0.426024 0.071638 0.029559 -0.013066 0.060518 -0.234345 -0.072483 0.464543 0.021408 0.060550 -0.456789 -0.303593 0.397889 -0.127668 0.499961 -0.429317 0.441053 0.119465 0.315997 0.162150 0.429322 -0.284214 -0.159935 0.084633 0.096838 -0.096063 -0.476466 0.314935 0.017606 -0.254667 0.296345 -0.217456 0.233467 -0.240869 0.088286 -0.310994 0.448603 -0.460344 0.076212 0.362758 0.256744 -0.111768 0.323688 -0.381831 0.264727 0.233337 -0.076439 -0.409802 0.255912 0.257567 0.433969 0.468703 0.221564 -0.386354 -0.268759 0.460895 0.197970 0.393682 0.295846 -0.497105 -0.037273 0.476565 -0.119753 -0.201963 0.309815 -0.221577 -0.021948 -0.119412 -0.068732 0.107821 0.284358 0.355067 0.044937 -0.248887 0.350809 0.484483 -0.122602 -0.444554 0.041178 0.433351 0.268408 0.311762 0.115558 0.381064 0.405894 -0.421530 0.316691 0.457058 0.127065 -0.182109 -0.385680 0.448727 -0.425461 0.350669 0.052906 0.378302 -0.053272 -0.449305 -0.115408 0.394204 -0.013155 -0.307847 0.245153 0.055992 0.211339 -0.171485 0.308270 -0.499972 -0.308128 -0.096514 -0.202340 -0.377441 0.174645 -0.346474 -0.335236 0.001871 -0.139262 -0.174794 -0.018717 -0.197725 0.370371 -0.330999 0.080709 0.480390 -0.370807 -0.370670 -0.017643 0.182462 0.425525 0.492110 -0.355106 0.311886 -0.072146 -0.425598 -0.472517 0.092497 -0.401975 0.013172 0.170434 -0.441214 -0.100125 0.100019 -0.260773 -0.060628 -0.327251 0.311730 -0.151498 0.127460 -0.119982 0.139081 0.159032 -0.409799 -0.472484 0.158513 -0.496151 -0.202083 0.303570 0.484165 0.155127 -0.280481 0.418197 -0.249112 -0.429259 0.206393 -0.319494 -0.331229 0.064714 -0.303945 0.073133 0.131261 0.096212 0.465059 0.009940 0.433419 -0.127029 -0.311746 -0.009990 0.444457 0.472779 -0.488104 -0.342929 0.248816 0.268436 -0.127942 -0.088215 -0.053112 0.252895 0.229300 -0.331264 -0.370371 -0.103972 -0.036935 0.139288 0.460810 -0.241331 -0.071828 -0.300132 -0.374303 0.087966 -0.190424 0.331461 0.271337 0.456767 -0.268822 -0.272615 -0.296328 0.355015 0.225482 0.021562 0.272156 -0.088818 -0.115505 0.166665 0.252943 -0.158797 -0.044978 -0.315660 0.350586 -0.229700 0.390356 0.154695 -0.476190 -0.492239 -0.421541 0.253310 0.406054 0.174484 0.488379 -0.049044 0.452430 0.174374 0.480463 -0.355285 -0.143133 -0.060896 -0.245091 0.456832 0.127793 -0.151166 0.143165 0.284272 -0.151124 0.103894 -0.013594 -0.198066 0.319111 -0.021246 0.413498 0.390234 -0.205953 0.233250 0.347284 -0.272549 -0.370457 -0.162646 -0.155199 -0.122896 -0.162952 0.311696 -0.178796 -0.405915 0.017512 -0.319686 -0.198525 -0.354901 0.197364 0.370798 -0.448979 0.480418 -0.488128 -0.456926 0.126823 0.135097 0.021546 0.052620 0.139088 0.053295 -0.445077 -0.261113 0.426405 0.127659 -0.120274 0.197634 0.048402 -0.033335 0.421283 -0.283538 0.292118 -0.068329 0.229757 -0.366689 0.397903 0.460362 -0.084501 -0.488579 -0.441179 0.311611 0.179158 0.053032 -0.444924 0.441189 0.252917 0.436866 0.175036 0.092336 0.041121 -0.029397 -0.441052 0.166562 -0.327046 -0.131522 0.237270 0.292209 0.296040 0.209433 -0.171050 0.343142 0.284298 -0.041389 0.048978 -0.350520 0.005960 0.221433 -0.100326 0.111725 0.060772 -0.182320 0.390300 -0.001938 0.378489 0.033363 0.013861 -0.261065 -0.249076 0.394362 -0.491836 -0.358587 0.362750 0.268720 -0.151719 -0.041208 0.307804 -0.283993 0.248982 -0.339554 -0.245360 0.324008 -0.154489 0.280395 -0.214159 0.366660 -0.151119 0.107605 0.115384 0.261054 0.154921 0.402502 0.288293 -0.151070 -0.476563 0.441248 -0.304034 -0.315376 -0.146865 0.005845 0.350949 0.390540 0.350871 0.272413 -0.236846 -0.370748 -0.260693 -0.437253 -0.214199 0.375050 0.429450 0.409705 -0.174504 0.201738 0.433655 0.366646 -0.201787 0.127345 -0.358853 -0.115685 -0.068651 0.107860 -0.010292 0.162814 0.025680 0.080611 -0.080071 -0.190165 0.460889 0.307856 -0.213992 -0.186184 0.417676 0.335767 0.009426 0.127389 0.068628 0.315283 -0.182617 -0.476462 -0.347405 -0.092283 0.390254 -0.429155 -0.296172 0.092169 -0.488489 -0.327742 0.001835 -0.233315 0.346985 -0.181905 0.390359 0.166590 0.194715 -0.060844 0.071988 0.252999 0.386265 -0.111187 -0.213809 -0.496073 -0.052704 0.159006 -0.327337 0.417467 -0.308353 0.421622 0.241107 -0.201523 0.041284 -0.096070 0.052778 -0.358806 0.295872 0.276485 -0.354983 -0.409772 0.186604 0.197908 -0.029470 -0.233392 -0.343040 0.483966 -0.327438 0.115543 0.304379 -0.142715 -0.202065 -0.104039 0.287891 0.099713 -0.131803 -0.052922 0.099802 -0.174635 0.260607 0.221758 0.076608 -0.155520 -0.401936 0.037234 0.260482 0.237280 0.483952 0.048986 0.127594 0.272592 0.311644 -0.480301 0.088520 -0.002344 0.288635 -0.347091 -0.276511 -0.045000 -0.366736 0.468077 -0.495940 -0.303801 0.311897 -0.150593 0.194138 -0.264914 0.198260 0.484423 -0.457157 0.362706 -0.378376 -0.037047 -0.158788 -0.053105 -0.170548 -0.116045 0.170581 0.307734 -0.449329 -0.099656 -0.327656 -0.394740 -0.056693 0.127435 0.021233 0.296098 0.146993 -0.029153 0.394051 0.213878 -0.209717 0.233687 -0.111895 -0.048889 0.252844 0.303775 -0.115741 -0.096146 0.080253 0.040799 -0.229218 0.064725 -0.123530 0.009577 0.346660 0.084038 -0.076640 -0.374655 -0.009803 -0.468079 -0.421537 0.053014 0.323698 0.468501 0.346984 -0.104188 -0.288303 0.205859 -0.471866 0.288971 0.021562 -0.338315 -0.464495 0.268591 -0.037441 0.138884 -0.327637 0.217459 -0.213663 0.135218 0.073224 -0.205844 0.303839 0.421648 -0.339391 -0.127778 -0.236740 -0.249124 0.217769 -0.182472 -0.319615 0.480138 -0.017623 -0.190123 -0.225611 0.436961 0.241003 0.429138 -0.139379 0.354944 -0.142982 -0.311988 -0.194307 0.194044 0.500115 0.440919 0.119595 -0.295861 0.441259 0.366736 0.370741 -0.237103 0.425588 -0.343112 -0.068573 -0.021899 0.440793 -0.484235 0.335351 -0.217397 -0.245462 -0.386305 -0.111923 0.217218 -0.492252 -0.256847 -0.256815 0.358847 0.405097 0.398112 -0.499415 0.146834 0.271967 -0.005761 0.421744 0.307750 0.421577 0.413887 0.484375 -0.119226 -0.464757 0.272460 -0.096094 0.292102 0.327476 -0.265202 -0.005748 -0.123455 0.190383 -0.240830 -0.421665 -0.221381 -0.041124 -0.241500 -0.354855 0.401909 -0.347317 -0.182089 0.029434 -0.378446 0.072522 0.131307 -0.426178 0.350276 -0.029669 0.335661 0.464084 0.039022 -0.123749 0.470043 -0.291389 -0.134667 0.441909 -0.182278 -0.322668 -0.222531 0.100377 0.464229 0.434390 -0.460870 0.496472 0.268833 -0.235546 -0.296169 -0.239326 -0.494819 -0.005346 0.315487 -0.384953 0.404480 0.346746 0.347042 0.211264 -0.286340 0.433967 0.168470 0.490619 -0.228383 0.073522 -0.444699 -0.388940 0.089534 0.307771 0.179341 -0.241868 -0.403068 -0.009648 -0.186242 -0.057538 -0.224143 0.488966 0.037264 0.148138 0.124317 -0.487984 0.468838 -0.113511 0.460460 0.244669 -0.090859 -0.013187 0.123252 -0.178619 0.225508 0.252853 -0.157224 -0.335821 -0.334954 0.499260 -0.217091 -0.214149 0.451619 0.382585 -0.374487 0.209962 0.205041 -0.032310 -0.487946 -0.499092 -0.029460 -0.165530 0.307172 0.397761 -0.096665 0.488334 -0.319274 -0.398782 0.499564 -0.407959 -0.402727 0.204493 -0.465130 -0.205876 0.280228 -0.054573 0.463468 0.028705 -0.495741 -0.256258 -0.323689 0.018471 -0.174541 0.079247 -0.257925 0.438023 -0.480944 -0.484892 0.191377 -0.456056 0.351994 -0.373922 0.279856 0.067969 0.113159 -0.374730 0.303173 -0.104800 0.294340 0.491369 0.190437 -0.423918 0.154682 -0.064644 0.496521 0.338213 0.447044 -0.170229 0.050271 -0.241601 0.484600 -0.062624 0.456632 -0.235633 0.447195 0.248240 -0.114762 -0.176886 -0.031314 0.294756 -0.313055 -0.291662 -0.017951 -0.138637 -0.002136 -0.382377 0.088854 0.257337 0.485809 -0.058916 -0.139414 0.083609 0.170289 -0.123529 0.157661 0.411318 0.189292 -0.147484 0.228982 0.346446 -0.001441 0.272390 -0.265578 -0.003844 -0.338910 0.060856 -0.284686 -0.474120 0.052593 0.002665 -0.421478 -0.191727 -0.278849 0.431035 0.354425 0.069417 0.205804 0.302798 0.235424 -0.048186 0.037515 0.309202 -0.389628 0.335483 0.021919 -0.167752 -0.256431 -0.076497 -0.028304 0.268108 0.327282 0.425614 0.269943 0.100840 -0.418410 0.365282 0.166293 0.084729 0.197554 0.245054 -0.140170 0.320287 -0.352870 -0.348491 0.018317 -0.385783 -0.457855 -0.319345 0.292008 -0.055536 -0.004948 0.265140 0.375328 -0.162931 -0.225023 -0.420642 -0.471047 -0.140661 -0.272786 -0.007589 -0.021584 -0.433018 0.375538 0.372613 -0.354576 0.111618 -0.099272 0.169796 0.085012 0.402621 -0.247681 0.147023 0.078689 -0.248987 -0.031450 -0.256571 0.394185 -0.052974 -0.466045 0.240931 0.469607 -0.183782 -0.117445 0.084633 -0.197620 -0.225902 -0.472067 0.123897 -0.475353 -0.432144 -0.169484 -0.028958 0.190199 0.205263 0.500976 -0.431511 0.472924 -0.112260 0.221099 0.158335 0.171090 0.359339 0.182255 -0.320645 0.077915 -0.382330 -0.109834 0.194992 0.390660 0.249984 -0.186491 -0.409131 0.316520 -0.057560 0.185789 -0.382015 0.238134 0.021265 0.167192 -0.101802 -0.464283 0.297040 0.419749 0.379414 0.275652 -0.198624 0.434470 0.032731 -0.233027 0.414091 0.468041 0.403182 0.256931 -0.381398 -0.374485 -0.226083 0.432293 -0.440587 -0.148485 -0.390443 -0.471627 0.050411 -0.164511 -0.413087 -0.378714 0.406687 -0.312308 0.350482 -0.393491 0.041297 0.345076 0.227730 0.206342 0.313212 -0.020752 0.060472 0.182679 -0.303008 0.479724 -0.039560 -0.019500 0.314132 0.246629 0.322612 0.236689 -0.446496 -0.283427 0.032341 0.166423 0.171226 0.391845 0.041171 -0.473007 0.123235 0.189418 -0.161562 0.244303 -0.139750 0.135666 -0.410793 -0.010513 0.233825 -0.268029 0.244041 0.289303 0.149736 0.371694 0.289669 0.311442 -0.178998 -0.383853 0.113542 -0.382630 -0.416681 -0.426348 -0.074357 -0.052547 -0.225904 0.162397 0.008881 0.398228 -0.004011 -0.030137 0.053402 -0.030891 0.229525 -0.026078 -0.106330 0.110051 0.053528 0.129045 0.051909 -0.363867 -0.023472 0.460321 -0.275961 0.234806 0.480936 0.286569 -0.011899 0.463305 -0.463593 0.300121 -0.425353 -0.097614 0.467019 0.361950 0.092294 -0.018278 0.094063 -0.285019 -0.112007 0.371392 -0.374063 -0.236550 -0.247938 0.364769 0.475518 -0.234751 0.226201 -0.288983 -0.148171 0.171333 -0.345214 -0.486880 -0.149058 -0.480277 0.067647 0.400687 0.009602 -0.348966 -0.027118 -0.055453 0.280046 0.382602 -0.289856 0.396344 -0.250847 -0.375799 0.199240 0.139124 0.456147 0.198184 -0.211877 0.220695 -0.365755 -0.384351 -0.186824 0.314519 -0.236357 -0.469096 -0.016544 0.341745 -0.308407 -0.075602 0.147311 -0.212616 -0.173472 -0.231411 0.159155 -0.342879 -0.337612 -0.068226 0.262093 0.066515 -0.273303 -0.347375 0.362434 -0.004508 0.124112 0.352687 0.390749 -0.304508 -0.487454 -0.474644 0.465495 -0.407230 -0.240149 -0.433811 0.015402 -0.248864 -0.115593 -0.110470 -0.166173 -0.398398 -0.377976 0.362751 -0.235253 0.102280 -0.205424 -0.039065 -0.204165 -0.333484 0.469917 0.304721 0.187405 0.484342 0.468482 -0.152398 -0.341272 -0.220727 -0.261290 -0.425430 0.342956 0.336021 -0.083673 0.453700 -0.265877 0.393697 -0.462935 -0.168357 -0.317976 0.286507 -0.264759 0.438435 0.034559 0.007227 0.064129 -0.074076 0.182884 -0.283356 0.429238 -0.494184 -0.099300 -0.215640 -0.297306 -0.348697 -0.312035 0.323311 -0.207414 -0.027354 -0.228001 0.458695 0.371085 -0.467263 0.241518 0.101272 -0.161788 0.420594 -0.329552 -0.026362 0.100116 0.443414 0.397702 -0.138074 -0.049665 0.405909 -0.332466 -0.124170 -0.054355 -0.376849 -0.179426 0.036561 -0.449555 0.233214 -0.246238 -0.271840 -0.409110 0.296440 0.095875 -0.021849 0.382722 0.460713 0.303979 0.233645 0.245836 0.421731 -0.497974 -0.278859 0.413211 0.059773 -0.203366 -0.469656 0.013355 -0.184258 -0.078408 0.340247 0.400027 0.184825 0.309326 0.466808 -0.443006 0.407713 -0.171927 0.219155 0.497103 0.252301 -0.197285 -0.299696 0.153885 0.498494 -0.483983 0.338233 0.363843 -0.487370 -0.214690 0.328899 0.342084 -0.089712 0.366896 -0.004177 -0.330541 -0.423987 -0.316157 0.196698 -0.300503 -0.178572 0.092786 0.438558 -0.485604 -0.396830 -0.485983 -0.419302 0.298161 -0.397391 -0.011134 0.472535 -0.166383 0.177973 0.477135 0.250213 0.152692 -0.447955 0.022850 0.088769 0.162915 -0.213334 0.315489 0.157151 0.356893 -0.418503 -0.126788 -0.009400 -0.107284 0.225409 0.161370 0.117656 -0.408873 0.388583 -0.132242 -0.116557 -0.333957 0.282151 0.204837 -0.450064 0.390351 0.314136 -0.485369 0.342769 -0.057349 0.428493 0.209929 -0.388660 0.302554 -0.134729 0.350403 -0.024263 -0.451730 -0.219274 -0.200963 0.030998 0.030022 -0.400320 -0.413094 -0.422121 0.468979 0.019227 0.102531 -0.021543 -0.417937 0.287142 0.321973 0.377007 -0.183147 0.174773 0.263019 -0.336493 -0.253086 -0.256541 0.060093 -0.177098 -0.039605 -0.483459 -0.205805 0.268970 0.415707 0.184249 0.039704 -0.052470 0.372011 -0.053207 -0.462314 0.124677 0.371265 -0.343311 -0.411921 -0.214321 0.372824 -0.264300 0.303849 -0.105237 0.082158 -0.053167 0.287063 0.278353 -0.174900 -0.019105 0.065877 -0.471097 0.394105 -0.387161 0.490785 0.362788 -0.070772 -0.019954 -0.248562 -0.305204 -0.151886 -0.188340 -0.166687 0.431868 -0.206228 -0.079946 0.406234 -0.340559 -0.288797 0.240924 -0.358475 -0.098077 0.323855 -0.368703 -0.425001 0.391035 0.389763 -0.286716 0.482303 -0.424418 -0.137248 0.400360 -0.049312 -0.456497 0.069692 0.481104 -0.154628 0.438561 0.144172 0.070110 -0.310861 -0.222620 -0.451397 -0.457902 -0.286853 -0.091460 -0.370976 0.164144 -0.443859 0.128222 0.334328 -0.002404 -0.123056 0.450080 -0.486507 -0.050484 0.115286 0.218923 0.021471 0.387799 -0.446876 0.135385 -0.490660 0.424962 0.271915 0.058519 -0.248607 0.405941 -0.379857 0.045068 -0.084701 -0.360842 0.282660 0.351373 0.266948 0.484466 -0.183768 0.391059 -0.036873 -0.314052 -0.226551 0.437136 -0.034337 0.501260 -0.183237 0.157487 0.240645 -0.180091 -0.491139 0.467159 0.024440 -0.216052 -0.095186 0.259448 0.373916 -0.274833 0.369729 0.107501 -0.235818 0.351324 0.014636 -0.455297 -0.125076 0.219394 0.451749 0.391670 0.326750 0.156062 -0.462086 -0.115230 0.477789 0.372657 -0.402012 -0.169883 0.001988 0.008197 0.308434 0.490226 -0.371238 -0.458208 0.401750 -0.287334 0.319471 -0.345183 0.003249 -0.134323 0.025735 -0.364559 -0.162162 -0.062340 -0.003281 -0.337496 0.069161 -0.046734 0.490789 -0.370274 0.174069 -0.484441 0.080559 -0.006325 -0.463948 -0.483154 0.034220 -0.301741 0.057626 0.032915 -0.296957 -0.059297 -0.430147 0.439528 -0.268989 -0.097101 0.250623 0.369257 -0.078356 -0.433920 -0.355387 -0.058414 -0.183945 -0.429243 0.177861 0.270582 -0.509437 0.030337 0.352021 0.415016 0.292228 0.346982 -0.276128 -0.136777 -0.107467 -0.279741 0.063208 -0.206058 -0.406334 0.214093 -0.198511 -0.438885 0.235206 -0.018799 -0.428163 0.433246 0.312879 -0.338599 0.490190 0.036148 0.380510 -0.129505 0.251309 -0.078951 0.391369 -0.442655 0.394101 0.055744 -0.237872 -0.259954 0.166084 -0.259605 -0.322676 0.298854 -0.215412 0.026605 -0.444514 0.065483 0.358544 0.399089 -0.059344 -0.155633 -0.067264 -0.098416 0.117573 0.481006 0.427284 -0.427466 0.188623 0.275904 0.087090 -0.464821 0.383986 0.126803 0.137811 0.361411 0.159333 0.028332 -0.461440 0.062353 -0.340919 -0.125512 -0.335587 -0.112794 -0.228725 -0.157617 -0.266143 0.144636 -0.350684 0.205285 0.364689 -0.469478 0.211418 -0.260893 0.341849 0.465445 -0.402216 0.357104 0.150944 0.450487 0.302397 0.205553 -0.410363 0.282883 0.406433 0.316553 0.276897 0.496687 0.353446 0.486904 0.430176 -0.448504 0.497652 -0.480073 -0.105069 -0.052822 0.087038 -0.276642 -0.287393 0.116432 0.402008 -0.489438 0.464919 0.084787 -0.392311 0.218010 -0.131619 0.325794 -0.466511 -0.190559 0.388484 -0.331607 0.402228 -0.168405 0.443909 0.143406 -0.328804 -0.471009 0.244978 0.435598 0.054684 0.464934 0.288630 -0.222238 0.202875 -0.173253 -0.261047 0.160404 -0.098614 0.286358 -0.337483 -0.071716 0.022911 0.289893 0.202572 -0.494528 -0.266267 0.066795 -0.448891 0.477932 0.409220 0.127079 -0.089688 -0.372362 0.237056 -0.049736 0.073083 -0.192772 -0.106085 0.146869 0.412043 -0.398116 0.466149 0.418577 -0.481002 -0.358470 0.434945 0.024001 0.479305 0.187940 -0.071921 0.299553 -0.069793 -0.200596 0.337704 0.152692 0.158930 -0.251325 0.277664 -0.419858 0.497672 -0.246561 0.172061 0.402089 0.004985 0.184637 0.051338 0.010133 0.005651 -0.077565 0.364948 -0.409489 0.005768 0.368157 -0.032793 0.445083 -0.468353 -0.466840 0.137800 -0.363110 -0.130535 -0.133608 -0.435318 0.053075 -0.115059 0.057942 0.240012 -0.485231 0.189002 0.219413 0.214383 0.028307 0.315969 -0.465597 0.100110 0.325450 -0.029738 -0.286721 -0.151774 -0.151916 0.024422 -0.503093 0.005153 -0.482762 -0.331917 -0.340853 0.315415 -0.080811 -0.406727 0.479777 -0.125531 0.342537 -0.081410 0.032431 -0.197166 0.289516 -0.197988 -0.247075 0.097011 0.403724 0.410522 -0.223671 0.194524 -0.500987 0.167050 -0.449347 -0.368783 -0.257785 0.420762 0.174275 0.338023 -0.403665 -0.263378 0.183909 0.157889 0.128725 0.306284 -0.067982 0.075710 -0.171189 -0.381994 0.341079 -0.015257 -0.428528 0.338441 0.168180 0.321102 -0.019756 -0.148430 -0.351735 -0.027318 -0.466886 -0.396827 0.350753 -0.037083 0.306822 0.394675 -0.351135 -0.250863 0.087626 0.465204 0.065357 0.290837 0.186817 -0.246175 0.471088 0.106520 -0.438297 0.162193 -0.351369 -0.488632 0.061547 0.006002 -0.220747 0.420939 -0.093174 -0.371087 0.193325 0.016258 -0.443807 0.310777 0.044074 0.157714 0.312390 0.185504 -0.290669 -0.286724 -0.098695 -0.040457 -0.374047 -0.103885 0.085359 -0.223865 0.356175 -0.304478 -0.423511 -0.268917 -0.289971 0.352795 -0.281074 -0.172946 -0.437701 -0.135113 0.254441 0.310915 -0.398494 -0.399468 0.457741 0.383173 0.343303 -0.309855 -0.286583 -0.407665 0.294556 -0.036655 -0.127213 0.137765 -0.412360 -0.158776 0.444766 0.115712 -0.005095 -0.278866 0.073649 -0.500995 0.307757 0.068118 -0.241279 -0.062774 -0.105726 -0.383466 0.254951 0.240392 0.414262 0.392976 -0.312119 -0.334647 0.214993 -0.404039 0.128637 -0.153053 -0.173675 0.374904 -0.403756 -0.383649 0.466607 -0.013978 0.427259 -0.248448 0.282818 0.422201 0.063548 0.451974 0.249578 -0.341228 0.018260 -0.441897 0.173395 0.191041 -0.175401 -0.469462 0.255593 0.363531 -0.090644 0.199418 -0.459681 0.428992 0.225506 -0.059394 -0.059052 0.276300 -0.401270 -0.062970 -0.135077 0.046683 -0.022793 0.478065 -0.465736 0.375697 0.228009 0.210497 0.346707 0.392988 0.491520 0.205842 0.422797 -0.161894 0.394224 0.332764 -0.042775 0.477823 -0.187093 0.263248 -0.082375 0.374076 -0.141144 -0.122108 0.416988 -0.069063 -0.155553 0.133412 0.433281 0.297783 -0.476348 -0.173507 0.431360 0.445555 -0.226562 -0.429492 -0.179714 -0.057951 0.440990 0.481044 0.481762 0.188966 0.387056 0.104181 -0.456540 0.322328 0.108747 0.444980 0.123129 0.021092 -0.208743 -0.238223 -0.264539 -0.347403 0.464889 0.357673 0.222356 -0.097581 0.499930 -0.107242 0.486070 -0.140511 0.329651 -0.305968 0.488369 0.284142 0.425461 -0.030916 0.133901 0.350873 0.399670 -0.119673 0.409277 -0.393954 0.108209 0.225743 0.174582 0.319510 -0.197576 -0.127842 -0.035552 -0.040198 -0.322275 -0.285130 -0.075569 -0.422921 0.300470 -0.025959 0.421545 -0.338797 -0.154877 0.100382 -0.222786 -0.139902 0.170981 -0.366868 0.082754 0.333993 0.120129 -0.279367 -0.282136 0.169512 0.026640 -0.131241 0.212021 0.151035 0.468264 0.475961 -0.247081 0.252328 0.332478 0.394243 -0.272531 -0.067680 -0.034355 -0.072239 -0.078839 0.103849 0.037118 -0.252893 0.472675 0.233903 -0.491106 0.123520 0.288299 0.474425 -0.289873 0.421585 -0.413717 0.015581 -0.047670 0.483027 -0.413743 0.256616 0.223066 0.178869 0.235050 0.136049 0.215519 -0.324674 -0.348350 -0.076538 0.407613 0.096434 -0.233371 0.441081 0.088398 0.193093 0.304848 -0.242327 0.089801 -0.092429 0.452852 -0.190717 0.187789 0.303882 -0.163359 -0.186264 -0.472737 0.488561 0.308536 -0.428121 0.297157 -0.206249 0.209994 -0.177308 0.312981 0.135056 0.186912 -0.063596 -0.292508 -0.343342 0.244993 -0.135261 0.245110 0.053184 0.420833 0.460692 0.068919 0.359208 -0.212294 0.037394 0.370183 -0.265541 0.240551 -0.241090 -0.275749 0.052815 0.348820 -0.453974 -0.131467 -0.433497 0.378734 -0.124931 -0.209802 -0.365075 0.253693 0.214598 -0.118910 0.276377 0.359068 -0.331315 0.028150 0.457357 0.268634 -0.252903 0.185266 0.494642 -0.213728 -0.162256 -0.413519 -0.150959 0.088018 -0.463146 0.327300 -0.394097 0.459196 0.404821 0.472656 -0.118762 -0.150648 0.394398 -0.048776 0.273708 0.319761 -0.193473 -0.170639 -0.333716 -0.255706 0.353768 -0.194148 0.349609 -0.386118 -0.122933 -0.184491 -0.484495 0.121139 0.110021 -0.419372 -0.197980 0.389962 0.278838 -0.453409 0.241096 0.407219 0.093836 -0.253049 -0.280768 -0.052909 0.268852 -0.349684 -0.119031 0.316909 -0.256861 0.319481 0.359419 0.095927 0.410049 -0.288481 -0.349784 -0.401845 0.131453 0.496082 -0.391058 0.376672 -0.315989 0.288646 -0.354859 -0.085497 -0.327474 -0.008540 0.381806 -0.385061 -0.190531 0.291852 -0.249692 -0.083421 0.246213 0.416188 -0.335526 -0.040948 0.406098 0.464337 -0.425145 -0.076168 0.100046 -0.050984 0.013737 -0.249046 0.340325 0.100091 -0.099543 -0.240003 0.026387 0.389200 -0.040010 -0.362738 0.047469 -0.504071 -0.338800 -0.283994 -0.151977 -0.405679 -0.396488 0.026286 0.278631 0.303912 0.055330 0.227570 0.125593 0.388176 -0.085170 -0.433454 0.391663 0.158572 0.143993 0.469717 -0.328631 -0.203185 0.213881 -0.280684 0.062027 0.134141 0.423771 -0.224762 0.163570 -0.004036 -0.458360 -0.141899 -0.488551 0.478852 -0.010517 0.382321 0.072981 0.092619 0.321564 -0.018245 -0.374883 -0.400613 0.161468 -0.414854 -0.037675 -0.036405 -0.443933 -0.188888 0.100067 -0.078970 0.499677 0.240871 -0.050644 0.266021 -0.101018 0.485669 0.395073 0.420991 0.336575 -0.488888 -0.499479 -0.429972 -0.332057 -0.249517 0.317219 -0.462938 -0.486461 -0.062564 0.368382 -0.157170 0.378494 0.370946 0.202299 -0.022737 0.433921 -0.131659 0.049004 -0.265189 0.107886 -0.095440 0.474426 0.325930 0.095971 0.427448 0.049075 -0.068405 -0.023818 -0.363479 -0.074126 -0.082953 -0.378205 -0.071835 0.129025 -0.310202 -0.295723 0.320246 0.017632 0.399522 -0.396404 0.456617 -0.472588 0.298199 0.300153 -0.010002 -0.017750 -0.499881 0.013002 -0.126232 -0.060355 -0.195957 -0.084369 0.123290 -0.211396 -0.123606 0.239819 -0.116450 -0.151266 -0.104893 -0.471986 -0.311609 0.490027 0.193954 -0.376511 0.234370 0.263640 -0.344774 0.389746 -0.023765 -0.329070 0.333749 -0.153108 -0.043947 0.221706 0.468139 -0.188902 -0.055716 0.501803 -0.016576 0.107824 0.065509 -0.426386 0.459539 -0.120045 -0.453854 -0.040425 0.059486 -0.223151 0.048587 -0.125228 0.317517 -0.463734 0.120815 0.185318 -0.064169 -0.299116 0.422778 -0.030477 0.290424 0.447498 0.075350 0.136339 -0.175754 0.098221 0.126814 -0.482690 0.162461 -0.452464 -0.189884 -0.105013 0.427434 -0.468594 0.100135 -0.310692 -0.114817 0.104899 0.341783 0.302863 0.444373 -0.188015 -0.468104 -0.334689 -0.468432 0.402926 0.088220 -0.201228 0.381982 0.073595 0.435641 -0.224332 0.186924 -0.198608 0.292413 -0.181897 0.415872 0.029099 -0.239111 -0.150355 0.199355 0.348597 -0.366859 0.154567 -0.275626 -0.319771 0.047231 -0.254316 0.160914 -0.014455 -0.025276 0.453193 0.463214 -0.313326 -0.420113 0.191089 -0.425831 0.240573 -0.275745 -0.477441 -0.057538 0.406241 0.369701 0.050088 -0.279743 -0.101950 0.137558 0.433098 0.421894 0.154557 0.417819 -0.380216 -0.107426 0.413347 -0.039891 -0.114117 -0.310630 -0.128164 0.241201 0.215382 -0.412542 -0.055175 0.131958 -0.401437 -0.107256 -0.450102 0.423174 0.399417 0.057732 0.072275 -0.088285 0.394083 -0.343027 0.263380 -0.114166 -0.284884 0.086631 -0.417145 -0.425583 0.417871 -0.491895 0.280109 0.099209 0.162228 0.351078 -0.330006 0.229998 0.268245 0.478652 0.354975 0.360506 -0.144050 0.346211 -0.198469 0.224719 -0.371123 0.449220 -0.087795 0.158342 0.369859 -0.470483 0.481534 0.097548 -0.297683 0.095434 -0.329669 0.296069 -0.476102 0.373479 0.231725 0.489729 -0.096799 0.292754 -0.366770 -0.167577 -0.393068 -0.420748 0.353367 0.357132 0.442453 0.320947 -0.199022 0.070415 -0.167754 -0.433195 0.386088 0.414127 -0.382378 -0.354125 -0.241885 0.071490 -0.295724 -0.332176 0.423804 -0.385159 -0.454916 -0.029967 -0.213144 -0.120857 0.253859 0.241242 -0.494896 -0.105300 0.051035 -0.457091 -0.022600 -0.445547 -0.304695 0.227588 -0.482197 -0.185900 -0.385709 0.080622 -0.450822 0.428713 0.151012 0.119478 -0.408457 -0.061633 0.215021 -0.041626 -0.409301 -0.464678 -0.252347 -0.453978 -0.123890 -0.346335 -0.321209 -0.480690 -0.134961 -0.322926 -0.154893 0.300991 -0.217952 -0.405959 0.202610 -0.251058 0.430077 -0.123280 -0.015622 0.067616 -0.460549 0.006270 0.147361 -0.385700 -0.171456 -0.404311 -0.390509 -0.180229 -0.275216 -0.069506 0.002448 -0.485326 -0.222195 -0.069084 0.486519 -0.444566 -0.058027 -0.460977 0.362352 0.402812 -0.055623 -0.426619 -0.165013 0.423302 0.366572 0.443273 -0.391375 0.180889 0.304192 -0.081434 -0.260343 0.103197 -0.243567 -0.070103 -0.375133 0.388766 -0.416404 0.306208 -0.198987 -0.422415 -0.405145 -0.136180 -0.479905 0.374901 -0.068866 0.081038 0.452225 -0.348365 -0.029162 0.477900 -0.335552 -0.142632 -0.415503 -0.110128 -0.433972 -0.301598 0.428733 0.064142 -0.270213 0.422751 0.342105 -0.338950 0.326705 0.273736 0.045261 -0.470588 0.062247 0.491665 -0.406002 -0.050017 -0.068305 0.416263 -0.193529 0.277954 0.396682 0.270708 0.292531 -0.283662 -0.184903 -0.229612 0.241709 -0.285039 0.088798 0.130931 -0.065935 -0.183131 0.351280 0.144068 0.055319 -0.488800 -0.229557 -0.304846 0.270946 -0.282903 -0.113422 0.418416 0.352780 0.065425 -0.398775 -0.027603 -0.103710 -0.191851 0.423065 -0.437141 -0.153327 0.323062 -0.487828 0.168273 -0.236353 0.310691 0.067017 -0.478736 0.167579 -0.079829 0.216728 -0.458274 -0.209731 -0.088668 -0.079979 -0.478402 -0.177394 0.125413 -0.160703 0.017280 -0.484777 -0.202390 0.163941 -0.340461 0.100033 -0.008605 -0.166188 -0.484328 -0.340012 -0.040090 0.215566 -0.408278 -0.400998 0.167962 -0.121980 -0.345832 -0.412684 -0.248261 -0.032717 0.051783 0.469089 -0.203143 0.038055 -0.426264 0.115139 0.356583 -0.283430 -0.497288 0.111369 0.276341 -0.154970 -0.339079 0.009025 -0.233922 0.319076 0.489392 0.139584 0.084314 0.041153 0.096162 0.378736 0.178426 0.402069 0.264708 -0.166541 -0.060789 0.017614 -0.029437 0.021542 0.139120 0.034175 0.080318 -0.492408 -0.347058 0.386269 -0.252911 0.233536 -0.409876 0.170599 -0.452751 0.170612 -0.460785 -0.064988 0.480468 -0.084306 0.473067 -0.178430 -0.445028 0.158886 -0.037042 -0.225280 0.202068 -0.452957 0.406081 -0.209688 -0.072619 -0.311593 -0.131369 -0.327454 0.327436 -0.009809 -0.096188 -0.335222 0.241024 0.351079 0.303671 -0.484488 0.021819 0.456837 0.021705 0.217663 -0.280515 0.060776 -0.437171 -0.256929 -0.119603 -0.272663 -0.468573 0.178410 -0.437531 0.033350 0.252939 0.319388 0.495990 -0.091565 0.088251 0.056834 -0.405895 0.100128 -0.115618 0.154820 0.154371 -0.425567 -0.104010 0.433196 0.343020 -0.272611 -0.237270 0.401638 0.170334 -0.194194 0.425669 0.303974 0.151275 0.060763 -0.370756 0.292184 -0.464763 -0.440832 -0.189920 0.037277 0.016677 0.249028 -0.131362 -0.072424 -0.374500 0.170813 -0.366502 -0.009939 0.303962 0.307861 -0.457323 -0.386326 0.351103 -0.460784 0.256763 -0.099958 -0.253078 0.492394 0.127659 -0.123505 0.146806 -0.496084 -0.394118 0.386469 -0.448839 -0.315718 -0.233335 -0.492085 0.135327 -0.041264 0.308168 -0.186133 0.190175 -0.432974 -0.390032 0.037254 -0.495854 -0.100029 -0.256911 0.111743 0.084324 -0.123586 0.256396 -0.013915 -0.068601 0.484311 -0.186359 0.484101 0.025500 0.111759 0.343159 0.468543 0.363089 0.252840 -0.295971 0.217672 -0.381893 -0.217661 0.210180 -0.433580 -0.488589 -0.445632 0.025241 0.060780 0.339532 -0.029454 -0.118807 -0.472516 0.260756 -0.150982 0.496290 -0.284419 0.156108 -0.488469 0.307330 -0.409533 -0.092157 -0.033275 0.060783 -0.280799 -0.064719 -0.107806 0.468534 -0.382331 -0.084540 0.401874 -0.453050 -0.213757 0.107843 0.198232 0.186427 0.296062 0.386353 0.339241 -0.413455 -0.120191 0.366717 0.119771 0.292092 -0.186343 0.308134 0.064668 -0.208935 -0.492106 -0.480447 0.225353 -0.162753 0.158834 -0.009271 0.052927 -0.406038 -0.182539 0.096246 -0.323481 -0.315556 -0.068543 0.335278 0.358704 -0.445682 -0.225483 -0.315760 0.468631 -0.460775 -0.182205 -0.084371 0.017398 0.198017 0.182352 0.287655 -0.351054 0.182425 -0.135304 0.170483 -0.229737 -0.162795 -0.009717 0.205894 -0.382355 0.480963 0.182750 0.292127 -0.398460 0.111759 -0.354902 0.253553 0.480515 -0.025568 -0.213870 -0.300023 0.088419 -0.166649 0.480638 -0.233293 0.390615 -0.076552 0.394252 -0.221658 -0.284315 0.327110 -0.186479 0.076533 0.213749 0.315686 -0.284301 -0.335234 -0.460818 -0.084314 -0.052941 0.323528 0.174370 -0.472566 0.343136 -0.401958 -0.143137 -0.123492 -0.374510 0.413725 0.445107 -0.405891 -0.076469 -0.127404 0.052970 0.374522 0.488237 -0.472546 -0.323529 -0.241175 -0.378423 -0.390216 0.225507 0.123529 0.119602 -0.358883 -0.021749 -0.013726 0.417650 -0.088243 -0.276417 -0.072560 -0.374495 -0.303922 0.151019 -0.445099 -0.072538 0.029410 0.107844 -0.104020 -0.433333 -0.362740 0.052953 -0.194117 0.347132 -0.056862 0.135292 -0.139225 0.460789 -0.417639 -0.217644 -0.480385 -0.139216 0.194118 0.468631 -0.056865 0.492159 -0.449018 0.319630 -0.072550 -0.099944 0.033390 -0.131365 -0.390299 0.139215 -0.394130 -0.382379 0.060819 0.303826 0.284316 0.100001 0.323510 -0.076520 -0.088201 -0.288232 -0.425489 -0.292149 0.072554 0.045146 -0.382355 -0.154821 0.300020 0.013662 -0.150970 -0.409807 -0.186275 0.323571 0.088224 -0.005857 -0.096078 -0.056826 -0.029412 -0.472522 -0.492158 -0.303920 0.190175 0.260775 0.150946 0.472590 0.045098 -0.186275 0.355032 -0.323529 0.303897 0.080392 0.468679 0.056865 0.174590 -0.147056 0.256939 -0.166650 -0.370588 0.068621 0.347016 -0.437255 -0.382352 -0.013724 -0.307843 -0.115688 -0.390196 -0.021628 0.139189 0.198032 0.025509 -0.476471 -0.166667 -0.413682 -0.056972 0.119558 -0.354900 0.143137 -0.147059 -0.425490 0.425485 -0.311762 -0.350975 0.202033 0.303907 0.194118 0.449023 -0.021571 -0.417649 0.158824 0.099972 0.398038 -0.068657 0.143109 -0.484307 0.025540 -0.225559 -0.268619 0.005891 -0.370588 0.104025 -0.405870 -0.327451 -0.009775 0.339207 0.292155 -0.241169 -0.072594 -0.421567 0.201988 0.296081 0.484303 -0.303913 -0.464723 0.147059 -0.358855 -0.229449 -0.260786 0.401985 -0.378446 0.417720 0.233335 -0.174508 -0.096050 0.311765 -0.049021 -0.178431 0.186269 -0.033261 0.421584 0.445088 -0.049039 0.468648 -0.182356 -0.303708 0.370588 -0.268626 0.300000 0.021466 -0.084259 0.386331 -0.452903 0.158825 0.441175 0.162692 0.366667 -0.445111 -0.237259 0.488254 0.425473 0.276470 -0.052942 -0.076473 -0.202024 -0.205883 -0.158826 0.299952 -0.233332 0.103908 0.429417 -0.378443 -0.378427 -0.421551 0.060784 0.472551 0.229391 0.307844 -0.131391 -0.370597 0.496080 -0.139216 0.017647 0.299874 0.464699 -0.221578 -0.209771 -0.045123 -0.096095 -0.394111 -0.237255 0.182352 -0.331383 0.409796 0.037271 -0.127574 -0.005874 0.174507 -0.009800 0.245105 -0.417656 -0.241177 -0.284322 -0.397962 -0.241176 -0.158751 -0.041171 0.076546 -0.225477 -0.480392 0.252947 -0.311735 0.417630 -0.221569 0.088235 -0.029413 0.174439 0.209796 0.135294 0.362747 -0.378431 -0.123512 0.366667 0.245098 0.496082 -0.049025 -0.401960 -0.343112 0.256877 0.425496 -0.488233 0.350982 0.386275 0.033333 0.107847 -0.064717 -0.374502 0.041176 0.052938 -0.154933 0.111675 -0.009805 -0.288233 -0.362751 0.201988 -0.225495 -0.374501 0.288235 -0.299982 -0.343136 -0.456858 -0.025491 0.100002 -0.429461 0.327451 -0.021565 0.284321 -0.331372 -0.464669 -0.013725 0.092157 -0.280396 0.354904 0.405886 0.178433 0.233336 0.103922 -0.362745 0.150981 -0.480393 0.158824 -0.280391 -0.147048 -0.476471 -0.441148 0.229439 -0.421566 -0.500051 -0.237255 -0.135301 -0.268639 -0.456848 0.174461 0.084315 0.323530 0.256853 0.245074 -0.068611 0.264707 0.103923 -0.013723 -0.154900 0.268652 -0.386277 0.103961 -0.123518 0.413694 -0.068622 0.366666 0.460784 0.292177 0.111761 -0.472536 0.005882 0.209823 0.190196 -0.492142 -0.217647 -0.209802 0.480383 0.221564 -0.233351 0.068648 -0.500000 -0.343137 0.115750 0.311765 0.362732 0.021569 -0.217620 0.115686 -0.194078 0.009806 -0.147021 0.092166 -0.331373 0.362742 -0.068647 0.041176 0.445099 0.221570 -0.378431 0.049021 0.382353 0.147029 0.037242 -0.496082 -0.307833 0.256863 -0.107843 0.366688 0.390142 0.452916 -0.013724 0.158824 -0.347059 -0.100000 0.225490 0.413726 0.017649 -0.456827 0.303915 -0.119608 0.060786 0.190194 0.150979 0.394118 -0.092171 0.009804 -0.272565 0.001946 -0.225487 0.315712 0.150947 -0.205877 0.354907 0.374510 0.347111 0.150986 0.174510 -0.260770 -0.429415 0.064705 0.335298 -0.358845 0.288236 0.452955 0.256865 0.449015 0.264711 0.119600 0.162745 -0.347074 0.350962 -0.135294 -0.296066 -0.468635 -0.476437 0.049020 -0.001961 0.033346 -0.300000 0.166666 0.013725 -0.409808 -0.350943 0.194126 -0.154907 -0.025498 0.064716 0.209802 0.331481 0.201961 -0.037254 0.225489 0.374457 -0.284286 0.229441 0.445116 0.421569 -0.135294 0.158798 -0.205882 -0.190202 0.339214 0.096088 0.378422 -0.296078 0.303922 -0.221570 0.147028 -0.347060 -0.072550 0.370567 0.150981 -0.241182 0.056865 0.315680 -0.299998 0.154911 -0.378431 -0.174508 -0.088244 -0.017647 -0.194127 -0.339218 -0.025490 -0.009804 -0.115686 -0.449082 0.429408 0.452936 -0.033315 0.460772 0.441166 -0.343134 -0.394118 0.115685 0.366662 0.143133 -0.009795 -0.064768 -0.017644 0.382349 0.272553 -0.366664 -0.249024 0.433333 0.123525 0.347098 0.409804 0.476507 -0.358821 0.284350 0.143137 0.331373 -0.484314 0.303922 0.390196 0.170588 -0.468627 0.158824 0.350980 -0.500000 -0.382353 0.500000 0.119608 0.056863 -0.060784 0.064706 0.398039 0.449020 -0.033333 -0.288235 -0.174510 0.068627 0.205882 0.135294 0.303922 0.496078 0.072549 -0.303922 0.166667 0.421569 -0.449020 -0.092157 -0.331373 0.037255 -0.092157 -0.452941 0.300000 -0.029412 0.335294 -0.456863 0.386275 -0.343137 -0.072549 0.029412 0.331373 -0.013725 0.013725 -0.319608 -0.429412 -0.092157 0.009804 0.433333 -0.343137 -0.488235 0.339216 0.433333 0.421569 -0.045098 -0.405882 0.500000 -0.280392 0.107843 -0.111765 -0.005882 0.166667 -0.084314 0.245098 -0.480392 -0.147059 -0.354902 -0.170588 0.327451 -0.480392 0.037255 -0.296078 -0.429412 0.445098 -0.472549 0.166667 -0.009804 -0.390196 -0.072549 0.260784 -0.084314 0.174510 0.398039 -0.143137 -0.205882 -0.241176 -0.174510 -0.331373 0.213725 0.033333 0.366667 0.284314 -0.194118 0.468627 -0.201961 -0.127451 -0.358824 0.264706 0.013725 -0.131373 0.049020 -0.249020 -0.021569 -0.088235 0.315686 0.268627 -0.292157 0.315686 0.249020 0.319608 -0.370588 0.249020 0.092157 -0.037255 -0.288235 0.456863 -0.484314 0.068627 -0.158824 0.045098 0.370588 -0.386275 -0.335294 0.021569 -0.417647 0.456863 -0.276471 0.194118 -0.217647 -0.225490 0.417647 0.347059 -0.080392 0.339216 -0.288235 -0.452941 -0.170588 -0.060784 -0.025490 -0.158824 -0.409804 0.492157 -0.284314 0.272549 0.064706 0.037255 0.001961 -0.307843 0.198039 0.162745 -0.370588 -0.225490 0.190196 -0.386275 -0.221569 0.452941 -0.449020 0.060784 -0.386275 0.154902 0.456863 -0.174510 0.268627 0.409804 0.288235 -0.205882 0.213725 0.464706 0.084314 0.374510 0.162745 0.366667 0.111765 -0.382353 -0.115686 -0.135294 -0.111765 -0.249020 -0.398039 0.307843 0.496078 -0.370588 0.331373 0.205882 0.123529 0.264706 -0.064706 -0.186275 -0.217647 0.347059 0.307843 0.237255 -0.147059 -0.205882 -0.225490 -0.354902 0.276471 -0.229412 0.268627 0.319608 -0.405882 0.311765 0.201961 -0.476471 0.166667 -0.056863 -0.001961 0.350980 -0.331373 0.319608 0.068627 0.017647 -0.245098 0.492157 0.378431 0.484314 -0.425490 0.378431 0.374510 -0.500000 -0.288235 -0.401961 -0.190196 0.327451 0.323529 -0.217647 0.378431 -0.488235 0.096078 -0.335294 0.049020 0.401961 -0.170588 0.088235 -0.452941 0.449020 -0.056863 -0.500000 0.205882 0.080392 -0.237255 0.158824 -0.256863 -0.484314 -0.347059 0.190196 0.209804 -0.131373 -0.464706 0.045098 0.080392 -0.252941 -0.421569 0.064706 -0.005882 -0.190196 0.449020 -0.441176 -0.347059 0.068627 0.166667 0.194118 -0.119608 0.445098 0.268627 -0.354902 -0.005882 0.311765 0.154902 -0.323529 -0.307843 0.068627 -0.194118 0.135294 -0.139216 0.496078 0.288235 -0.390196 -0.390196 0.245098 -0.421569 0.013725 0.327451 -0.033333 -0.488235 -0.017647 0.280392 -0.158824 0.064706 0.131373 0.221569 0.229412 -0.292157 0.500000 0.080392 0.178431 -0.390196 -0.409804 -0.060784 -0.449020 -0.115686 -0.064706 -0.115686 0.198039 0.205882 0.300000 0.374510 -0.260784 -0.323529 -0.276471 -0.398039 -0.229412 -0.468627 0.354902 -0.158824 0.088235 0.460784 -0.452941 -0.354902 -0.017647 0.174510 -0.327451 0.158824 -0.492157 0.237255 -0.315686 -0.249020 0.382353 0.386275 0.111765 0.370588 0.229412 0.107843 0.413725 -0.080392 -0.468627 -0.025490 -0.409804 0.429412 0.288235 -0.264706 0.468627 -0.268627 -0.182353 0.480392 -0.162745 0.366667 0.088235 -0.421569 0.017647 0.464706 0.213725 -0.131373 0.339216 -0.107843 -0.296078 -0.084314 -0.296078 -0.237255 0.460784 -0.221569 0.249020 -0.233333 0.060784 -0.209804 -0.398039 0.013725 -0.409804 0.252941 0.096078 0.084314 0.366667 0.452941 -0.417647 -0.468627 0.300000 -0.213725 -0.221569 -0.347059 -0.096078 -0.370588 0.307843 0.401961 0.017647 0.292157 0.013725 -0.429412 0.409804 0.472549 0.409804 0.139216 0.049020 0.323529 0.484314 -0.029412 -0.421569 0.252941 0.445098 0.084314 0.245098 -0.119608 0.245098 -0.488235 0.358824 -0.060784 0.445098 0.190196 0.484314 0.217647 -0.311765 -0.217647 0.382353 -0.300000 -0.037255 0.150980 -0.492157 0.217647 -0.072549 0.292157 0.252941 0.366667 -0.017647 -0.162745 0.017647 -0.398039 -0.186275 -0.347059 -0.060784 -0.405882 0.405882 -0.041176 0.198039 0.296078 0.496078 -0.064706 0.449020 -0.319608 -0.092157 0.170588 -0.327451 0.500000 0.327451 -0.139216 0.084314 0.315686 0.268627 0.201961 -0.445098 0.484314 0.292157 0.084314 0.417647 0.068627 -0.115686 0.103922 -0.347059 -0.178431 0.080392 -0.476471 0.049020 -0.398039 -0.350980 0.154902 0.401961 0.264706 0.417647 -0.276471 -0.264706 0.209804 -0.492157 0.158824 0.049020 -0.331373 0.264706 0.237255 0.433333 0.374510 -0.413725 0.433333 -0.178431 -0.347059 0.131373 -0.209804 0.182353 -0.205882 0.017647 -0.229412 0.182353 0.354902 -0.072549 0.417647 -0.017647 0.350980 -0.276471 -0.343137 0.245098 -0.276471 0.386275 -0.041176 -0.456863 0.280392 -0.084314 -0.409804 0.488235 0.374510 -0.292157 -0.445098 -0.472549 -0.080392 -0.429412 -0.033333 0.029412 0.005882 0.468627 -0.041176 0.256863 -0.307843 0.335294 -0.272549 -0.017647 0.194118 0.170588 0.060784 0.386275 0.303922 0.056863 -0.190196 0.484314 -0.237255 -0.005882 -0.221569 -0.041176 0.456863 0.394118 0.005882 -0.366667 0.060784 0.480392 -0.068627 0.005882 0.405882 -0.017647 -0.394118 0.476471 -0.233333 -0.190196 0.096078 -0.025490 -0.398039 0.382353 0.347059 -0.311765 0.182353 0.350980 -0.147059 0.429412 0.284314 -0.409804 -0.237255 -0.378431 -0.480392 0.052941 -0.084314 -0.076471 -0.064706 -0.115686 -0.158824 0.139216 0.209804 -0.260784 0.127451 -0.060784 -0.064706 -0.170588 -0.296078 0.166667 -0.049020 -0.288235 -0.041176 -0.029412 -0.335294 -0.307843 0.225490 0.452941 -0.252941 -0.378431 0.060784 -0.350980 0.060784 0.347059 0.303922 -0.084314 -0.405882 0.005882 0.241176 -0.174510 -0.421569 0.017647 0.103922 0.201961 -0.115686 -0.496078 -0.343137 -0.186275 -0.221569 0.096078 -0.409804 0.201961 0.052941 0.382353 0.154902 0.186275 0.127451 -0.272549 -0.452941 0.378431 -0.131373 -0.315686 0.280392 -0.025490 0.021569 0.100000 0.084314 -0.268627 0.115686 0.307843 0.260784 -0.092157 -0.456863 0.429412 -0.107843 0.264706 0.417647 -0.421569 -0.029412 0.413725 -0.323529 -0.394118 -0.119608 -0.123529 -0.272549 0.029412 -0.217647 0.201961 0.041176 0.158824 0.354902 -0.190196 -0.323529 -0.052941 -0.096078 -0.315686 -0.174510 -0.327451 -0.374510 0.472549 -0.127451 -0.005882 -0.311765 -0.437255 -0.100000 0.323529 0.386275 -0.076471 0.366667 -0.084314 -0.135294 0.480392 0.425490 0.452941 0.237255 0.041176 0.013725 0.323529 -0.205882 -0.327451 -0.229412 0.001961 0.198039 0.229412 0.452941 0.237255 -0.343137 -0.358824 -0.417647 -0.056863 0.178431 -0.307843 0.233333 -0.339216 0.347059 -0.111765 -0.158824 0.174510 0.433333 -0.005882 0.009804 -0.221569 0.425490 0.147059 -0.178431 0.343137 -0.052941 0.245098 -0.076471 0.252941 0.456863 -0.256863 -0.209804 -0.049020 -0.005882 0.366667 -0.500000 0.256863 -0.025490 -0.064706 0.025490 0.358824 -0.335294 0.292157 0.162745 -0.233333 0.001961 0.229412 -0.327451 -0.127451 0.492157 -0.103922 -0.480392 0.174510 0.441176 -0.001961 -0.370588 -0.472549 -0.107843 -0.170588 -0.154902 -0.370588 0.229412 0.072549 0.315686 0.335294 0.292157 -0.217647 0.272549 0.221569 0.468627 -0.496078 0.013725 -0.237255 0.249020 -0.049020 0.111765 -0.080392 -0.374510 -0.005882 0.284314 -0.256863 0.413725 0.268627 0.292157 -0.464706 0.268627 0.092157 -0.001961 0.319608 0.319608 -0.182353 -0.072549 0.398039 -0.182353 -0.339216 -0.484314 -0.076471 -0.409804 -0.198039 -0.370588 -0.343137 0.284314 0.072549 -0.072549 0.303922 0.260784 0.009804 0.460784 -0.213725 0.092157 0.437255 -0.409804 0.429412 -0.143137 0.100000 0.339216 -0.170588 0.143137 -0.335294 -0.252941 0.096078 0.205882 0.135294 -0.045098 0.394118 -0.292157 0.213725 0.378431 -0.123529 -0.072549 -0.119608 -0.178431 -0.029412 -0.056863 0.476471 0.131373 -0.390196 -0.452941 0.276471 0.264706 0.425490 0.245098 0.205882 -0.201961 0.296078 0.088235 -0.190196 -0.445098 0.252941 -0.245098 -0.076471 -0.131373 0.201961 0.209804 -0.417647 0.452941 0.103922 -0.119608 -0.335294 0.068627 0.084314 0.064706 0.327451 0.119608 0.500000 -0.378431 -0.366667 0.358824 -0.166667 -0.441176 -0.060784 -0.139216 -0.401961 0.323529 -0.366667 -0.311765 -0.037255 -0.323529 0.182353 -0.460784 -0.001961 0.480392 0.311765 0.437255 -0.182353 0.158824 -0.276471 -0.237255 0.398039 0.449020 0.013725 -0.154902 -0.300000 0.300000 0.488235 -0.029412 0.135294 0.190196 -0.429412 -0.119608 0.464706 0.174510 0.280392 0.217647 -0.405882 0.209804 -0.245098 -0.233333 -0.256863 0.001961 0.217647 0.162745 0.480392 -0.009804 -0.201961 0.009804 0.029412 -0.123529 -0.441176 -0.213725 -0.264706 -0.492157 0.221569 -0.060784 0.209804 -0.025490 -0.358824 0.064706 0.288235 0.123529 0.135294 0.096078 0.139216 0.366667 0.029412 -0.339216 0.452941 -0.421569 0.272549 -0.056863 -0.225490 -0.001961 -0.072549 -0.123529 -0.445098 -0.072549 0.225490 -0.213725 -0.347059 0.476471 -0.464706 0.311765 0.276471 -0.107843 -0.492157 0.068627 0.496078 -0.472549 0.217647 0.492157 0.198039 0.154902 0.217647 0.115686 -0.272549 -0.068627 -0.041176 0.300000 0.103922 -0.405882 0.209804 0.147059 0.260784 0.437255 -0.382353 0.347059 -0.064706 0.217647 -0.425490 -0.468627 0.296078 -0.150980 0.103922 -0.049020 0.323529 -0.029412 0.241176 0.045098 0.084314 -0.452941 -0.209804 0.049020 0.484314 -0.045098 -0.135294 -0.472549 0.252941 0.005882 0.131373 -0.452941 -0.500000 -0.288235 0.327451 0.029412 0.213725 0.186275 0.425490 -0.119608 0.213725 0.158824 0.350980 -0.252941 -0.284314 -0.449020 0.362745 -0.147059 0.001961 0.139216 -0.339216 -0.288235 0.319608 0.413725 -0.394118 0.029412 -0.017647 -0.296078 0.041176 0.413725 0.456863 -0.170588 0.280392 0.017647 0.327451 -0.249020 -0.256863 0.370588 0.488235 -0.303922 0.241176 0.017647 0.413725 -0.433333 0.068627 0.072549 0.150992 -0.499988 0.449006 -0.013729 -0.441217 -0.484327 -0.194125 -0.201960 0.245078 -0.249016 -0.221570 -0.347035 -0.158825 -0.100008 0.307824 -0.225496 0.339218 0.256867 0.111784 0.111760 0.166662 -0.154886 0.150980 -0.205898 -0.409812 0.350920 0.492080 0.343150 -0.229416 0.249062 -0.488250 0.496082 0.080398 0.162772 0.394111 0.315690 0.307854 -0.488218 -0.064751 0.382365 0.088266 0.029414 -0.311793 0.001978 -0.264701 0.245097 0.268625 0.249001 0.143130 0.021570 0.350980 -0.001975 0.119598 0.056858 -0.080400 -0.315700 -0.178432 0.158859 -0.021571 -0.315665 -0.449022 0.456832 0.343148 -0.194114 -0.241155 -0.260783 0.256875 0.068627 0.460777 -0.386222 0.174577 0.135290 0.299992 0.209760 0.370589 0.045106 0.123553 0.488215 -0.001974 -0.233321 -0.421600 0.060790 0.205895 -0.237243 -0.127449 0.343128 -0.421586 0.029413 -0.315690 -0.409838 -0.441176 -0.021571 0.060787 -0.037326 0.107821 0.276466 0.390193 -0.339216 -0.096080 0.350973 0.347050 -0.009814 0.135294 0.405865 0.280395 0.194160 -0.456813 0.268635 -0.264704 0.021560 0.366680 0.088240 -0.476490 -0.111767 -0.429393 0.300035 0.107843 0.300000 -0.111762 -0.221568 0.449031 0.135288 0.237209 -0.480399 -0.198039 0.107791 -0.041221 0.405887 -0.417616 0.284318 -0.307842 -0.049021 0.209782 -0.319565 0.453039 0.366676 0.135290 -0.037257 0.217650 0.256861 0.413788 0.233335 -0.260786 0.049016 -0.292152 0.280401 -0.441142 -0.362744 -0.052940 0.496041 -0.460799 -0.441205 -0.088286 -0.096088 0.405921 -0.198040 0.433370 -0.378433 0.143155 0.029400 -0.076460 -0.225494 -0.233334 0.256875 0.268666 0.127442 -0.080396 0.241200 -0.339162 -0.119607 0.335302 -0.347084 -0.401952 0.241221 0.386281 0.150985 -0.499998 0.303923 -0.052951 -0.080395 0.315700 0.394167 0.060792 0.378427 0.417644 -0.005886 0.135294 0.076436 -0.327451 0.064694 0.186308 0.201928 0.135288 -0.315657 0.088227 0.127442 -0.433343 0.131316 0.135310 0.021572 -0.009878 0.480381 -0.264707 -0.437257 -0.237241 -0.201960 -0.068612 -0.088230 -0.339217 0.456911 -0.264655 -0.092164 -0.405878 -0.386278 0.237245 0.139203 0.068625 -0.076472 0.052940 -0.096083 0.417643 0.225519 0.080393 0.154895 0.084312 0.303922 0.005926 0.249018 0.123515 0.484319 -0.033362 0.182356 -0.103903 0.103907 -0.045099 0.464723 -0.445002 0.394119 -0.429442 -0.123541 -0.229460 0.268624 0.154902 0.323548 0.409783 -0.233328 -0.209811 0.198053 0.272553 -0.217632 -0.009808 0.037259 -0.347067 0.425482 -0.276475 -0.190189 -0.346684 -0.198562 -0.292651 0.457028 -0.362864 0.035935 0.295571 -0.017576 0.205432 0.378371 0.104473 -0.378400 0.138573 0.092708 0.088037 0.225573 0.116132 -0.381545 0.155313 0.437648 0.251741 -0.079912 -0.245264 0.370182 -0.382280 0.008738 0.369474 0.351276 0.487681 -0.094918 -0.245724 -0.052415 0.378205 -0.452372 0.452647 0.409681 -0.428660 -0.468389 0.201283 -0.009743 0.288334 -0.409597 -0.151208 -0.393792 -0.126997 0.445068 -0.170883 -0.421900 0.484139 0.248725 0.009816 -0.225089 -0.372053 -0.074156 -0.001937 0.185989 0.355078 0.269038 -0.441538 0.049504 -0.234423 0.362810 0.158837 -0.021369 0.058343 0.339269 -0.094496 -0.252807 0.115849 -0.318838 0.257990 -0.057893 0.331064 -0.010144 0.158316 0.382109 0.088597 -0.029612 0.393265 0.076569 0.287499 0.421741 -0.370646 0.288972 -0.009551 0.169768 0.452656 -0.025532 -0.182361 0.408871 -0.379278 -0.116291 0.126535 0.311973 0.044618 0.154996 0.197271 0.041192 -0.131065 0.340105 0.299772 0.155195 -0.500499 -0.198402 0.264839 -0.126913 0.288996 -0.024967 -0.025527 0.225785 -0.229130 -0.472589 -0.304074 0.291192 0.370644 0.222284 -0.433448 0.009678 0.472275 0.222409 -0.386163 -0.147071 -0.238298 -0.480753 0.252767 -0.304498 -0.288791 -0.480119 -0.194327 0.433790 0.060723 -0.076473 -0.218544 -0.138323 -0.259161 0.068593 -0.147394 -0.161851 -0.158672 0.355131 0.168269 0.181902 -0.437338 0.495859 0.320018 -0.095770 -0.268327 0.021615 -0.307899 -0.339663 -0.488679 0.366991 0.059946 0.143692 -0.138194 0.260872 0.394868 -0.162823 -0.091914 -0.092126 0.303657 0.139111 -0.252008 -0.319386 0.124249 0.394001 -0.158169 0.190438 -0.346572 -0.370481 0.088690 -0.426043 0.257200 -0.291454 -0.205810 -0.433303 0.261252 0.083837 0.177830 0.292205 0.240403 -0.079895 -0.272710 -0.182154 0.350509 -0.351609 0.472647 0.330770 -0.022001 -0.006237 0.492129 -0.312315 0.279510 0.445715 -0.280695 0.445172 -0.381573 -0.058119 0.304567 0.178398 -0.277663 -0.046003 -0.351436 0.356153 -0.475206 0.179621 0.481618 -0.306717 -0.014021 0.003124 0.355769 0.241262 0.355457 -0.055920 0.225403 0.402014 0.119734 -0.280392 0.025480 -0.115491 0.060619 0.213888 -0.339175 0.461026 -0.018737 -0.056943 -0.291672 0.107479 0.441198 0.315767 -0.331870 0.112236 0.303941 -0.264933 0.335271 0.429722 0.058390 -0.425893 0.119096 0.193230 -0.304563 0.127481 -0.071579 -0.378214 0.358922 -0.335562 -0.351515 -0.194110 -0.040729 0.425746 -0.229373 -0.311729 0.237480 0.425862 -0.405217 -0.155200 0.271760 -0.406664 0.223443 -0.170845 -0.245266 -0.016199 0.445334 0.376379 -0.238602 0.205859 0.427662 0.394956 -0.065090 -0.298571 0.153465 0.449372 -0.333466 0.033677 -0.213698 0.338033 -0.012957 0.352549 -0.277702 -0.307283 0.053780 -0.215373 0.045266 0.342076 0.307135 -0.261628 0.163893 0.196635 0.034937 0.444304 -0.267707 -0.427099 0.407874 -0.404790 0.292688 -0.049609 0.262608 0.066265 0.314237 -0.397904 0.108095 -0.373166 0.376549 -0.106791 -0.065986 -0.236327 -0.244399 0.045363 0.368889 0.047368 0.304749 -0.373476 -0.391013 0.112578 0.347537 -0.147193 -0.191571 0.265109 -0.208076 -0.310017 0.092357 -0.027215 -0.093709 0.299643 -0.120412 -0.049927 0.197114 -0.067183 0.032244 -0.162315 -0.274623 -0.311140 -0.461464 0.443441 0.049664 0.102459 -0.102284 -0.353960 -0.129989 -0.008152 0.071383 0.427355 0.098474 0.406141 -0.469444 -0.174803 -0.497747 -0.397706 -0.100205 0.432902 0.262479 -0.083379 -0.380184 0.419524 -0.477045 0.270402 -0.003895 -0.481346 0.193139 -0.121541 0.459923 0.240329 0.056610 -0.181895 -0.487227 -0.152433 0.142007 -0.389794 -0.137797 -0.226722 0.411832 -0.154528 -0.102110 0.031736 -0.114911 0.267409 0.451551 -0.295377 0.079505 0.256207 -0.036604 0.161874 0.324860 -0.332660 -0.380730 -0.228028 -0.258714 0.430673 -0.018464 -0.383316 0.199711 -0.173868 -0.118629 0.430486 -0.116710 -0.119523 -0.484371 -0.305521 -0.058859 -0.348385 -0.151698 -0.059143 0.227242 0.395841 -0.434451 0.096105 -0.056610 -0.063327 -0.142671 -0.151189 0.170209 0.005201 -0.231992 -0.280306 0.434183 0.038132 0.123515 0.375395 -0.198397 -0.270729 0.315203 0.218040 0.065386 -0.015768 0.451983 -0.148821 0.335891 -0.426706 0.013143 0.075698 0.124172 0.147854 -0.469958 0.288977 0.383706 0.312868 0.126362 0.107528 0.464242 0.071020 -0.461663 -0.374783 0.196553 -0.426366 0.472872 0.189088 0.118784 -0.270391 -0.108327 0.412521 0.267216 -0.271580 -0.473105 0.486625 0.206727 0.331009 0.441715 0.350466 -0.363559 0.138735 -0.433624 -0.343592 0.414516 -0.418343 0.341606 0.474677 0.125679 0.385995 0.133290 0.426714 0.418274 -0.036239 -0.199946 0.360865 -0.380990 0.482893 0.493932 -0.050300 0.185648 -0.367135 0.144504 0.084052 -0.356488 -0.279309 -0.061274 0.164689 -0.299677 -0.257849 0.473825 -0.303749 0.288016 0.351726 -0.370972 -0.283843 0.376361 0.196106 -0.269190 0.211021 -0.249646 0.113760 -0.336108 0.243497 0.267518 0.207977 0.266077 -0.276562 -0.363455 -0.120040 -0.016572 0.287995 0.265357 0.498944 0.350725 0.313017 0.450038 -0.493650 -0.078413 0.431550 0.311883 0.268522 0.173274 0.251639 0.452080 0.039298 0.462407 0.460489 0.145098 0.239192 0.381366 0.007419 0.264488 -0.057732 0.264596 0.424379 -0.062522 0.053264 -0.005226 -0.102455 0.336874 0.163813 -0.071929 0.083301 -0.071407 0.276560 0.371569 0.253993 -0.190197 0.236461 0.173442 -0.209127 0.091556 -0.287324 0.163302 -0.369425 0.027187 -0.283531 0.418443 0.048599 -0.401577 0.018661 -0.430094 -0.400011 -0.083050 0.100715 0.323893 0.433107 -0.207093 -0.151993 -0.217326 0.085706 -0.455245 0.126476 -0.437343 -0.298703 -0.385108 -0.408084 0.219760 0.389024 0.383690 0.284698 0.276047 -0.501442 0.327522 0.290965 0.261629 -0.351908 -0.397377 -0.030448 0.284655 -0.078069 -0.482483 0.006187 -0.080056 0.078186 -0.197172 0.392110 0.309675 0.127965 -0.131011 -0.351102 0.016243 0.192313 0.402807 0.457396 -0.111268 -0.386873 0.126417 0.342370 -0.289130 0.027571 0.116633 -0.284843 0.064691 -0.108109 0.159405 0.065335 -0.421624 0.292734 -0.496829 0.439004 -0.363012 0.270927 -0.421593 0.476227 -0.495449 0.294402 0.275247 -0.292147 -0.464412 0.450494 0.168294 -0.430069 -0.451593 0.052404 -0.296250 -0.190688 0.014158 0.000097 0.231073 0.399127 -0.213119 0.170102 0.414797 0.252948 -0.255714 0.214777 -0.142244 -0.159594 0.026993 -0.414841 -0.417389 -0.041987 0.073554 0.433553 -0.122914 0.151192 -0.202624 0.309733 0.222234 -0.245128 -0.438070 0.315827 0.221167 -0.127950 0.153987 0.132865 0.185171 0.353850 -0.267916 0.473023 -0.215807 -0.126934 0.248873 -0.253074 -0.002227 0.082739 -0.170809 0.108725 -0.283351 0.259555 -0.456406 -0.416089 -0.049384 -0.336702 -0.328409 0.073528 0.491023 0.135414 -0.250623 0.029188 0.449588 0.124789 -0.455042 0.187534 -0.161571 -0.100767 -0.097948 0.459692 0.315111 0.334135 -0.074468 -0.072029 0.323607 0.095608 -0.121897 -0.344550 -0.140320 0.098340 -0.495922 0.474241 0.044937 0.325923 0.476550 0.207816 0.168097 -0.061391 0.343224 0.059454 -0.254690 0.226750 -0.341525 0.050774 -0.311404 -0.390353 0.450186 -0.428673 -0.206660 0.331758 0.425228 0.086845 -0.498907 -0.003513 0.418114 -0.403894 0.306304 -0.111249 -0.370920 0.286368 0.335281 0.400942 -0.330594 0.104954 -0.109409 0.161195 0.377247 0.308261 0.182371 -0.069950 -0.464096 0.140079 -0.231705 0.027316 0.271894 -0.259135 0.499379 0.257982 0.375784 0.161198 0.282405 0.069151 0.442166 0.373807 0.067556 -0.454478 -0.454440 -0.194152 0.169339 -0.011899 -0.164751 0.134120 0.231259 0.129575 -0.187208 0.117898 -0.096612 -0.268334 -0.504775 -0.364860 0.117887 -0.050974 0.313188 -0.360018 -0.154329 -0.034983 -0.320282 0.238147 0.459023 -0.280874 -0.091649 0.202851 -0.190574 0.377514 -0.446680 -0.372972 -0.119734 0.330674 0.426254 0.009428 -0.384049 0.506059 -0.331890 -0.327026 -0.208705 0.431575 -0.267333 -0.503485 -0.437073 0.216273 -0.163414 -0.402524 0.252623 0.181232 -0.168425 -0.101500 0.085823 0.287828 0.443864 0.476559 0.263310 0.174337 -0.304688 -0.017938 0.025442 -0.187323 -0.181071 -0.218310 0.408178 0.093820 -0.192483 0.496885 -0.212200 -0.455219 -0.114142 0.075417 -0.340946 0.166212 0.212485 -0.435977 -0.311279 -0.307771 -0.071539 0.239663 -0.089849 0.091582 -0.062510 -0.427749 0.183812 0.407359 -0.212049 0.417840 -0.233526 -0.456213 0.011978 -0.497111 -0.246737 0.102219 0.300337 -0.409071 0.100985 0.058331 0.029660 0.169377 -0.155593 0.094905 0.348137 -0.441908 0.375540 -0.392082 0.377856 0.497513 -0.473538 -0.376460 -0.058455 -0.123240 -0.290597 -0.346142 0.127041 -0.234326 -0.099836 -0.019162 -0.372505 -0.393361 -0.387081 0.022199 -0.067381 -0.190711 -0.361230 -0.350068 -0.006852 0.234014 -0.308871 -0.291369 -0.168818 -0.507793 -0.256304 -0.327834 0.246815 0.355091 -0.012741 -0.406552 0.397222 -0.041287 -0.374974 0.361176 -0.099301 -0.072822 -0.205909 0.012460 0.433773 0.158186 0.354249 -0.319158 0.350185 0.071875 0.475983 0.223987 0.334802 -0.168623 0.334866 0.193006 0.509581 0.236019 -0.081642 -0.011581 -0.423126 -0.184960 0.487110 -0.032145 -0.151126 -0.469609 0.090293 0.044420 0.308775 -0.199459 0.445200 0.429617 0.236442 -0.088223 -0.017548 0.304987 0.127377 0.001832 -0.386069 0.216682 0.001637 0.014001 -0.298620 0.292453 0.050695 -0.025106 0.261730 -0.482538 -0.470634 -0.176003 -0.403610 0.039917 -0.240409 -0.483506 0.358681 -0.242432 0.436993 0.046318 -0.435231 0.378618 0.037838 0.345281 -0.337469 0.033107 0.236568 0.461862 -0.205603 0.421462 0.472494 0.442517 0.253312 -0.085354 0.351069 0.483229 -0.167301 -0.358416 0.354648 0.354883 -0.423682 0.316841 -0.248632 -0.255218 -0.450670 -0.134552 -0.428528 -0.368198 -0.177940 0.329004 -0.132953 -0.349534 0.115187 0.156536 -0.183425 -0.312364 0.218577 -0.217895 -0.135067 -0.423795 -0.397441 -0.465778 -0.199881 -0.086857 0.379185 0.122299 -0.261798 0.431931 -0.208146 0.218666 -0.256408 -0.480262 0.046853 -0.023325 -0.250862 0.285358 0.438306 -0.121242 0.361890 0.006203 -0.068309 0.210868 -0.431702 0.351868 -0.365231 0.235831 0.330141 -0.222699 -0.101921 -0.316065 -0.207952 0.141476 0.139690 0.523100 -0.115956 -0.095742 -0.326030 -0.304518 0.288938 -0.038858 -0.371999 -0.348066 0.127505 0.243978 -0.203156 -0.114358 0.467082 -0.321265 0.239542 -0.383449 -0.304597 0.389007 0.325552 0.185256 0.462492 -0.378076 -0.046655 0.515343 -0.473548 -0.231944 -0.075067 0.046195 0.130451 -0.032290 0.381587 0.071033 0.197841 -0.049380 -0.411077 0.138186 -0.245234 -0.411172 0.386237 0.090072 -0.436947 0.113577 0.326205 -0.244722 0.044279 -0.204492 -0.339428 0.197344 -0.295354 -0.245298 0.030544 0.317689 -0.327965 -0.175759 0.253827 0.054868 -0.030272 -0.063768 0.452875 0.396741 -0.009001 0.387193 0.088676 0.109306 0.063876 0.430681 -0.422530 0.057904 0.055159 -0.070207 -0.291005 -0.450104 -0.263860 -0.384758 -0.085358 0.305230 -0.055397 0.108611 0.043609 -0.428299 -0.256113 -0.012637 -0.204630 -0.432942 0.402280 -0.081391 0.405998 0.063548 0.279492 0.501793 -0.247607 -0.225315 0.144178 -0.477585 0.171495 0.318492 0.312212 -0.115982 -0.411932 0.119819 -0.330791 -0.178293 0.093880 0.067357 -0.088130 0.234004 0.312587 0.014785 0.087650 -0.339551 -0.121138 -0.356428 -0.290434 0.197942 -0.396298 -0.371561 -0.325076 -0.265603 0.098654 0.316104 -0.514993 -0.024017 -0.159002 0.275803 -0.023519 0.242659 0.241405 -0.022510 -0.202683 -0.012171 0.078327 -0.444346 0.429132 -0.118867 -0.200003 0.178125 -0.144961 -0.486501 -0.088000 0.442059 0.078203 0.149799 0.027735 0.254609 0.035804 0.093670 -0.406638 -0.130739 -0.349624 0.055541 0.303164 0.445445 0.431036 0.117539 0.055212 0.083764 -0.367362 0.121053 -0.143907 -0.347608 -0.260201 -0.282576 -0.242129 0.127095 0.064298 0.456939 0.413667 -0.478727 -0.001961 -0.159668 0.286292 -0.508321 -0.322048 -0.233727 0.330809 -0.441277 0.007030 0.090530 0.104474 0.107436 -0.315035 0.289653 -0.405778 0.305160 -0.420648 -0.314576 -0.315179 -0.406812 0.449552 -0.004353 0.418850 0.089497 0.448105 -0.043738 -0.052259 0.479501 0.427307 -0.207723 -0.252338 -0.078283 0.171764 0.341676 -0.269487 0.403573 0.042632 -0.306022 -0.105138 0.474868 0.095829 0.030457 -0.018794 -0.070472 0.069334 0.088466 -0.168191 -0.511550 0.370836 0.063013 -0.207458 -0.480406 -0.033494 -0.023816 0.072972 -0.101360 -0.020743 0.408697 0.515335 -0.147738 -0.331832 0.189295 -0.009830 0.340808 -0.046699 0.136567 0.210314 -0.309267 0.160736 0.210011 -0.381160 0.069436 0.304500 0.326443 -0.477286 -0.100523 0.396991 -0.152174 -0.427476 0.146370 -0.491115 0.453255 0.398621 0.359785 0.410936 -0.340171 -0.415097 0.005812 -0.085168 0.187211 -0.057931 -0.161997 0.488160 -0.274489 -0.034417 0.279846 -0.313012 -0.156494 0.464393 -0.201136 -0.240953 -0.465924 0.312061 -0.352342 0.216357 -0.373011 0.368699 -0.436073 0.419345 0.155170 -0.170195 0.343257 0.142722 0.199586 -0.509287 -0.226709 -0.034103 0.460076 0.384278 0.265116 -0.286658 0.402217 0.397722 0.140053 -0.282537 -0.384363 -0.162507 0.489343 -0.141089 -0.084373 -0.197304 -0.320406 0.295736 -0.356049 -0.102445 -0.074253 -0.246722 -0.226770 -0.305844 -0.265077 -0.089126 0.360814 0.093585 0.308589 -0.424450 0.235232 -0.280946 0.425956 -0.236438 0.179367 0.189202 0.024653 0.116392 0.298978 0.378601 -0.276913 -0.465852 0.344191 0.358580 0.363672 -0.249552 -0.089747 -0.160831 -0.346703 0.388038 0.459062 -0.060369 0.308592 -0.403527 0.090697 0.041384 0.042250 0.134206 -0.373279 -0.416668 0.229918 -0.371462 -0.060641 0.055267 0.076915 -0.235196 0.272711 0.292620 0.362084 0.006081 -0.171215 -0.408365 0.132627 -0.284293 0.502725 0.404954 -0.315002 -0.247218 0.103833 -0.411988 -0.266268 0.095668 0.278991 0.077165 -0.091399 -0.477925 0.322076 -0.448483 -0.174085 -0.149494 -0.188912 -0.518415 -0.103234 -0.435490 0.408953 0.242262 -0.175912 0.071378 0.190665 -0.450608 0.352548 -0.390163 -0.151703 0.180924 -0.434257 -0.263081 -0.263746 0.039171 -0.512578 0.230591 -0.264142 0.070969 0.190835 -0.347799 -0.028803 -0.052880 0.322501 -0.274609 -0.334207 -0.030312 -0.282444 0.472759 0.376565 0.260164 -0.246013 0.376477 -0.199621 -0.232312 0.434093 0.421052 -0.224833 0.463497 0.296100 -0.424401 -0.061588 0.129920 -0.333965 -0.481552 0.439598 -0.121420 -0.129021 -0.364205 -0.254635 0.301591 -0.334471 0.072554 0.375089 0.238569 0.026450 0.174861 0.326031 0.010261 0.389238 0.328648 -0.353886 0.281421 0.300337 -0.174457 -0.287470 -0.392501 -0.249715 0.303477 0.307031 -0.141250 -0.090277 0.156376 0.237791 -0.387414 0.173385 -0.020336 -0.016933 -0.071773 -0.337496 -0.121641 -0.071514 0.480347 0.062551 0.066705 -0.238991 0.324443 -0.001769 0.270049 0.481546 0.395660 0.243490 0.303370 -0.323154 -0.084657 -0.212836 -0.021521 0.320052 -0.269529 0.320354 -0.237479 0.299489 0.302027 -0.315553 -0.009069 -0.059908 0.078444 -0.030842 0.197922 -0.450393 0.404549 0.459294 -0.152692 -0.442114 0.093583 -0.104358 -0.287749 -0.401375 0.002413 -0.335683 -0.430176 -0.288024 0.105869 -0.324831 0.289482 0.373047 0.208713 0.490422 -0.167936 -0.199680 -0.492084 -0.455298 0.035826 -0.204579 -0.304541 -0.152386 -0.287632 -0.411910 -0.131208 -0.457219 -0.141464 -0.088241 0.272899 0.263015 0.285707 0.152492 0.085479 0.123153 0.184103 0.185057 0.315166 0.214368 0.461705 0.228499 0.194161 -0.363027 -0.272004 0.472027 -0.474905 0.267447 0.314349 -0.174499 -0.353027 0.328304 -0.044461 0.200904 -0.161664 -0.400455 0.111132 0.115153 -0.344861 -0.127457 -0.265925 -0.199226 -0.474045 0.085853 0.443494 -0.340653 -0.014424 0.175210 -0.426408 0.355161 -0.387084 -0.285149 -0.506547 0.423781 -0.412940 0.115977 -0.109148 -0.412526 -0.329724 0.170366 0.330730 0.002491 0.013249 0.428610 -0.085286 0.029341 -0.189423 0.263326 0.239315 -0.349191 -0.293557 0.176806 -0.182489 -0.408329 -0.005145 -0.327555 0.308375 -0.056196 -0.243674 -0.170439 0.074708 -0.306447 0.253356 -0.350970 -0.218003 0.436925 0.093709 -0.097650 0.256681 0.041511 0.440034 -0.446692 0.262387 0.539541 -0.259727 0.280529 0.047416 -0.467781 -0.378984 -0.487806 -0.035156 0.010023 -0.057183 -0.336866 -0.521937 0.073824 -0.064367 -0.432284 -0.269183 -0.495355 -0.300228 0.220336 -0.454917 -0.054916 0.044345 0.107917 -0.049866 0.055018 0.313082 0.420213 0.039496 0.035190 -0.396263 0.352481 -0.050507 0.527324 0.332572 0.192847 0.364281 -0.227326 0.324696 -0.073892 -0.217303 -0.284008 -0.099309 0.476560 0.214630 0.095924 0.391435 -0.048998 0.475043 -0.270216 -0.462613 0.330933 0.402618 0.366009 -0.285866 -0.207781 -0.290412 -0.083437 0.030710 0.316694 0.017425 0.191490 -0.280238 -0.446965 -0.210241 0.389518 -0.131214 0.203981 -0.123786 0.192389 0.476861 -0.101411 -0.426095 0.169253 -0.208469 -0.480238 0.244039 0.003525 -0.237266 0.071459 0.050345 -0.107810 0.187022 -0.131336 0.428788 -0.134793 -0.050670 -0.427934 -0.033701 -0.106716 0.412540 -0.136226 0.317417 -0.079471 -0.087621 -0.041332 -0.097229 -0.518376 0.086256 -0.019700 -0.341705 0.210262 -0.115138 -0.382428 -0.025243 0.303521 0.203330 -0.010788 -0.459464 -0.177570 -0.323449 -0.322160 -0.241647 0.106662 0.056799 -0.159225 -0.350709 0.115859 0.508738 0.176660 0.253342 -0.416259 -0.154251 0.539593 -0.428301 -0.514747 -0.414020 0.366419 0.002925 0.279157 0.168918 -0.372182 -0.232772 0.212539 0.076844 -0.335758 -0.249677 -0.192806 -0.107329 0.374437 -0.401542 -0.024862 -0.434367 0.397076 -0.301872 -0.056611 -0.138032 -0.008353 -0.524712 -0.266966 0.001069 -0.485255 -0.016830 -0.247825 0.207480 0.459895 0.078196 0.337278 -0.013231 -0.134833 0.243248 0.159805 0.175881 -0.314452 -0.482897 0.117983 -0.445428 0.245441 -0.062632 0.303506 0.326214 -0.407458 0.473814 -0.379471 0.216369 -0.382563 -0.093560 0.088713 -0.239418 -0.257820 0.340710 0.480175 0.227374 -0.074898 0.086532 0.067613 0.343709 -0.124772 -0.475143 -0.351025 0.469596 0.086879 -0.375673 -0.415300 -0.101660 -0.347984 -0.277416 -0.261777 0.455646 0.261999 0.424828 -0.303641 0.184142 0.292545 -0.003910 0.384399 0.480686 -0.067107 -0.423705 -0.214487 -0.309146 0.192310 -0.334118 0.145171 0.119894 -0.277297 0.132713 -0.480381 0.258225 0.378649 -0.174359 0.132541 -0.442629 -0.060804 -0.107049 -0.008315 -0.060110 -0.175330 0.227366 0.472562 -0.254901 0.023106 -0.474975 0.242033 0.124399 -0.090466 0.304734 -0.385916 -0.305077 0.355439 0.418395 -0.483175 -0.177960 0.269151 -0.303703 0.258596 -0.035651 -0.420279 0.105026 -0.164766 0.364554 -0.414379 0.225364 0.304175 -0.345358 0.077922 -0.085669 0.131370 -0.078411 0.030796 0.400616 -0.339037 -0.363840 -0.002681 -0.399914 -0.264644 -0.141722 -0.011215 -0.223662 -0.179977 0.430793 0.346172 -0.125880 -0.243462 -0.430644 -0.236975 -0.297685 0.276405 0.330472 -0.457192 -0.002068 -0.184955 0.079043 -0.010289 -0.011750 -0.443053 0.263250 -0.154466 0.072923 -0.189234 0.576224 0.186907 0.365681 0.190739 -0.232046 -0.170351 0.513871 -0.416657 0.326512 -0.265157 0.090882 0.293192 -0.452119 -0.364142 0.366206 -0.462973 -0.271684 -0.523182 0.128607 -0.265022 0.494395 0.001120 -0.206850 0.066002 0.169629 0.218930 0.448353 0.324197 0.378150 -0.165350 0.131472 0.410904 0.362164 0.487829 -0.249694 0.063164 -0.125297 -0.231111 0.093333 -0.009718 -0.400497 -0.038387 -0.172424 -0.050295 0.115871 0.084814 -0.245695 0.179888 0.080405 -0.006871 -0.484343 0.253954 -0.308342 -0.101946 0.134045 0.013255 -0.452803 -0.436958 -0.187949 -0.154304 0.421184 0.401074 -0.188576 0.429831 0.234247 -0.367068 0.039215 -0.101685 -0.337285 0.002429 -0.105549 0.488866 0.257920 0.402158 -0.103412 0.138453 0.441240 -0.329908 0.471488 -0.191392 -0.239482 0.201826 -0.234665 -0.389902 -0.272146 -0.094303 -0.340136 0.097501 -0.006320 -0.143212 -0.264098 -0.505620 0.292098 -0.293157 -0.482296 -0.283736 -0.161415 0.134155 0.005589 0.171268 -0.106175 -0.357990 0.276338 -0.265819 -0.130017 0.058733 -0.303815 -0.359132 -0.356390 0.426240 0.190977 0.211898 0.416704 0.194697 0.248885 0.373113 0.354659 0.372902 0.293282 -0.089987 0.007419 -0.232324 -0.416351 -0.099101 0.469785 0.006655 0.465109 0.311362 -0.029799 -0.106364 -0.153444 0.357565 0.128782 0.185446 0.469549 0.422512 -0.295556 -0.172309 0.457422 0.225266 0.099636 0.495749 0.183959 0.201579 0.009890 -0.522584 -0.128701 -0.145961 0.033764 0.489638 -0.024496 -0.080731 -0.269874 0.478776 0.013370 0.022116 -0.350349 0.168263 0.111980 0.074596 -0.035334 -0.220769 -0.311130 -0.295181 0.351669 0.198540 -0.179620 -0.330410 0.034308 -0.406349 0.447507 -0.378010 0.170057 0.422515 0.022234 0.474804 0.133810 -0.204428 0.288176 0.175087 0.067975 0.158388 -0.375894 0.188262 -0.287643 -0.147515 0.355556 -0.325715 0.528906 -0.100564 -0.401096 0.228790 0.170817 -0.106923 -0.497472 0.220165 -0.210629 0.268581 -0.392500 0.194440 0.245441 0.201610 0.335242 -0.511470 -0.208785 0.413689 0.099728 -0.059620 0.023969 -0.076737 0.178987 0.219213 -0.372144 0.329091 -0.195556 0.116240 -0.004294 -0.085205 -0.367729 0.322467 -0.275706 0.257809 0.042672 -0.045360 -0.414525 -0.197733 -0.075761 -0.152884 -0.468714 -0.028335 -0.449375 -0.455715 -0.460235 0.222376 -0.023982 -0.199741 -0.261913 0.410549 0.068148 -0.165881 0.039987 0.072997 -0.033940 0.071979 0.169003 0.090296 -0.210653 -0.185874 0.154323 -0.246830 -0.259765 -0.135729 0.426713 -0.224239 0.213880 -0.280789 0.100958 -0.195063 -0.451721 0.124013 -0.247265 0.102092 -0.194850 0.484751 -0.423772 -0.370311 0.345198 -0.082556 -0.215263 -0.060070 0.426404 -0.002308 0.056524 0.037954 -0.151994 0.135575 0.081320 0.315873 0.296525 -0.310843 0.316751 -0.090084 -0.124950 -0.077186 -0.423568 0.196045 -0.472574 0.231195 -0.357067 -0.017574 -0.472809 -0.321926 -0.331646 0.101957 0.171212 -0.392276 -0.112200 0.320363 -0.026384 0.027217 0.489106 -0.364049 -0.439248 0.540757 0.235191 0.476974 0.081276 0.092785 0.080486 0.401652 -0.199598 0.400591 -0.483509 0.052711 -0.248675 0.466528 -0.246403 -0.222394 -0.262258 -0.146208 0.071755 -0.252983 -0.392526 0.396196 0.172287 0.084481 0.354158 0.225611 0.277679 -0.466680 0.365808 -0.066983 0.239689 0.330610 0.268244 -0.044484 0.153690 0.015184 0.030968 0.088253 0.433996 0.345121 -0.317244 0.203930 0.458055 0.500520 0.149986 -0.256909 -0.303433 0.190599 0.461098 0.401957 0.053551 0.182212 -0.055545 -0.457321 -0.332283 -0.100939 0.059243 -0.154145 0.265654 0.097058 -0.314462 0.509518 0.430178 0.512240 0.164084 0.028370 0.110918 0.334814 0.007514 0.005393 0.230946 0.401150 -0.290347 0.056084 0.417268 -0.163357 -0.471850 0.038942 0.431481 0.162942 0.211328 -0.350020 -0.007571 0.220053 -0.252041 0.028932 -0.118986 -0.489555 -0.243010 -0.415656 -0.479824 0.443027 0.505332 0.228794 -0.104504 0.179596 -0.075703 0.371555 -0.333165 -0.458355 -0.387347 -0.367369 -0.166103 0.026722 -0.489610 0.039734 -0.185778 0.145729 0.365047 0.183296 -0.378633 0.504409 0.327703 -0.032523 0.311889 0.464271 0.459610 -0.206668 -0.121726 -0.112118 0.066466 -0.233498 -0.083494 -0.070727 0.209636 -0.261730 0.499749 -0.471068 -0.292823 -0.253213 -0.290519 -0.256448 -0.195952 0.250106 0.249010 -0.358895 0.467023 0.165855 0.268126 0.227304 -0.434581 -0.183523 -0.426879 -0.472203 -0.093600 -0.196976 -0.356682 0.155653 0.304781 -0.380621 0.162801 0.502165 -0.110680 -0.355696 0.232475 0.046460 -0.464883 -0.182987 0.333105 -0.184352 -0.091785 -0.198262 -0.063691 0.124718 0.422551 -0.157867 -0.110602 0.076502 0.252252 0.096210 0.431754 0.318346 0.034148 0.353103 0.078453 -0.204105 -0.467854 -0.263784 -0.349801 0.352936 0.083597 -0.278147 0.138334 -0.096314 0.098902 -0.402936 -0.004329 0.194551 -0.475464 -0.021943 0.252393 0.255590 0.406956 0.077850 -0.036917 -0.249896 0.215450 0.274235 -0.380829 0.106953 -0.139082 0.231472 -0.235127 0.442556 0.015662 -0.384535 -0.227566 -0.193727 0.363267 -0.013288 0.445626 -0.460223 -0.021655 0.086375 0.145032 -0.263866 -0.124180 0.113007 -0.032432 -0.145802 0.237742 -0.082611 0.049677 -0.525263 -0.267210 0.326046 0.082017 0.450475 0.128493 -0.457189 0.508960 -0.006349 0.229092 -0.136628 -0.152086 -0.306532 -0.214418 0.381307 -0.085813 0.311907 -0.184406 -0.308214 -0.263063 -0.245119 -0.422516 0.276735 -0.386470 -0.203058 -0.007540 -0.169663 0.087098 0.193964 -0.299188 -0.089190 0.060922 -0.319367 -0.061650 0.429568 -0.128640 -0.124707 -0.244612 -0.469617 0.153863 -0.447489 0.180510 -0.439985 0.184931 -0.209635 0.057844 -0.067881 -0.006731 -0.241361 0.285225 -0.189500 0.469139 -0.301944 0.144316 0.065070 -0.439046 -0.110832 -0.157020 0.203856 -0.096921 -0.146945 -0.161838 0.084352 -0.444017 0.261165 0.158869 -0.099477 0.318830 0.175537 0.315293 -0.019704 -0.302669 -0.485948 -0.382256 0.164405 -0.459120 -0.417315 -0.289559 -0.008669 -0.174059 -0.406289 0.491905 -0.061940 0.468205 0.133664 0.278405 -0.203913 0.090009 -0.458466 -0.168723 0.235921 -0.238123 -0.252215 0.088135 -0.076468 -0.321662 0.437844 0.042663 -0.431131 -0.248525 -0.258297 -0.043806 -0.228261 0.162854 0.130237 -0.430035 -0.496891 0.027146 0.504916 0.336459 0.259598 0.118090 0.326844 0.286743 -0.239371 -0.029406 0.253907 -0.211881 0.411002 -0.125235 0.316209 -0.446623 -0.459772 0.108836 0.402270 -0.115709 0.443594 -0.417590 0.509767 -0.338462 -0.000290 0.150105 -0.050679 -0.004079 -0.357494 -0.186552 -0.067204 -0.162082 -0.024565 -0.395313 0.077168 -0.228578 0.400119 -0.239396 0.520713 0.269115 -0.089342 -0.076990 -0.245118 0.245243 -0.010529 0.398851 0.269484 -0.431252 0.447780 -0.420520 -0.400963 0.127229 -0.420001 -0.264353 -0.289290 0.084914 0.198700 0.129318 0.018668 0.444850 -0.402954 0.234478 -0.303006 0.042820 -0.315975 0.345580 -0.404434 0.464533 -0.470187 0.208586 -0.476700 -0.458114 0.495422 0.128032 -0.324093 -0.351550 0.493013 -0.361265 -0.276897 -0.232438 -0.247517 -0.205088 -0.148707 -0.144850 0.046519 0.247764 0.087609 -0.338315 0.189178 -0.459834 -0.494750 0.196230 0.289609 -0.321793 0.073528 -0.486659 0.437635 -0.380269 0.165407 -0.516250 0.163387 0.060165 0.023994 -0.023171 0.452315 0.363885 0.144052 0.388167 0.299764 0.140372 0.408814 0.210062 -0.103835 -0.078412 -0.325424 0.220847 0.481688 -0.137833 -0.036635 0.178811 -0.302367 -0.435270 -0.444402 -0.429059 -0.184300 0.431921 -0.417245 0.320634 0.072305 -0.255955 0.159450 0.111200 0.013454 0.213682 -0.026652 -0.337960 0.205830 0.410235 0.065715 0.035690 -0.070809 -0.228516 -0.499989 -0.148337 0.101335 0.212411 -0.424979 -0.117214 -0.339349 -0.465636 -0.007471 0.353915 0.270326 0.318463 -0.399343 -0.298869 -0.005234 -0.343654 -0.050234 -0.123977 -0.356193 -0.456353 -0.406283 0.405400 0.420277 0.357328 -0.093244 -0.246772 -0.316896 -0.256233 -0.194171 0.252495 0.399936 0.047831 -0.390378 -0.038827 -0.469842 0.001346 -0.371471 -0.083055 0.446100 0.031399 -0.041728 0.373316 -0.310758 -0.428589 0.149323 -0.156117 -0.484309 0.090461 -0.307595 -0.477340 -0.021701 0.458105 0.432244 -0.129838 0.126398 -0.289862 0.479819 0.432733 -0.297270 0.057076 0.058951 -0.480582 0.079456 -0.049953 0.017522 0.387107 0.306692 0.137316 0.102591 0.144436 0.097704 0.460068 -0.017074 0.349432 -0.441902 0.428867 -0.159915 0.458487 0.120677 -0.150188 -0.242352 0.066805 0.007702 -0.263588 0.181792 0.441223 0.297524 0.121596 0.080078 0.449779 0.395778 0.372460 -0.238615 0.262697 0.280811 -0.108807 0.129163 0.234223 0.374303 -0.310461 0.284741 0.190660 -0.494881 -0.274162 0.229121 -0.473004 -0.081487 0.421548 0.021084 -0.336757 0.086176 0.088037 -0.355539 0.138657 -0.107806 0.130532 -0.324840 -0.033300 0.196138 0.094647 0.338495 0.187345 -0.247459 -0.215818 0.345556 -0.103135 -0.155305 0.089458 0.297734 -0.125121 0.303298 0.326370 -0.221034 -0.229480 0.308609 0.124913 0.144489 -0.069415 -0.257284 0.500958 -0.409943 -0.115166 0.353429 0.495846 0.282344 -0.061619 -0.143293 0.256128 