4
784 256
0.276471 0.158824 0.056863 0.029412 -0.190196 0.492157 -0.131373 -0.190196 0.201961 0.170588 -0.476471 0.166667 0.233333 0.292157 -0.445098 -0.088235 -0.441176 0.492157 0.080392 0.350980 0.170588 -0.296078 0.080392 0.441176 0.488235 0.456863 -0.252941 -0.229412 0.480392 -0.194118 0.052941 0.264706 -0.445098 -0.311765 -0.001961 0.170588 0.249020 -0.103922 0.260784 0.366667 0.221569 0.362745 -0.386275 -0.092157 0.049020 -0.370588 -0.460784 -0.456863 0.088235 -0.437255 0.029412 -0.143137 0.343137 0.354902 0.049020 -0.464706 0.492157 0.072549 -0.303922 -0.339216 0.150980 0.045098 -0.245098 0.041176 -0.394118 0.409804 -0.096078 -0.437255 -0.201961 -0.394118 -0.139216 0.178431 -0.480392 -0.449020 0.076471 -0.029412 -0.147059 -0.347059 0.441176 -0.088235 -0.382353 -0.017647 -0.084314 0.303922 0.009804 0.386275 0.088235 0.033333 0.484314 0.182353 0.017647 -0.350980 -0.256863 -0.425490 0.378431 0.049020 -0.209804 0.249020 0.021569 -0.135294 -0.268627 -0.092157 -0.001961 -0.300000 -0.350980 0.100000 -0.127451 -0.311765 0.256863 0.190196 -0.080392 0.288235 -0.221569 -0.201961 -0.331373 0.460784 0.060784 0.433333 0.311765 -0.492157 0.209804 -0.280392 -0.464706 -0.052941 0.331373 0.154902 0.350980 -0.166667 -0.025490 -0.064706 0.492157 0.139216 -0.390196 0.021569 0.213725 0.076471 -0.092157 -0.249020 -0.237255 0.221569 -0.213725 -0.280392 0.229412 0.072549 0.049020 -0.158824 0.343137 -0.366667 -0.366667 0.213725 0.182353 0.001961 -0.417647 0.209804 -0.421569 -0.115686 0.347059 -0.068627 -0.088235 0.158824 -0.496078 -0.209804 -0.252941 0.162745 -0.088235 0.092157 -0.170588 -0.013725 -0.115686 0.398039 -0.154902 0.025490 0.354902 -0.456863 0.049020 -0.174510 0.382353 -0.378431 0.049020 0.421569 -0.162745 0.288235 0.045098 -0.484314 -0.433333 -0.194118 -0.272549 0.433333 0.480392 0.127451 -0.100000 -0.425490 0.029412 -0.492157 0.037255 0.111765 -0.366667 0.421569 0.405882 -0.174510 -0.339216 -0.272549 -0.327451 -0.076471 0.249020 -0.229412 -0.264706 0.260784 0.088235 -0.468627 -0.158824 -0.033333 -0.029412 0.092157 0.409804 0.127451 0.425490 0.464706 0.068627 0.343137 0.335294 -0.182353 0.166667 0.476471 -0.045098 -0.390196 -0.162745 -0.182353 -0.115686 -0.190196 0.107843 -0.311765 -0.319608 0.276471 0.303922 -0.425490 -0.001961 0.029412 0.303922 -0.429412 0.225490 0.194118 0.052941 -0.296078 -0.382353 0.245098 -0.037255 0.115686 -0.205882 0.186275 -0.119608 -0.107843 -0.323529 -0.209804 -0.013725 0.194118 0.198039 0.307843 -0.413725 -0.394118 0.398039 -0.496078 -0.241176 -0.300000 -0.178431 0.029412 0.284314 -0.500000 0.343137 -0.182353 -0.154902 0.260784 0.327451 -0.354902 -0.449020 0.021569 -0.303922 -0.327451 -0.076471 -0.178431 -0.174510 0.068627 -0.315686 -0.064706 0.425490 0.476471 -0.343137 0.166667 0.009804 -0.288235 0.033333 -0.068627 -0.276471 -0.107843 0.327451 -0.394118 -0.464706 0.358824 -0.186275 -0.460784 -0.049020 -0.347059 0.233333 0.460784 -0.468627 -0.217647 -0.135294 0.154902 -0.147059 0.213725 0.072549 -0.433333 0.186275 -0.366667 0.449020 -0.296078 0.378431 -0.472549 -0.296078 -0.347059 -0.292157 -0.241176 -0.150980 0.256863 -0.041176 -0.025490 0.084314 -0.398039 0.158824 -0.280392 0.103922 0.374510 -0.033333 0.201961 -0.182353 -0.221569 0.292157 -0.115686 -0.005882 -0.225490 -0.009804 0.186275 0.433333 -0.268627 -0.013725 0.296078 0.103922 -0.170588 -0.362745 -0.339216 0.374510 0.080392 -0.080392 -0.072549 -0.123529 -0.500000 -0.119608 0.409804 -0.127451 -0.170588 -0.147059 -0.323529 -0.292157 -0.488235 -0.370588 -0.139216 -0.045098 0.135294 -0.103922 0.072549 -0.107843 0.476471 0.174510 0.123529 0.280392 -0.358824 -0.221569 0.449020 -0.272549 0.194118 -0.323529 -0.374510 0.378431 -0.213725 -0.005882 0.464706 0.390196 0.272549 -0.425490 0.374510 0.241176 0.496078 0.256863 0.288235 0.166667 -0.017647 0.292157 0.280392 -0.249020 -0.225490 0.296078 -0.111765 0.092157 0.315686 0.068627 -0.131373 -0.311765 0.182353 -0.096078 0.409804 0.052941 -0.029412 -0.213725 -0.260784 -0.068627 0.398039 -0.115686 0.084314 0.166667 0.245098 0.296078 -0.072549 -0.476471 0.460784 0.221569 0.147059 -0.123529 -0.088235 0.080392 0.327451 -0.456863 0.496078 0.182353 0.162745 -0.143137 0.484314 -0.382353 -0.339216 -0.500000 0.084314 -0.362745 -0.194118 -0.005882 0.300000 -0.300000 -0.119608 -0.111765 0.174510 -0.464706 0.464706 -0.362745 -0.150980 0.162745 0.335294 0.041176 0.068627 -0.064706 -0.366667 -0.201961 0.170588 -0.158824 0.131373 -0.460784 -0.425490 -0.401961 -0.174510 0.362745 -0.178431 -0.107843 0.488235 -0.237255 -0.268627 0.068627 0.417647 -0.331373 0.096078 0.005882 -0.225490 0.390196 0.021569 -0.201961 -0.256863 0.350980 -0.354902 0.088235 -0.307843 0.041176 0.358824 -0.162745 -0.303922 -0.013725 -0.366667 -0.233333 0.335294 0.417647 -0.190196 0.241176 -0.221569 -0.496078 -0.433333 -0.496078 -0.449020 0.272549 -0.398039 -0.319608 -0.111765 -0.437255 0.484314 -0.445098 -0.100000 0.315686 -0.060784 0.194118 -0.445098 -0.366667 -0.084314 -0.096078 -0.060784 -0.147059 0.354902 -0.429412 -0.311765 0.088235 -0.100000 -0.174510 0.237255 -0.323529 0.449020 -0.158824 0.229412 0.154902 -0.394118 0.401961 0.009804 -0.021569 0.280392 -0.143137 0.300000 0.056863 0.441176 -0.025490 0.307843 -0.398039 0.409804 -0.150980 0.445098 -0.327451 -0.394118 0.166667 -0.398039 0.417647 0.029412 -0.339216 0.421569 0.170588 -0.394118 -0.162745 0.111765 0.100000 0.394118 -0.068627 -0.037255 -0.284314 -0.425490 -0.354902 -0.331373 0.147059 0.005882 -0.335294 0.249020 0.331373 -0.272549 0.292157 -0.209804 0.476471 -0.178431 -0.284314 -0.394118 0.060784 -0.064706 -0.276471 0.433333 0.009804 0.358824 -0.468627 0.394118 -0.456863 0.280392 -0.237255 -0.398039 -0.017647 0.005882 -0.370588 -0.390196 -0.025490 -0.268627 0.045098 0.064706 -0.468627 -0.319608 -0.241176 0.382353 -0.139216 0.021569 0.405882 0.166667 0.315686 0.272549 -0.468627 -0.449020 -0.213725 -0.115686 -0.103922 -0.229412 -0.119608 0.201961 0.468627 -0.178431 0.464706 -0.413725 -0.284314 0.170588 0.409804 0.398039 0.241176 0.374510 0.154902 0.147059 -0.182353 0.300000 -0.460784 -0.221569 -0.464706 -0.437255 -0.311765 -0.041176 -0.013725 0.374510 -0.017647 0.409804 0.107843 0.398039 -0.354902 0.358824 0.347059 0.398039 -0.072549 -0.272549 0.339216 0.139216 0.300000 0.456863 -0.252941 0.417647 -0.096078 0.492157 -0.370588 -0.076471 0.339216 0.303922 -0.060784 -0.213725 0.041176 0.154902 0.225490 -0.170588 -0.249020 -0.256863 0.147059 -0.245098 0.021569 0.284314 0.480392 -0.245098 -0.405882 -0.033333 0.284314 -0.068627 -0.182353 -0.292157 -0.084314 -0.370588 -0.401961 0.441176 0.241176 -0.201961 -0.452941 -0.401961 0.205882 -0.115686 0.107843 -0.049020 -0.186275 0.492157 -0.025490 -0.076471 0.249020 -0.319608 0.119608 -0.150980 0.472549 -0.378431 -0.178431 0.205882 0.143137 0.311765 -0.092157 -0.001961 0.449020 0.260784 -0.080392 0.174510 0.429412 -0.476471 -0.127451 0.241176 0.288235 0.143137 0.260784 -0.174510 0.198039 0.068627 -0.162745 -0.150980 -0.378431 -0.425490 -0.009804 -0.041176 -0.198039 -0.178431 -0.452941 -0.292157 0.052941 -0.460784 0.017647 0.296078 0.221569 -0.088235 0.268627 0.417647 -0.209804 0.001961 -0.264706 0.143137 -0.311765 -0.229412 0.358824 -0.288235 -0.500000 0.382353 -0.001961 0.150980 -0.158824 0.300000 0.041176 -0.441176 0.064706 0.201961 -0.347059 -0.362745 -0.323529 -0.496078 -0.449020 0.264706 0.147059 -0.072549 -0.049020 -0.245098 0.429412 -0.033333 0.323530 0.166666 -0.005884 -0.060783 0.299997 0.194117 -0.417647 0.131373 0.178431 -0.158824 0.394118 0.347058 0.347059 0.225490 -0.217648 0.280392 0.131373 -0.260782 -0.378431 0.390198 0.441177 -0.429412 -0.300000 0.056867 -0.343138 0.429414 -0.072553 0.072550 0.064706 0.201961 0.327451 0.449014 -0.280393 -0.029411 -0.252940 -0.264707 0.107838 0.111776 0.452941 0.280394 0.307842 -0.245098 0.225491 0.499996 0.252939 -0.174510 0.103922 0.017647 -0.492161 0.339215 -0.311765 -0.300001 -0.190195 -0.429412 0.178432 0.335296 0.460788 0.088235 0.064706 -0.150980 -0.205880 0.252940 0.335294 -0.088235 -0.398039 0.147059 0.060784 -0.488235 -0.378426 0.315685 0.460784 -0.343136 0.017647 0.445099 0.398039 0.080392 -0.009804 -0.107843 0.103932 -0.264706 -0.484313 -0.374511 0.264706 -0.476469 -0.166678 -0.045098 -0.072548 0.323529 -0.072550 0.076461 0.049020 -0.092160 -0.437256 0.041179 -0.221569 -0.119608 -0.143137 -0.143137 -0.362745 -0.394119 0.029412 -0.394119 0.464705 -0.425489 -0.056863 0.449020 0.370585 0.417648 0.158824 -0.398038 -0.209800 0.194127 0.158826 0.449020 -0.362746 0.045095 0.245116 0.174511 0.339217 -0.107845 0.045097 -0.076471 -0.111764 0.029415 -0.088237 0.319612 -0.288236 0.213724 -0.127451 0.260784 0.190195 -0.343135 -0.476470 0.350981 -0.386275 0.449020 -0.052941 0.480387 -0.033332 -0.060785 -0.139222 0.198040 0.327451 0.064707 -0.354902 0.166669 -0.205883 0.029412 -0.017648 0.252941 -0.252941 0.335294 -0.492158 0.221568 -0.150980 -0.382353 -0.296078 -0.092158 -0.264705 0.025484 -0.056863 -0.382367 -0.233330 -0.464706 -0.464706 -0.280387 -0.335291 -0.198039 0.288238 -0.060784 -0.300008 0.178424 -0.158822 -0.339216 0.056856 0.441176 -0.292157 -0.135292 -0.264708 0.029412 -0.362745 0.339213 0.382352 0.276471 0.264704 -0.347059 -0.178431 -0.413726 0.386273 -0.358824 0.150975 0.484314 0.150977 -0.284313 0.147058 0.190200 0.456872 -0.241185 -0.303914 0.374511 -0.052941 -0.013728 -0.249021 0.072549 0.092160 0.350976 0.390196 0.307843 -0.264708 -0.217648 0.429412 0.158822 -0.100000 -0.492157 -0.472549 0.347060 -0.303919 -0.496076 -0.033333 0.005875 0.284313 0.123532 0.005882 0.021570 0.417647 -0.225490 -0.480392 -0.327453 0.370586 0.480392 -0.488229 0.362745 -0.045098 0.405881 0.186275 -0.107843 0.229412 0.433329 0.147059 0.476472 0.131373 0.139219 -0.025485 -0.147059 0.323528 0.068627 -0.323527 0.017649 0.127451 0.350979 0.366667 0.500000 -0.029412 -0.366667 -0.287772 0.049451 -0.165583 -0.077595 0.155255 -0.092774 -0.374384 0.454906 -0.174446 -0.394085 0.374490 -0.398086 -0.012065 0.459164 -0.079021 -0.095531 0.320162 -0.208157 -0.179621 0.392781 -0.467047 -0.490327 0.357626 -0.354908 0.331730 0.484554 -0.296930 0.487837 -0.359339 -0.457852 -0.144565 -0.080520 0.208439 -0.318792 -0.210142 -0.261284 0.106929 -0.365484 0.366032 -0.328439 -0.347013 0.356176 0.025101 0.453912 -0.068216 -0.357652 -0.119917 0.413702 -0.085967 -0.362597 -0.030860 0.268457 -0.459058 -0.252438 0.417682 -0.459490 -0.189236 0.112219 -0.030157 -0.048034 -0.355062 0.311687 -0.139157 -0.109269 -0.146098 -0.317458 -0.243991 0.158419 -0.158866 -0.359616 -0.469093 0.181971 0.075757 -0.217385 0.107842 -0.218305 -0.094236 0.029575 -0.217440 -0.437797 -0.136015 -0.313340 0.244097 -0.220231 0.010610 0.027098 0.471046 0.108213 -0.047219 0.460256 0.498000 0.106706 -0.021134 -0.233641 -0.370507 -0.059194 -0.259504 -0.041069 -0.373418 -0.271389 -0.142467 0.220163 -0.386320 0.114265 -0.339865 -0.248346 0.060864 -0.349927 -0.265284 0.345303 -0.386809 0.084785 -0.157990 -0.291151 0.429334 0.433177 0.109190 -0.038035 0.242790 0.250957 -0.081747 0.118848 -0.452953 0.326998 -0.418030 0.227618 0.472945 -0.386229 0.371602 -0.039414 0.188709 0.041455 0.341938 -0.064234 -0.060098 0.233382 0.122866 0.103271 -0.359400 0.099645 0.180281 -0.048868 -0.405965 0.451261 -0.471651 -0.214892 -0.445340 -0.001982 0.360128 0.316407 -0.476587 -0.147303 0.295085 0.027815 0.102230 -0.150938 0.192077 -0.435585 -0.323689 -0.411335 -0.182447 -0.496900 0.232170 0.052534 -0.166661 -0.320354 -0.211622 -0.486241 0.092623 -0.276023 -0.336544 0.024374 0.426287 -0.131320 0.283447 0.085482 -0.436978 -0.492020 0.478261 0.095561 -0.359491 0.068534 0.416527 -0.114089 -0.453079 -0.091420 -0.070089 0.268722 -0.126945 0.129246 0.052554 0.066676 -0.041848 -0.050045 -0.464487 -0.179624 0.060782 -0.303522 0.003578 0.261908 -0.418856 0.376395 0.441858 0.307929 0.140431 0.469179 0.140004 -0.319954 -0.209933 0.304055 -0.229205 -0.334850 0.307780 -0.109165 0.197404 -0.354017 -0.082540 0.059998 0.394002 0.383005 -0.041003 0.004168 0.433988 -0.134089 -0.061851 -0.496612 -0.431086 0.262135 -0.073787 -0.115936 0.355018 -0.233358 -0.246493 -0.120043 -0.323333 -0.350563 0.425395 -0.221458 -0.354849 0.207085 0.045707 -0.273542 -0.186087 -0.463019 0.372546 0.229260 0.109003 -0.373770 -0.010412 0.018987 0.456863 -0.211910 0.186268 0.370923 0.135833 -0.046899 0.292524 -0.305776 0.195715 -0.048132 0.254393 0.121848 0.256888 -0.120797 -0.335335 0.101646 0.203025 -0.233098 0.316061 -0.130669 0.175182 -0.474838 -0.432784 0.448121 0.359296 0.111163 -0.327885 -0.113770 -0.254183 -0.378402 0.263608 -0.209889 0.291790 0.301169 -0.407819 0.452412 -0.453768 -0.277922 -0.018215 -0.277608 -0.123942 -0.368651 0.454825 -0.120114 0.299223 0.126639 -0.220872 -0.319539 0.327773 -0.444241 -0.477924 -0.103769 -0.324048 0.331404 0.494261 0.020572 0.078607 -0.262779 -0.235284 0.274099 0.471663 0.315658 -0.117142 -0.421594 0.222365 0.001283 -0.132892 0.260062 -0.048461 -0.073471 0.481595 -0.074219 -0.042377 -0.405727 -0.426792 0.267129 0.146077 0.117653 -0.285725 0.058261 0.128851 -0.207606 0.341488 -0.340147 0.150918 0.246823 0.183029 0.119153 -0.162022 0.022831 -0.349334 -0.271459 0.181428 -0.424826 0.251226 -0.459260 -0.318292 -0.116782 0.429532 0.033514 -0.232437 0.187992 0.347241 -0.435833 0.105094 0.058581 0.110409 0.399513 -0.066495 0.088710 0.250389 0.498298 -0.024149 0.374675 -0.210880 0.339262 -0.426744 -0.389504 -0.397295 0.074145 0.476159 0.357868 -0.121104 0.113632 -0.324234 -0.358495 -0.382350 -0.356083 -0.053375 0.333822 0.479700 -0.258850 -0.038017 -0.359465 -0.385239 -0.105153 0.294017 -0.339283 -0.002342 -0.066506 0.153899 0.186243 -0.071511 0.319678 -0.276043 0.046633 -0.333204 -0.297804 0.209941 0.010100 0.032776 -0.336358 0.325542 0.277985 -0.507913 0.303455 0.226770 0.437105 -0.082442 0.258764 -0.289040 0.105663 -0.308583 -0.223536 -0.024897 0.345388 -0.245081 -0.293911 -0.450106 0.443120 -0.086616 -0.030813 -0.295447 0.012688 0.235637 0.123871 -0.120022 0.392007 -0.179151 -0.079351 0.101688 -0.022307 -0.326057 -0.269017 -0.159480 0.042355 0.000753 -0.421632 0.417758 -0.014764 0.406931 -0.014749 -0.340579 0.403740 -0.394097 -0.073414 0.332253 -0.062284 -0.167372 -0.061826 -0.109040 -0.285662 -0.189044 0.082013 0.017814 -0.284586 -0.406548 0.494081 -0.267246 -0.402664 0.273074 -0.148963 -0.202273 0.295225 0.252690 -0.118928 -0.320855 0.499034 0.148567 0.196385 -0.373846 -0.336247 -0.255744 0.108839 -0.463797 -0.196152 -0.374595 -0.088730 -0.161929 0.058413 0.471501 0.409936 -0.223614 -0.061155 -0.325464 -0.191898 0.475948 -0.291969 -0.098593 0.187301 0.404306 -0.247818 -0.083002 -0.019792 0.458749 0.283999 -0.459957 0.052714 0.292670 -0.103715 -0.386448 0.015509 -0.404594 -0.452331 -0.269496 -0.211232 -0.154852 -0.023341 -0.428899 0.270979 -0.495682 -0.063164 0.397837 0.313110 0.428542 -0.092013 0.435450 0.077833 0.484054 -0.403248 -0.369929 -0.497828 -0.237602 -0.446295 0.262331 0.430775 0.271627 0.321100 0.253158 0.320925 -0.223126 0.504747 0.303553 -0.321796 0.258172 0.076829 -0.059315 0.490967 0.101330 0.084279 -0.058590 -0.100913 0.264910 -0.295192 -0.145744 0.233059 0.139946 0.320176 -0.407123 0.438109 0.020574 0.086192 0.104802 -0.177436 0.173099 -0.070724 -0.408004 -0.446848 0.162552 -0.188844 -0.370934 -0.414828 -0.010801 0.457908 0.318092 0.271417 0.176275 0.459419 -0.399718 0.095548 0.139268 0.416081 0.336402 0.328754 0.277351 0.445650 -0.411164 -0.364220 -0.356713 0.418850 0.052743 -0.275399 -0.018150 0.018418 -0.147441 0.049821 -0.376336 -0.010698 0.453332 -0.276443 0.430361 -0.243867 -0.462694 -0.083033 -0.348076 -0.453982 -0.171142 0.030742 -0.242219 0.020333 -0.184780 -0.473537 0.494937 -0.309411 0.193152 -0.271703 0.402140 0.149694 0.328402 -0.042762 0.005614 0.424520 0.483483 -0.280517 0.361144 0.196853 0.024039 -0.445802 0.431601 0.437123 0.221531 0.387499 0.315309 -0.124272 -0.316988 0.340165 -0.294855 -0.251825 0.111730 -0.424970 0.415937 0.153999 0.162923 0.391208 0.089675 0.472016 -0.488488 0.066231 0.074179 -0.015035 0.023800 -0.090600 0.101924 0.137295 0.252894 0.028987 0.100877 -0.463898 -0.228502 0.225231 -0.184393 0.285309 0.501557 -0.283465 -0.308477 0.353356 0.281810 -0.150606 0.272388 0.455717 0.113377 0.067080 0.112068 -0.043206 -0.365463 -0.059659 0.209024 -0.252869 -0.314365 -0.267128 0.031575 0.374027 -0.400381 0.348448 0.096130 -0.491692 0.380300 -0.424414 0.022374 -0.213084 0.382478 0.201035 0.497778 -0.465076 -0.022738 0.087631 -0.299143 0.166853 -0.428085 -0.148570 -0.022151 -0.412016 -0.275718 -0.389369 0.424609 0.441534 0.069184 0.253367 -0.015673 0.074667 -0.144257 -0.417412 -0.269759 -0.108337 -0.230219 0.087922 0.124761 0.453450 -0.112669 0.486362 0.163232 0.063918 0.442855 -0.008353 -0.345625 0.150101 0.453933 0.139676 0.340205 -0.473588 -0.453751 0.161668 0.349816 0.482491 -0.208452 0.286133 -0.257485 0.409286 -0.259866 0.299286 0.036324 0.027369 -0.470273 0.193634 0.361143 0.364311 -0.087632 0.478126 0.155361 -0.139395 -0.351219 -0.427070 -0.262860 -0.082952 -0.161418 -0.374263 -0.096107 -0.096096 0.369453 -0.285077 0.482216 -0.036433 -0.440418 -0.214578 0.111754 0.124407 -0.066782 -0.069219 -0.473335 0.416144 0.216304 -0.365915 0.182100 -0.306000 -0.408752 0.471179 0.147042 -0.051848 -0.044109 -0.039921 -0.449292 0.316879 -0.069132 -0.307303 -0.018416 -0.475342 -0.218034 -0.000240 0.096464 -0.389921 -0.145401 0.297800 -0.400675 0.422155 0.000932 -0.337617 -0.415397 -0.303490 0.217733 0.029048 -0.463524 -0.480184 -0.476748 -0.171027 0.336683 0.000979 0.004464 -0.099913 0.431354 0.179337 0.098940 -0.334760 0.331526 0.447237 0.304501 0.331918 -0.387074 0.318428 0.371235 0.107907 -0.156377 -0.488682 -0.022848 -0.271372 -0.347424 0.057827 0.165518 -0.308401 -0.060016 0.090472 0.149872 0.069146 0.236936 -0.089100 -0.104272 -0.181780 -0.451242 -0.497360 -0.131118 0.396500 -0.011388 0.119152 0.027124 0.262482 0.039641 0.288579 0.436237 0.307030 0.113920 -0.224292 -0.039116 -0.422023 -0.166310 0.267717 -0.481382 -0.275305 -0.078207 -0.350848 -0.284350 -0.453139 -0.464458 0.399307 -0.090513 0.471013 -0.015743 0.020573 -0.288029 0.038365 -0.020085 -0.463687 -0.382781 0.345268 0.248763 0.244061 0.071062 0.399586 0.130924 -0.342471 -0.360457 0.329653 -0.099358 -0.351568 0.141167 0.313664 0.275041 0.130939 -0.366457 -0.370985 -0.339989 0.441816 -0.380932 0.494633 0.314704 0.147063 0.253222 -0.469517 -0.435856 -0.437384 0.273498 0.476606 0.085708 -0.348360 0.123809 0.010310 -0.185138 -0.498026 0.440214 0.190980 -0.350783 -0.489978 0.124005 -0.481143 0.174479 0.414728 -0.081786 -0.330767 -0.479201 0.310058 -0.232993 0.360320 -0.296226 -0.504948 0.194046 -0.371729 -0.357665 0.453480 0.033019 -0.346327 -0.059308 -0.015611 -0.117912 0.366533 0.290121 0.242642 0.191899 0.467425 0.050093 0.181338 -0.341433 -0.386059 0.260736 0.230685 -0.420821 -0.168789 -0.195848 -0.489599 0.216915 -0.317827 -0.092309 -0.348911 0.404003 0.466380 -0.511401 0.398032 0.131475 0.431044 0.390442 -0.410452 0.031322 -0.222754 -0.397989 0.283360 0.436310 0.064551 0.079196 -0.310366 -0.340574 0.152063 -0.268722 -0.039219 -0.404358 0.236227 0.437554 -0.459940 0.216814 0.457824 0.042222 0.423650 0.378254 0.027513 -0.441200 -0.244888 -0.244281 -0.320741 -0.109093 -0.105517 -0.159376 0.167434 0.292086 0.042222 -0.459621 0.294001 0.280961 -0.422456 -0.414063 -0.114854 0.065537 0.035720 0.105457 0.339760 -0.477677 -0.185310 -0.403657 0.304259 -0.228853 -0.492557 0.449254 -0.418234 -0.490229 0.020175 -0.310485 0.352374 -0.394528 0.112424 -0.145805 0.368281 -0.468376 -0.212952 0.472501 0.086705 -0.077316 0.009608 0.485149 -0.157990 0.459541 0.179176 0.320320 -0.328464 0.166320 0.398673 -0.186692 0.384372 0.185225 -0.029929 -0.308683 0.279873 0.117936 -0.348530 0.168893 -0.050625 -0.179363 -0.367538 -0.185055 0.039927 -0.157608 0.467634 0.501906 -0.166504 0.180481 -0.181277 -0.263827 -0.464276 -0.447449 -0.093480 -0.030188 0.483918 -0.416967 0.083914 -0.306093 -0.444987 -0.037894 -0.301837 0.105046 0.348780 0.002590 0.010776 0.477881 0.259810 0.250474 0.254560 0.432459 -0.344708 -0.126936 -0.345008 0.303831 -0.203892 -0.225178 0.001506 -0.384784 0.365957 -0.383057 0.472739 -0.038019 0.386616 -0.347861 0.004429 -0.422253 0.338415 0.125454 0.061815 -0.281067 0.047036 -0.181955 -0.231432 -0.107516 0.114249 0.033790 -0.125763 -0.272323 0.056674 -0.008061 -0.164963 0.186955 0.069213 -0.192905 0.175300 0.048405 -0.199884 -0.350579 0.375866 -0.285890 0.240808 -0.244165 0.346650 -0.491108 -0.483611 0.100063 0.409849 -0.009686 0.329006 0.135999 -0.199724 -0.269725 0.179193 0.083642 -0.050905 -0.274568 0.371908 0.493519 -0.301399 -0.156023 -0.442166 -0.418533 0.402821 -0.076456 0.144768 0.148117 0.346060 0.117902 -0.380572 -0.152602 -0.392613 0.150858 -0.479996 0.016678 0.454327 -0.127274 0.276387 -0.287111 -0.082609 0.351237 -0.369596 -0.313208 -0.296163 0.121263 -0.058790 -0.381109 -0.273946 0.014345 0.053524 -0.192038 -0.040073 0.245931 0.038245 -0.123885 -0.424670 0.047944 0.029426 0.060598 -0.275854 -0.463644 -0.101335 -0.368611 0.449359 0.226931 0.042239 -0.369882 -0.362199 0.052830 -0.024691 0.456639 -0.375714 0.138663 -0.034850 0.247661 -0.481806 -0.101362 0.437337 -0.498257 -0.475034 0.088889 -0.372777 0.375130 -0.121062 -0.139787 0.251361 0.206989 -0.281791 0.160798 -0.463335 0.172777 0.269836 0.425488 -0.421159 0.195454 -0.492611 0.475827 -0.322123 -0.444164 0.490013 0.108722 -0.473537 0.344485 0.104781 0.246967 -0.487919 0.235398 -0.297580 -0.238455 0.148125 -0.229731 0.109050 -0.349953 -0.385582 0.011982 0.014130 0.361503 -0.138594 -0.498432 0.378817 0.293315 0.374281 -0.106603 0.106415 0.485032 0.276358 0.318466 0.035673 -0.030435 -0.130582 -0.266664 -0.096598 0.499664 0.382034 -0.067893 0.203586 0.222648 0.314371 -0.492517 0.434619 0.338030 -0.308165 -0.286743 0.211768 0.131533 -0.261243 -0.031451 0.023701 -0.448016 -0.000175 0.458609 -0.313290 -0.462913 -0.229229 0.358552 -0.398046 0.331479 -0.460429 0.197980 0.448123 0.071565 -0.008159 0.065118 -0.487596 -0.016546 0.186819 -0.186356 0.088389 -0.064929 0.045050 0.354308 0.122103 0.455470 -0.404238 0.021315 0.192765 -0.192412 -0.154125 0.100376 0.015794 -0.168450 0.126266 0.469330 0.186138 0.462156 -0.208377 -0.234052 -0.151927 -0.393215 -0.191770 0.449780 -0.095249 -0.212448 -0.173359 -0.344893 0.455100 -0.339515 0.408774 0.206987 0.265156 0.444773 0.327894 -0.358443 -0.301600 -0.393096 -0.027899 -0.042243 0.296902 -0.234876 0.058413 -0.100276 -0.072277 -0.329217 0.422553 -0.018960 -0.028275 0.067673 0.078831 -0.291731 -0.161459 -0.060078 0.293111 0.429868 -0.214034 -0.127738 -0.173634 -0.496704 0.445793 -0.177842 0.208026 -0.053608 0.420541 -0.159254 0.070539 -0.453150 0.300833 -0.436170 -0.436234 0.438828 0.010417 0.397503 -0.073616 -0.002567 0.489018 0.449620 -0.390210 0.463189 -0.151848 -0.320193 0.274193 -0.125597 -0.456875 0.492153 -0.462654 0.143412 -0.420049 -0.194590 0.152565 0.484690 0.291380 0.203990 0.428384 0.483758 -0.468478 -0.336447 0.045700 0.453470 0.298444 -0.386234 0.499689 0.018383 0.221796 -0.413565 0.464272 -0.218996 0.410844 0.438187 0.221555 0.041294 -0.114802 0.378313 0.202435 -0.023703 -0.498513 -0.134456 0.203804 -0.291030 0.279019 0.193989 0.483898 0.149073 0.455930 -0.308090 0.124274 0.071589 -0.187293 -0.029384 -0.093855 0.167086 -0.301768 -0.388701 -0.051456 -0.053818 0.149197 -0.166020 0.231267 0.167933 0.074338 0.198398 -0.236156 -0.201001 -0.359519 -0.360007 0.203561 -0.273702 -0.166409 0.244008 -0.322955 -0.497154 0.006575 0.430971 -0.080929 -0.270065 -0.130757 0.110516 -0.325920 0.226361 0.016243 0.049751 -0.276932 -0.469390 -0.009426 -0.477936 -0.097416 0.490563 -0.254920 0.446104 0.385341 -0.043304 -0.228500 0.357646 0.489994 -0.209234 0.300205 -0.097741 -0.123337 -0.306408 0.047919 0.245758 -0.052513 0.270646 0.479555 0.128033 0.410379 -0.171627 0.192511 0.002643 -0.144733 -0.323945 -0.472264 0.446818 0.469720 -0.384517 0.373071 0.241482 -0.131225 0.074243 -0.342581 0.058781 0.416249 -0.360293 0.450018 0.386407 -0.487565 0.130022 -0.197699 0.045409 0.100090 0.409410 0.098883 -0.479977 0.050078 -0.021142 -0.468797 0.186931 -0.397220 -0.312583 -0.257607 -0.480452 -0.439199 -0.082276 -0.123372 -0.333768 0.233516 -0.033611 -0.276676 0.138362 -0.046768 0.328332 0.229795 0.021527 0.355287 0.304876 0.124579 0.124891 0.004412 -0.014392 0.017886 -0.180660 0.117014 0.343803 -0.087661 -0.105770 -0.281993 -0.301128 -0.087600 0.192549 -0.399435 0.378679 -0.090409 -0.402727 -0.153520 0.211066 0.147754 0.006011 -0.357037 -0.033359 -0.015902 0.097050 -0.214305 0.363201 -0.417909 0.183056 0.354523 0.342941 0.310049 -0.037981 0.240594 -0.069071 0.390349 -0.369382 0.389922 0.287655 -0.271917 0.182711 -0.223425 0.397999 -0.456776 0.236110 -0.277921 -0.364769 0.068844 0.111810 -0.042934 -0.350951 -0.065118 -0.207974 0.029405 -0.026075 -0.011073 0.103702 -0.221507 0.202926 -0.048773 -0.120604 0.069960 0.331199 -0.201947 0.019087 0.382613 0.291692 -0.465691 -0.162653 -0.313823 -0.495618 0.050585 -0.032707 -0.441066 0.479639 0.303285 0.166831 0.231718 0.139052 0.116071 0.364894 0.102603 -0.245296 -0.346750 -0.217320 -0.170108 0.355783 0.235519 0.338776 -0.480728 -0.367068 0.382841 -0.158534 0.370311 -0.325600 -0.392974 -0.271502 -0.328719 0.314180 -0.491642 -0.230413 -0.496854 0.331042 0.288580 -0.314923 0.005686 0.350982 0.396575 -0.180582 0.036003 0.337792 -0.323725 0.029894 0.059610 0.440632 0.294115 0.480149 -0.140011 -0.501870 0.216493 0.107407 -0.110748 -0.079288 -0.064431 0.470308 0.282589 -0.157945 -0.128274 -0.401322 0.454962 0.411498 -0.373557 0.305358 0.473737 0.463935 0.140191 0.433580 -0.412830 0.314426 -0.106143 -0.228980 -0.351072 -0.134077 -0.020188 0.087383 -0.089617 -0.280369 -0.198392 0.448379 -0.319108 0.060774 -0.405014 0.087828 -0.293432 -0.287943 -0.240468 -0.025264 0.410348 -0.074184 0.252467 -0.439405 0.202503 0.475566 0.298416 0.216248 -0.040935 -0.242169 -0.280886 0.285389 -0.127239 -0.291647 0.040051 0.416295 0.290786 0.131017 0.042874 0.285198 -0.154402 -0.091781 0.375560 0.260150 0.431111 -0.147053 -0.413720 -0.412272 -0.331524 -0.111298 -0.190105 0.263659 0.429658 0.335098 -0.496001 0.025340 0.472118 -0.366651 -0.444610 0.424456 0.313012 -0.067163 0.038131 -0.078690 0.457543 -0.308581 -0.406589 -0.296136 -0.291516 0.052830 -0.073979 -0.359985 0.319365 0.291422 0.432535 -0.449189 0.382732 0.034627 -0.378438 -0.362298 0.007827 0.468542 0.378271 0.217614 -0.265231 -0.406750 -0.358552 -0.100801 -0.181290 0.087516 -0.100345 0.359247 -0.386208 -0.040710 0.335622 -0.401563 0.423567 0.044635 0.386439 -0.060828 0.091960 -0.332084 0.143019 0.374584 0.211236 -0.346555 0.238634 0.178804 -0.229420 0.119846 0.129709 0.060015 -0.002213 0.039890 -0.499747 -0.311726 0.129703 -0.017634 0.317540 0.190807 -0.103626 -0.143813 0.321891 0.134571 0.072617 -0.370080 0.491305 0.106014 -0.171482 0.404397 0.409787 0.068081 0.183166 0.363120 0.417443 0.342218 -0.052300 -0.373104 0.126787 -0.412428 -0.279190 -0.351184 -0.312153 0.410132 -0.237113 -0.405641 -0.044485 -0.264810 -0.301088 0.016718 0.421245 -0.449240 0.351181 -0.170558 -0.201890 -0.252372 0.240893 -0.033483 -0.378194 0.060924 -0.099999 -0.104190 0.323867 0.375402 -0.335379 0.041201 0.327555 0.414097 -0.064667 0.068611 -0.197419 0.060849 0.374997 -0.339563 0.173316 0.264626 0.323448 0.409973 -0.460832 0.405892 -0.206194 0.103849 0.347072 -0.330711 -0.268634 0.146979 0.422055 0.366581 -0.182294 0.394235 0.197691 0.100008 0.484319 0.318851 -0.166695 -0.098907 0.421546 0.401795 -0.264770 -0.382361 0.122388 -0.451707 -0.201882 0.017537 -0.276652 -0.264909 -0.464676 0.158326 0.111233 -0.037246 -0.304042 0.127383 0.452897 0.190077 0.367293 0.103472 0.327162 -0.153358 -0.413335 0.358286 -0.339593 -0.124124 -0.370635 0.033799 0.001979 0.103969 -0.315699 0.292033 0.478879 0.397495 0.252949 0.249304 -0.315983 -0.093895 -0.149960 -0.229103 -0.292807 -0.033511 -0.044718 0.365521 0.354970 0.079662 -0.229219 0.260618 0.029715 -0.033846 -0.441354 0.194645 -0.252346 0.354536 0.437226 -0.229696 0.053211 -0.410341 0.488490 0.401457 0.100851 0.131130 0.104962 -0.335199 0.084223 -0.339182 -0.052410 0.241346 -0.217020 0.342922 -0.029369 0.315612 -0.261039 -0.468089 0.265314 -0.476642 -0.045506 -0.350184 0.162677 0.154724 -0.111172 0.492211 -0.116035 -0.061679 0.312012 -0.362962 -0.100536 -0.339417 -0.488236 -0.284236 0.468720 -0.131366 0.335498 -0.495980 0.041198 -0.351439 -0.184138 0.024738 0.311670 -0.358807 -0.260252 -0.264789 -0.036064 -0.037080 -0.483936 0.390092 0.264776 -0.151160 0.053061 -0.334925 -0.099957 -0.143702 0.280338 -0.409879 -0.166430 0.213800 0.445078 -0.197924 0.437396 -0.139274 -0.173144 0.316724 -0.072497 0.088105 0.154673 0.155059 -0.370434 0.343704 0.033794 -0.107950 -0.249081 -0.225420 0.189929 -0.405820 0.213148 0.323147 0.394161 0.178719 -0.068842 0.232946 -0.159984 0.265133 -0.472608 0.253204 -0.104355 0.194308 -0.154819 0.366509 -0.021552 -0.198108 0.159031 0.402335 0.460858 0.394073 -0.197367 -0.182283 -0.445349 -0.433440 -0.381779 0.155154 -0.013675 -0.311647 0.402105 0.307881 0.429755 -0.496177 0.084110 -0.194116 -0.287423 -0.154963 0.398456 0.037383 -0.183233 0.088075 0.323304 0.292387 0.111345 -0.437210 -0.295906 0.037268 0.280276 -0.104253 0.169756 0.338347 -0.143887 -0.303616 -0.272639 -0.268727 -0.148023 -0.402017 0.146259 -0.426000 -0.029587 0.111656 -0.115712 -0.006297 -0.170728 -0.115681 0.178557 -0.413758 0.288149 -0.009999 -0.099557 0.264455 -0.249010 -0.292149 -0.243511 0.303787 0.134916 0.042697 0.413419 0.213592 0.449247 0.441226 -0.386827 0.398210 0.147022 -0.460804 -0.456553 -0.241175 0.331383 0.354707 -0.111586 0.394252 -0.009821 -0.206280 0.390351 0.100015 -0.237269 -0.241151 0.182769 -0.174399 -0.025176 0.158756 0.366584 0.358776 -0.480319 -0.005579 -0.131356 -0.449543 0.150975 -0.406033 -0.260994 0.053151 0.292266 -0.433363 0.359274 0.018099 0.092512 -0.248959 -0.276487 0.272577 -0.307723 0.135217 0.300107 -0.131190 0.111887 0.240922 -0.382400 0.429348 -0.386518 0.418432 -0.119555 -0.398009 0.115267 -0.107901 0.186316 -0.425615 -0.421623 0.206042 0.323306 0.135291 -0.166874 -0.052904 -0.417366 -0.351030 0.343164 0.472839 -0.024858 0.272230 0.021532 -0.014400 -0.245067 0.154926 0.147127 -0.103883 0.111786 -0.484110 -0.382930 -0.182944 -0.017800 -0.417166 -0.456838 -0.130914 0.406184 0.092204 0.480251 -0.131559 -0.150898 -0.151931 0.448988 -0.323910 -0.221141 -0.288269 -0.163078 0.076013 0.457022 0.402008 0.351402 0.107772 -0.088124 0.245207 0.335477 0.315613 -0.213824 -0.429983 -0.095949 0.107820 -0.056876 0.068491 -0.072487 -0.060798 0.096229 -0.201766 -0.178348 -0.433538 0.374570 0.433282 0.480412 0.445154 -0.256876 -0.268850 0.111957 0.378852 -0.284320 0.099856 -0.385936 0.249057 -0.335480 0.283778 0.398075 -0.241145 0.178212 0.092660 0.456901 -0.445192 0.002039 0.390261 0.398089 0.303637 0.350961 -0.084781 0.279761 0.338671 -0.166458 -0.182288 -0.225359 -0.170594 -0.425411 0.001649 -0.017652 0.492059 -0.445170 0.284534 0.240997 0.433718 0.088234 -0.410013 -0.033444 0.299515 -0.127371 -0.405774 0.441014 0.241269 -0.386226 -0.198036 0.367168 -0.193718 -0.158710 0.194031 -0.433280 0.496148 -0.005743 0.041419 -0.001548 0.107835 -0.495674 0.421688 0.468596 0.061140 0.425259 -0.041397 0.049037 -0.041172 -0.464782 -0.351165 -0.343349 0.245046 -0.433330 -0.150798 -0.362823 -0.079929 -0.072629 -0.303599 0.476579 -0.374572 -0.040933 -0.064605 0.163119 0.307746 0.402425 -0.013664 0.013686 0.017433 -0.064164 -0.292064 -0.288234 -0.205771 0.398047 0.245110 -0.001929 -0.304032 0.135662 0.249033 -0.115307 -0.088236 0.115727 -0.468362 -0.037456 -0.390060 -0.009419 -0.064402 0.421522 -0.115679 -0.143136 -0.319805 -0.429592 0.402326 0.064546 -0.414074 0.425190 -0.284015 -0.264726 -0.119534 0.060620 -0.174579 -0.147275 -0.499934 0.308210 -0.476466 -0.009680 -0.033586 0.433657 -0.241165 0.186501 -0.009468 0.315719 -0.362855 -0.131272 0.398095 -0.500116 -0.319611 0.045702 0.398233 -0.037068 -0.158660 -0.358834 -0.072877 -0.366572 -0.033511 -0.472624 0.225981 0.433350 -0.245163 -0.150747 -0.041815 0.229393 0.209402 -0.001664 -0.135483 0.461378 -0.409990 0.492164 0.115640 0.441239 0.060710 -0.303880 0.347614 -0.303232 0.323511 0.476678 0.390238 0.123189 -0.323162 -0.066111 -0.476598 0.355624 -0.080177 0.201732 0.033474 0.272397 0.138824 -0.280478 0.284994 -0.456195 0.080450 0.025077 0.390227 0.111855 0.410073 0.245191 0.390323 -0.072345 0.095700 0.252197 0.194283 -0.224285 0.343293 -0.468623 0.025683 -0.131562 -0.264630 0.214218 -0.154771 0.355415 -0.253633 0.088137 0.178989 0.287957 -0.292321 -0.401762 -0.228425 0.421557 0.186344 0.119922 -0.421587 0.397933 -0.311703 -0.394267 0.229502 -0.024949 0.456688 -0.249438 0.276616 -0.354596 0.084722 -0.080499 -0.354392 0.096060 -0.292017 0.080289 0.147170 -0.190212 0.048947 0.237483 0.299859 0.300526 0.421369 -0.076033 0.323513 0.064784 0.029389 -0.084797 -0.245135 0.186267 -0.343200 0.033330 -0.500021 0.402046 0.013734 0.456707 -0.092851 -0.044243 0.241197 -0.119882 0.182434 -0.033660 0.406355 0.488028 0.060791 -0.013802 0.444316 0.057017 -0.401941 -0.409794 -0.178625 0.143309 -0.249598 -0.315678 0.261073 -0.010033 -0.441117 -0.233054 -0.295921 0.052936 0.088203 -0.335384 -0.253561 0.138900 -0.361851 -0.076499 -0.409728 0.162761 -0.378460 -0.154897 -0.123527 -0.472070 -0.076570 0.460536 0.170656 0.394666 0.202116 0.237224 0.464699 -0.151238 -0.049769 0.177601 -0.179438 0.194100 -0.397338 0.134070 -0.456772 -0.190366 -0.201744 -0.057083 -0.076969 -0.449053 0.103930 0.342842 -0.386855 0.241155 -0.103335 0.186275 -0.417606 0.060731 -0.116020 -0.354782 0.491971 0.155355 -0.162744 -0.001929 0.091825 0.041578 -0.080481 -0.327420 0.363044 -0.021911 0.398050 -0.217721 0.311767 -0.377900 0.091759 0.406222 -0.245339 -0.064684 0.449443 0.401046 -0.122868 -0.394204 -0.013784 -0.437189 0.179232 -0.237202 0.041203 0.006199 0.044986 0.327384 0.339248 0.027963 0.291921 -0.237224 0.210683 0.217694 -0.444348 0.079920 -0.044806 -0.147122 0.405880 -0.424982 -0.080432 -0.276401 0.351155 -0.017652 0.198987 0.084198 -0.182138 -0.495385 -0.028855 -0.052875 0.186277 -0.264678 0.025570 0.370327 -0.283954 -0.296417 0.448333 -0.072481 0.484320 -0.331872 -0.370297 0.052656 0.346770 0.214617 -0.217380 -0.170290 0.445087 -0.163270 -0.045090 -0.095138 -0.233851 -0.496346 -0.382214 0.500107 -0.329427 -0.405664 -0.417632 0.150837 0.315738 0.139176 0.025950 -0.500050 0.252541 -0.366668 -0.159063 -0.339298 0.159136 -0.367126 0.235112 -0.041796 0.048850 -0.470350 0.147882 -0.452293 -0.237967 0.127194 0.321692 -0.167441 0.379494 0.272651 -0.226154 0.171130 -0.342957 -0.322153 0.476981 0.429968 -0.323269 0.049362 -0.045375 0.119155 0.174655 -0.013677 0.323649 0.398912 -0.441539 -0.126552 -0.143078 -0.011642 -0.355327 0.394653 0.313312 0.107601 -0.464734 0.221545 0.350583 0.268761 -0.448891 -0.417547 0.436096 -0.316126 -0.394132 -0.478567 -0.237502 -0.461318 0.134641 0.438460 -0.315234 0.147345 0.178907 -0.030293 -0.115268 -0.374724 -0.319304 -0.350999 -0.111281 0.068323 0.142788 -0.115602 -0.152349 -0.429537 -0.001418 0.452810 0.154573 0.293256 -0.237927 -0.476388 -0.143616 0.366374 0.056998 0.156034 -0.013945 -0.232498 -0.141764 0.260002 0.061506 -0.083720 -0.419196 0.245277 0.331799 -0.319939 -0.500199 0.188954 0.032398 -0.362127 0.213570 0.444810 -0.037692 0.211375 0.398163 -0.177166 -0.267963 0.100917 -0.454955 0.410415 0.424030 -0.216408 -0.409828 -0.202385 0.327318 -0.060887 0.484990 -0.189752 0.409928 -0.472422 -0.156296 0.141050 0.453056 -0.083167 0.142012 -0.382137 0.268417 -0.087901 0.237151 0.229679 -0.295912 -0.477287 0.095414 0.000573 0.496140 0.083685 -0.283633 0.306704 0.344567 0.028544 0.161791 -0.224670 0.025196 -0.198069 0.332362 -0.491871 0.029468 -0.237738 -0.244824 -0.179018 -0.288346 -0.347548 0.111351 0.250381 0.476643 0.311953 -0.122868 -0.013779 0.391510 0.185440 0.377961 0.038485 0.147640 -0.192235 -0.319180 -0.155737 -0.179140 -0.104091 -0.186489 -0.221035 0.005223 -0.417982 0.029890 0.111360 -0.021731 0.172252 -0.424295 -0.229054 0.037143 -0.096979 0.241788 -0.414595 -0.206506 0.338767 0.021819 -0.172140 -0.289930 0.296616 -0.213608 0.284322 0.389971 -0.378744 -0.346899 0.193798 -0.337387 -0.025505 0.354810 0.417815 -0.064257 0.018211 0.187988 0.015460 -0.293761 -0.208798 0.161649 0.390525 0.112790 0.204936 0.072666 0.219765 -0.138977 0.444088 0.055790 -0.327166 0.049779 0.354966 0.229823 0.147397 0.095595 -0.024083 -0.484304 -0.358328 0.252985 0.201066 -0.417642 0.474706 0.420158 0.476840 0.114105 -0.205503 0.378147 0.130966 0.221578 -0.105371 -0.037327 0.337318 -0.085430 -0.142919 -0.202221 -0.440194 -0.390106 0.161576 0.259857 0.065636 -0.216120 0.009373 0.319744 -0.366560 0.402109 0.166444 0.498941 0.364646 0.045029 -0.262197 -0.064064 0.128390 -0.057103 -0.312938 0.159165 -0.002980 0.080411 0.441779 0.107537 -0.399114 0.046595 -0.375433 -0.036293 0.307032 0.037980 -0.058900 -0.269970 -0.135998 0.454447 0.272481 -0.096063 -0.370839 -0.152473 -0.124406 0.070636 -0.375594 0.151568 0.049056 0.271198 0.086416 0.381959 0.130873 -0.132239 0.410251 -0.498040 -0.121148 0.304170 0.430866 -0.460578 -0.126864 -0.318145 0.128532 -0.309920 0.000556 -0.445196 0.291635 0.304873 0.207601 -0.408993 0.104443 -0.126274 0.417061 0.084084 0.461237 0.112461 -0.494955 -0.437239 0.071094 0.370951 -0.480856 -0.190121 0.234360 0.190739 0.188933 -0.079252 0.402407 -0.327260 -0.324462 0.258509 0.234040 0.329731 0.428945 -0.358747 0.209069 -0.325022 -0.339044 0.340788 -0.107960 -0.001130 0.229614 0.365750 -0.219356 0.321064 0.497725 -0.430183 0.123055 -0.451345 0.238938 -0.471150 0.358449 0.129148 0.026886 -0.494303 -0.201832 0.500730 -0.183297 0.369764 -0.427014 0.028534 0.126736 0.180489 -0.187320 0.260180 -0.135078 -0.378358 -0.004724 0.088394 -0.485362 -0.467289 -0.373858 -0.437207 0.151568 -0.258636 -0.001159 0.132208 0.032731 -0.005231 -0.134666 -0.001260 0.046447 0.198110 -0.488173 0.005320 0.191249 -0.460239 0.028759 -0.371916 -0.052810 0.431791 0.344856 0.329034 -0.169103 -0.408234 -0.446894 -0.189768 -0.055740 0.437083 -0.066328 0.411052 0.163685 0.222400 0.154120 -0.098414 0.332950 -0.193372 -0.358868 0.418276 0.347878 0.477551 -0.157505 0.070178 0.102192 0.097575 -0.380752 0.022907 0.151534 0.279405 -0.024051 -0.435615 -0.330210 -0.371888 0.483784 0.385929 0.162884 0.366140 -0.338882 -0.408482 -0.485658 0.040250 -0.197755 0.358284 -0.393313 0.243948 -0.465806 -0.301556 0.488014 0.098352 0.375998 -0.234860 -0.383606 0.390501 0.264025 -0.141210 0.065090 -0.371832 0.470676 0.182425 -0.384389 0.175173 -0.073002 0.253096 -0.464946 -0.195302 -0.426632 0.403762 0.371787 0.015805 -0.455580 0.486337 0.117220 -0.333838 -0.255174 -0.236711 -0.391767 0.087442 -0.016443 -0.062231 0.418302 0.282306 0.371312 0.382411 0.472589 -0.240300 0.259319 -0.443318 -0.194499 0.330457 -0.437427 -0.040461 -0.263988 -0.350666 -0.410486 0.354714 0.305252 0.390295 -0.441495 0.295727 -0.366058 0.491758 -0.468270 -0.289441 0.453432 0.197638 0.484133 0.139228 -0.132574 -0.453791 0.327739 -0.047747 -0.104644 0.141936 0.225540 -0.170383 -0.148987 0.246940 0.149608 -0.243267 0.428729 -0.009763 -0.239024 -0.198410 0.200997 0.054032 -0.459412 -0.322518 0.078564 -0.150365 -0.414942 -0.063251 0.283764 -0.119883 -0.049475 0.312159 0.344950 0.103088 -0.324588 -0.026375 -0.387866 0.367619 0.041073 -0.075213 -0.044217 -0.009281 0.207777 -0.448091 0.140057 0.169135 -0.274671 0.347558 -0.233868 0.016424 -0.351767 0.203463 -0.088571 -0.261218 -0.183920 -0.193061 0.170608 -0.144995 0.274497 -0.307705 -0.011665 -0.022689 0.341985 -0.178081 0.050225 0.236779 -0.152961 -0.234136 0.224741 0.037963 -0.011631 -0.097044 -0.221969 -0.184996 0.229846 0.139430 -0.459162 0.081722 -0.317766 0.203216 0.091805 0.461304 -0.476055 -0.485071 -0.121992 -0.164894 0.454244 0.438459 -0.399991 0.131026 -0.084124 0.295045 -0.158305 0.296462 0.101005 -0.479303 -0.308184 -0.491253 -0.458612 0.488668 -0.155131 -0.419088 0.319694 -0.055344 0.111982 -0.343517 -0.195116 0.469966 0.147590 0.438092 -0.259938 -0.191262 -0.038641 -0.063132 0.018965 -0.073503 -0.176069 0.111202 -0.352057 -0.253481 0.443561 0.434878 0.239704 0.254285 -0.059287 -0.415440 -0.084319 0.464763 -0.332839 0.243734 0.470194 -0.018860 0.270605 -0.398971 0.256871 0.237200 0.103686 -0.383371 -0.443706 0.427601 -0.202685 0.280574 -0.392798 0.107985 -0.211802 -0.146868 -0.361547 0.137130 -0.181226 0.161579 0.468375 0.003529 0.084565 0.322824 0.494000 -0.395994 -0.087389 0.396990 0.104676 0.124430 0.144562 -0.117176 0.486941 -0.430602 0.215322 -0.379007 -0.340674 0.018320 -0.202283 0.370053 0.072444 0.304882 -0.141898 -0.005668 0.301597 -0.326962 0.254586 -0.177793 -0.389870 -0.465574 -0.362889 -0.267693 -0.075394 -0.023887 0.203034 0.474479 -0.443562 0.123478 0.484767 -0.179570 0.100967 -0.105541 0.472485 0.196990 -0.435828 -0.252825 -0.388701 0.455702 0.470603 0.158506 -0.087451 -0.171197 0.461630 -0.498584 -0.155181 -0.248747 -0.345601 -0.421041 0.181826 -0.216002 -0.256699 0.272091 -0.158409 -0.487488 0.165188 -0.117511 -0.202607 -0.479276 0.345427 -0.027451 -0.047287 0.216092 0.033044 -0.099262 -0.148389 0.120153 0.031542 -0.450706 0.021704 0.296370 0.306734 -0.077917 0.420681 -0.134982 -0.113065 0.109347 0.235272 0.475152 -0.402976 0.462311 -0.082013 0.487706 -0.241438 0.230329 -0.234684 0.471382 0.337271 -0.250356 0.322622 -0.167801 0.101653 0.259874 0.346017 -0.265848 0.070564 0.067948 0.043138 -0.372576 0.060016 -0.377024 0.177655 0.141533 0.358077 0.138807 0.136191 0.400657 -0.027703 0.373750 -0.272004 0.123087 0.436826 -0.318184 0.399507 0.027461 -0.265830 -0.005826 -0.029307 -0.309901 -0.111893 -0.444148 -0.220407 -0.289880 0.296935 -0.370552 0.324746 -0.453614 0.340193 0.061730 -0.288483 -0.418587 -0.163152 -0.368464 0.341891 0.230468 -0.278488 -0.120353 0.265649 0.020328 0.466535 -0.086088 -0.381285 0.397287 -0.206176 0.401232 -0.203304 -0.107842 -0.263791 -0.086646 0.144259 0.050379 -0.217478 -0.187326 0.358361 0.375337 -0.248745 0.030340 -0.221586 0.361881 0.398144 -0.015835 -0.416627 -0.087897 -0.156224 0.493197 -0.331287 -0.292540 -0.399627 0.055876 -0.291082 -0.316534 -0.441590 0.382928 0.144887 0.246587 0.417674 0.291856 0.136566 -0.153375 0.262910 0.360489 0.090621 -0.261744 -0.431915 0.363792 -0.336388 -0.460697 0.121572 0.061189 -0.108855 0.147864 0.399695 -0.492063 0.253155 0.124360 -0.476039 -0.199958 -0.481684 -0.186710 0.384679 0.239496 -0.495777 -0.025329 0.379110 0.227168 -0.092655 -0.041129 -0.223098 -0.062979 -0.326519 0.449190 -0.488441 -0.381093 -0.337839 0.061490 0.344850 0.404976 0.280369 -0.087040 0.156448 -0.033371 -0.318978 0.187921 -0.044743 0.321885 -0.005154 -0.101493 -0.269598 -0.185945 -0.060020 -0.338849 -0.286155 -0.446197 -0.090157 -0.049825 -0.032643 -0.181856 -0.315940 -0.272588 -0.370551 -0.356048 0.245320 -0.453896 -0.369955 0.407880 -0.192120 0.149633 -0.435108 -0.316255 -0.168197 -0.058818 -0.117293 0.045585 -0.175884 -0.431802 0.066254 0.246487 -0.210838 0.278026 -0.172931 -0.137065 -0.147876 -0.016740 0.245646 0.476397 0.152700 -0.093577 0.072402 0.074578 -0.030636 0.385589 0.233021 0.006499 -0.494337 -0.335954 0.451663 -0.384716 -0.147847 0.231353 -0.456671 0.190374 -0.457854 -0.190137 -0.133788 0.120002 -0.472816 -0.502678 -0.358764 0.214594 -0.276403 0.293161 -0.440024 0.451740 -0.464696 -0.316049 0.197974 -0.176272 -0.130416 -0.349916 -0.093614 0.312396 -0.438379 0.293688 0.180162 0.043397 0.354434 0.265833 0.078101 -0.284366 -0.477021 -0.303061 0.193426 -0.484562 0.469465 0.424807 -0.280104 0.057487 -0.388798 -0.258701 0.234549 0.197162 0.045249 0.276121 -0.235186 0.275655 0.375268 -0.274282 -0.293463 0.065606 0.280992 0.322512 -0.290254 0.006428 -0.059978 -0.387136 0.146680 0.207978 -0.418521 -0.299698 -0.110020 -0.224681 -0.034357 0.394437 -0.371986 0.397467 0.322025 -0.309877 0.385530 0.347078 -0.038573 0.047352 0.382694 -0.462508 -0.170027 0.267503 -0.331526 0.067168 -0.473789 0.372968 -0.232805 0.227694 -0.193589 -0.321085 -0.222624 0.090148 0.271125 -0.123329 0.387083 -0.158073 0.133317 -0.311655 0.397097 -0.316084 0.110652 -0.460287 -0.292114 0.025476 -0.143179 -0.164309 -0.440788 0.066811 0.478464 -0.378153 0.389744 0.493535 -0.131698 -0.303655 -0.214898 -0.061151 0.345410 -0.099679 -0.075420 0.072798 0.076444 0.294337 -0.424031 0.238238 0.377335 -0.322351 -0.428938 0.308711 0.281988 0.087493 -0.304366 -0.236264 0.391462 0.312282 0.314923 -0.175665 -0.277723 0.258799 -0.438195 -0.317027 0.288031 0.449226 0.350709 0.078516 0.344668 -0.417246 -0.328210 -0.095754 -0.211672 -0.131718 0.207362 -0.084422 -0.371659 0.212870 -0.105663 0.015903 0.114600 -0.223745 0.376909 -0.489156 0.352339 0.091510 -0.073020 0.498684 0.278829 -0.295614 0.422430 0.473976 0.471154 0.466273 -0.035186 -0.446155 0.238897 0.156714 -0.334746 0.165115 0.394499 -0.429583 -0.052170 0.124409 -0.314262 -0.082728 -0.408889 0.031130 0.445823 0.209973 0.337669 0.396946 -0.460463 -0.400130 0.346990 0.302201 0.346899 -0.006265 0.241295 0.388038 0.286970 0.361382 -0.296893 -0.390934 -0.471377 -0.173158 0.133772 -0.274738 0.395546 0.416821 -0.248947 0.286657 -0.286041 0.335205 0.153518 -0.176086 -0.035036 -0.302697 0.074330 -0.246153 0.389785 0.486208 -0.272368 0.264019 -0.204010 0.417537 -0.204798 0.223864 0.382100 0.319449 -0.445330 -0.295723 0.435475 0.272302 0.228012 0.126204 -0.282559 0.268704 -0.057366 0.202885 0.024108 0.056963 0.001130 0.481144 -0.091905 0.196297 -0.007460 0.218723 -0.390464 0.101852 0.129709 0.477149 0.268634 0.279057 -0.311902 -0.316615 0.324974 -0.428848 -0.438810 0.281790 0.248746 0.315313 -0.299003 0.210318 -0.393417 0.253989 0.121290 0.001664 -0.194804 -0.249157 -0.002302 -0.119167 0.046814 -0.062736 -0.437513 -0.421366 -0.368197 0.350924 -0.491919 0.185368 0.334857 0.210440 -0.260992 0.237727 -0.476704 0.152776 -0.237532 -0.121420 0.028253 0.237805 -0.439393 -0.076967 -0.443732 0.138494 -0.323115 -0.019675 0.082447 0.086159 -0.315420 -0.153747 0.353451 -0.227834 0.097138 -0.038897 0.453214 -0.237062 0.246607 -0.315057 -0.336377 -0.049471 -0.498675 0.326803 0.388067 -0.081727 0.328212 -0.395551 0.469655 -0.064159 -0.147538 -0.378596 -0.009003 0.490182 0.437108 0.496703 0.426136 -0.197984 0.011142 -0.229168 -0.157933 0.139586 -0.321643 0.155359 0.352345 0.488882 -0.393801 0.168556 -0.185915 -0.270838 -0.191656 -0.045661 -0.462148 0.162353 -0.298530 0.063652 0.095516 -0.173518 -0.213765 -0.177428 -0.475621 -0.340514 0.173427 -0.349335 0.395001 0.011613 -0.419734 -0.047339 0.465382 0.148160 -0.297638 0.416510 -0.105215 0.338209 0.382132 -0.496060 -0.387990 -0.358309 -0.018101 -0.450069 0.469148 -0.388918 -0.246806 -0.279459 0.128327 -0.346403 -0.007174 -0.064989 -0.492976 -0.382648 0.143675 -0.465863 -0.322064 -0.331656 -0.236128 -0.076901 0.209673 -0.406042 0.449045 -0.339584 -0.289274 0.415441 0.114642 0.169560 -0.458138 -0.485059 0.295669 -0.123211 -0.478290 -0.468687 0.437389 0.354505 -0.182005 -0.060833 -0.017296 -0.443145 0.335905 0.161811 0.241333 -0.279271 -0.075425 -0.209686 0.132835 0.159065 0.281104 0.111507 -0.315695 0.233397 -0.458959 0.005888 -0.001914 -0.354475 0.280496 -0.397672 -0.321867 -0.107831 -0.300611 -0.362480 0.327525 0.273036 -0.366478 0.075698 -0.308764 -0.207764 -0.455300 -0.132458 0.352685 0.052118 -0.420354 -0.291225 0.345628 0.264801 -0.017643 -0.158835 -0.465460 0.098720 0.181288 -0.010339 0.167223 0.047728 0.095971 0.417321 -0.465789 -0.090697 0.039378 -0.138984 0.174976 0.129842 -0.264747 -0.433198 -0.217775 -0.170623 -0.200514 0.326312 -0.122644 -0.004771 0.072640 -0.122551 0.344794 -0.088605 0.413722 -0.397975 -0.137358 -0.206075 0.050888 0.291576 -0.357837 0.092643 0.394445 -0.456895 0.010774 -0.299826 0.060823 0.025376 -0.202160 -0.350825 -0.040638 0.324912 -0.409955 0.507013 0.447341 0.265353 0.158874 0.076359 0.069788 0.262981 0.085063 0.409916 -0.282221 0.269104 -0.268475 -0.028539 -0.057652 -0.291913 0.296197 0.313577 -0.390650 -0.236450 0.429652 0.013619 -0.323149 -0.346342 -0.270226 0.013219 -0.413657 -0.354816 0.364335 0.315221 0.315722 0.038637 0.479611 0.138557 0.171405 0.307915 -0.264975 -0.284313 -0.067615 -0.351147 0.264136 0.080168 -0.194128 -0.351369 0.249100 0.214533 0.166707 -0.065557 -0.265130 -0.139012 -0.216285 0.206426 -0.427515 -0.417335 0.389312 0.496141 0.009591 0.316306 0.174332 -0.264416 -0.300321 -0.084061 0.025641 0.469921 -0.248604 0.394507 0.413447 -0.315507 -0.041499 0.111904 0.256358 0.189926 -0.351566 -0.021590 -0.452753 -0.150267 0.476578 -0.452784 0.025289 0.320038 -0.166617 -0.052086 -0.127688 -0.054163 -0.110763 -0.268796 -0.210134 0.326434 -0.221699 0.131403 0.339711 -0.237341 -0.445323 -0.492012 -0.346113 0.236712 0.077981 0.177479 -0.252437 0.464802 0.095365 -0.362555 0.269174 0.041258 0.413916 0.229349 0.492278 0.362814 0.382292 0.276941 0.057163 -0.379925 -0.205804 -0.390025 -0.377819 -0.437173 -0.408103 0.029937 0.433400 -0.064847 -0.009926 -0.319163 -0.452938 -0.045162 -0.026679 -0.445132 -0.387145 0.275964 0.109025 0.309068 -0.448956 -0.433846 0.417969 -0.076615 0.060655 0.190474 -0.060097 -0.292185 -0.378755 0.437529 0.001622 0.233777 -0.071764 -0.472599 -0.308106 -0.492220 -0.256994 0.302307 0.123385 -0.406024 -0.119967 -0.417665 0.498183 -0.449277 0.241503 0.095398 -0.015531 0.311550 -0.258001 0.047718 -0.166142 0.157231 -0.345458 0.323042 0.419964 0.257227 0.052977 0.153648 -0.102840 -0.316092 0.353073 0.336215 0.290000 0.465819 0.053856 -0.472859 0.098057 -0.162846 -0.064137 -0.246332 0.179461 -0.037421 0.407942 -0.415753 -0.072679 0.220540 0.156807 0.369893 -0.272824 -0.387253 0.321529 -0.033103 -0.085560 0.005332 0.081349 0.015580 0.132524 -0.265832 -0.437130 0.337569 0.393506 0.488145 0.358195 -0.261708 0.341505 0.122358 0.031343 0.277456 0.084355 -0.310846 0.150025 0.111870 0.460449 -0.420603 -0.252018 0.480530 0.033504 0.213620 -0.076520 0.064983 -0.434741 0.496785 -0.470971 -0.463086 -0.276173 0.429062 -0.459684 0.194240 0.449581 -0.398684 -0.001439 0.234268 0.481774 -0.214720 -0.252983 0.353738 -0.321131 -0.097348 -0.133063 0.175207 0.037830 -0.233366 0.295937 0.142873 -0.219398 0.174323 0.085886 0.211659 0.020841 0.393411 0.302157 0.108554 -0.033709 0.214662 -0.370689 0.442208 -0.209598 -0.401415 -0.228611 0.488427 -0.461147 -0.304107 -0.201137 -0.449586 0.229284 -0.355921 -0.388394 0.214079 0.343785 0.351469 -0.316749 0.422702 0.198168 0.058836 -0.464390 -0.280048 -0.403326 -0.084679 0.237428 0.382574 0.240142 -0.166868 0.226901 0.057973 -0.161642 0.085541 -0.449416 -0.065181 0.158122 -0.155082 -0.125995 -0.341759 -0.481135 -0.429427 0.473292 -0.313092 0.440857 0.347101 -0.339220 0.235155 0.221451 -0.180962 0.139202 -0.054135 0.039379 0.081369 -0.292505 0.451225 -0.353484 0.033458 -0.029120 -0.161624 0.282433 0.268571 -0.352740 0.505998 0.386768 -0.366631 0.153086 0.333159 -0.458651 -0.448277 -0.492746 0.227110 0.190531 -0.110630 0.021272 0.206063 -0.042491 0.389844 0.437553 0.136595 -0.040896 0.157587 0.499815 -0.444816 0.162438 0.081423 0.158763 0.071759 0.396178 -0.088941 0.088490 -0.431811 -0.166861 0.352211 0.332432 -0.095761 -0.150569 -0.323442 0.040339 0.283883 0.198978 -0.476031 0.044724 0.066589 0.386782 0.331588 -0.159083 0.441699 -0.323630 0.146796 -0.042112 0.178481 -0.260764 0.167117 0.237467 0.372899 -0.413534 -0.468478 0.081784 0.342587 0.024728 0.152330 0.100943 0.020560 0.410208 0.259414 -0.417956 0.171249 -0.353537 0.198934 -0.292742 -0.025643 0.462428 0.058434 0.436855 0.287775 0.437533 0.362297 0.287005 0.349828 0.288297 -0.471823 -0.239620 -0.159491 -0.192220 -0.269035 -0.177016 0.401881 0.287551 -0.265663 -0.320483 -0.473188 -0.243060 -0.479944 0.072490 0.342847 0.050777 0.082761 -0.249322 0.088583 0.263817 -0.249057 -0.423493 -0.017391 0.495324 -0.049016 0.013802 -0.501936 -0.065275 0.151403 -0.170371 -0.155675 -0.150952 0.141544 0.500733 -0.491460 0.274181 -0.000939 -0.333886 -0.246067 0.327873 0.180717 0.125984 -0.324383 -0.024208 0.358542 -0.434885 -0.138289 -0.111770 0.273123 0.060094 -0.382571 0.385266 0.143396 0.315430 -0.013506 -0.297359 -0.193556 0.452581 -0.285400 -0.315243 0.405732 -0.285647 -0.007542 0.385127 -0.025444 -0.495351 0.465158 0.011332 -0.277862 0.000651 -0.014188 0.314911 -0.255906 -0.406507 0.392661 0.201349 0.470086 -0.049705 -0.134565 0.236841 0.444462 -0.020979 -0.133061 -0.461530 0.322000 0.246316 0.209650 -0.358397 -0.284597 0.500518 -0.140183 0.090226 0.423387 0.316987 0.305420 0.126313 0.308590 -0.236679 -0.211537 0.470287 0.133050 0.231615 0.247003 0.229055 0.048948 -0.365481 -0.426510 0.153923 -0.244699 0.121274 -0.443345 0.440491 -0.096815 0.383641 0.466826 0.291455 0.005211 0.173776 -0.341587 0.268249 0.030902 0.231828 -0.337183 0.030905 0.067930 -0.377679 -0.029721 0.405163 0.450133 0.426527 -0.336324 -0.329485 -0.414402 0.137383 -0.436561 0.198713 0.460606 -0.423829 0.179903 -0.296777 0.344341 0.298375 0.143595 0.478605 -0.366736 0.201744 -0.484089 0.454005 0.107756 0.402332 0.013041 -0.473099 0.421942 0.340296 0.199725 -0.055259 0.284065 -0.362638 -0.292837 0.339551 -0.396110 0.049038 0.159241 -0.077033 -0.354833 -0.000096 0.192234 0.076586 0.500337 0.163708 0.112124 0.043015 0.192777 -0.082311 0.220786 0.459843 0.162694 0.238823 -0.454394 0.495549 0.090288 -0.304198 0.360040 0.149111 0.429185 -0.292330 0.025265 0.241691 -0.454406 -0.160523 0.265893 0.439235 -0.470357 -0.256121 -0.410891 0.091811 -0.373530 -0.044360 -0.289581 0.064864 0.312297 -0.157954 -0.138135 -0.216119 0.378755 0.419614 0.114367 -0.367132 -0.005162 -0.423253 -0.392189 0.062393 -0.495464 0.213009 0.196343 -0.344876 -0.415688 0.399446 0.323316 0.076732 0.124757 0.194212 -0.444836 0.319456 -0.220912 -0.401553 0.370748 -0.437168 0.056866 -0.326210 0.302542 0.162563 -0.151496 -0.062995 -0.197467 0.330765 0.332316 0.131351 -0.075618 0.198911 0.147294 -0.157367 0.004529 -0.078231 0.081958 0.378492 0.407748 0.145231 0.501739 -0.249161 -0.330930 -0.225242 -0.052122 -0.465757 0.075419 -0.204729 -0.187499 0.474872 0.052710 0.018070 -0.343829 0.164211 0.187151 0.365817 -0.122622 -0.296208 -0.021411 0.468625 -0.378531 -0.025375 0.025128 0.103989 0.441089 0.327237 -0.484320 0.264743 -0.488233 -0.488290 -0.230091 -0.488310 -0.374349 0.370533 0.425407 0.037255 -0.127442 -0.202015 0.021556 0.441109 -0.272582 -0.319602 0.268632 0.092365 0.421656 -0.087930 0.354818 0.268932 -0.307792 0.107959 -0.260875 -0.468844 -0.095880 0.378432 0.350921 0.068549 0.394452 0.268647 -0.331448 -0.107729 0.256922 -0.315707 -0.449055 0.292218 -0.092156 0.057736 0.249000 0.025524 0.237226 0.064763 -0.492282 -0.323504 -0.146881 0.480093 -0.135081 -0.213885 -0.260657 -0.068540 0.449043 -0.225388 0.484286 0.092173 -0.245511 0.021138 -0.280201 0.441045 -0.021554 -0.033361 0.488256 0.013871 -0.307750 0.468564 -0.041242 0.417835 0.080361 -0.374439 -0.265282 0.264735 -0.472487 -0.346735 0.072584 -0.449075 -0.159316 -0.009579 0.044603 -0.296070 0.316113 -0.202064 -0.421446 0.135310 0.476470 -0.174393 0.268801 -0.225255 -0.088404 -0.390201 -0.048997 0.245633 0.292227 0.476285 0.488235 0.029646 -0.452507 0.092111 0.229443 0.060801 -0.296009 0.488334 -0.342892 0.037600 0.323285 -0.064669 -0.311745 -0.170798 0.114948 -0.107997 -0.245098 0.300072 0.069286 -0.260779 -0.445113 -0.484309 0.009667 -0.111758 0.150520 0.449058 -0.009531 0.045091 -0.049020 -0.080367 -0.029489 -0.315832 0.013722 -0.080391 -0.099485 -0.131306 0.402382 -0.194241 -0.009853 -0.001963 -0.194133 0.076436 0.272548 0.370569 0.237308 0.378458 -0.201895 0.209793 0.307872 -0.303922 -0.448825 -0.036598 0.186192 0.076474 0.241158 0.143515 0.362032 0.417556 0.331186 0.001678 -0.092158 -0.390059 -0.001951 -0.245102 0.390231 0.010366 -0.045136 -0.429414 0.362830 0.319244 0.355016 -0.084322 -0.334523 0.096081 -0.288613 -0.272562 -0.237250 -0.355115 -0.276512 -0.170912 0.006154 0.370713 -0.397992 -0.355041 -0.154894 -0.315720 0.425698 0.437320 -0.229562 -0.186277 -0.040360 0.429471 -0.182352 0.283653 -0.108063 -0.374472 -0.354661 -0.315714 0.346904 -0.143140 0.241186 0.464615 -0.100025 -0.370883 -0.366726 0.417846 -0.001980 -0.496111 0.492149 -0.484252 0.433333 0.303768 -0.362766 0.135523 0.080394 0.496237 -0.190284 -0.198079 -0.088270 0.052868 0.448870 0.045183 0.484302 0.351140 0.147076 -0.072559 -0.017143 0.198052 0.378390 -0.398092 -0.363455 0.068620 -0.460779 0.370625 -0.366656 0.500080 0.025551 0.401958 0.456790 -0.131539 -0.292163 -0.213572 0.092206 0.394149 0.198058 -0.053038 0.076496 -0.307257 -0.143113 0.292100 0.421619 0.492129 0.339188 -0.257048 -0.413725 -0.174527 -0.425489 0.033261 0.021570 -0.151116 -0.449010 -0.343178 0.441176 0.409804 -0.347058 0.158846 0.272564 0.405888 0.445098 -0.347027 -0.151071 -0.315684 -0.429425 0.233463 0.492159 0.131373 -0.370592 0.021568 0.268611 -0.241182 -0.425527 -0.417644 0.198054 -0.029420 0.456860 -0.009804 0.127476 0.041242 0.374510 -0.315686 -0.280390 0.449021 -0.500000 0.374504 -0.013725 0.398043 -0.037318 0.096082 -0.056865 0.158812 0.300000 0.409803 -0.045162 -0.162745 0.241185 -0.139217 0.425544 0.460806 0.045097 0.052960 0.437202 0.303923 -0.190309 0.209779 0.186247 -0.472549 -0.335296 -0.327448 -0.005857 -0.202011 -0.437318 -0.390165 -0.166670 0.500000 0.072589 -0.139231 -0.339216 -0.209801 -0.154785 0.362748 -0.158821 -0.100006 0.037256 0.303921 -0.307831 0.041129 -0.150981 -0.174371 -0.358825 -0.264781 0.056789 -0.272592 0.115682 -0.366630 0.464701 0.103922 -0.386275 0.221568 -0.143136 0.241175 -0.299973 -0.390196 0.100000 0.237255 -0.256863 0.288263 -0.182353 0.382353 -0.480392 0.339216 0.088235 0.217625 -0.492227 -0.339217 -0.288362 -0.143141 0.496077 -0.331373 -0.139216 0.115687 -0.476470 -0.401939 -0.221578 0.382366 0.150980 -0.241176 0.394101 -0.158803 0.162751 -0.437238 0.464650 0.221647 -0.284262 -0.005881 0.033333 -0.025493 -0.064703 -0.221558 0.072549 0.201961 -0.174509 -0.456871 0.299959 -0.292153 0.127458 -0.005882 0.307852 -0.327442 -0.060784 -0.143136 -0.146950 0.386166 0.186323 0.186306 -0.170532 -0.276473 0.386318 0.154816 -0.280403 -0.421560 -0.052936 -0.166660 -0.272577 0.147059 0.374496 -0.139210 -0.362750 0.056863 -0.374511 -0.441137 0.096078 0.237257 0.311683 -0.190191 -0.421569 0.080375 0.084297 0.394120 0.107843 -0.303882 0.350932 0.366671 -0.178407 -0.280479 -0.225490 0.194173 -0.111777 0.441156 -0.225490 0.252921 0.331373 -0.143139 0.096038 -0.264706 -0.456884 0.429412 0.390163 0.468626 -0.331365 -0.001831 0.390252 0.268637 -0.327519 -0.386255 0.064700 -0.245098 0.456865 0.021571 -0.409804 -0.256819 0.190196 0.327383 -0.194155 -0.496077 -0.284315 -0.386213 0.009802 0.001968 0.088223 -0.456863 -0.182355 0.350939 -0.421587 -0.343134 0.135403 -0.264712 0.260749 -0.260771 -0.127484 0.319608 -0.425489 0.099999 0.413724 -0.378437 -0.194117 0.017647 0.139199 0.186376 0.201982 0.347059 0.476489 -0.143149 0.201961 0.013726 0.433341 -0.421566 0.064706 -0.292165 0.417647 -0.143109 0.382353 0.100000 -0.492131 0.190179 -0.123529 0.154777 0.315759 -0.398038 -0.394118 -0.472543 -0.033333 -0.315695 -0.249020 0.213689 0.037256 -0.437323 -0.170584 0.045078 -0.449020 -0.198039 0.229412 -0.382343 -0.229405 0.076472 0.100000 0.315701 -0.013770 0.045099 -0.139223 -0.103858 0.119609 0.076471 0.233329 0.441175 -0.001969 0.347057 0.131356 0.500002 0.017653 -0.209807 0.464705 -0.484314 0.139229 0.205914 0.292157 -0.049020 0.033334 0.162746 0.311765 0.307841 -0.339216 -0.249019 -0.300032 0.268628 -0.021571 -0.209810 0.170588 -0.472549 0.103890 -0.350980 -0.249018 -0.366667 -0.025463 -0.437245 0.492158 -0.476461 -0.315712 -0.049020 -0.413783 -0.468639 -0.166681 -0.013725 0.378430 -0.296078 -0.350968 0.064681 0.107811 -0.272535 0.045096 -0.292158 0.260805 0.001953 -0.064706 -0.311764 0.103982 -0.311764 -0.154900 0.154898 0.488236 0.405882 -0.323522 0.182330 -0.041176 0.476540 0.005882 -0.425528 -0.460821 -0.139238 0.496076 -0.378413 0.417644 0.256863 0.041176 -0.139217 -0.390195 -0.103923 0.335309 0.221569 0.445099 -0.350980 0.064706 -0.339203 -0.464706 0.127451 0.303921 -0.496078 0.374510 -0.476481 0.421534 0.327450 -0.107905 -0.350982 -0.143137 0.394120 0.366667 -0.421569 -0.276471 0.296091 0.186270 0.158830 -0.484314 -0.213725 -0.405891 -0.480383 -0.299998 0.390205 -0.017675 -0.166628 0.049046 -0.276471 -0.245098 0.354901 -0.147058 0.037260 0.307843 -0.449020 0.025490 -0.111770 0.386257 0.186276 -0.339213 -0.162745 -0.335291 0.088239 0.335294 -0.288235 0.092212 0.005827 0.292181 0.307859 -0.048991 0.327450 0.476492 -0.111808 0.072544 -0.158820 0.500003 0.421571 0.394103 -0.013725 -0.119615 0.096080 -0.096079 -0.280392 -0.296078 0.052961 0.249020 0.449020 -0.417687 0.068629 -0.045098 -0.115696 0.001952 0.327452 -0.276471 -0.064686 -0.103946 0.154904 0.460798 -0.021612 -0.076471 0.033362 0.045091 -0.166677 -0.492157 -0.280404 0.307843 -0.064706 0.056843 0.370588 0.284303 -0.476471 -0.386292 -0.017647 0.421572 0.103987 0.158853 -0.170583 0.209771 0.064716 0.029411 0.037255 -0.382352 0.005883 0.445098 0.088258 0.488235 -0.190229 0.194100 0.468628 -0.296079 0.315718 0.060783 0.021571 -0.335299 -0.158824 0.460783 -0.260804 0.378421 -0.307842 -0.390142 -0.378434 0.021552 -0.017641 0.311748 -0.370588 -0.166667 0.370588 -0.103922 -0.260786 0.198039 0.084314 -0.127460 0.229463 -0.398029 0.237255 -0.421562 -0.296084 0.154902 -0.017647 0.323532 -0.445096 0.456863 -0.080395 -0.327451 -0.174498 -0.217647 -0.476471 0.119620 0.374501 -0.166667 0.421507 0.460819 -0.366666 0.076471 -0.127449 -0.292157 0.068627 0.233333 -0.127451 -0.158824 -0.496078 -0.386275 -0.437255 -0.378431 -0.072549 -0.088235 -0.221569 0.186275 -0.084314 0.260784 -0.362745 0.401961 0.390196 0.100000 -0.347059 0.335294 0.150980 0.060784 -0.068627 0.147059 0.476471 -0.092157 0.221569 -0.068627 0.394118 0.390196 0.147059 0.327451 0.296078 0.252941 -0.190196 0.398039 0.409804 0.464706 0.398039 -0.288235 0.460784 0.303922 0.205882 -0.386275 0.233333 -0.021569 0.115686 -0.456863 -0.111765 -0.072549 0.033333 0.076471 -0.017647 0.123529 -0.311765 -0.123529 0.162745 0.500000 0.209804 0.084314 0.386275 -0.052941 -0.064706 -0.366667 -0.174510 0.315686 -0.292157 0.029412 -0.178431 -0.041176 -0.264706 0.056863 0.292157 -0.268627 0.327451 -0.488235 0.009804 -0.225490 -0.233333 -0.013725 0.009804 0.076471 -0.472549 -0.186275 -0.311765 -0.005882 -0.409804 -0.229412 -0.456863 0.013725 0.331373 0.311765 -0.476471 -0.092157 0.425490 0.409804 0.127451 -0.166667 0.076471 -0.272549 -0.307843 0.327451 -0.021569 0.468627 -0.354902 -0.123529 -0.001961 0.150980 -0.064706 -0.488235 -0.100000 -0.378431 -0.292157 0.370588 -0.413725 0.237255 -0.237255 0.354902 0.398039 0.433333 0.464706 -0.241176 0.425490 0.464706 0.256863 -0.182353 -0.237255 -0.343137 0.354902 0.127451 0.456863 0.456863 0.276471 0.335294 0.229412 0.386275 -0.229412 -0.464706 -0.421569 -0.272549 -0.033333 -0.001961 -0.056863 -0.139216 0.096078 -0.409804 -0.276471 0.296078 -0.425490 0.021569 -0.037255 0.096078 -0.017647 0.029412 0.378431 0.433333 -0.143137 0.158824 -0.327451 -0.158824 0.264706 0.339216 0.127451 -0.307843 0.425490 0.327451 -0.096078 0.307843 0.343137 0.166667 -0.150980 -0.029412 0.476471 0.335294 0.056863 0.201961 0.307843 -0.252941 -0.268627 -0.025490 0.398039 -0.480392 0.001961 -0.092157 0.484314 -0.437255 -0.033333 -0.221569 -0.382353 -0.264706 -0.158824 -0.033333 -0.005882 0.401961 0.127451 0.100000 -0.315686 -0.107843 -0.460784 0.311765 -0.158824 0.417647 -0.409804 0.288235 0.331373 0.343137 -0.186275 0.492157 0.158824 0.178431 -0.437255 0.217647 -0.186275 -0.001961 0.017647 0.060784 0.347059 -0.209804 -0.084314 -0.107843 0.409804 0.472549 -0.343137 -0.037255 -0.147059 0.425490 0.452941 -0.260784 0.394118 -0.041176 -0.472549 -0.111765 0.100000 -0.229412 -0.496078 -0.096078 0.496078 0.476471 0.135294 -0.060784 0.319608 0.362745 -0.374510 0.107843 -0.001961 0.476471 -0.241176 -0.209804 0.029412 0.221569 0.429412 0.472549 -0.472549 -0.468627 0.492157 0.456863 0.147059 -0.296078 -0.100000 0.233333 0.460784 -0.009804 -0.135294 -0.241176 0.327451 0.343137 -0.460784 0.445098 -0.115686 -0.209804 0.300000 -0.378431 -0.237255 -0.198039 -0.225490 -0.331373 0.033333 0.013725 -0.001961 -0.123529 0.390196 -0.080392 0.041176 0.049020 0.174510 0.284314 -0.335294 0.354902 0.025490 -0.045098 -0.292157 0.033333 -0.190196 0.190196 0.186275 0.045098 0.354902 0.413725 0.276471 0.001961 0.256863 -0.284314 0.292157 0.001961 0.131373 -0.182353 0.205882 0.272549 -0.205882 -0.198039 0.413725 0.221569 0.323529 0.303922 -0.268627 -0.350980 -0.413725 0.335294 0.068627 0.209804 -0.425490 -0.339216 0.362745 0.296078 -0.111765 -0.378431 -0.303922 0.307843 0.037255 0.017647 0.237255 -0.037255 -0.029412 0.264706 0.154902 -0.350980 -0.217647 0.174510 0.076471 0.080392 0.029412 -0.190196 -0.343137 0.100000 -0.194118 -0.162745 0.260784 0.268627 0.354902 -0.268627 0.139216 0.272549 0.433333 -0.350980 0.201961 0.194118 0.017647 0.103922 0.205882 -0.476471 0.076471 -0.413725 0.409804 -0.029412 0.096078 -0.241176 0.366667 -0.103922 -0.001961 -0.205882 0.056863 0.260784 0.131373 -0.084314 -0.437255 0.037255 0.315686 -0.158824 -0.331373 -0.378431 -0.005882 0.241176 -0.237255 -0.409804 -0.029412 -0.213725 0.013725 0.150980 -0.460784 0.480392 -0.135294 -0.084314 -0.350980 0.323529 0.303922 -0.339216 -0.456863 -0.284314 0.405882 0.013725 0.147059 -0.037255 -0.433333 0.060784 -0.052941 -0.068627 -0.441176 0.064706 0.080392 -0.378431 -0.394118 -0.327451 0.366667 -0.221569 -0.198039 -0.413725 -0.119608 0.127451 -0.194118 0.135294 0.049020 0.080392 -0.135294 0.300000 0.178431 0.500000 -0.111765 -0.017647 -0.139216 0.303922 -0.229412 -0.382353 -0.323529 0.288235 0.476471 -0.480392 -0.292157 -0.335294 0.198039 -0.480392 -0.484314 -0.123529 0.409804 -0.174510 -0.158824 -0.288235 -0.233333 0.358824 0.068627 -0.425490 -0.315686 0.127451 -0.198039 0.076471 0.374510 0.296078 -0.201961 -0.421569 -0.292157 0.001961 0.327451 0.037255 -0.374510 -0.186275 -0.064706 0.045098 -0.045098 -0.060784 0.484314 0.280392 0.280392 -0.252941 -0.421569 -0.135294 -0.205882 0.139216 0.449020 -0.201961 0.123529 -0.386275 -0.413725 0.484314 -0.107843 -0.150980 0.445098 0.217647 -0.233333 0.492157 -0.194118 -0.009804 -0.343137 -0.370588 0.496078 0.421569 0.327451 -0.480392 -0.405882 -0.413725 -0.256863 -0.280392 0.198039 0.154902 -0.103922 -0.103922 -0.178431 0.162745 -0.170588 -0.115686 0.170588 0.154902 0.241176 -0.150980 0.001961 -0.186275 0.472549 0.394118 -0.272549 0.080392 0.500000 -0.362745 -0.374510 -0.060784 -0.221569 -0.123529 -0.143137 0.276471 -0.421569 -0.468627 -0.464706 0.472549 -0.272549 -0.362745 -0.354902 0.382353 -0.492157 0.213725 0.331373 0.127451 -0.147059 -0.092157 -0.135294 -0.307843 0.135294 0.449020 0.245098 0.449020 -0.319608 -0.425490 0.425490 -0.488235 0.335294 0.009804 0.049020 0.049020 -0.013725 -0.123529 -0.421569 -0.315686 0.386275 0.103922 0.198039 -0.249020 0.096078 0.311765 -0.072549 0.292157 0.260784 0.041176 -0.076471 -0.170588 -0.292157 0.252941 -0.150980 -0.158824 -0.303922 -0.127451 -0.343137 -0.339216 0.096078 -0.370588 -0.115686 -0.331373 -0.041176 -0.182353 -0.405882 0.194118 0.456863 -0.374510 0.225490 0.037255 -0.413725 0.476471 -0.115686 0.217647 -0.484314 -0.221569 0.303922 -0.213725 0.001961 0.245098 -0.194118 -0.449020 0.484314 -0.484314 0.382353 -0.343137 -0.201961 0.045098 -0.217647 0.331373 0.080392 0.209804 0.229412 0.080392 -0.088235 0.460784 0.378431 0.386275 0.025490 -0.072549 0.260784 -0.115686 0.103922 0.386275 0.276471 0.237255 -0.025490 0.488235 0.084314 -0.366667 -0.147059 0.052941 0.194118 0.001961 0.323529 -0.170588 0.437255 0.413725 -0.311765 0.405882 0.131373 0.150980 -0.441176 -0.354902 -0.115686 0.115686 -0.080392 -0.347059 -0.025490 0.303922 -0.245098 -0.107843 -0.076471 0.158824 0.229412 -0.198039 -0.252941 0.092157 0.229412 0.049020 -0.088235 0.037255 0.484314 -0.315686 0.005882 0.315686 -0.472549 0.339216 0.245098 0.476471 -0.370588 0.409804 0.327451 -0.001961 -0.268627 0.150980 0.009804 -0.217647 -0.068627 -0.127451 0.260784 0.119608 0.413725 -0.076471 0.103922 -0.370588 -0.009804 -0.441176 -0.139216 -0.009804 -0.256863 0.433333 0.080392 -0.437255 0.209804 -0.103922 0.001961 -0.339216 -0.476471 0.092157 -0.421569 0.213725 0.209804 0.398039 0.194118 0.476471 -0.084314 -0.233333 0.260784 0.472549 -0.315686 0.186275 -0.354902 0.382353 -0.331373 0.394118 0.460784 0.398039 -0.029412 0.084314 -0.013725 0.390196 0.429412 0.150980 -0.386275 -0.166667 0.276471 0.307843 0.233333 0.186275 0.170588 -0.178431 0.072549 -0.194118 0.272549 0.009804 -0.354902 -0.421569 0.111765 -0.147059 0.343137 -0.221569 0.347059 -0.115686 -0.284314 -0.135294 0.029412 0.241176 -0.076471 0.417647 -0.068627 -0.150980 -0.319608 0.284314 0.268627 0.233333 0.249020 -0.182353 0.339216 -0.005882 0.339216 -0.449020 -0.335294 -0.480392 -0.280392 0.445098 0.386275 0.080392 0.350980 -0.162745 -0.300000 -0.319608 -0.229412 -0.429412 -0.421569 0.358824 -0.049020 -0.319608 -0.256863 -0.456863 -0.307843 0.249020 -0.237255 -0.354902 0.354902 0.245098 -0.049020 -0.221569 0.401961 0.421569 -0.201961 -0.092157 -0.013725 -0.276471 -0.052941 -0.437255 0.264706 0.245098 0.339216 -0.358824 -0.229412 -0.441176 -0.115686 0.068627 0.378431 -0.060784 -0.386275 -0.001961 0.386275 0.021569 -0.205882 -0.229412 -0.088235 -0.205882 -0.072549 0.056863 -0.076471 0.456863 -0.323529 0.229412 0.111765 0.021569 0.339216 0.186275 -0.386275 -0.217647 -0.166667 -0.296078 -0.390196 0.413725 -0.229412 -0.056863 0.150980 0.194118 -0.319608 -0.484314 0.190196 0.245098 0.217647 -0.331373 -0.311765 -0.413725 0.139216 0.021569 0.001961 0.209804 -0.107843 0.480392 -0.350980 -0.284314 0.280392 0.417647 0.456863 -0.425490 -0.025490 0.190196 0.433333 0.272549 0.045098 -0.056863 0.437255 0.190196 0.343137 -0.233333 -0.190196 0.456863 -0.103922 -0.229412 0.331373 -0.472549 -0.358824 -0.064706 0.221569 -0.366667 -0.139216 -0.111765 0.378431 0.405882 0.052941 -0.241176 0.170588 -0.115686 -0.225490 -0.103922 -0.115686 -0.174510 0.174510 -0.009804 -0.005882 0.413725 0.252941 -0.264706 -0.139216 -0.500000 0.096078 -0.398039 -0.123529 -0.056863 0.296078 0.076471 0.405882 0.264706 -0.072549 0.131373 0.123529 -0.484314 0.319608 -0.449020 -0.186275 0.198039 0.143137 -0.119608 -0.221569 0.245098 -0.378431 0.139216 0.131373 0.201961 0.186275 0.500000 0.009804 -0.205882 -0.484314 0.072549 -0.288235 -0.264706 0.492157 0.052941 0.476471 0.358824 -0.017647 -0.107843 -0.080392 0.068627 -0.413725 0.131373 -0.084314 0.245098 -0.366667 0.362745 -0.100000 0.249020 0.382353 0.198039 -0.500000 -0.358824 -0.139216 0.009804 0.382353 -0.382353 -0.307843 -0.409804 -0.056863 0.347059 -0.460784 -0.401961 0.131373 -0.288235 0.041176 -0.500000 0.284314 -0.131373 -0.194118 0.437255 -0.492157 -0.111765 -0.433333 0.433333 0.347059 0.127451 -0.237255 -0.260784 0.127451 -0.331373 -0.233333 0.358824 0.111765 -0.143137 0.382353 0.111765 0.354902 -0.472549 0.456863 0.437255 0.139216 -0.045098 -0.441176 -0.060784 0.358824 -0.147059 0.213725 0.241176 -0.437255 -0.311765 0.284314 0.284314 0.139216 0.354902 0.021569 -0.401961 -0.452941 0.037255 0.049020 0.362745 -0.390196 0.452941 0.119608 -0.033333 0.178431 0.045098 -0.413725 0.056863 0.213725 0.064706 -0.468627 -0.186275 0.354902 -0.049020 -0.205882 0.005882 -0.417647 -0.264706 0.241176 0.484314 -0.229422 -0.100015 -0.323612 0.135299 -0.229285 0.311717 0.209801 0.178463 0.162875 0.460782 -0.390204 -0.186273 0.021539 -0.166664 -0.487967 0.186365 -0.084254 0.484302 0.201977 -0.174509 0.409979 0.123530 0.378440 0.421537 -0.347061 0.484303 0.225473 0.409838 -0.084340 -0.064652 0.162711 0.021555 0.272527 -0.119613 0.056899 0.225475 0.205833 0.100007 -0.445090 0.194113 -0.209816 -0.425470 -0.037225 -0.449059 -0.158833 -0.080405 0.096054 0.445159 -0.260745 -0.445090 -0.201962 -0.150961 0.449013 0.386262 -0.484312 0.456863 0.111778 -0.088238 0.405848 -0.347061 -0.311825 0.268629 0.398059 -0.378412 -0.154870 0.064675 -0.229416 -0.111768 0.347061 0.060774 -0.323533 0.150977 0.056888 0.319490 0.048976 -0.296079 -0.409817 0.315692 -0.315687 -0.151015 0.174521 -0.205873 0.311778 -0.174465 -0.229386 0.456832 0.150981 0.154902 -0.480437 -0.209800 -0.045093 -0.072560 -0.264738 -0.162754 -0.151049 0.178427 -0.107840 0.194127 0.409804 0.139221 -0.429414 0.143145 -0.225489 -0.370593 0.288241 -0.499973 0.264684 -0.276487 -0.127449 0.405855 0.107940 0.417648 0.154851 0.464690 -0.048928 -0.417639 -0.272531 -0.394127 0.017710 0.292143 0.284285 -0.052935 -0.150937 0.433333 0.386105 0.480372 -0.249092 -0.143136 0.182387 -0.068592 0.084401 -0.099997 0.217647 -0.335320 -0.394125 -0.370618 0.158799 -0.398058 -0.398048 -0.150975 0.029393 0.029411 -0.111786 -0.041243 0.311769 0.001985 0.421412 0.488264 0.143126 0.260670 0.413727 0.107851 0.280386 -0.139299 0.284290 -0.405901 0.429428 -0.370632 -0.150978 -0.421563 -0.366631 0.374397 -0.390181 0.253008 -0.237241 0.201973 -0.288222 0.245075 -0.080495 0.119610 0.472526 0.229323 0.358929 0.150978 -0.209904 -0.256724 -0.135397 -0.295976 -0.060579 -0.092150 0.205928 -0.319608 0.300007 0.350979 0.080398 -0.056867 -0.405894 -0.174509 0.084303 -0.021594 0.158825 -0.433350 -0.331412 0.080489 -0.088088 0.300001 -0.464715 -0.284316 -0.092102 0.421570 -0.194124 -0.303914 0.390213 0.488264 -0.484285 -0.123471 0.350862 -0.284330 0.107862 0.080462 0.307761 -0.205940 0.401983 -0.115693 0.272590 -0.147052 -0.029395 0.021562 0.052935 -0.296047 -0.358820 -0.492167 -0.037260 0.464718 -0.264868 0.456822 0.072549 0.327440 0.107902 0.123532 -0.060791 0.064806 -0.272378 -0.103921 0.017594 0.103915 0.154948 0.413717 0.170533 0.276492 -0.076439 0.217649 0.335292 -0.084311 0.303907 -0.076423 0.076489 -0.362709 -0.366666 0.068697 -0.456836 0.252814 -0.045117 -0.370572 0.339129 -0.459760 -0.218296 -0.256621 0.326863 0.496133 -0.165927 -0.127800 0.103667 -0.064928 0.292660 0.014501 0.131659 -0.441422 -0.390651 -0.425824 0.215786 -0.256347 -0.284860 -0.362515 0.171141 0.484388 0.477296 0.371941 -0.300145 0.429525 -0.406244 -0.001500 0.240676 -0.049804 -0.155876 0.261379 0.292261 -0.245505 0.358492 0.433514 -0.076372 0.021203 -0.006965 -0.174359 0.264706 -0.218177 -0.264712 0.229396 0.049149 0.134956 0.315711 0.338725 -0.049261 0.347844 -0.174336 0.413709 -0.346540 0.182633 0.343529 -0.371086 0.429586 -0.335674 -0.032827 -0.049535 -0.472426 -0.205834 0.264015 0.370284 -0.354689 0.202163 0.244852 -0.437664 0.465253 0.241148 -0.310952 -0.319666 -0.249458 0.127453 0.473088 -0.468732 -0.089393 0.468219 0.217006 -0.009632 0.495975 0.202173 -0.190756 -0.214134 -0.389967 -0.291256 0.391082 -0.390411 -0.319231 -0.276190 -0.339171 0.072097 -0.409531 -0.045114 0.437353 0.096016 -0.261658 -0.161589 -0.001616 0.119594 0.111708 -0.068474 0.256794 -0.084586 -0.237379 -0.265095 0.371314 -0.112169 -0.194367 0.405466 0.496518 -0.442008 0.081610 0.418131 -0.166937 0.108180 0.182666 -0.406101 0.304096 0.077255 -0.040494 0.377989 0.032605 0.248942 -0.327512 0.393991 0.368885 0.242020 0.326671 -0.057070 -0.459906 0.495444 -0.189523 -0.137991 -0.440459 -0.171693 0.421674 -0.288266 -0.143518 -0.324112 0.115493 0.178643 0.103610 0.084402 0.432868 0.358328 -0.103876 0.497343 -0.120461 0.037806 0.390664 -0.359797 0.315510 0.013197 0.470754 -0.473039 -0.324748 -0.268834 -0.366123 -0.182389 0.296599 -0.425649 -0.005219 -0.124161 -0.115606 0.398004 -0.264660 -0.025312 -0.076066 -0.182851 0.193480 0.300017 0.001122 0.468831 -0.398162 0.201120 -0.332304 -0.453409 0.075977 0.496040 0.258615 -0.293066 -0.123796 -0.029306 -0.488510 -0.319816 0.163073 -0.338015 0.213798 0.128168 0.267717 0.496294 0.076475 -0.190787 0.241017 -0.130605 0.057318 0.296594 0.491707 -0.237472 -0.115703 -0.346282 0.017484 -0.030009 0.037985 -0.413014 -0.303145 -0.233574 0.162169 -0.189784 -0.441149 -0.392831 0.397633 -0.374819 -0.009832 0.343430 0.049928 -0.271912 0.084679 0.354727 0.186039 -0.334918 0.076056 -0.147373 0.499925 0.194125 0.111407 -0.139316 -0.092604 -0.018174 -0.123180 -0.393396 -0.343306 -0.170635 0.387053 -0.064695 0.009392 0.260440 -0.213043 -0.155490 -0.414322 0.183197 -0.327948 0.021735 0.284496 0.142083 -0.264882 0.256459 0.418834 -0.476697 -0.080278 0.018363 0.029179 0.044276 -0.139683 0.319655 -0.088875 -0.356653 0.149105 0.378414 -0.355362 0.161984 0.076664 -0.007583 0.481841 -0.241604 0.152828 -0.377701 0.440049 0.204413 0.404631 0.064767 -0.430321 0.395845 -0.241998 -0.399729 0.045635 -0.255677 0.399537 0.152685 -0.286540 0.233511 -0.155036 -0.079163 -0.178836 0.321406 -0.145043 -0.385606 -0.306140 0.330098 -0.308986 -0.140731 0.347842 0.263408 0.491715 -0.025543 -0.449575 -0.350898 0.046413 -0.207517 -0.098337 -0.158848 -0.120497 -0.178226 0.150967 0.068066 0.311618 0.377707 -0.333660 -0.381839 0.110431 -0.322638 -0.408282 -0.417482 -0.209712 -0.308940 -0.112340 0.289369 -0.375981 0.052561 -0.385629 -0.427174 -0.155076 0.100844 -0.340828 0.368737 0.408112 -0.168219 0.430815 -0.425816 -0.496575 0.342313 0.413310 -0.204272 0.462152 -0.131380 0.346215 -0.477477 0.443776 -0.205807 0.113045 0.403210 0.282353 -0.185204 -0.098991 -0.042768 0.226881 0.430876 0.235392 0.481335 -0.087193 -0.289226 0.141278 -0.167971 0.500499 -0.414796 0.369889 0.383919 0.412552 -0.365877 -0.029904 0.227210 -0.437097 0.306807 -0.148836 0.035352 0.069507 -0.486436 0.179773 -0.338392 0.363883 -0.448128 0.258629 -0.006534 -0.372623 0.141888 -0.195417 -0.196673 0.256493 -0.411645 -0.463858 0.502198 0.387825 0.330777 -0.042852 -0.491856 0.130300 0.277521 0.104600 0.300870 -0.441345 -0.272740 -0.397013 -0.354421 0.374049 0.159502 0.074269 -0.422843 0.367895 -0.049828 -0.412067 -0.302393 0.435108 -0.217988 0.419636 0.480632 0.272498 0.028346 0.287735 0.044277 -0.319230 -0.142153 0.053669 0.102586 -0.272654 -0.201825 -0.180309 0.039796 -0.022490 0.038022 0.027410 -0.187515 0.216728 0.340139 0.319528 0.115016 0.239863 -0.458042 -0.314344 0.351153 0.433480 0.432413 -0.136416 -0.349040 -0.014078 -0.446626 -0.488957 -0.256384 0.273108 -0.469775 0.120357 0.142278 0.380453 0.168504 -0.486666 0.128224 0.224839 0.324006 -0.484989 0.286761 -0.304856 -0.218762 -0.224367 -0.154224 0.416620 0.203691 -0.336088 -0.071484 -0.279146 0.467236 -0.243126 -0.267649 0.371752 -0.104858 -0.427937 -0.043695 0.323809 0.328897 0.078028 0.394027 0.153035 -0.318504 -0.196387 0.425639 -0.382398 0.344517 0.481323 0.008457 -0.033894 -0.329138 0.106505 0.358261 -0.138544 0.183487 -0.185421 -0.442037 -0.206379 0.350460 0.103077 0.016620 0.243991 0.280156 0.418376 -0.319882 0.319237 -0.256895 0.218614 0.075880 0.443050 -0.405378 -0.456897 -0.350455 0.298772 -0.118866 -0.428175 0.000681 0.188673 0.372113 0.207726 -0.191213 -0.056491 0.437109 0.349857 0.387074 -0.417551 0.029365 -0.099590 0.283783 0.418831 0.291164 -0.468442 0.127447 -0.342198 0.280659 0.465512 0.324182 -0.305497 -0.315832 0.222174 0.191174 0.115698 0.155979 -0.172333 0.481566 -0.385261 0.375629 0.429717 0.236569 -0.241847 0.218724 -0.358716 -0.140849 0.450145 -0.292227 0.151444 0.455302 0.159292 -0.145669 0.093599 -0.124380 0.250886 -0.475798 -0.453003 -0.408940 -0.473148 0.002519 -0.213350 0.080380 0.463978 0.302306 -0.471953 0.388643 -0.281599 -0.080991 -0.418836 -0.308776 0.284711 0.444924 -0.053983 0.256930 -0.009536 -0.467876 0.011385 0.170959 0.215249 0.042143 -0.361696 0.164818 -0.343703 0.229801 -0.482098 0.337756 -0.270540 -0.307866 0.246936 -0.362864 -0.149847 0.137054 -0.260334 0.340925 0.072884 -0.265138 0.391773 -0.184374 0.215826 0.460035 0.476317 0.035830 -0.383673 0.180445 -0.233944 0.167036 0.255196 0.369275 0.453281 -0.181989 -0.380983 0.415583 0.141456 0.214175 -0.491480 0.378460 -0.483359 -0.005296 -0.409141 0.365557 -0.400521 0.318033 0.058951 -0.321769 -0.143798 0.381887 0.083329 0.314423 0.344828 -0.170423 -0.449228 0.318678 0.240007 0.382975 -0.009351 0.142853 0.074872 -0.071720 -0.468192 -0.415760 -0.463236 0.406610 0.081358 -0.021004 0.305193 -0.468976 0.274858 0.039502 0.155457 -0.048926 0.188966 -0.097211 0.313733 -0.205621 -0.322760 0.441921 -0.193057 0.354781 -0.335342 -0.477881 -0.199162 0.488247 -0.068578 0.236795 0.043233 -0.253474 -0.107231 -0.383073 0.453362 0.238646 0.261486 0.306092 0.088544 -0.093112 -0.098447 0.480325 -0.361998 0.394807 -0.115221 -0.486328 0.409077 -0.005699 0.240144 -0.131381 0.450807 0.330007 0.314739 -0.384407 -0.086687 0.395276 0.348875 -0.224940 0.191431 -0.492026 -0.365686 0.008383 -0.227403 -0.415503 0.033341 -0.398841 0.043994 -0.107910 -0.097394 0.311592 0.470723 0.406833 -0.444825 0.228687 0.317524 -0.297327 -0.179216 -0.444449 0.229282 0.372713 -0.399738 -0.434690 0.045741 0.484495 -0.134592 -0.187596 -0.490762 -0.477686 -0.481790 -0.374310 0.338569 0.480164 0.452347 0.197454 -0.498148 0.028755 0.014525 0.238968 -0.350829 0.496265 0.482811 -0.474882 -0.135122 -0.005704 -0.098918 0.332014 0.436419 0.025126 -0.346003 0.273627 0.482489 -0.447923 -0.250031 -0.109656 0.135129 -0.290633 -0.489889 -0.108837 -0.055899 0.089938 0.469566 0.075877 -0.329505 0.158211 0.413552 -0.298148 0.150444 0.272701 -0.394429 -0.496132 0.127236 0.452573 -0.258242 -0.123662 0.266303 -0.030929 -0.039708 -0.186061 -0.409371 -0.358482 0.374356 0.501574 -0.459270 -0.000051 -0.076227 0.368967 0.014235 0.350744 0.030884 0.201970 -0.222333 0.437827 0.404890 0.460992 -0.237700 -0.374747 0.420958 -0.341346 0.381158 -0.342286 -0.437511 0.326391 0.105918 0.185319 0.393763 0.212411 0.207616 -0.228776 -0.063131 -0.197902 0.053526 -0.031461 0.325071 0.263571 -0.357513 -0.106547 0.069355 0.172031 -0.106989 0.000746 0.254265 0.306897 0.312775 -0.105004 -0.199663 -0.085999 -0.287547 0.279646 0.365602 0.160858 -0.057123 0.132927 -0.372495 -0.161921 0.222124 0.062565 0.290127 0.440560 0.073398 -0.196437 0.300124 0.269735 -0.043476 -0.093789 -0.325374 -0.196933 -0.442187 -0.229670 0.319031 -0.024436 -0.111524 -0.148760 -0.019970 0.071763 0.038525 -0.165330 0.373069 -0.334406 0.075054 0.455735 -0.333712 0.073476 -0.032303 0.507426 0.154853 0.089372 -0.109588 -0.058513 -0.454631 -0.291230 -0.439099 -0.371691 -0.070884 0.058819 0.201925 -0.078008 0.202694 -0.441637 0.364400 0.400903 -0.051967 0.444655 -0.437101 -0.398971 0.238095 0.439078 -0.015511 0.294857 0.315204 0.072927 -0.019854 -0.102904 0.379600 0.071316 0.089906 -0.191279 -0.222489 0.284914 0.312594 0.321913 -0.187739 0.249348 -0.062153 -0.043219 0.327712 -0.343903 0.266904 0.445965 -0.061506 0.364380 -0.048858 0.339434 0.201185 0.024202 0.181402 -0.200214 -0.060730 -0.250556 -0.488608 -0.276595 0.402866 -0.470819 0.451806 -0.211512 -0.013763 -0.411610 -0.394615 0.050249 -0.431755 0.197197 0.457149 -0.027049 -0.151296 0.455424 0.117912 0.433832 0.353291 0.508643 -0.473395 -0.092205 0.160587 0.451371 -0.263556 -0.266926 0.077448 -0.010988 0.303142 0.007077 0.360826 -0.479010 0.373544 -0.206328 0.386268 0.168732 0.146272 -0.084740 0.111559 0.439371 -0.471107 0.294749 -0.028496 0.036406 -0.285819 0.261665 0.188235 -0.344206 -0.063666 -0.086465 -0.021440 -0.467494 0.474280 0.235187 -0.029254 0.453686 0.075495 -0.158817 0.481174 0.348327 0.216756 0.161790 0.383565 0.026537 -0.338927 -0.182309 -0.105413 0.175711 -0.330834 0.071617 -0.126902 -0.386120 0.500445 0.493491 -0.261070 0.242510 -0.139229 0.276238 0.464845 -0.161870 -0.016057 0.366830 -0.111563 -0.130346 0.384744 -0.419649 -0.416195 0.064835 0.015348 0.268098 0.211281 0.356668 -0.409488 -0.438647 -0.189629 -0.312501 -0.300964 -0.229102 -0.164104 0.243119 -0.075141 -0.370413 0.023418 0.334160 -0.400799 0.281470 -0.122676 -0.433657 0.185450 0.226263 -0.108722 0.270202 0.408643 -0.098382 -0.337792 -0.265530 -0.304182 0.090298 0.400258 -0.375780 0.459049 0.421263 0.339499 0.152571 -0.266062 -0.154172 0.014352 -0.147358 0.375913 -0.452713 0.168245 0.466588 0.321936 0.081616 0.272994 0.209094 -0.187239 -0.133970 -0.150495 0.515063 -0.199511 0.471735 0.284112 0.483849 -0.032683 -0.019554 -0.134481 -0.360096 -0.298952 -0.065180 -0.142882 -0.313662 -0.151769 -0.092625 0.390631 0.091444 -0.192398 -0.334965 0.266398 -0.315177 -0.006246 0.231537 -0.215611 0.033117 -0.005054 0.129466 -0.399958 0.114688 -0.472132 -0.068047 0.320148 -0.259544 -0.402963 -0.441957 0.388586 0.214862 0.271286 0.032538 -0.010079 -0.083064 0.218170 -0.097573 0.358322 -0.262833 -0.400486 -0.232691 0.009740 0.062341 0.260465 -0.406305 -0.422625 -0.015431 0.144888 -0.014723 -0.235696 -0.417339 0.235692 -0.445077 -0.137242 -0.243500 -0.155885 0.502882 -0.095283 0.375347 -0.201121 0.440226 -0.093800 -0.300197 -0.316203 -0.453842 -0.377598 -0.495442 0.061640 0.284294 0.244558 -0.055232 0.211355 0.384944 0.381092 -0.024001 -0.136112 0.014475 -0.325242 -0.080203 -0.150589 -0.107558 0.081680 -0.127982 -0.117944 0.464931 0.264086 0.299669 -0.237820 0.212950 -0.276354 0.163901 0.458610 0.241496 -0.319955 -0.450036 0.058848 -0.011043 0.163192 0.130827 0.022797 -0.020817 0.095303 0.112591 0.515172 0.006539 0.068921 0.401118 0.344952 0.351513 0.348824 -0.186286 0.507165 0.112295 -0.328753 0.045972 0.391394 0.471476 -0.387787 0.205134 -0.078327 -0.004669 0.243336 -0.452665 -0.082183 -0.177965 -0.258743 -0.015505 0.391626 -0.002550 -0.132163 0.369551 0.158049 -0.397776 -0.478559 -0.100718 0.179846 0.394074 0.249608 0.012047 0.269180 0.026584 -0.297950 0.334077 -0.195097 0.100898 0.137916 0.320648 0.275734 0.332293 0.328674 -0.111462 0.102456 -0.264445 0.132799 -0.513756 -0.006877 0.335442 0.497370 -0.311340 0.314619 0.006919 0.214251 -0.016024 0.018832 -0.354423 0.239975 -0.202550 0.108553 -0.242985 0.110039 -0.136042 0.073771 -0.147118 -0.442511 0.080465 0.141366 0.084079 -0.081713 -0.045110 -0.024050 0.245237 -0.205167 0.379658 0.257134 -0.362572 0.505440 -0.224371 -0.211762 0.165584 -0.184970 0.244869 -0.209499 -0.464446 0.067108 0.132215 -0.404689 -0.146416 0.302296 -0.336367 -0.340434 0.238275 0.202852 0.001311 -0.017697 -0.280475 -0.288886 -0.435781 0.103566 0.381034 -0.457584 -0.046562 0.261710 0.057502 0.001916 -0.061861 0.448972 -0.002412 -0.053715 0.161930 0.476519 0.013718 -0.132894 -0.433792 -0.433457 -0.143795 0.259649 -0.102101 -0.341400 -0.052975 -0.292667 0.055777 0.506858 -0.059031 0.391121 -0.387032 -0.017967 0.120875 -0.471155 0.407748 -0.373414 -0.370967 -0.296592 -0.133113 -0.269500 0.274986 0.376956 -0.422007 0.476607 0.300474 0.224527 -0.107227 -0.506999 0.015446 -0.388314 0.360950 0.392323 -0.090729 0.335579 0.446589 -0.268547 -0.145695 0.246780 -0.165142 0.191893 -0.222535 0.243852 -0.443380 -0.206821 -0.420464 0.021411 0.068726 -0.440638 -0.289813 -0.232522 -0.120484 0.279638 -0.456105 0.224061 -0.417355 -0.474708 0.477804 -0.328601 0.221519 0.044295 -0.480338 -0.174779 -0.438729 -0.052271 0.364720 -0.455297 -0.284863 0.005579 0.246575 -0.355672 0.257920 -0.171843 0.358365 -0.127495 -0.296687 -0.306517 0.009755 -0.045520 -0.252858 0.022944 0.092632 0.463870 0.158397 0.229586 -0.141103 -0.258433 -0.503228 0.295483 -0.313632 0.501317 -0.194226 0.357645 0.108401 0.351209 -0.132869 -0.507099 -0.125927 -0.094289 0.324707 -0.052261 0.180056 0.250919 -0.059352 -0.292415 0.438634 -0.448013 0.473534 -0.089920 -0.205564 -0.250362 -0.295434 -0.513890 0.138806 -0.250630 0.254085 0.319173 -0.409032 0.286356 -0.314762 0.389970 -0.473189 -0.434981 0.353696 -0.422202 -0.126281 -0.066211 -0.287501 -0.357108 -0.084276 -0.458463 -0.423607 0.304460 -0.296051 -0.291628 0.457703 -0.356071 -0.334231 0.208810 0.133030 -0.088267 -0.405975 0.482161 0.060066 -0.374200 0.174514 0.263608 0.136207 0.283414 -0.282877 -0.162607 -0.500758 0.259351 0.286755 -0.355523 0.349763 -0.015709 0.493071 -0.259851 0.122190 0.132280 -0.139124 -0.169232 -0.165065 -0.130210 -0.360899 0.094822 -0.343967 0.381520 0.496886 0.250567 -0.141299 -0.103407 0.220076 -0.202863 0.193621 -0.152595 -0.450032 -0.258674 0.295805 -0.036250 0.377572 0.192392 0.405042 0.308140 0.295349 0.145577 0.147758 0.119759 -0.064358 0.262335 -0.057777 0.434299 -0.162697 0.364670 0.418730 0.468937 -0.043968 -0.254450 -0.166397 0.431440 -0.027436 -0.395798 -0.496657 0.388665 0.160202 -0.083863 0.459512 0.135746 0.439180 0.002826 -0.273346 -0.250015 -0.412927 0.071428 -0.148416 0.097772 -0.305170 -0.197827 0.066957 -0.475914 -0.466456 -0.454049 -0.290729 -0.049767 0.457368 -0.036426 0.437770 0.319613 -0.496126 -0.463853 0.066017 0.366299 0.418843 0.130360 -0.034828 -0.408953 -0.481680 0.089476 0.151668 0.501290 -0.372988 0.226285 -0.366026 0.307398 -0.324546 0.081567 -0.445016 -0.187052 -0.507432 -0.181758 -0.286209 -0.026901 -0.269503 -0.424169 0.083456 0.136293 -0.380500 -0.377739 -0.055371 -0.042426 -0.459772 -0.305000 0.315822 0.356328 -0.381362 -0.013569 -0.044206 0.373700 0.063725 0.108906 0.370355 0.217361 0.136989 -0.394007 -0.480933 0.503083 0.431185 0.131250 -0.185937 -0.216194 0.310310 -0.240983 0.235142 -0.504426 -0.132745 0.359478 -0.098365 0.121208 -0.266310 -0.318795 -0.223844 0.320319 0.477622 -0.447749 -0.092492 -0.259281 0.305610 -0.500481 -0.400913 0.189353 -0.090802 -0.512378 -0.114201 -0.174945 -0.030935 -0.367312 -0.283879 -0.095064 0.327736 -0.276925 -0.390980 0.047464 0.439898 0.048184 0.148393 0.396969 -0.052742 -0.253980 -0.398060 -0.199279 0.417250 -0.233679 0.153118 0.221565 -0.036376 -0.148787 -0.496794 0.475447 -0.109232 0.299697 0.224022 -0.437561 0.282248 0.494666 -0.169036 -0.269830 -0.053650 -0.498142 0.171227 -0.332183 0.273236 -0.336958 0.096479 0.459905 0.239387 -0.401796 -0.063405 0.070054 -0.123483 -0.218913 -0.489331 0.125932 -0.415833 -0.468822 -0.418868 -0.107039 -0.191908 0.327353 0.274606 0.488891 0.218450 -0.337788 0.413936 -0.315473 0.219265 0.400504 0.309308 0.126363 -0.042746 -0.081186 0.195635 -0.288076 -0.198326 0.041263 -0.459786 -0.415610 0.005344 0.162463 0.257797 0.304596 0.260213 -0.364741 -0.061525 -0.334999 -0.180932 -0.225655 0.349274 -0.008544 0.281356 0.087565 0.475594 0.251777 -0.285803 -0.011672 0.320332 0.104898 -0.332810 -0.083460 0.279560 0.022512 -0.451049 -0.175240 0.454301 -0.394169 -0.016825 0.163316 -0.453138 0.063489 0.225991 -0.376722 0.386237 -0.417752 -0.372868 -0.240491 -0.451324 -0.210035 -0.370332 -0.437341 -0.324440 0.102655 0.401694 -0.052430 -0.483453 -0.027790 -0.249639 0.242286 0.403327 0.354840 -0.274419 0.112239 -0.363469 -0.291689 -0.106774 0.234969 -0.414404 0.113496 -0.011676 -0.493400 -0.291722 -0.437243 0.260212 0.189202 0.114256 0.261262 -0.401794 0.357287 -0.213720 0.043372 0.026358 -0.296901 0.432064 -0.389875 -0.503597 0.332500 0.298025 0.097718 0.356981 0.026896 -0.252739 0.132548 0.282228 0.370892 0.022927 -0.055332 0.255836 -0.043896 0.358729 -0.028493 -0.472099 0.459411 -0.308044 0.067566 -0.356188 -0.204879 0.235655 -0.167393 -0.322704 0.318004 -0.020551 0.136535 0.432465 0.314768 0.501877 -0.009818 -0.345978 0.189004 0.153039 0.270957 -0.206494 -0.470113 0.361218 -0.266331 0.387714 0.106970 0.389115 -0.303214 0.479138 -0.394399 0.483326 -0.242973 0.442061 0.045964 -0.326611 0.375090 0.180954 -0.244147 -0.262270 -0.192412 -0.253825 -0.012916 0.382619 -0.203023 -0.090553 -0.055713 -0.126527 -0.126265 0.194205 0.310820 0.088176 -0.102100 0.369465 0.387709 -0.403365 0.437693 0.087306 0.286789 0.165705 -0.053466 0.206426 -0.315460 -0.108974 0.270222 -0.480329 -0.404286 -0.343747 -0.458271 -0.381551 0.225480 -0.213227 0.419311 -0.447714 0.027222 0.312942 -0.046048 -0.092627 -0.181615 -0.281288 0.000457 0.218938 0.238427 0.499537 0.073586 -0.242863 -0.138277 -0.375987 0.248097 -0.492187 0.228505 0.020490 -0.037840 -0.237306 -0.111139 0.367584 -0.225458 -0.380291 0.022110 0.354457 0.498390 -0.397920 0.346447 -0.094857 -0.214944 0.255611 0.260915 0.427398 0.386519 -0.488121 -0.132865 0.113597 -0.041060 -0.450423 0.290062 0.362005 -0.041352 -0.500693 0.370151 -0.385161 0.386593 0.301351 0.129541 0.089752 0.432630 0.434280 -0.075484 -0.340978 -0.356067 -0.180303 -0.244496 -0.171086 -0.067374 -0.313023 -0.218910 0.358207 0.040148 0.074241 -0.489217 0.245980 0.024949 0.392656 0.264410 -0.246427 0.186253 0.510954 0.292578 -0.001792 -0.096610 -0.061821 -0.220446 0.229935 0.256121 0.188411 -0.313364 -0.300325 -0.136001 -0.487527 0.392049 -0.077353 0.167165 -0.387190 0.142235 -0.355087 0.143495 -0.045797 0.455879 -0.141076 0.184022 -0.120856 0.255578 0.405665 -0.371115 -0.158922 0.067420 0.313797 0.050379 0.471048 -0.191336 0.133401 0.255691 0.013373 -0.076719 -0.301267 0.459199 0.485768 0.122566 0.382262 0.125594 0.380967 0.183205 -0.461954 -0.319496 -0.438904 0.115405 0.433377 -0.316624 -0.124138 0.326934 0.065262 -0.046857 0.253477 -0.321027 0.173572 0.399202 -0.443883 -0.167153 -0.002358 -0.280765 0.183321 -0.494372 0.455525 -0.252960 0.290474 0.331082 0.355309 0.303642 -0.278094 0.313301 0.367994 -0.481965 0.004887 0.101790 -0.098040 -0.256924 0.138561 0.037998 -0.166782 0.489768 -0.041792 0.190856 -0.008922 0.502435 0.175213 -0.111051 -0.129824 0.358591 0.338389 0.164135 -0.206272 0.181070 -0.083900 0.031903 0.138711 -0.411464 0.422105 -0.001967 -0.284065 0.506600 -0.334009 -0.355412 -0.279327 -0.367347 0.311209 -0.253595 -0.137415 -0.250036 -0.172632 0.117300 0.142429 0.009370 0.278562 -0.304635 0.043648 0.412799 -0.165834 -0.172326 0.192728 0.373534 -0.076538 0.372684 -0.205386 -0.091667 -0.357266 -0.169737 0.444676 -0.365844 0.173509 0.485259 -0.210703 -0.313873 0.048024 -0.100752 -0.230249 0.475027 0.045614 0.398314 0.012859 0.037976 0.399260 0.371424 0.268309 -0.434089 -0.484880 0.399800 -0.398602 -0.150567 0.204382 0.035363 -0.260512 -0.494207 -0.142096 -0.218771 0.022954 -0.135274 0.346706 0.433308 0.096034 0.170433 -0.239875 -0.005380 -0.076118 0.316204 0.373893 -0.019242 -0.052354 -0.169858 -0.373636 0.056293 -0.252420 -0.342061 0.499881 0.083903 -0.243436 -0.243541 -0.185006 -0.191112 -0.311555 0.492592 0.407132 0.298467 0.273591 -0.109960 -0.484054 0.117723 -0.092944 0.277072 0.199117 -0.085105 -0.139797 -0.140942 0.289674 -0.408922 -0.146367 -0.335201 0.129327 -0.413168 -0.495846 -0.169046 0.183512 0.466529 0.494961 -0.191446 -0.108693 0.474938 0.124174 0.349197 0.486701 -0.404734 0.335814 0.285069 0.406443 -0.136243 0.100863 0.351998 0.450648 -0.413283 -0.357045 -0.211339 0.406796 0.334292 0.387462 -0.205868 0.300803 0.209272 -0.417734 0.152137 -0.211424 0.263495 -0.091022 -0.493249 0.463767 0.363403 0.287186 0.393937 0.398129 -0.185452 0.303646 0.377249 -0.456852 -0.460428 -0.079720 0.153304 -0.013800 -0.173587 -0.243216 0.215186 0.289084 -0.053695 -0.192406 -0.045957 -0.362429 0.169668 -0.308198 0.365023 -0.032146 -0.328322 -0.015493 -0.294556 0.354233 0.038086 0.270683 0.208306 -0.092857 0.014339 0.010919 -0.328926 0.379315 -0.093147 0.353378 -0.116184 -0.399465 -0.430525 -0.475282 -0.260587 0.321982 0.109002 -0.456973 -0.223001 -0.219672 0.479869 0.417089 0.246065 -0.369962 0.001489 0.429216 0.094130 0.427862 -0.122354 0.231547 -0.064237 -0.481760 0.349441 0.122857 0.526606 0.382046 -0.468362 -0.432952 -0.122683 -0.218965 0.328439 -0.403765 0.486553 0.023692 -0.218769 0.017601 -0.359726 0.380563 -0.319723 0.258985 0.384173 -0.068508 0.468337 -0.444310 -0.107622 -0.067634 -0.146823 0.374703 0.157102 0.126997 -0.076762 -0.230172 -0.299340 -0.000622 -0.455848 -0.358680 -0.045129 -0.044431 0.244251 -0.295784 -0.456713 -0.093936 0.066026 -0.464988 -0.437214 -0.166744 0.076154 0.205319 -0.219753 -0.045321 0.489108 0.231118 0.066533 0.399881 -0.043704 0.256274 0.372669 0.326542 0.184619 0.203340 -0.279595 -0.232194 0.262447 -0.429814 0.229410 0.141967 0.235806 -0.299608 -0.052776 0.296374 -0.125964 -0.489871 0.390008 -0.072578 -0.117383 -0.341520 -0.206429 -0.441696 -0.342711 -0.092757 0.246302 0.414971 -0.309983 -0.146313 0.097696 -0.452055 0.065814 0.026845 -0.461876 0.395385 -0.188310 -0.082919 0.123789 -0.134899 -0.487591 -0.000897 0.022601 -0.271865 0.372797 -0.029711 0.081471 -0.246025 0.012663 -0.055285 -0.361626 0.460470 0.265985 -0.316061 -0.090404 -0.124216 -0.437260 0.183857 -0.006653 -0.097896 -0.407682 0.023398 0.420677 -0.508664 -0.296713 -0.248637 -0.074288 0.398330 -0.172748 0.450667 -0.477494 -0.399743 -0.435220 0.231311 -0.417399 -0.185625 -0.319159 -0.310385 -0.410021 0.481883 0.405911 -0.094246 -0.464493 0.135075 -0.260363 -0.252619 -0.173505 0.210430 0.003572 -0.227341 0.335572 0.099551 0.085752 0.344763 -0.308223 -0.437421 0.291278 0.059768 -0.452882 -0.305491 0.451641 -0.396793 0.233866 0.180711 -0.029447 -0.019548 0.269004 0.333246 0.102403 0.145483 -0.371257 0.517667 0.341250 0.108819 0.168625 0.250603 0.098136 0.464334 -0.231470 -0.189249 0.113574 0.453279 -0.446060 0.055482 -0.220453 -0.176960 -0.459091 -0.406050 0.001045 -0.262009 -0.161148 -0.344628 -0.125005 -0.303903 -0.018788 0.092006 0.040263 -0.132151 -0.039061 0.339502 0.302141 -0.429741 0.366284 0.373286 0.169880 -0.039715 -0.379041 0.483244 -0.158373 -0.214942 0.440972 0.499761 0.175312 0.000847 0.106260 0.095921 0.191432 0.057922 0.359683 0.159301 -0.205355 0.122601 0.214591 0.329554 -0.320494 -0.034544 0.099664 -0.435792 -0.420493 -0.480813 -0.018935 -0.143782 -0.224941 0.365561 -0.234780 0.342050 -0.159361 0.487024 0.456697 -0.449392 0.075518 -0.535053 0.083187 0.145378 0.039181 0.112168 0.208516 -0.299218 -0.227187 -0.339787 -0.115785 -0.420945 -0.485957 0.064372 0.156253 0.159263 -0.152306 0.223820 -0.232170 0.267873 -0.349824 -0.065576 -0.454229 -0.175666 -0.439221 -0.120855 0.366430 -0.271640 0.300793 -0.143225 -0.250570 0.006385 -0.407823 0.102219 0.478422 -0.070444 0.160769 -0.092755 -0.043835 0.494547 0.151024 -0.088921 0.045603 -0.109905 0.036791 0.460292 0.121816 -0.376068 0.054397 -0.429256 0.207349 0.023265 0.271612 0.467359 0.260350 -0.064085 0.231472 0.342721 -0.271930 -0.428007 -0.052816 -0.092635 -0.141100 0.492345 0.044202 0.363807 -0.420824 0.204676 -0.529581 0.331134 -0.397441 -0.197477 -0.313902 -0.487814 0.272672 -0.097974 -0.221925 -0.282448 0.326463 0.434684 -0.160216 -0.385151 -0.294363 0.113167 -0.470738 0.390408 -0.146376 -0.366622 -0.330082 -0.014964 0.222709 -0.282721 -0.477521 -0.261812 0.118950 0.025578 0.252974 0.286923 -0.412299 0.140961 0.516140 -0.142006 -0.130522 -0.082514 0.284083 0.264718 0.033273 -0.464638 0.197839 0.067858 -0.184439 0.238933 0.215901 -0.253467 -0.160543 -0.242071 -0.480155 -0.019998 -0.447890 -0.070442 -0.445813 -0.259349 0.349168 -0.302856 0.311762 0.340931 0.447893 0.357168 0.400157 0.274001 0.153562 -0.200270 0.285211 -0.017778 -0.284888 0.396656 0.170411 0.345252 0.364205 -0.034909 0.002385 -0.453021 0.099732 -0.140023 0.221030 0.468122 0.066036 0.278021 -0.314594 -0.124706 0.459833 0.235512 0.132140 0.369554 -0.392215 -0.086636 0.133385 0.054087 0.476046 -0.389525 -0.092273 0.276822 -0.213663 -0.065918 -0.202813 0.005900 -0.389894 -0.396414 -0.008955 0.155189 -0.009956 0.209251 0.057476 -0.087419 -0.233968 0.450856 -0.294478 -0.403238 -0.263205 -0.308562 0.088523 0.335988 0.389114 0.435899 -0.433508 0.468596 -0.173202 -0.456254 -0.113715 0.491182 -0.124070 -0.167433 -0.466362 -0.351977 0.390670 0.364593 0.181610 0.421203 -0.039076 -0.151202 -0.221399 -0.321483 -0.489418 -0.054348 -0.159123 0.380549 0.015876 0.316487 -0.128038 0.090798 -0.130731 0.058507 -0.089746 -0.337062 -0.247196 0.117770 0.323212 0.395349 -0.497187 0.046297 0.292413 0.206817 0.438446 -0.100685 -0.337080 0.273113 -0.485997 0.133484 0.337535 0.015568 -0.110079 -0.154493 -0.037873 -0.116062 0.075301 0.425934 -0.444538 -0.371720 -0.278087 -0.077046 0.334012 -0.508859 0.269595 -0.302886 0.063850 -0.195978 -0.079804 0.302759 -0.264323 0.350520 -0.196338 -0.044160 0.083348 -0.025631 0.399592 -0.064569 0.239468 0.447697 -0.044007 -0.202124 -0.334916 -0.411892 -0.462443 -0.401172 -0.364163 0.370698 0.126489 0.424632 0.190222 0.214065 -0.317598 -0.305039 -0.100151 0.334543 0.454458 0.371574 -0.014609 0.004197 0.027500 0.350845 -0.252518 -0.102092 0.228136 0.003890 0.203680 0.213910 0.162056 0.356346 0.401517 0.175960 -0.385430 -0.009267 -0.034760 -0.060404 0.445014 0.323740 -0.199103 -0.221863 0.329275 0.268315 0.052468 0.435301 -0.441490 0.221181 -0.188421 -0.234325 -0.484107 0.068851 -0.402801 0.454825 -0.159757 0.402456 -0.395909 -0.305440 0.306671 0.010995 0.262704 -0.331585 0.243318 0.382138 -0.340589 -0.447614 -0.269144 -0.154412 0.340950 0.021251 0.073270 0.412542 0.051475 0.465594 0.116623 -0.139904 0.206579 0.144673 -0.471832 -0.119479 0.176739 0.113970 0.200165 -0.135783 0.238102 0.403270 -0.042328 0.251685 -0.341018 0.247068 0.216082 -0.483280 0.508987 0.352904 0.406614 -0.254970 -0.315830 -0.020018 0.457051 0.203181 -0.017724 -0.365008 -0.398682 0.144658 -0.500073 0.452349 -0.259430 -0.153004 0.412625 0.124081 -0.254041 -0.082369 0.194012 -0.179777 0.364876 -0.453025 -0.237161 -0.441318 0.153502 0.201826 0.474945 -0.136741 -0.044519 -0.067478 0.326672 0.070116 0.266594 -0.367439 0.118649 0.174545 -0.214179 -0.429705 0.352607 0.304530 0.341379 -0.448825 0.027256 0.024795 -0.326803 -0.486616 -0.230105 0.141272 0.093142 -0.186151 -0.500809 0.155260 -0.364941 -0.276766 0.221033 0.100873 0.439723 -0.211309 -0.220657 -0.452414 -0.018717 -0.180495 0.471277 -0.217534 -0.409115 -0.059698 -0.091942 0.200365 0.496226 -0.077066 