6
784 256
-0.092157 0.413725 0.201961 0.296078 0.339216 -0.292157 -0.401961 -0.021569 -0.350980 0.158824 0.339216 0.472549 0.139216 0.331373 -0.107843 -0.347059 0.445098 0.072549 -0.107843 0.249020 0.405882 -0.437255 -0.445098 0.409804 -0.158824 -0.347059 -0.100000 0.260784 0.049020 0.401961 -0.280392 0.154902 -0.374510 -0.092157 -0.252941 -0.358824 0.409804 -0.103922 0.052941 -0.468627 -0.256863 0.198039 -0.323529 -0.425490 0.252941 -0.143137 -0.452941 0.449020 -0.472549 0.496078 -0.366667 -0.245098 0.209804 -0.209804 0.170588 -0.347059 -0.464706 0.468627 0.401961 -0.021569 0.139216 -0.045098 -0.127451 0.217647 0.143137 0.339216 -0.213725 -0.037255 0.049020 -0.303922 0.201961 -0.288235 -0.084314 0.135294 0.052941 -0.496078 0.264706 0.319608 -0.362745 -0.252941 -0.154902 0.323529 -0.311765 0.288235 0.135294 0.484314 -0.147059 -0.315686 -0.500000 0.229412 0.484314 -0.194118 -0.464706 -0.025490 -0.315686 0.107843 -0.496078 -0.492157 -0.386275 0.300000 -0.303922 -0.135294 0.056863 0.033333 -0.041176 -0.080392 0.433333 -0.331373 -0.343137 0.311765 -0.154902 0.429412 0.178431 -0.464706 0.052941 0.096078 -0.174510 -0.088235 -0.213725 0.468627 -0.296078 0.241176 0.268627 -0.013725 -0.292157 0.409804 0.182353 0.260784 -0.347059 -0.119608 0.288235 0.288235 -0.088235 -0.500000 -0.425490 0.245098 -0.123529 0.076471 0.378431 -0.409804 -0.409804 -0.401961 0.339216 -0.225490 0.276471 -0.398039 -0.323529 0.441176 0.323529 -0.472549 0.100000 0.154902 -0.072549 0.374510 -0.033333 -0.425490 0.127451 0.480392 -0.194118 -0.374510 -0.174510 -0.033333 0.256863 0.496078 0.296078 0.052941 -0.300000 0.484314 -0.072549 0.374510 -0.292157 0.452941 -0.056863 -0.300000 -0.092157 -0.452941 -0.343137 0.147059 -0.068627 0.366667 -0.339216 0.060784 0.303922 -0.225490 0.131373 -0.052941 -0.421569 0.229412 -0.307843 -0.194118 0.241176 0.468627 0.280392 0.096078 -0.319608 0.166667 -0.343137 0.147059 0.252941 0.268627 0.292157 0.280392 -0.162745 0.370588 -0.452941 -0.060784 -0.056863 0.374510 0.072549 0.154902 0.049020 0.398039 -0.496078 -0.464706 -0.201961 -0.213725 0.205882 -0.417647 -0.186275 -0.103922 0.166667 -0.260784 -0.174510 -0.441176 -0.025490 -0.382353 0.127451 0.449020 0.445098 0.198039 -0.021569 0.472549 -0.041176 -0.064706 0.084314 -0.115686 0.033333 -0.182353 0.154902 0.315686 0.464706 0.488235 0.456863 -0.288235 -0.201961 0.021569 -0.154902 -0.162745 -0.194118 0.217647 -0.013725 0.111765 0.488235 0.100000 0.080392 -0.084314 0.080392 -0.096078 0.394118 -0.147059 0.237255 0.347059 -0.025490 0.017647 0.382353 -0.401961 -0.335294 0.147059 -0.017647 0.037255 -0.139216 0.441176 -0.366667 0.033333 0.370588 0.225490 -0.300000 -0.311765 0.452941 -0.021569 -0.068627 -0.241176 0.107843 0.123529 -0.115686 0.092157 0.107843 0.319608 0.496078 -0.288235 -0.213725 0.005882 -0.339216 0.021569 0.213725 -0.209804 -0.147059 -0.182353 0.103922 -0.229412 0.343137 -0.056863 0.276471 0.362745 -0.052941 -0.488235 0.354902 0.350980 0.476471 0.307843 0.464706 0.315686 -0.460784 0.135294 0.319608 -0.123529 0.260784 -0.492157 0.272549 -0.445098 -0.225490 -0.484314 -0.115686 -0.496078 0.292157 0.484314 0.154902 0.378431 0.484314 0.429412 -0.374510 0.480392 -0.264706 0.001961 0.268627 0.237255 0.331373 -0.335294 0.390196 -0.033333 -0.186275 -0.358824 -0.358824 0.217647 0.370588 -0.025490 0.362745 0.358824 0.029412 0.158824 -0.147059 0.123529 0.394118 -0.354902 -0.100000 -0.198039 -0.303922 -0.252941 -0.480392 0.060784 -0.143137 0.425490 -0.029412 0.127451 -0.213725 0.319608 -0.417647 0.256863 0.135294 0.460784 -0.417647 -0.166667 -0.131373 0.111765 -0.154902 0.131373 -0.237255 0.033333 0.245098 0.049020 -0.472549 -0.480392 -0.480392 0.405882 0.354902 -0.005882 -0.166667 0.186275 0.425490 0.476471 0.327451 0.394118 0.143137 -0.249020 -0.194118 -0.488235 0.382353 0.303922 -0.190196 0.260784 0.049020 0.413725 -0.029412 -0.401961 0.182353 0.484314 0.401961 0.441176 -0.492157 -0.111765 -0.029412 -0.276471 -0.315686 -0.072549 -0.021569 0.452941 -0.343137 -0.135294 0.382353 -0.292157 -0.123529 -0.088235 -0.409804 0.166667 0.390196 -0.476471 -0.331373 0.413725 0.029412 -0.115686 -0.064706 -0.225490 0.076471 -0.100000 -0.429412 0.315686 0.421569 0.323529 -0.303922 -0.162745 0.437255 0.017647 0.496078 0.182353 0.335294 -0.460784 -0.170588 0.331373 0.021569 0.417647 0.319608 -0.143137 0.017647 0.421569 -0.362745 -0.460784 0.111765 0.029412 0.072549 -0.158824 -0.158824 -0.100000 0.339216 -0.174510 0.382353 -0.080392 -0.135294 -0.186275 0.437255 -0.425490 0.292157 -0.237255 -0.468627 -0.158824 -0.005882 0.374510 0.394118 0.178431 -0.492157 0.256863 0.225490 0.170588 0.296078 -0.229412 0.213725 -0.049020 0.198039 0.468627 0.307843 0.331373 -0.190196 -0.405882 -0.284314 -0.119608 0.245098 -0.190196 -0.060784 -0.158824 0.056863 0.229412 0.417647 0.256863 -0.358824 -0.131373 -0.174510 0.452941 0.076471 0.005882 0.362745 -0.280392 0.339216 0.339216 -0.362745 0.280392 0.331373 0.370588 0.437255 0.017647 -0.492157 -0.307843 -0.194118 0.194118 -0.456863 -0.288235 0.252941 -0.366667 -0.268627 -0.378431 -0.072549 -0.092157 0.115686 0.052941 -0.158824 -0.174510 0.088235 -0.480392 0.123529 0.096078 0.280392 -0.409804 0.123529 -0.386275 -0.056863 -0.456863 0.131373 0.131373 0.127451 0.198039 -0.009804 0.433333 0.158824 -0.452941 -0.452941 0.221569 -0.300000 0.111765 0.115686 -0.303922 0.017647 0.229412 0.225490 -0.245098 0.241176 0.182353 -0.409804 0.103922 -0.405882 -0.190196 -0.307843 -0.311765 0.021569 -0.405882 0.127451 -0.394118 -0.284314 0.335294 -0.245098 -0.460784 0.107843 -0.331373 0.084314 0.084314 0.335294 0.115686 0.500000 -0.056863 -0.480392 -0.127451 0.296078 0.045098 -0.123529 -0.284314 0.374510 -0.221569 -0.056863 -0.452941 -0.421569 0.484314 0.052941 -0.178431 0.092157 0.229412 0.449020 -0.252941 -0.021569 -0.147059 -0.041176 0.170588 0.056863 -0.280392 0.488235 -0.119608 0.382353 -0.307843 0.249020 -0.221569 -0.347059 0.139216 0.123529 0.252941 -0.068627 -0.103922 0.358824 0.190196 0.303922 -0.103922 -0.237255 0.378431 -0.488235 -0.472549 0.268627 -0.135294 -0.268627 -0.103922 -0.049020 -0.033333 0.249020 -0.280392 0.350980 -0.127451 0.390196 -0.045098 -0.288235 0.401961 0.362745 -0.488235 -0.343137 -0.374510 -0.456863 0.068627 0.496078 -0.421569 -0.252941 0.488235 0.088235 0.217647 0.080392 -0.433333 -0.198039 -0.017647 0.056863 -0.147059 -0.484314 0.272549 0.123529 -0.300000 -0.135294 0.417647 0.182353 0.378431 0.135294 -0.307843 0.170588 -0.386275 -0.476471 -0.143137 -0.405882 -0.386275 -0.405882 -0.307843 0.268627 -0.217647 -0.480392 -0.205882 0.307843 0.264706 -0.264706 -0.041176 -0.041176 0.276471 0.158824 0.398039 0.488235 0.221569 0.217647 0.480392 0.221569 -0.056863 0.154902 -0.217647 -0.339216 -0.252941 -0.139216 -0.045098 0.229412 -0.076471 0.374510 0.084314 0.225490 -0.319608 0.409804 -0.119608 0.025490 0.217647 -0.319608 0.260784 -0.280392 -0.229412 -0.292157 -0.213725 0.429412 -0.390196 0.311765 0.052941 -0.060784 0.186275 -0.347059 -0.350980 0.343137 0.252941 -0.009804 -0.201961 0.143137 -0.178431 0.068627 0.209804 -0.370588 -0.182353 -0.421569 0.460784 -0.264706 -0.190196 -0.452941 -0.072549 -0.421569 -0.429412 0.386275 -0.150980 -0.492157 0.331373 0.147059 -0.041176 0.264706 0.154902 -0.260784 0.452941 0.217647 -0.119608 0.449020 -0.080392 0.182353 -0.417647 0.300000 -0.213725 -0.217647 -0.472549 -0.225490 0.178431 -0.354905 -0.488235 -0.037255 0.084307 -0.488241 0.150980 -0.111764 -0.378435 0.123528 -0.409800 0.315685 0.398039 0.064706 0.041180 -0.307842 -0.280394 -0.358819 -0.127454 -0.017647 0.496078 0.476470 -0.229420 0.370588 0.178431 -0.382353 0.315686 0.076462 -0.299996 -0.429409 0.033341 0.280392 0.378435 0.292151 -0.005891 -0.394117 0.343137 -0.347059 0.205882 0.296064 0.190196 0.362745 0.449020 0.139219 -0.296078 0.068638 -0.147056 0.084304 -0.201961 -0.327450 0.092161 0.045095 0.233333 -0.205878 0.064706 0.496070 0.237255 0.249027 0.425485 0.496077 -0.335294 -0.401961 0.041176 0.492157 0.343137 -0.307843 0.296078 0.468632 0.323520 0.296078 -0.284312 0.037255 -0.343128 -0.154894 0.358825 -0.464707 -0.496095 -0.241177 0.315686 -0.068626 -0.150982 -0.045098 0.076471 -0.041176 0.103923 0.347058 -0.284314 0.339211 0.150982 0.276471 0.221578 -0.480390 0.072549 0.080411 -0.217648 -0.500000 0.488243 -0.350980 0.100000 0.437255 -0.409808 -0.296065 0.366668 0.009806 0.052940 -0.209802 0.496078 -0.464706 0.347059 -0.437255 -0.147069 -0.198039 0.162742 -0.311766 0.249021 -0.374498 -0.166667 0.049020 -0.162745 0.060771 0.041176 -0.237255 -0.033333 0.096078 0.468628 -0.103922 -0.292162 0.433341 0.221569 0.056853 0.182353 -0.445101 -0.033330 -0.245097 0.354902 0.417647 -0.029412 -0.249022 -0.033333 -0.378431 0.170586 -0.452944 0.029411 -0.296092 0.433330 -0.025497 -0.288239 -0.049020 -0.343133 -0.460797 -0.115689 -0.225489 -0.025491 0.186275 -0.084313 0.241179 0.123534 -0.437255 0.401966 0.103909 0.209804 0.331373 0.084326 0.009804 0.390196 -0.013725 -0.370595 0.174508 -0.103930 0.362742 0.449020 0.335300 -0.382353 0.170587 0.100000 0.166668 0.119606 -0.072551 0.484314 0.276471 -0.205886 0.127459 0.468627 0.241178 0.496078 0.198033 0.276462 0.476481 0.272563 -0.425490 0.221565 0.300003 0.260797 0.025491 0.135305 -0.488236 -0.315687 -0.331373 -0.096080 -0.460780 -0.323533 -0.119608 0.021569 0.162747 -0.076471 0.186275 0.249021 -0.347048 0.492150 0.217648 0.170572 -0.021570 0.178436 -0.241177 0.354917 -0.386272 -0.409805 -0.194119 -0.162745 0.100000 0.307844 -0.445100 0.166661 -0.029412 -0.068627 0.186276 -0.272560 -0.201961 0.013719 0.143135 -0.370579 0.150967 0.001961 -0.209804 0.115686 -0.268626 0.252945 0.088235 0.174497 -0.413725 0.217647 0.350980 -0.233333 -0.409804 0.033333 -0.500000 -0.445099 -0.445114 0.017635 0.252936 0.480392 0.225490 0.001967 -0.288235 0.096073 0.264706 0.237255 -0.194941 -0.300729 0.038019 0.467431 -0.096620 0.242803 0.468716 -0.465117 -0.053014 0.283316 -0.215801 0.158864 0.299840 0.466098 -0.023194 -0.467579 -0.417660 -0.190991 -0.284263 -0.182291 -0.374744 0.091926 0.292688 0.086059 -0.138984 0.182426 0.500154 0.426634 -0.472420 0.499961 0.245009 -0.128435 0.178816 0.111924 -0.189168 -0.484373 0.252304 0.134960 0.139054 0.188038 0.139109 0.143319 0.155111 0.244708 0.449690 -0.277375 0.413599 -0.448508 0.023438 0.161420 -0.042182 0.167545 0.099235 -0.018841 -0.053977 -0.315794 -0.051497 -0.484648 0.064380 -0.281844 0.359495 0.422109 0.221846 0.303895 -0.484377 -0.413736 0.312782 0.028493 -0.424223 -0.144328 0.341960 0.234734 -0.268144 -0.051114 0.224384 -0.458432 -0.413274 0.108188 0.437956 0.303780 0.463704 0.410340 0.405163 0.441005 -0.213267 -0.427609 0.480044 0.028341 -0.025011 0.076211 0.338898 0.264819 0.164193 -0.178537 0.495979 0.381891 0.233042 0.425426 -0.205947 -0.222542 0.309243 -0.279998 0.161581 0.292388 0.417050 0.241486 -0.255434 -0.360939 -0.127691 -0.436446 0.452593 0.362163 -0.303873 -0.307392 0.167316 -0.084464 0.269812 -0.284315 -0.156459 0.033909 -0.025424 -0.245461 0.492161 -0.339833 0.499815 -0.018431 -0.220665 0.001685 0.172670 0.480317 0.403364 0.064710 0.249091 -0.499816 0.115585 0.172688 -0.036031 -0.242261 0.291993 0.441834 -0.059054 0.123355 -0.273618 0.021662 0.190175 0.083898 -0.448137 -0.216600 -0.365954 0.377917 -0.308159 -0.185948 0.216204 0.386356 -0.448561 0.178855 0.034089 -0.362482 0.269655 -0.180313 0.476310 0.367907 -0.241592 -0.300551 -0.378725 0.281199 -0.345402 -0.406398 0.236550 -0.236945 0.404530 -0.159033 0.440401 -0.406065 -0.436908 -0.165966 0.379365 0.237274 -0.363109 -0.092446 0.343123 -0.084911 0.111757 -0.417704 0.458150 -0.084830 0.485745 -0.191906 0.394358 -0.217460 -0.413279 0.201815 0.344649 -0.263994 -0.154455 0.056722 0.339052 -0.057520 0.152888 0.010374 -0.131229 -0.147533 0.378551 -0.033338 -0.465088 -0.304218 -0.425014 -0.112477 0.217885 0.000554 0.072191 -0.463024 -0.002110 0.446853 -0.133450 -0.256999 0.110126 -0.449024 -0.025405 -0.087810 0.358170 0.241950 -0.237173 -0.495988 -0.496769 0.051220 -0.217057 0.198030 0.383191 -0.034086 -0.383673 0.061859 0.135183 0.092198 0.014007 0.488678 0.487821 0.397211 0.007377 -0.211787 0.374733 0.276023 -0.331286 0.088359 -0.280995 0.021440 -0.493504 -0.442958 0.365035 0.045096 -0.213845 0.218159 0.290466 0.192912 -0.311894 -0.160213 -0.367847 -0.482425 -0.126417 -0.005378 -0.054877 0.498697 0.102457 0.145426 -0.284322 0.194746 -0.392287 -0.322352 0.153136 0.031960 -0.245780 -0.016205 0.297333 -0.430081 -0.343030 0.074491 -0.064563 -0.188883 0.016038 0.003044 0.387946 0.092298 0.146039 0.494800 0.061122 -0.204729 0.209751 0.307381 -0.209554 0.156651 0.067962 0.448211 0.030761 -0.089199 0.102626 0.215189 0.106085 -0.487668 -0.105461 -0.487839 0.408148 0.067862 -0.268374 0.032357 0.182393 0.057305 -0.421748 -0.408452 0.085233 -0.205120 0.182211 -0.344393 0.412991 0.182644 0.344874 -0.399898 -0.071226 -0.246333 -0.176722 -0.154735 0.283004 -0.464245 0.076085 0.019479 0.316942 0.216456 -0.286148 0.091363 0.461879 -0.040643 -0.499778 0.454254 0.132480 -0.233156 -0.442883 -0.040853 0.049193 -0.134927 -0.166853 0.290610 -0.170978 -0.085664 -0.206033 0.356462 0.225958 0.195511 -0.103296 0.389604 -0.447602 0.195421 0.345108 0.062895 0.122621 0.003183 -0.203627 -0.188340 -0.389615 0.196544 -0.142730 0.292399 -0.067104 0.256561 -0.113113 -0.026562 0.440398 -0.383774 -0.229431 0.319936 -0.083120 -0.400952 0.104629 -0.345492 0.315108 -0.499911 -0.189732 0.249347 0.068308 -0.457104 0.070648 0.265420 -0.494887 -0.116734 0.177320 -0.219679 0.446586 -0.076282 -0.222879 0.406277 0.245795 -0.229296 -0.230208 0.158023 -0.090295 -0.422905 -0.200298 0.171621 0.435981 -0.478992 -0.076517 -0.325137 0.383333 0.268317 0.345421 -0.439258 -0.252525 0.109779 0.250675 -0.338063 -0.156076 -0.481011 0.195605 0.360345 0.080285 0.218719 -0.430373 -0.310976 0.280164 0.144131 0.253708 -0.255535 0.261414 -0.342674 0.263741 -0.229180 -0.169718 -0.223886 -0.141149 0.002525 -0.031765 0.204413 -0.296500 0.497197 -0.351294 -0.211218 -0.452162 0.225475 0.066008 0.123070 -0.366404 -0.311101 0.395170 -0.497322 -0.144220 -0.365587 0.084438 -0.252997 -0.127612 0.480600 0.437132 -0.382569 0.164442 0.294129 0.434309 0.020361 0.480031 -0.319705 0.317885 0.464868 0.092994 -0.012318 0.167657 0.271679 0.008218 0.223870 0.370421 0.256161 0.361082 -0.427473 0.336435 0.484799 -0.249977 0.357899 -0.369316 0.323317 0.077412 0.279081 0.031689 0.424570 0.154724 0.269689 0.186443 0.302562 0.424763 -0.021019 -0.361157 0.362642 -0.476458 -0.255944 -0.089518 0.310751 -0.166192 -0.346838 -0.260087 0.257845 0.217784 0.195272 -0.343427 0.019964 0.408215 -0.095064 0.370560 -0.079283 0.243814 -0.271393 -0.291772 0.237197 -0.314531 0.247783 -0.404587 -0.493612 0.373310 0.487071 -0.337236 -0.414528 -0.225108 0.104549 -0.276880 0.211161 0.119727 0.430024 0.127313 -0.319302 0.075496 -0.496106 0.359033 0.400217 -0.014336 -0.251355 0.141958 -0.100508 -0.177276 -0.344417 0.193341 0.458000 0.457460 0.058319 -0.431942 0.257066 -0.446854 0.111260 0.127750 0.103784 0.386960 0.038756 -0.399800 0.104827 -0.460009 -0.033501 0.399861 0.359399 0.247908 0.466854 0.117661 0.173780 0.401672 -0.288286 0.014264 -0.507084 -0.408327 -0.250951 0.444767 -0.113212 0.479925 0.014084 0.495169 0.167186 -0.187821 0.222172 -0.437687 0.028093 0.346052 0.051610 -0.048236 0.188313 -0.429081 -0.032148 -0.160943 0.280202 -0.222618 -0.155552 -0.071771 -0.318061 -0.226684 -0.403422 -0.331642 0.415546 0.050167 -0.033511 0.293504 0.469379 -0.206676 0.479032 -0.032663 -0.438314 0.092187 0.327115 0.006622 -0.034062 -0.135556 -0.170508 0.098445 -0.222505 -0.069882 0.254734 0.269405 -0.212038 0.053335 0.375822 -0.376585 -0.325241 0.038561 -0.326729 -0.381828 -0.229197 -0.404384 0.360882 0.094544 -0.046593 0.031875 -0.059224 0.340842 -0.418167 0.093339 0.280605 0.153708 -0.394223 0.449919 0.166837 -0.023635 -0.240990 0.486402 -0.323166 -0.434578 0.378589 0.165179 0.276816 -0.001220 0.397712 0.203014 -0.102181 -0.268941 -0.004592 0.269234 -0.351924 -0.250974 -0.100439 0.309935 0.003780 0.294201 -0.001688 -0.195967 0.181835 -0.404862 -0.087862 -0.006506 -0.358706 0.441875 -0.028904 -0.193110 -0.382915 -0.326156 0.507382 0.481442 0.039460 -0.252390 0.319548 -0.065336 0.146612 0.130992 -0.129866 -0.504248 0.264851 0.299279 -0.053666 0.031186 0.458183 -0.363357 -0.251850 -0.129662 0.042892 0.116054 0.141804 0.095520 0.272250 -0.461062 0.287100 0.327213 -0.360872 -0.173763 -0.189196 -0.038455 -0.354517 -0.484385 -0.103679 -0.377112 0.379723 0.475653 -0.146579 0.257147 -0.106005 0.072060 -0.204370 0.050315 0.351121 -0.008098 0.089915 0.260486 -0.207633 -0.258452 -0.026569 0.111420 -0.480915 -0.265102 -0.205122 -0.078705 0.322098 -0.046701 -0.138602 -0.242527 0.452047 0.210098 0.131063 0.150474 0.008562 0.235291 -0.358591 0.200352 -0.180022 -0.391844 -0.021667 0.396175 -0.451924 -0.162375 0.160261 0.002093 -0.134087 0.226677 -0.230305 0.047852 0.360437 -0.246546 0.368069 -0.343924 0.492163 0.246520 0.288623 -0.136344 -0.151959 0.127996 0.093782 -0.341318 0.135766 -0.309327 0.018123 0.227732 -0.107687 0.472488 -0.260299 -0.168420 -0.262870 -0.153241 0.306807 0.392007 -0.179453 -0.166413 -0.489699 -0.069791 -0.417724 -0.224650 0.136729 -0.061649 -0.287887 0.112467 -0.316680 0.176133 -0.045460 0.281118 0.495703 0.285263 0.256990 0.224447 0.064070 -0.440832 -0.355547 -0.101739 0.064944 -0.012169 0.236574 -0.141276 -0.184835 -0.210786 -0.242906 -0.014457 0.476375 -0.263209 0.457403 -0.121241 0.412451 0.446662 -0.404464 0.300723 0.197244 -0.162337 0.148287 0.396002 0.250430 0.290911 -0.239513 -0.074700 0.388268 -0.032254 0.305565 -0.133139 -0.399501 0.147685 -0.049418 -0.064127 0.249861 0.314845 -0.035164 -0.222435 0.358829 -0.022425 0.054485 0.472381 0.055388 -0.299533 0.437904 0.265099 0.014731 0.148358 -0.499173 0.246008 -0.328532 0.473843 -0.156167 0.478713 0.206108 -0.232787 -0.372675 -0.286586 0.110772 -0.448343 0.218355 -0.472092 0.312315 0.124447 0.246129 0.002218 0.508294 -0.490845 -0.025626 -0.485759 0.396533 0.485219 0.241194 0.349757 0.171394 0.339182 -0.378807 0.189417 0.477059 -0.373782 -0.146789 -0.487269 0.109375 -0.135917 -0.135731 -0.228332 -0.053524 0.348420 -0.332063 0.255140 0.014512 0.441962 0.124002 0.153649 -0.317235 0.415157 0.293502 -0.027230 0.062426 -0.243853 0.264121 -0.306823 0.155316 -0.028151 0.066181 -0.216640 -0.256563 -0.156931 0.026868 -0.457819 0.078231 -0.358045 -0.229070 -0.266562 0.238086 0.308597 0.260734 -0.027770 -0.111341 0.092379 0.466896 0.473869 0.050470 0.358309 0.343176 0.464718 0.123842 -0.465984 0.252881 0.299329 -0.237974 -0.312529 0.071817 -0.100200 0.484736 0.040592 0.462789 -0.330004 0.218823 0.220014 -0.463650 -0.023092 -0.074999 0.189582 -0.442215 -0.339694 -0.166848 0.192370 0.407489 0.021395 0.120422 -0.176804 0.482815 0.411034 0.206580 0.406953 -0.185579 0.187702 0.270596 -0.450732 0.301322 -0.251628 -0.390187 -0.248183 0.143036 0.472630 0.372641 -0.207160 0.006125 0.354623 -0.070719 0.398053 0.232844 -0.123657 -0.048413 -0.129349 -0.181174 0.095017 -0.412535 0.194188 0.392371 0.231755 0.386675 0.272608 0.379088 -0.332312 0.050379 0.407175 0.093442 -0.291378 0.068829 0.281668 0.206499 -0.380332 0.251897 -0.392467 -0.079162 -0.309789 0.275866 -0.212559 -0.250488 0.103979 0.483160 -0.206356 -0.332466 -0.316233 -0.474896 -0.184596 -0.140663 0.377040 0.396060 -0.378062 0.265669 0.304456 0.232993 0.283619 -0.362050 0.261256 0.474375 -0.449742 -0.249812 0.159518 0.057383 0.444797 -0.338675 -0.426839 0.333845 0.200953 -0.484053 0.164961 -0.240610 0.182090 -0.269654 0.236268 -0.168197 -0.219234 -0.180958 0.103982 0.460551 0.316821 0.436403 0.382929 0.048709 0.138165 0.117613 0.464546 -0.084761 -0.165076 0.224222 0.040166 -0.261089 -0.019051 0.277644 0.168390 -0.430341 0.237007 -0.309971 -0.499028 -0.238306 0.281489 0.172390 0.365920 -0.449641 -0.305164 -0.414156 -0.071205 -0.229386 0.278118 -0.150784 -0.105674 -0.313929 -0.234258 0.366460 0.149608 -0.216072 -0.394681 -0.159927 0.139286 0.216302 0.219465 0.020693 -0.232157 -0.145636 -0.289644 0.070683 -0.429179 0.045214 0.003577 0.099107 0.395657 -0.315014 0.097883 0.363760 -0.002719 -0.276406 -0.165042 -0.405715 -0.037184 -0.428094 0.331861 0.064627 -0.130021 -0.091998 -0.439096 -0.119122 0.208577 0.065518 -0.349910 0.401222 -0.112899 0.233328 -0.413348 0.367078 -0.428709 0.404295 -0.369601 0.395130 0.407138 -0.020463 -0.005798 0.147570 -0.061144 0.408577 0.436156 0.247202 0.058169 0.001302 0.193963 -0.412578 -0.451958 0.203343 0.241339 0.126360 -0.070246 -0.384801 -0.126326 0.095112 0.442473 0.258609 0.065332 0.192257 -0.500769 0.392985 0.275300 0.290107 0.204978 0.192830 0.020342 0.368489 0.185986 0.238975 -0.109432 -0.151784 -0.136908 0.116558 0.360410 0.299019 -0.473461 0.201834 0.025480 -0.226421 -0.229312 -0.100615 -0.053192 -0.019421 -0.398086 0.105970 0.222235 0.027450 -0.164347 -0.124427 -0.005525 -0.354878 0.321533 -0.413481 -0.403568 -0.423773 0.181972 0.190373 0.490433 -0.191914 -0.476805 0.280759 -0.263444 0.482692 -0.414441 -0.377698 -0.328918 0.042355 0.169619 0.488039 -0.400442 -0.096337 0.490844 0.237843 0.297207 -0.432566 0.351620 0.308872 -0.024004 -0.164746 -0.499878 -0.080185 0.412307 -0.363588 -0.284088 0.177522 -0.041611 0.235307 0.498294 0.203331 -0.175379 -0.271207 0.113435 -0.185359 -0.480618 0.238946 0.016724 0.032454 0.138387 -0.326162 -0.097383 -0.326178 0.450190 0.051784 0.257844 -0.291952 0.418038 -0.178422 0.079905 -0.480890 0.045970 0.169276 -0.443051 0.481287 0.247203 -0.006774 0.365974 0.390578 -0.443926 -0.473458 -0.307159 -0.400819 -0.390543 -0.101926 -0.116307 0.436965 -0.418503 -0.040165 -0.474190 -0.357766 0.200665 -0.172307 0.183953 -0.199804 0.353551 -0.242207 0.363948 -0.476905 -0.193177 -0.207866 0.092486 -0.314234 0.354949 -0.426078 -0.351624 0.074399 0.133064 0.022601 -0.344899 -0.217169 0.008793 0.362259 -0.141227 -0.118394 0.229461 -0.154943 -0.443747 -0.184413 -0.435530 0.245927 -0.341910 -0.190270 0.048585 0.253101 0.485014 0.253828 -0.202064 -0.125125 0.113565 -0.229900 0.122985 0.000318 0.287774 -0.149727 0.344926 -0.036134 -0.013794 -0.314164 -0.177627 -0.071465 0.425271 -0.027450 0.235151 -0.228997 0.062291 -0.327680 0.412089 0.254061 0.127568 0.247548 -0.433837 0.054996 0.246122 -0.245064 -0.235848 0.489243 0.047436 -0.194961 -0.349766 0.450336 -0.033828 0.388458 0.076904 -0.113137 0.192832 0.038023 -0.129151 -0.138985 -0.037488 0.131734 0.476235 -0.393520 0.493300 0.314519 0.125378 -0.456702 0.186678 0.237524 -0.077706 -0.007354 -0.398625 0.038882 0.051285 -0.361339 0.414351 0.496636 -0.359618 -0.126871 -0.059486 -0.357730 0.350202 -0.339010 0.269232 -0.056207 0.261468 0.186838 -0.326676 0.035277 -0.138013 -0.013717 -0.403546 0.473655 -0.459492 0.404435 -0.314260 -0.480817 -0.060734 -0.361037 -0.188294 0.384140 0.296141 0.447412 -0.394239 -0.288813 0.246681 -0.223853 0.171877 0.033545 0.281453 0.228418 0.366465 -0.265702 -0.019977 0.474932 0.289084 0.147015 -0.252317 0.217210 -0.248022 -0.048055 -0.500415 0.396624 0.088305 -0.320677 0.197023 -0.224513 -0.455284 -0.255486 -0.307251 0.151922 0.253715 0.241815 -0.278541 0.231805 -0.166917 0.065161 -0.395478 0.077416 -0.058018 -0.388991 -0.311801 0.248731 -0.173737 0.167279 0.236603 -0.332748 -0.282529 0.476271 -0.292920 -0.423259 0.318646 0.155615 -0.144160 0.376476 0.431674 0.201076 -0.022520 -0.028089 -0.102557 -0.267468 -0.213806 0.432081 -0.182976 -0.401497 0.501310 0.293593 -0.257840 0.305411 -0.281728 -0.361617 0.211081 0.337135 0.340057 -0.102808 -0.431956 0.255373 -0.256486 0.500046 -0.088789 -0.320294 -0.177647 -0.322116 -0.285676 -0.094800 0.208316 0.221585 0.169775 0.484352 0.071020 -0.337505 0.474623 0.051411 -0.460087 -0.204782 0.195507 -0.015277 -0.367753 -0.026458 0.425988 0.145298 -0.181252 0.427830 -0.021969 -0.470679 0.435720 -0.479005 -0.237662 -0.139785 0.163454 0.372447 0.041588 0.362947 -0.152641 -0.466799 0.230631 0.134383 -0.050730 -0.362051 0.184604 0.259146 0.222910 0.276507 -0.194661 -0.032626 0.415413 0.277790 -0.152512 -0.010946 0.002988 -0.498585 -0.480502 0.037168 -0.161199 -0.320906 -0.097908 0.238791 0.307965 0.012845 0.089809 -0.413231 -0.119190 -0.288625 0.044392 0.445124 0.081883 0.011785 -0.182346 0.372523 0.155737 0.338775 0.271900 0.208519 -0.241085 0.387471 -0.351926 -0.047177 0.450545 -0.294557 0.428205 -0.230231 0.320573 0.153537 -0.403173 -0.197930 0.369012 -0.478889 0.141023 -0.268568 -0.300427 -0.115549 -0.497399 0.102651 0.096913 -0.440567 0.456055 0.303296 -0.350659 0.167769 0.363976 0.056634 -0.182564 -0.355288 0.383807 -0.347268 -0.335571 0.441408 -0.363631 -0.150953 -0.468107 -0.043580 0.021833 0.139414 0.269483 0.288405 -0.495749 -0.112005 -0.248029 0.147007 -0.261116 -0.432828 0.128021 -0.323831 -0.118951 -0.413681 -0.365073 0.329822 -0.495728 0.193395 0.452944 -0.354396 -0.096207 0.385691 -0.368292 -0.121465 -0.256702 -0.134777 -0.233337 -0.492002 0.249600 0.123897 -0.120922 -0.327299 0.182420 0.186233 0.225416 -0.375607 0.417370 -0.072853 -0.342910 -0.123362 -0.414354 0.276664 0.178414 0.497371 -0.445753 -0.033898 -0.457071 0.072648 -0.276720 0.037817 -0.040886 -0.095580 0.347377 0.244972 -0.137318 -0.260515 0.433716 0.057432 -0.029449 -0.224564 -0.480359 -0.014247 -0.225202 0.422220 -0.228755 0.306038 -0.004916 0.029413 -0.306383 0.048653 -0.429341 0.158509 0.373467 -0.386234 -0.244453 0.213058 0.025328 0.011968 -0.405594 0.240330 0.259883 0.443810 -0.053828 -0.146835 0.132140 -0.419243 -0.460733 -0.267232 0.010755 -0.099626 -0.121965 -0.315424 0.490533 -0.366328 0.409984 -0.497034 0.405483 -0.495637 0.391083 0.449726 -0.029920 0.382048 0.213396 0.358780 0.107514 0.328762 0.303361 0.456286 -0.425007 0.115296 -0.154759 0.488611 -0.166275 -0.005875 -0.091865 -0.457738 0.156323 -0.132214 -0.154974 -0.338850 0.477367 -0.449319 0.167873 0.109237 -0.042288 -0.158482 0.330745 -0.059479 0.463729 -0.236681 -0.111734 -0.469590 -0.075837 -0.048744 -0.440199 0.421795 -0.107799 -0.000384 0.307475 0.421613 0.327869 0.045012 -0.296182 0.457158 0.158675 0.106111 -0.343127 0.177247 -0.276653 0.010893 -0.229291 0.288722 0.158650 0.374318 -0.339500 -0.468362 0.134346 -0.197372 -0.181632 -0.401604 0.113662 0.194757 -0.409521 -0.394222 -0.374507 0.492432 0.396972 -0.087943 -0.465251 0.162455 -0.169699 0.414366 -0.331080 -0.070432 -0.374533 -0.205579 -0.335400 0.114063 -0.010953 -0.303854 0.013923 -0.297825 -0.400961 -0.108477 0.118773 0.009939 0.182551 -0.417606 0.088230 0.335201 -0.119279 0.381241 -0.108080 0.327031 0.323059 0.205356 0.240498 -0.229614 -0.349124 0.308699 0.108506 -0.076227 0.266386 0.283661 0.045581 0.444702 0.464297 -0.060408 -0.202536 0.378526 0.418159 -0.487574 -0.193488 0.276897 -0.319404 -0.447841 -0.025828 0.477500 0.408950 0.006019 -0.010338 0.267993 0.064968 -0.463840 0.217693 0.354724 0.480610 0.114761 0.376341 0.320429 0.056436 -0.417205 -0.105092 -0.394219 0.048591 -0.217459 0.461217 -0.150654 0.014586 0.414087 0.103412 -0.178194 -0.265997 -0.328024 -0.009269 -0.205245 0.468669 0.260977 -0.068585 0.139098 -0.123629 -0.390310 -0.072564 0.111757 -0.449064 -0.107633 0.308154 -0.436919 0.174579 -0.397865 0.194231 -0.362852 -0.234067 0.139379 -0.492001 0.436989 0.382347 -0.492202 -0.170523 0.449073 0.499624 0.229133 0.268521 -0.061761 0.017887 -0.135045 0.154936 0.119363 -0.477340 0.044944 0.394335 0.496134 0.064656 -0.276240 0.233247 -0.460437 -0.394481 0.284433 -0.315468 -0.292118 -0.084160 0.155311 -0.225454 -0.456619 -0.296075 -0.084154 0.390264 -0.048926 0.441326 -0.417233 -0.041374 -0.155141 -0.351102 0.123625 0.233371 -0.350370 0.437168 0.186305 0.272542 0.080422 0.072584 -0.182374 -0.147004 -0.037126 0.245186 -0.123042 -0.342862 -0.394110 -0.272416 -0.346995 -0.248569 -0.383239 0.336262 -0.209730 0.417917 0.374509 -0.261367 0.154681 -0.300074 -0.405914 -0.041178 -0.366597 -0.025626 0.037172 0.213474 0.072110 0.315627 0.476403 -0.445150 -0.068633 -0.139222 -0.390271 0.229237 0.342971 0.284969 0.096134 -0.009612 0.304105 0.358259 -0.193970 0.021667 0.084362 0.202209 0.190217 0.397811 -0.288123 0.460872 0.401847 -0.225495 -0.080417 0.048870 -0.499858 0.292206 -0.351369 -0.448868 -0.182246 0.425414 -0.464691 -0.307674 -0.186281 0.221397 -0.170545 -0.013365 0.499800 -0.006147 -0.225701 -0.079527 -0.225550 0.320667 0.433157 -0.409937 0.426022 0.072186 0.029585 -0.013852 0.060590 -0.233472 -0.072474 0.465027 0.021506 0.060643 -0.456884 -0.303599 0.397894 -0.127629 0.499950 -0.429303 0.440937 0.119534 0.315808 0.162383 0.429299 -0.284286 -0.159386 0.085138 0.096413 -0.096064 -0.476744 0.315360 0.017606 -0.253297 0.296417 -0.217438 0.233466 -0.240976 0.088260 -0.311313 0.448760 -0.460439 0.076150 0.362768 0.256831 -0.111767 0.323698 -0.382293 0.264724 0.233347 -0.076448 -0.409805 0.256989 0.257122 0.433410 0.468623 0.221528 -0.386381 -0.268727 0.460880 0.198033 0.394097 0.295868 -0.496891 -0.037273 0.476571 -0.119656 -0.201977 0.308247 -0.221574 -0.021798 -0.119663 -0.068730 0.107821 0.284339 0.355040 0.044997 -0.248889 0.351141 0.484420 -0.123263 -0.444627 0.041101 0.433470 0.268387 0.311763 0.115699 0.381742 0.405895 -0.421545 0.315926 0.457080 0.127340 -0.182251 -0.385805 0.448815 -0.425461 0.350991 0.052917 0.378439 -0.053245 -0.449229 -0.115407 0.394179 -0.013405 -0.307844 0.245144 0.056279 0.210544 -0.171277 0.308146 -0.499995 -0.308085 -0.096236 -0.202212 -0.377849 0.174588 -0.346964 -0.335089 0.001915 -0.139238 -0.174871 -0.017662 -0.197784 0.370693 -0.331299 0.080451 0.480399 -0.370739 -0.370721 -0.017614 0.182406 0.425488 0.492112 -0.354931 0.311788 -0.072174 -0.425600 -0.472524 0.092214 -0.402040 0.013077 0.170604 -0.441029 -0.100098 0.100031 -0.260775 -0.060579 -0.327310 0.311788 -0.151244 0.127460 -0.119721 0.139203 0.159038 -0.409799 -0.472590 0.158589 -0.496098 -0.201992 0.303635 0.484318 0.155159 -0.280414 0.417918 -0.249128 -0.429321 0.206190 -0.319558 -0.331234 0.064740 -0.303924 0.072913 0.131252 0.096155 0.464683 0.009940 0.433456 -0.127242 -0.311816 -0.010122 0.444814 0.472639 -0.488100 -0.342937 0.248893 0.268333 -0.127619 -0.088216 -0.052957 0.252910 0.229394 -0.331424 -0.370270 -0.103880 -0.037159 0.139227 0.460781 -0.241254 -0.072270 -0.300107 -0.374393 0.088136 -0.190356 0.331395 0.271690 0.456765 -0.268633 -0.272546 -0.296185 0.355033 0.225479 0.021559 0.272056 -0.088757 -0.115568 0.166765 0.252948 -0.158801 -0.045082 -0.315668 0.350858 -0.229562 0.390329 0.154806 -0.476221 -0.492229 -0.421556 0.253002 0.405941 0.174484 0.488322 -0.049058 0.452477 0.174446 0.480420 -0.355193 -0.143133 -0.060867 -0.245086 0.456854 0.127684 -0.150968 0.143141 0.284272 -0.150980 0.103883 -0.013700 -0.198064 0.319324 -0.021361 0.413685 0.390191 -0.205986 0.233254 0.347129 -0.272542 -0.370569 -0.162677 -0.154996 -0.122923 -0.162902 0.311705 -0.178847 -0.405900 0.017636 -0.319635 -0.198238 -0.354901 0.197711 0.370611 -0.448977 0.480467 -0.488140 -0.456921 0.127125 0.135127 0.021552 0.052736 0.139146 0.053164 -0.445035 -0.260953 0.426388 0.127581 -0.119879 0.197597 0.048626 -0.033337 0.421580 -0.283990 0.292130 -0.068519 0.229524 -0.366701 0.397976 0.460566 -0.084286 -0.488450 -0.441167 0.311639 0.178732 0.053014 -0.444984 0.441189 0.252935 0.437050 0.174724 0.092362 0.041188 -0.029455 -0.441171 0.166609 -0.327070 -0.131488 0.237284 0.292169 0.296077 0.209572 -0.170874 0.343146 0.284302 -0.041253 0.048988 -0.350891 0.005974 0.221474 -0.100323 0.111731 0.060777 -0.182327 0.390299 -0.001935 0.378481 0.033393 0.013782 -0.261001 -0.249088 0.394288 -0.491832 -0.358606 0.362744 0.268718 -0.151519 -0.041177 0.307865 -0.284225 0.248994 -0.339415 -0.245302 0.324018 -0.154943 0.280387 -0.213906 0.366674 -0.151061 0.107728 0.115449 0.260995 0.154916 0.402213 0.288253 -0.150922 -0.476537 0.441156 -0.304008 -0.315580 -0.147143 0.005850 0.350977 0.390237 0.350873 0.272437 -0.237071 -0.370524 -0.260798 -0.437253 -0.214187 0.375147 0.429450 0.409789 -0.174521 0.201784 0.433655 0.366675 -0.201768 0.127343 -0.358844 -0.115690 -0.068640 0.107950 -0.010273 0.162790 0.025636 0.080619 -0.080353 -0.190149 0.460811 0.307856 -0.213696 -0.186263 0.417694 0.335743 0.009649 0.127424 0.068646 0.315478 -0.182607 -0.476461 -0.347102 -0.092148 0.390236 -0.429283 -0.296172 0.092215 -0.488410 -0.327654 0.001927 -0.233284 0.346978 -0.182090 0.390133 0.166662 0.194671 -0.060900 0.072190 0.253019 0.386294 -0.111531 -0.213822 -0.496117 -0.053045 0.158912 -0.327426 0.417636 -0.308245 0.421522 0.241137 -0.201550 0.041286 -0.096143 0.052860 -0.358804 0.296152 0.276485 -0.354835 -0.409798 0.186623 0.197875 -0.029208 -0.233338 -0.343038 0.483968 -0.327451 0.115603 0.304004 -0.142783 -0.202002 -0.103877 0.287974 0.099753 -0.131532 -0.052901 0.100003 -0.174551 0.260730 0.221756 0.076596 -0.155470 -0.401947 0.037184 0.260503 0.237321 0.483965 0.049019 0.127508 0.272584 0.311826 -0.480420 0.088515 -0.002336 0.288544 -0.347075 -0.276471 -0.045120 -0.366804 0.468401 -0.495954 -0.303924 0.311737 -0.150778 0.194121 -0.264867 0.198193 0.484423 -0.457135 0.362704 -0.378372 -0.037081 -0.158780 -0.053051 -0.170395 -0.115922 0.170574 0.307738 -0.449176 -0.099755 -0.327552 -0.394734 -0.056778 0.127451 0.021263 0.296130 0.146918 -0.029153 0.394119 0.213853 -0.209835 0.233609 -0.111883 -0.048905 0.252745 0.303818 -0.115664 -0.096081 0.080468 0.040660 -0.229286 0.064859 -0.123531 0.009580 0.346908 0.084039 -0.076632 -0.374604 -0.009779 -0.468327 -0.421532 0.052925 0.323902 0.468591 0.347262 -0.104190 -0.288267 0.205859 -0.471857 0.288463 0.021568 -0.338570 -0.464551 0.268592 -0.037433 0.139020 -0.327414 0.217504 -0.213784 0.135220 0.072808 -0.205880 0.303891 0.421643 -0.339386 -0.127591 -0.237054 -0.249085 0.217917 -0.182397 -0.319615 0.480222 -0.017572 -0.190124 -0.225528 0.436955 0.240968 0.429213 -0.139367 0.354949 -0.143095 -0.311970 -0.194192 0.194012 0.500120 0.441099 0.119598 -0.295862 0.441116 0.366732 0.370739 -0.237105 0.425516 -0.343104 -0.068633 -0.021714 0.440970 -0.484234 0.335354 -0.217438 -0.245454 -0.386282 -0.111891 0.217265 -0.492206 -0.256830 -0.256824 0.358832 0.405481 0.398264 -0.499835 0.146826 0.272152 -0.005764 0.421805 0.307828 0.421571 0.413847 0.484375 -0.119468 -0.464784 0.272619 -0.096097 0.292114 0.327481 -0.265251 -0.005951 -0.123464 0.190385 -0.241192 -0.421622 -0.221319 -0.041265 -0.241274 -0.354979 0.401909 -0.347140 -0.182141 0.029342 -0.378406 0.072535 0.131307 -0.425247 0.350570 -0.029630 0.335222 0.463705 0.039787 -0.123910 0.470057 -0.291419 -0.134342 0.441805 -0.182317 -0.322801 -0.222476 0.098126 0.465242 0.435209 -0.460976 0.496101 0.268863 -0.236355 -0.296209 -0.238633 -0.494260 -0.005373 0.315535 -0.386463 0.403233 0.346735 0.346442 0.211816 -0.285830 0.433993 0.167640 0.491155 -0.228420 0.073412 -0.444234 -0.388903 0.089100 0.308360 0.178651 -0.241674 -0.403295 -0.009569 -0.186087 -0.058005 -0.224880 0.489296 0.037188 0.147413 0.124269 -0.488494 0.468808 -0.113279 0.460503 0.244598 -0.090837 -0.014477 0.123362 -0.178915 0.225616 0.256104 -0.157388 -0.335764 -0.334921 0.499224 -0.217141 -0.214583 0.451938 0.382571 -0.374318 0.209751 0.205156 -0.031844 -0.487818 -0.499283 -0.033342 -0.166756 0.307045 0.396822 -0.097187 0.488510 -0.319275 -0.398265 0.499705 -0.407933 -0.402317 0.203802 -0.465457 -0.205561 0.280289 -0.053648 0.463512 0.028230 -0.495496 -0.256263 -0.323718 0.017382 -0.174466 0.079237 -0.257720 0.436519 -0.480917 -0.484949 0.191011 -0.455881 0.352676 -0.373904 0.279958 0.068610 0.112351 -0.374824 0.303106 -0.104086 0.293123 0.491131 0.190391 -0.421568 0.152785 -0.064025 0.496234 0.338274 0.447865 -0.169723 0.051392 -0.241795 0.484727 -0.062768 0.456638 -0.236303 0.447563 0.247882 -0.114716 -0.177441 -0.032086 0.294798 -0.312735 -0.292059 -0.017945 -0.138078 -0.002035 -0.382175 0.087814 0.257312 0.485964 -0.059716 -0.139629 0.083667 0.170235 -0.124899 0.158030 0.412099 0.189790 -0.147331 0.228848 0.345871 -0.002030 0.272310 -0.265753 -0.002630 -0.339699 0.061494 -0.283395 -0.474885 0.052511 0.002544 -0.421776 -0.192761 -0.280009 0.430865 0.354464 0.069394 0.205786 0.303839 0.234991 -0.048584 0.037510 0.309325 -0.389409 0.334943 0.021134 -0.167547 -0.256884 -0.076542 -0.027813 0.268232 0.327307 0.425501 0.270030 0.100918 -0.418360 0.365588 0.166240 0.084722 0.197493 0.244911 -0.139898 0.322420 -0.352708 -0.348118 0.018222 -0.386445 -0.457836 -0.319317 0.292071 -0.055547 -0.005835 0.265169 0.375376 -0.164086 -0.225871 -0.420906 -0.471395 -0.139903 -0.272557 -0.007192 -0.021585 -0.432806 0.375195 0.371784 -0.354578 0.111305 -0.098963 0.170119 0.085157 0.402218 -0.248465 0.146967 0.078571 -0.248863 -0.031320 -0.256193 0.393940 -0.053315 -0.466001 0.240212 0.468789 -0.182864 -0.117076 0.084506 -0.197275 -0.225390 -0.472025 0.123960 -0.475287 -0.432070 -0.169290 -0.028845 0.190266 0.205231 0.500919 -0.432878 0.472863 -0.112162 0.221142 0.159609 0.172616 0.359346 0.181344 -0.320978 0.081507 -0.382656 -0.109857 0.194977 0.392611 0.250108 -0.186511 -0.409054 0.317184 -0.062260 0.186508 -0.380905 0.237461 0.018117 0.167464 -0.103173 -0.464390 0.300764 0.421044 0.379351 0.276055 -0.201767 0.434043 0.032833 -0.234144 0.417480 0.471075 0.403291 0.254522 -0.380442 -0.375507 -0.227171 0.435174 -0.440661 -0.148977 -0.388982 -0.472297 0.052433 -0.168148 -0.412940 -0.378250 0.405104 -0.314017 0.350192 -0.393552 0.035805 0.345168 0.228610 0.205740 0.313164 -0.020442 0.060349 0.182652 -0.311530 0.479899 -0.041902 -0.018765 0.322110 0.245210 0.322678 0.237814 -0.446549 -0.285061 0.031815 0.167896 0.171114 0.393338 0.040847 -0.472795 0.124455 0.187080 -0.162795 0.237548 -0.144514 0.133991 -0.411429 -0.011352 0.234104 -0.268050 0.245001 0.290666 0.150495 0.373071 0.288198 0.310667 -0.179983 -0.383452 0.114419 -0.382510 -0.419764 -0.426934 -0.074431 -0.053103 -0.228578 0.162673 0.009400 0.399255 -0.006149 -0.029905 0.053254 -0.032439 0.229141 -0.030489 -0.106424 0.110414 0.057398 0.123032 0.051756 -0.364222 -0.021609 0.452181 -0.277750 0.234480 0.484317 0.283696 -0.009665 0.461404 -0.463266 0.303861 -0.424244 -0.095700 0.466753 0.363175 0.091981 -0.017838 0.088335 -0.282533 -0.112822 0.371513 -0.374443 -0.241504 -0.248747 0.365215 0.471579 -0.234917 0.222077 -0.288414 -0.147834 0.169870 -0.345172 -0.486613 -0.150055 -0.480879 0.067730 0.401185 0.007557 -0.348032 -0.025824 -0.052512 0.280364 0.380897 -0.293328 0.394479 -0.250985 -0.376127 0.200976 0.137844 0.458973 0.203394 -0.217293 0.220576 -0.366006 -0.384617 -0.194167 0.310255 -0.236236 -0.469016 -0.016590 0.341567 -0.304915 -0.078731 0.146718 -0.212713 -0.172982 -0.231173 0.158239 -0.345289 -0.337240 -0.071322 0.262530 0.067280 -0.272675 -0.347319 0.362159 -0.003782 0.124308 0.352949 0.391223 -0.304587 -0.487495 -0.474733 0.464903 -0.401593 -0.235763 -0.433698 0.015993 -0.249910 -0.120142 -0.108128 -0.166194 -0.398050 -0.377809 0.358443 -0.235327 0.103103 -0.207509 -0.040526 -0.206895 -0.329729 0.476284 0.306643 0.188639 0.484338 0.468482 -0.153615 -0.347718 -0.221204 -0.262662 -0.424287 0.344954 0.336369 -0.084414 0.448482 -0.268060 0.394535 -0.463075 -0.167862 -0.315399 0.288976 -0.265384 0.439197 0.032138 0.006004 0.069848 -0.074224 0.182400 -0.281788 0.430701 -0.494001 -0.103641 -0.215558 -0.297353 -0.351646 -0.311829 0.323532 -0.207429 -0.027439 -0.237424 0.457952 0.370512 -0.467656 0.241333 0.102488 -0.161257 0.420502 -0.325509 -0.025702 0.101459 0.443220 0.397466 -0.136882 -0.051973 0.401625 -0.332298 -0.123687 -0.055231 -0.373278 -0.180709 0.036718 -0.452485 0.234412 -0.246877 -0.272003 -0.404861 0.302023 0.095814 -0.023363 0.385310 0.460385 0.304687 0.230561 0.247877 0.424464 -0.497938 -0.286885 0.412661 0.055703 -0.204864 -0.466638 0.016078 -0.184188 -0.078356 0.336473 0.404733 0.181562 0.306973 0.465879 -0.441855 0.406818 -0.168387 0.221971 0.493166 0.256258 -0.199391 -0.307335 0.153809 0.500265 -0.484179 0.338102 0.355826 -0.484139 -0.217037 0.329803 0.347452 -0.090498 0.366458 -0.003080 -0.330516 -0.426420 -0.314524 0.197450 -0.301659 -0.177169 0.091990 0.439418 -0.484858 -0.400339 -0.487045 -0.423374 0.295910 -0.398996 -0.010361 0.472425 -0.168330 0.177853 0.477112 0.252356 0.154083 -0.447234 0.022507 0.088227 0.162335 -0.212714 0.315341 0.158211 0.356129 -0.421456 -0.126982 -0.010117 -0.107388 0.226655 0.162869 0.118269 -0.410017 0.389107 -0.132385 -0.117784 -0.336758 0.274161 0.203201 -0.445793 0.394392 0.308473 -0.485824 0.342554 -0.057600 0.421319 0.208129 -0.389047 0.302635 -0.136203 0.349491 -0.026388 -0.451439 -0.215266 -0.200076 0.030928 0.029585 -0.396936 -0.413519 -0.418948 0.460281 0.021922 0.102856 -0.021883 -0.421552 0.283141 0.323794 0.377373 -0.188053 0.173814 0.257160 -0.335900 -0.252955 -0.255618 0.062503 -0.176660 -0.039579 -0.483140 -0.205757 0.269876 0.419314 0.185681 0.040616 -0.050547 0.372342 -0.052394 -0.465606 0.126273 0.372091 -0.343285 -0.413276 -0.214864 0.376181 -0.261336 0.295429 -0.105946 0.082633 -0.055010 0.278685 0.275124 -0.177426 -0.018884 0.065827 -0.471106 0.396822 -0.390371 0.494295 0.362344 -0.071307 -0.019792 -0.251238 -0.307693 -0.148779 -0.192285 -0.165111 0.433396 -0.203659 -0.078680 0.408323 -0.339300 -0.288424 0.242875 -0.358058 -0.099106 0.323883 -0.368927 -0.425639 0.396907 0.387799 -0.286936 0.484194 -0.427615 -0.141547 0.405316 -0.049457 -0.457193 0.069881 0.477778 -0.156375 0.436470 0.143363 0.070761 -0.311465 -0.219396 -0.445111 -0.444966 -0.285219 -0.092697 -0.371193 0.163316 -0.451754 0.125829 0.332604 -0.002092 -0.121152 0.451506 -0.487126 -0.052928 0.113931 0.219098 0.021735 0.388047 -0.444405 0.137610 -0.490515 0.427431 0.270907 0.060795 -0.240434 0.405258 -0.380167 0.049214 -0.081031 -0.361152 0.280136 0.350932 0.266703 0.481130 -0.184169 0.391976 -0.036072 -0.313794 -0.235570 0.436486 -0.035073 0.500755 -0.183012 0.159206 0.240370 -0.180071 -0.481148 0.466062 0.026765 -0.216191 -0.093231 0.257013 0.370513 -0.281355 0.369995 0.106277 -0.232317 0.354294 0.012222 -0.455661 -0.125457 0.218647 0.447206 0.391270 0.327101 0.171666 -0.462147 -0.120915 0.482456 0.371415 -0.400601 -0.171162 -0.000995 0.009939 0.305189 0.487897 -0.368502 -0.460607 0.397967 -0.280689 0.322946 -0.344497 0.001892 -0.136734 0.028502 -0.363871 -0.166528 -0.061888 0.001286 -0.336967 0.076572 -0.044654 0.491521 -0.365069 0.165785 -0.491439 0.081391 -0.005668 -0.463748 -0.483843 0.033375 -0.285946 0.056814 0.033078 -0.298517 -0.059273 -0.429861 0.439618 -0.269058 -0.102008 0.254092 0.371147 -0.071415 -0.433183 -0.355787 -0.055852 -0.182570 -0.432131 0.179777 0.267694 -0.507261 0.030329 0.351037 0.413328 0.287373 0.346213 -0.278893 -0.135718 -0.107044 -0.277914 0.062796 -0.203118 -0.404174 0.214954 -0.196190 -0.435722 0.237363 -0.028316 -0.426297 0.433550 0.314269 -0.334201 0.492912 0.039672 0.379515 -0.128856 0.252249 -0.079396 0.388943 -0.442768 0.390066 0.059801 -0.238284 -0.258947 0.166126 -0.257218 -0.326154 0.296637 -0.214975 0.029146 -0.443478 0.056774 0.357244 0.403621 -0.058860 -0.158512 -0.066379 -0.098032 0.120922 0.482710 0.433389 -0.424059 0.189966 0.276486 0.087939 -0.464359 0.374346 0.123995 0.143067 0.361717 0.157759 0.026575 -0.462187 0.062432 -0.341400 -0.125998 -0.334056 -0.111954 -0.228644 -0.154910 -0.265858 0.144580 -0.344114 0.208537 0.362845 -0.472216 0.211486 -0.257514 0.335931 0.474465 -0.409789 0.364407 0.148084 0.453294 0.299199 0.203898 -0.416542 0.280561 0.406979 0.316441 0.270526 0.497412 0.351233 0.487179 0.429429 -0.446464 0.492703 -0.482487 -0.100194 -0.054135 0.085208 -0.274382 -0.288870 0.105927 0.408758 -0.489992 0.465113 0.087886 -0.390883 0.218426 -0.124232 0.324014 -0.466358 -0.186919 0.389727 -0.330649 0.402907 -0.168091 0.443964 0.143968 -0.335548 -0.471040 0.246138 0.432707 0.054947 0.468733 0.287556 -0.226833 0.202909 -0.172082 -0.263088 0.161211 -0.098348 0.288140 -0.332586 -0.076261 0.024142 0.301141 0.203364 -0.492230 -0.265681 0.068166 -0.459843 0.474775 0.408856 0.124475 -0.092155 -0.370574 0.235856 -0.048606 0.073302 -0.193984 -0.102751 0.145218 0.412356 -0.398656 0.467062 0.422532 -0.478699 -0.355702 0.433022 0.025281 0.480142 0.189944 -0.067309 0.299181 -0.065384 -0.200958 0.338312 0.153277 0.161642 -0.249678 0.278392 -0.421523 0.498887 -0.248630 0.172422 0.408694 0.005195 0.186316 0.051034 0.009646 0.010451 -0.075577 0.365208 -0.409512 0.006273 0.366767 -0.033905 0.441018 -0.468128 -0.468076 0.140598 -0.364355 -0.131375 -0.134066 -0.435715 0.052819 -0.119297 0.057586 0.240035 -0.480169 0.189004 0.217137 0.216149 0.027927 0.316610 -0.466232 0.099383 0.327641 -0.032626 -0.283342 -0.149005 -0.151258 0.021478 -0.497006 0.006041 -0.482038 -0.332382 -0.340609 0.315691 -0.080335 -0.408796 0.480141 -0.122744 0.342007 -0.078294 0.033521 -0.197574 0.291567 -0.201452 -0.248860 0.097584 0.403387 0.410925 -0.223985 0.194266 -0.490433 0.166491 -0.449265 -0.369636 -0.257916 0.421157 0.174241 0.337774 -0.408038 -0.261367 0.185944 0.164161 0.129820 0.306522 -0.066056 0.076632 -0.173824 -0.381318 0.340756 -0.012594 -0.428351 0.338566 0.166485 0.317985 -0.020243 -0.150601 -0.351921 -0.027138 -0.465662 -0.397193 0.353700 -0.036680 0.306947 0.396873 -0.349062 -0.250694 0.082803 0.465858 0.065373 0.291086 0.189896 -0.244055 0.474590 0.106716 -0.437870 0.163048 -0.351894 -0.489802 0.061609 0.005191 -0.220078 0.420682 -0.092264 -0.370690 0.194818 0.016202 -0.445760 0.311421 0.044746 0.157801 0.305462 0.186543 -0.285891 -0.285910 -0.101953 -0.039976 -0.373635 -0.100558 0.085531 -0.219233 0.356675 -0.300648 -0.423599 -0.268687 -0.289983 0.348322 -0.284063 -0.170256 -0.437938 -0.135338 0.253486 0.310098 -0.398726 -0.400876 0.456626 0.383006 0.343308 -0.309758 -0.285295 -0.407451 0.294556 -0.032896 -0.125490 0.135824 -0.414412 -0.158610 0.446040 0.110642 -0.000270 -0.287282 0.080680 -0.500844 0.308734 0.063826 -0.242300 -0.063898 -0.106842 -0.383000 0.254641 0.235758 0.414408 0.392970 -0.311992 -0.335117 0.216796 -0.405587 0.126740 -0.151064 -0.174051 0.374110 -0.403164 -0.383827 0.457404 -0.009886 0.427295 -0.249268 0.284966 0.422052 0.063812 0.457404 0.249223 -0.340456 0.021106 -0.441318 0.174958 0.191495 -0.174917 -0.469362 0.255359 0.360429 -0.090504 0.199952 -0.461185 0.429264 0.226351 -0.060319 -0.062011 0.276513 -0.400737 -0.063853 -0.133081 0.047236 -0.022684 0.481124 -0.469191 0.376741 0.228723 0.210572 0.347383 0.393539 0.491672 0.196781 0.421915 -0.162045 0.392491 0.330952 -0.042510 0.477315 -0.187569 0.262901 -0.082730 0.376961 -0.141950 -0.122203 0.416237 -0.068536 -0.152951 0.135282 0.433667 0.294993 -0.475627 -0.173087 0.431069 0.447534 -0.226174 -0.426612 -0.179920 -0.057874 0.441135 0.483894 0.481967 0.189545 0.385675 0.104716 -0.458490 0.322675 0.115149 0.438242 0.123211 0.021267 -0.208438 -0.234132 -0.264579 -0.347373 0.464862 0.357541 0.222184 -0.098397 0.499501 -0.107183 0.487828 -0.140447 0.331892 -0.306124 0.488771 0.284173 0.425472 -0.031173 0.133759 0.350437 0.399088 -0.119556 0.409858 -0.393989 0.108163 0.225319 0.174017 0.319545 -0.197832 -0.127457 -0.037682 -0.044675 -0.324525 -0.284863 -0.084083 -0.423074 0.300314 -0.028488 0.421385 -0.338835 -0.154866 0.100816 -0.222008 -0.141644 0.175038 -0.366741 0.085292 0.338127 0.118614 -0.276737 -0.284721 0.170080 0.026534 -0.131287 0.212199 0.150860 0.468146 0.474947 -0.247414 0.252504 0.338981 0.393831 -0.272537 -0.067090 -0.033243 -0.072765 -0.079579 0.103867 0.037209 -0.252874 0.472492 0.233883 -0.485540 0.123520 0.288309 0.474971 -0.288383 0.421445 -0.413738 0.018210 -0.042247 0.481057 -0.413665 0.255874 0.218249 0.179560 0.240384 0.139138 0.218520 -0.330293 -0.350777 -0.079141 0.408851 0.097790 -0.233535 0.441139 0.088180 0.192981 0.303996 -0.242395 0.089593 -0.092061 0.452864 -0.190932 0.184725 0.303831 -0.162774 -0.186266 -0.472631 0.488358 0.308247 -0.428582 0.302395 -0.206407 0.209803 -0.178765 0.313034 0.134933 0.186413 -0.064723 -0.292088 -0.343178 0.245037 -0.135235 0.244962 0.053178 0.415358 0.460682 0.069177 0.359184 -0.212470 0.037410 0.370856 -0.265402 0.237325 -0.241134 -0.275365 0.052647 0.349908 -0.453336 -0.131055 -0.433428 0.375473 -0.125566 -0.209870 -0.365184 0.253874 0.215955 -0.126223 0.276458 0.358547 -0.331624 0.025693 0.458533 0.270443 -0.253047 0.185374 0.496601 -0.213727 -0.165939 -0.413554 -0.150972 0.088034 -0.463715 0.320880 -0.394007 0.460671 0.402698 0.473402 -0.118794 -0.151229 0.394323 -0.048822 0.273754 0.319753 -0.193416 -0.170642 -0.325644 -0.256175 0.353815 -0.194143 0.349031 -0.385852 -0.122728 -0.187258 -0.482458 0.121581 0.123478 -0.419152 -0.199675 0.390806 0.278808 -0.453044 0.241087 0.399802 0.091704 -0.253040 -0.280822 -0.053102 0.268377 -0.352813 -0.119510 0.318567 -0.254361 0.319430 0.359331 0.095894 0.409969 -0.288387 -0.351063 -0.401757 0.131456 0.496158 -0.391740 0.376793 -0.318667 0.288405 -0.354950 -0.084693 -0.327479 -0.008866 0.383593 -0.385068 -0.190357 0.292875 -0.249071 -0.083624 0.244383 0.414201 -0.335561 -0.041037 0.405880 0.464468 -0.425316 -0.076458 0.100113 -0.059169 0.013716 -0.248963 0.339819 0.100101 -0.100754 -0.241406 0.025266 0.389306 -0.041040 -0.362745 0.044691 -0.498795 -0.339024 -0.283932 -0.153303 -0.405741 -0.400024 0.025267 0.283206 0.311110 0.060099 0.225030 0.127061 0.388603 -0.085323 -0.437200 0.394814 0.150155 0.143960 0.477804 -0.329148 -0.200647 0.213952 -0.276814 0.063215 0.134513 0.423707 -0.226086 0.162403 -0.014208 -0.456084 -0.127030 -0.489101 0.476533 -0.021351 0.378798 0.073961 0.092351 0.325513 -0.021895 -0.385733 -0.403144 0.162043 -0.423681 -0.037458 -0.038769 -0.447535 -0.191324 0.100039 -0.078290 0.502569 0.239529 -0.053034 0.272988 -0.101984 0.488256 0.406875 0.420799 0.337903 -0.491767 -0.499222 -0.429086 -0.332125 -0.244060 0.317060 -0.467510 -0.492674 -0.062757 0.372322 -0.148475 0.378234 0.370728 0.203124 -0.021218 0.431896 -0.134984 0.048995 -0.265211 0.107801 -0.095522 0.474965 0.334662 0.095981 0.425140 0.047988 -0.068470 -0.026257 -0.364250 -0.073839 -0.077136 -0.378706 -0.071740 0.106932 -0.323481 -0.295571 0.325853 0.022249 0.403358 -0.402675 0.457173 -0.475957 0.299712 0.307953 -0.017361 -0.017744 -0.502673 0.012877 -0.132440 -0.063600 -0.196091 -0.071749 0.123247 -0.223222 -0.125156 0.238512 -0.115394 -0.151258 -0.105170 -0.469333 -0.318454 0.486459 0.199811 -0.376594 0.229468 0.273068 -0.346738 0.389703 -0.036775 -0.330988 0.334588 -0.154596 -0.043156 0.222254 0.467538 -0.189543 -0.044459 0.501408 -0.012793 0.107647 0.065399 -0.429457 0.474594 -0.119951 -0.457092 -0.040741 0.061021 -0.221578 0.054356 -0.124607 0.311871 -0.461499 0.117932 0.179411 -0.066155 -0.299291 0.422615 -0.033440 0.282518 0.449133 0.073907 0.131346 -0.178418 0.100033 0.127993 -0.482063 0.163010 -0.450548 -0.190191 -0.108377 0.427102 -0.468570 0.100206 -0.302267 -0.122012 0.104978 0.342105 0.302806 0.445786 -0.188208 -0.483914 -0.334619 -0.468421 0.404124 0.088048 -0.201189 0.382005 0.082048 0.434814 -0.224143 0.187055 -0.199660 0.293605 -0.182241 0.412794 0.030145 -0.238695 -0.141477 0.199559 0.330499 -0.366222 0.150512 -0.275537 -0.319732 0.040303 -0.256741 0.160906 -0.013114 -0.030159 0.452249 0.459810 -0.325842 -0.418273 0.187178 -0.425713 0.237980 -0.276254 -0.479013 -0.058136 0.405918 0.366966 0.049679 -0.276829 -0.102230 0.137581 0.429912 0.421801 0.154614 0.417988 -0.380364 -0.107505 0.415561 -0.039748 -0.114803 -0.299384 -0.111697 0.240490 0.213306 -0.412186 -0.056097 0.131576 -0.401837 -0.105082 -0.455527 0.421666 0.401822 0.049794 0.071907 -0.088093 0.397888 -0.343140 0.268416 -0.115658 -0.283730 0.088174 -0.427756 -0.425723 0.414161 -0.485276 0.274006 0.099968 0.160937 0.351323 -0.335390 0.229349 0.270774 0.482536 0.358256 0.359650 -0.143602 0.346384 -0.198431 0.222665 -0.369887 0.444450 -0.087715 0.163391 0.368037 -0.468308 0.481176 0.099741 -0.297147 0.095645 -0.329617 0.295384 -0.477024 0.367021 0.233013 0.497619 -0.096096 0.292635 -0.372715 -0.170929 -0.392488 -0.421126 0.355700 0.354895 0.434310 0.319238 -0.198688 0.061934 -0.167637 -0.433877 0.383767 0.413589 -0.382638 -0.354262 -0.240144 0.071101 -0.297338 -0.326702 0.423307 -0.382708 -0.447077 -0.030102 -0.209847 -0.123449 0.253759 0.241382 -0.494818 -0.102021 0.051423 -0.459545 -0.026350 -0.445793 -0.302191 0.235014 -0.482600 -0.185853 -0.384912 0.081868 -0.452371 0.426198 0.151039 0.119556 -0.408527 -0.061637 0.215438 -0.035060 -0.409134 -0.463625 -0.251765 -0.453025 -0.123904 -0.346140 -0.319894 -0.475352 -0.135888 -0.323162 -0.166644 0.291968 -0.216824 -0.401280 0.205407 -0.247551 0.424383 -0.124297 -0.018656 0.070153 -0.455838 0.002467 0.147006 -0.387309 -0.172167 -0.408151 -0.390482 -0.180408 -0.268358 -0.068369 -0.003735 -0.489634 -0.222905 -0.068134 0.486396 -0.444650 -0.057121 -0.464958 0.360628 0.408094 -0.055694 -0.429275 -0.162843 0.423700 0.366441 0.436215 -0.393073 0.180940 0.303942 -0.081833 -0.260555 0.102766 -0.243593 -0.066746 -0.375288 0.390509 -0.416883 0.306049 -0.199759 -0.413832 -0.404483 -0.138973 -0.479374 0.375842 -0.069366 0.084542 0.452704 -0.350145 -0.027920 0.474884 -0.338605 -0.144345 -0.415715 -0.109426 -0.433576 -0.308990 0.429145 0.062463 -0.272628 0.420719 0.344677 -0.337224 0.327074 0.273611 0.046892 -0.472450 0.058558 0.491679 -0.405984 -0.050678 -0.063605 0.408901 -0.193304 0.279819 0.394908 0.271683 0.292572 -0.292195 -0.184402 -0.230024 0.242840 -0.285101 0.088843 0.131387 -0.058706 -0.182918 0.351348 0.144192 0.054775 -0.488451 -0.229710 -0.307432 0.272327 -0.282548 -0.103038 0.418392 0.342486 0.066025 -0.400917 -0.027388 -0.103664 -0.199065 0.420745 -0.436342 -0.151850 0.319681 -0.488623 0.164091 -0.243786 0.312258 0.066018 -0.479128 0.166239 -0.079903 0.216910 -0.457930 -0.210204 -0.088642 -0.080196 -0.476728 -0.178275 0.125464 -0.163859 0.017488 -0.484717 -0.201907 0.163962 -0.339244 0.102162 -0.008031 -0.166249 -0.477692 -0.330670 -0.040285 0.213690 -0.409008 -0.401614 0.166924 -0.122532 -0.345111 -0.414067 -0.248409 -0.031625 0.044098 0.469153 -0.202882 0.040379 -0.426363 0.117087 0.355477 -0.283560 -0.497161 0.104920 0.276408 -0.158078 -0.333677 0.005670 -0.232873 0.319004 0.489358 0.139276 0.084314 0.041164 0.096149 0.378473 0.178426 0.401887 0.264706 -0.166510 -0.060790 0.017555 -0.029437 0.021556 0.139190 0.033349 0.080425 -0.492489 -0.347032 0.386271 -0.252935 0.233554 -0.409870 0.170583 -0.452876 0.170614 -0.460785 -0.064678 0.480460 -0.084300 0.472419 -0.178430 -0.445037 0.158953 -0.037151 -0.225466 0.202152 -0.452957 0.405722 -0.209697 -0.072574 -0.311724 -0.131377 -0.327454 0.327439 -0.009756 -0.096118 -0.335286 0.241191 0.351063 0.303777 -0.484342 0.021939 0.457210 0.021572 0.217656 -0.280535 0.060775 -0.437175 -0.256896 -0.119604 -0.272669 -0.468576 0.178410 -0.437234 0.033331 0.252939 0.319479 0.496040 -0.091995 0.088252 0.056852 -0.405922 0.100074 -0.115619 0.155038 0.154671 -0.425493 -0.103875 0.433343 0.343209 -0.272609 -0.237261 0.401758 0.170554 -0.194184 0.425624 0.303970 0.151107 0.060830 -0.370828 0.292198 -0.464640 -0.441079 -0.190097 0.037168 0.017364 0.249042 -0.131364 -0.072629 -0.374506 0.170562 -0.366657 -0.009959 0.303957 0.307850 -0.457050 -0.386243 0.350823 -0.460784 0.256871 -0.099958 -0.253076 0.492222 0.127463 -0.123512 0.147010 -0.496090 -0.394118 0.386294 -0.448830 -0.315705 -0.233335 -0.492149 0.135203 -0.041127 0.308078 -0.186280 0.190172 -0.433075 -0.390283 0.037254 -0.495976 -0.100202 -0.256875 0.111851 0.084328 -0.123469 0.256542 -0.013714 -0.068589 0.484299 -0.186323 0.484117 0.025553 0.111763 0.343027 0.468521 0.362779 0.252832 -0.295849 0.217731 -0.382166 -0.217635 0.210004 -0.433457 -0.488504 -0.445230 0.025365 0.060781 0.339279 -0.029393 -0.119598 -0.472681 0.260731 -0.150974 0.496010 -0.284316 0.155314 -0.488364 0.307695 -0.409904 -0.092132 -0.033275 0.060783 -0.280450 -0.064714 -0.107796 0.468530 -0.382326 -0.084326 0.401819 -0.452948 -0.213766 0.107843 0.198211 0.186311 0.296077 0.386228 0.339311 -0.413431 -0.119623 0.366681 0.119714 0.292061 -0.186339 0.308031 0.064716 -0.209341 -0.492186 -0.480331 0.225641 -0.162753 0.158814 -0.009779 0.052926 -0.405969 -0.182424 0.096079 -0.323485 -0.315492 -0.068501 0.335293 0.358777 -0.445304 -0.225496 -0.315692 0.468595 -0.460775 -0.182315 -0.084295 0.017491 0.198027 0.182352 0.288154 -0.350953 0.182560 -0.135293 0.170552 -0.229483 -0.162807 -0.009752 0.205882 -0.382355 0.480505 0.182565 0.292004 -0.398174 0.111755 -0.354902 0.253179 0.480513 -0.025400 -0.213679 -0.299986 0.088431 -0.166640 0.480577 -0.233331 0.390440 -0.076477 0.394137 -0.221541 -0.284314 0.327336 -0.186218 0.076516 0.213745 0.315686 -0.284301 -0.335261 -0.460787 -0.084314 -0.052941 0.323528 0.174479 -0.472567 0.343136 -0.401958 -0.143137 -0.123495 -0.374510 0.413725 0.445107 -0.405891 -0.076469 -0.127451 0.052956 0.374520 0.488237 -0.472546 -0.323529 -0.241175 -0.378429 -0.390215 0.225518 0.123529 0.119602 -0.358830 -0.021636 -0.013726 0.417651 -0.088249 -0.276459 -0.072544 -0.374502 -0.303922 0.150987 -0.445098 -0.072538 0.029410 0.107843 -0.103952 -0.433333 -0.362740 0.052953 -0.194118 0.347104 -0.056862 0.135293 -0.139224 0.460789 -0.417635 -0.217645 -0.480396 -0.139216 0.194118 0.468629 -0.056865 0.492157 -0.449033 0.319627 -0.072550 -0.099958 0.033353 -0.131367 -0.390239 0.139208 -0.394119 -0.382352 0.060789 0.303898 0.284316 0.100001 0.323525 -0.076504 -0.088209 -0.288232 -0.425489 -0.292154 0.072554 0.045093 -0.382355 -0.154829 0.300003 0.013689 -0.150970 -0.409806 -0.186275 0.323567 0.088230 -0.005850 -0.096078 -0.056861 -0.029412 -0.472522 -0.492158 -0.303914 0.190193 0.260789 0.150953 0.472569 0.045098 -0.186275 0.354950 -0.323529 0.303912 0.080392 0.468675 0.056865 0.174543 -0.147055 0.256909 -0.166650 -0.370588 0.068637 0.347021 -0.437255 -0.382352 -0.013724 -0.307843 -0.115699 -0.390196 -0.021580 0.139194 0.198032 0.025515 -0.476471 -0.166667 -0.413698 -0.056900 0.119583 -0.354900 0.143137 -0.147059 -0.425490 0.425482 -0.311762 -0.350976 0.201986 0.303909 0.194118 0.449024 -0.021571 -0.417649 0.158824 0.100000 0.398038 -0.068593 0.143162 -0.484309 0.025507 -0.225491 -0.268632 0.005891 -0.370588 0.103947 -0.405881 -0.327451 -0.009806 0.339209 0.292155 -0.241169 -0.072580 -0.421566 0.201970 0.296082 0.484307 -0.303914 -0.464754 0.147059 -0.358847 -0.229426 -0.260786 0.401974 -0.378438 0.417660 0.233335 -0.174511 -0.096058 0.311765 -0.049021 -0.178431 0.186272 -0.033263 0.421567 0.445088 -0.049039 0.468656 -0.182356 -0.303829 0.370588 -0.268625 0.300010 0.021503 -0.084263 0.386303 -0.452906 0.158825 0.441176 0.162742 0.366667 -0.445111 -0.237259 0.488238 0.425474 0.276470 -0.052942 -0.076473 -0.201977 -0.205884 -0.158826 0.299998 -0.233326 0.103910 0.429417 -0.378437 -0.378432 -0.421573 0.060784 0.472549 0.229407 0.307844 -0.131393 -0.370599 0.496080 -0.139216 0.017647 0.299949 0.464699 -0.221573 -0.209772 -0.045083 -0.096096 -0.394111 -0.237255 0.182352 -0.331383 0.409792 0.037249 -0.127466 -0.005874 0.174476 -0.009809 0.245105 -0.417653 -0.241180 -0.284320 -0.398027 -0.241176 -0.158803 -0.041171 0.076513 -0.225479 -0.480392 0.252947 -0.311749 0.417646 -0.221569 0.088235 -0.029413 0.174493 0.209796 0.135294 0.362747 -0.378431 -0.123513 0.366667 0.245098 0.496082 -0.049025 -0.401960 -0.343136 0.256870 0.425495 -0.488234 0.350982 0.386275 0.033333 0.107844 -0.064717 -0.374496 0.041176 0.052938 -0.154906 0.111731 -0.009805 -0.288233 -0.362753 0.201967 -0.225487 -0.374506 0.288235 -0.299997 -0.343136 -0.456858 -0.025491 0.100001 -0.429427 0.327451 -0.021565 0.284321 -0.331373 -0.464683 -0.013725 0.092157 -0.280396 0.354904 0.405888 0.178432 0.233331 0.103922 -0.362745 0.150980 -0.480393 0.158823 -0.280399 -0.147050 -0.476471 -0.441154 0.229421 -0.421566 -0.500021 -0.237258 -0.135295 -0.268626 -0.456862 0.174497 0.084315 0.323530 0.256861 0.245082 -0.068615 0.264707 0.103923 -0.013724 -0.154900 0.268625 -0.386277 0.103957 -0.123527 0.413707 -0.068622 0.366666 0.460784 0.292176 0.111763 -0.472533 0.005882 0.209805 0.190196 -0.492142 -0.217647 -0.209799 0.480391 0.221571 -0.233347 0.068637 -0.500000 -0.343137 0.115709 0.311765 0.362741 0.021569 -0.217623 0.115686 -0.194102 0.009806 -0.147036 0.092166 -0.331373 0.362750 -0.068645 0.041176 0.445099 0.221570 -0.378431 0.049015 0.382353 0.147053 0.037245 -0.496082 -0.307830 0.256863 -0.107843 0.366680 0.390178 0.452928 -0.013724 0.158824 -0.347059 -0.100000 0.225488 0.413727 0.017649 -0.456850 0.303915 -0.119608 0.060786 0.190194 0.150979 0.394118 -0.092157 0.009804 -0.272533 0.001974 -0.225488 0.315695 0.150980 -0.205884 0.354907 0.374510 0.347072 0.150980 0.174510 -0.260785 -0.429415 0.064705 0.335298 -0.358838 0.288236 0.452946 0.256865 0.449016 0.264710 0.119583 0.162745 -0.347070 0.350973 -0.135294 -0.296072 -0.468631 -0.476465 0.049020 -0.001962 0.033342 -0.300000 0.166666 0.013725 -0.409806 -0.350944 0.194117 -0.154907 -0.025498 0.064720 0.209802 0.331420 0.201961 -0.037254 0.225495 0.374477 -0.284288 0.229427 0.445114 0.421569 -0.135294 0.158823 -0.205882 -0.190202 0.339214 0.096080 0.378422 -0.296078 0.303922 -0.221570 0.147051 -0.347060 -0.072550 0.370588 0.150984 -0.241181 0.056865 0.315684 -0.300000 0.154900 -0.378431 -0.174510 -0.088237 -0.017646 -0.194128 -0.339220 -0.025490 -0.009804 -0.115686 -0.449045 0.429408 0.452939 -0.033316 0.460791 0.441166 -0.343134 -0.394118 0.115685 0.366662 0.143131 -0.009807 -0.064714 -0.017644 0.382334 0.272548 -0.366664 -0.249023 0.433331 0.123525 0.347065 0.409804 0.476481 -0.358821 0.284334 0.143137 0.331373 -0.484314 0.303922 0.390196 0.170588 -0.468627 0.158824 0.350980 -0.500000 -0.382353 0.500000 0.119608 0.056863 -0.060784 0.064706 0.398039 0.449020 -0.033333 -0.288235 -0.174510 0.068627 0.205882 0.135294 0.303922 0.496078 0.072549 -0.303922 0.166667 0.421569 -0.449020 -0.092157 -0.331373 0.037255 -0.092157 -0.452941 0.300000 -0.029412 0.335294 -0.456863 0.386275 -0.343137 -0.072549 0.029412 0.331373 -0.013725 0.013725 -0.319608 -0.429412 -0.092157 0.009804 0.433333 -0.343137 -0.488235 0.339216 0.433333 0.421569 -0.045098 -0.405882 0.500000 -0.280392 0.107843 -0.111765 -0.005882 0.166667 -0.084314 0.245098 -0.480392 -0.147059 -0.354902 -0.170588 0.327451 -0.480392 0.037255 -0.296078 -0.429412 0.445098 -0.472549 0.166667 -0.009804 -0.390196 -0.072549 0.260784 -0.084314 0.174510 0.398039 -0.143137 -0.205882 -0.241176 -0.174510 -0.331373 0.213725 0.033333 0.366667 0.284314 -0.194118 0.468627 -0.201961 -0.127451 -0.358824 0.264706 0.013725 -0.131373 0.049020 -0.249020 -0.021569 -0.088235 0.315686 0.268627 -0.292157 0.315686 0.249020 0.319608 -0.370588 0.249020 0.092157 -0.037255 -0.288235 0.456863 -0.484314 0.068627 -0.158824 0.045098 0.370588 -0.386275 -0.335294 0.021569 -0.417647 0.456863 -0.276471 0.194118 -0.217647 -0.225490 0.417647 0.347059 -0.080392 0.339216 -0.288235 -0.452941 -0.170588 -0.060784 -0.025490 -0.158824 -0.409804 0.492157 -0.284314 0.272549 0.064706 0.037255 0.001961 -0.307843 0.198039 0.162745 -0.370588 -0.225490 0.190196 -0.386275 -0.221569 0.452941 -0.449020 0.060784 -0.386275 0.154902 0.456863 -0.174510 0.268627 0.409804 0.288235 -0.205882 0.213725 0.464706 0.084314 0.374510 0.162745 0.366667 0.111765 -0.382353 -0.115686 -0.135294 -0.111765 -0.249020 -0.398039 0.307843 0.496078 -0.370588 0.331373 0.205882 0.123529 0.264706 -0.064706 -0.186275 -0.217647 0.347059 0.307843 0.237255 -0.147059 -0.205882 -0.225490 -0.354902 0.276471 -0.229412 0.268627 0.319608 -0.405882 0.311765 0.201961 -0.476471 0.166667 -0.056863 -0.001961 0.350980 -0.331373 0.319608 0.068627 0.017647 -0.245098 0.492157 0.378431 0.484314 -0.425490 0.378431 0.374510 -0.500000 -0.288235 -0.401961 -0.190196 0.327451 0.323529 -0.217647 0.378431 -0.488235 0.096078 -0.335294 0.049020 0.401961 -0.170588 0.088235 -0.452941 0.449020 -0.056863 -0.500000 0.205882 0.080392 -0.237255 0.158824 -0.256863 -0.484314 -0.347059 0.190196 0.209804 -0.131373 -0.464706 0.045098 0.080392 -0.252941 -0.421569 0.064706 -0.005882 -0.190196 0.449020 -0.441176 -0.347059 0.068627 0.166667 0.194118 -0.119608 0.445098 0.268627 -0.354902 -0.005882 0.311765 0.154902 -0.323529 -0.307843 0.068627 -0.194118 0.135294 -0.139216 0.496078 0.288235 -0.390196 -0.390196 0.245098 -0.421569 0.013725 0.327451 -0.033333 -0.488235 -0.017647 0.280392 -0.158824 0.064706 0.131373 0.221569 0.229412 -0.292157 0.500000 0.080392 0.178431 -0.390196 -0.409804 -0.060784 -0.449020 -0.115686 -0.064706 -0.115686 0.198039 0.205882 0.300000 0.374510 -0.260784 -0.323529 -0.276471 -0.398039 -0.229412 -0.468627 0.354902 -0.158824 0.088235 0.460784 -0.452941 -0.354902 -0.017647 0.174510 -0.327451 0.158824 -0.492157 0.237255 -0.315686 -0.249020 0.382353 0.386275 0.111765 0.370588 0.229412 0.107843 0.413725 -0.080392 -0.468627 -0.025490 -0.409804 0.429412 0.288235 -0.264706 0.468627 -0.268627 -0.182353 0.480392 -0.162745 0.366667 0.088235 -0.421569 0.017647 0.464706 0.213725 -0.131373 0.339216 -0.107843 -0.296078 -0.084314 -0.296078 -0.237255 0.460784 -0.221569 0.249020 -0.233333 0.060784 -0.209804 -0.398039 0.013725 -0.409804 0.252941 0.096078 0.084314 0.366667 0.452941 -0.417647 -0.468627 0.300000 -0.213725 -0.221569 -0.347059 -0.096078 -0.370588 0.307843 0.401961 0.017647 0.292157 0.013725 -0.429412 0.409804 0.472549 0.409804 0.139216 0.049020 0.323529 0.484314 -0.029412 -0.421569 0.252941 0.445098 0.084314 0.245098 -0.119608 0.245098 -0.488235 0.358824 -0.060784 0.445098 0.190196 0.484314 0.217647 -0.311765 -0.217647 0.382353 -0.300000 -0.037255 0.150980 -0.492157 0.217647 -0.072549 0.292157 0.252941 0.366667 -0.017647 -0.162745 0.017647 -0.398039 -0.186275 -0.347059 -0.060784 -0.405882 0.405882 -0.041176 0.198039 0.296078 0.496078 -0.064706 0.449020 -0.319608 -0.092157 0.170588 -0.327451 0.500000 0.327451 -0.139216 0.084314 0.315686 0.268627 0.201961 -0.445098 0.484314 0.292157 0.084314 0.417647 0.068627 -0.115686 0.103922 -0.347059 -0.178431 0.080392 -0.476471 0.049020 -0.398039 -0.350980 0.154902 0.401961 0.264706 0.417647 -0.276471 -0.264706 0.209804 -0.492157 0.158824 0.049020 -0.331373 0.264706 0.237255 0.433333 0.374510 -0.413725 0.433333 -0.178431 -0.347059 0.131373 -0.209804 0.182353 -0.205882 0.017647 -0.229412 0.182353 0.354902 -0.072549 0.417647 -0.017647 0.350980 -0.276471 -0.343137 0.245098 -0.276471 0.386275 -0.041176 -0.456863 0.280392 -0.084314 -0.409804 0.488235 0.374510 -0.292157 -0.445098 -0.472549 -0.080392 -0.429412 -0.033333 0.029412 0.005882 0.468627 -0.041176 0.256863 -0.307843 0.335294 -0.272549 -0.017647 0.194118 0.170588 0.060784 0.386275 0.303922 0.056863 -0.190196 0.484314 -0.237255 -0.005882 -0.221569 -0.041176 0.456863 0.394118 0.005882 -0.366667 0.060784 0.480392 -0.068627 0.005882 0.405882 -0.017647 -0.394118 0.476471 -0.233333 -0.190196 0.096078 -0.025490 -0.398039 0.382353 0.347059 -0.311765 0.182353 0.350980 -0.147059 0.429412 0.284314 -0.409804 -0.237255 -0.378431 -0.480392 0.052941 -0.084314 -0.076471 -0.064706 -0.115686 -0.158824 0.139216 0.209804 -0.260784 0.127451 -0.060784 -0.064706 -0.170588 -0.296078 0.166667 -0.049020 -0.288235 -0.041176 -0.029412 -0.335294 -0.307843 0.225490 0.452941 -0.252941 -0.378431 0.060784 -0.350980 0.060784 0.347059 0.303922 -0.084314 -0.405882 0.005882 0.241176 -0.174510 -0.421569 0.017647 0.103922 0.201961 -0.115686 -0.496078 -0.343137 -0.186275 -0.221569 0.096078 -0.409804 0.201961 0.052941 0.382353 0.154902 0.186275 0.127451 -0.272549 -0.452941 0.378431 -0.131373 -0.315686 0.280392 -0.025490 0.021569 0.100000 0.084314 -0.268627 0.115686 0.307843 0.260784 -0.092157 -0.456863 0.429412 -0.107843 0.264706 0.417647 -0.421569 -0.029412 0.413725 -0.323529 -0.394118 -0.119608 -0.123529 -0.272549 0.029412 -0.217647 0.201961 0.041176 0.158824 0.354902 -0.190196 -0.323529 -0.052941 -0.096078 -0.315686 -0.174510 -0.327451 -0.374510 0.472549 -0.127451 -0.005882 -0.311765 -0.437255 -0.100000 0.323529 0.386275 -0.076471 0.366667 -0.084314 -0.135294 0.480392 0.425490 0.452941 0.237255 0.041176 0.013725 0.323529 -0.205882 -0.327451 -0.229412 0.001961 0.198039 0.229412 0.452941 0.237255 -0.343137 -0.358824 -0.417647 -0.056863 0.178431 -0.307843 0.233333 -0.339216 0.347059 -0.111765 -0.158824 0.174510 0.433333 -0.005882 0.009804 -0.221569 0.425490 0.147059 -0.178431 0.343137 -0.052941 0.245098 -0.076471 0.252941 0.456863 -0.256863 -0.209804 -0.049020 -0.005882 0.366667 -0.500000 0.256863 -0.025490 -0.064706 0.025490 0.358824 -0.335294 0.292157 0.162745 -0.233333 0.001961 0.229412 -0.327451 -0.127451 0.492157 -0.103922 -0.480392 0.174510 0.441176 -0.001961 -0.370588 -0.472549 -0.107843 -0.170588 -0.154902 -0.370588 0.229412 0.072549 0.315686 0.335294 0.292157 -0.217647 0.272549 0.221569 0.468627 -0.496078 0.013725 -0.237255 0.249020 -0.049020 0.111765 -0.080392 -0.374510 -0.005882 0.284314 -0.256863 0.413725 0.268627 0.292157 -0.464706 0.268627 0.092157 -0.001961 0.319608 0.319608 -0.182353 -0.072549 0.398039 -0.182353 -0.339216 -0.484314 -0.076471 -0.409804 -0.198039 -0.370588 -0.343137 0.284314 0.072549 -0.072549 0.303922 0.260784 0.009804 0.460784 -0.213725 0.092157 0.437255 -0.409804 0.429412 -0.143137 0.100000 0.339216 -0.170588 0.143137 -0.335294 -0.252941 0.096078 0.205882 0.135294 -0.045098 0.394118 -0.292157 0.213725 0.378431 -0.123529 -0.072549 -0.119608 -0.178431 -0.029412 -0.056863 0.476471 0.131373 -0.390196 -0.452941 0.276471 0.264706 0.425490 0.245098 0.205882 -0.201961 0.296078 0.088235 -0.190196 -0.445098 0.252941 -0.245098 -0.076471 -0.131373 0.201961 0.209804 -0.417647 0.452941 0.103922 -0.119608 -0.335294 0.068627 0.084314 0.064706 0.327451 0.119608 0.500000 -0.378431 -0.366667 0.358824 -0.166667 -0.441176 -0.060784 -0.139216 -0.401961 0.323529 -0.366667 -0.311765 -0.037255 -0.323529 0.182353 -0.460784 -0.001961 0.480392 0.311765 0.437255 -0.182353 0.158824 -0.276471 -0.237255 0.398039 0.449020 0.013725 -0.154902 -0.300000 0.300000 0.488235 -0.029412 0.135294 0.190196 -0.429412 -0.119608 0.464706 0.174510 0.280392 0.217647 -0.405882 0.209804 -0.245098 -0.233333 -0.256863 0.001961 0.217647 0.162745 0.480392 -0.009804 -0.201961 0.009804 0.029412 -0.123529 -0.441176 -0.213725 -0.264706 -0.492157 0.221569 -0.060784 0.209804 -0.025490 -0.358824 0.064706 0.288235 0.123529 0.135294 0.096078 0.139216 0.366667 0.029412 -0.339216 0.452941 -0.421569 0.272549 -0.056863 -0.225490 -0.001961 -0.072549 -0.123529 -0.445098 -0.072549 0.225490 -0.213725 -0.347059 0.476471 -0.464706 0.311765 0.276471 -0.107843 -0.492157 0.068627 0.496078 -0.472549 0.217647 0.492157 0.198039 0.154902 0.217647 0.115686 -0.272549 -0.068627 -0.041176 0.300000 0.103922 -0.405882 0.209804 0.147059 0.260784 0.437255 -0.382353 0.347059 -0.064706 0.217647 -0.425490 -0.468627 0.296078 -0.150980 0.103922 -0.049020 0.323529 -0.029412 0.241176 0.045098 0.084314 -0.452941 -0.209804 0.049020 0.484314 -0.045098 -0.135294 -0.472549 0.252941 0.005882 0.131373 -0.452941 -0.500000 -0.288235 0.327451 0.029412 0.213725 0.186275 0.425490 -0.119608 0.213725 0.158824 0.350980 -0.252941 -0.284314 -0.449020 0.362745 -0.147059 0.001961 0.139216 -0.339216 -0.288235 0.319608 0.413725 -0.394118 0.029412 -0.017647 -0.296078 0.041176 0.413725 0.456863 -0.170588 0.280392 0.017647 0.327451 -0.249020 -0.256863 0.370588 0.488235 -0.303922 0.241176 0.017647 0.413725 -0.433333 0.068627 0.072549 0.150991 -0.499998 0.449007 -0.013732 -0.441196 -0.484323 -0.194125 -0.201962 0.245080 -0.249016 -0.221569 -0.347042 -0.158831 -0.100002 0.307829 -0.225497 0.339218 0.256862 0.111784 0.111771 0.166662 -0.154885 0.150986 -0.205899 -0.409806 0.350963 0.492140 0.343141 -0.229418 0.249041 -0.488234 0.496082 0.080392 0.162758 0.394114 0.315689 0.307855 -0.488232 -0.064724 0.382358 0.088260 0.029413 -0.311766 0.001978 -0.264702 0.245097 0.268623 0.248999 0.143130 0.021571 0.350980 -0.001975 0.119597 0.056860 -0.080399 -0.315692 -0.178432 0.158823 -0.021571 -0.315683 -0.449030 0.456853 0.343147 -0.194115 -0.241161 -0.260783 0.256882 0.068627 0.460778 -0.386247 0.174520 0.135289 0.299991 0.209808 0.370589 0.045106 0.123528 0.488234 -0.001977 -0.233321 -0.421576 0.060777 0.205894 -0.237242 -0.127450 0.343129 -0.421585 0.029409 -0.315690 -0.409818 -0.441176 -0.021571 0.060786 -0.037272 0.107828 0.276475 0.390193 -0.339216 -0.096079 0.350968 0.347057 -0.009807 0.135295 0.405869 0.280395 0.194120 -0.456853 0.268633 -0.264705 0.021561 0.366680 0.088242 -0.476493 -0.111767 -0.429393 0.300005 0.107843 0.300000 -0.111762 -0.221581 0.449024 0.135287 0.237244 -0.480390 -0.198039 0.107816 -0.041192 0.405886 -0.417641 0.284318 -0.307848 -0.049021 0.209816 -0.319581 0.452998 0.366676 0.135291 -0.037253 0.217648 0.256860 0.413744 0.233335 -0.260786 0.049007 -0.292152 0.280401 -0.441165 -0.362744 -0.052940 0.496064 -0.460799 -0.441202 -0.088240 -0.096076 0.405888 -0.198040 0.433350 -0.378433 0.143147 0.029400 -0.076470 -0.225494 -0.233320 0.256877 0.268632 0.127449 -0.080396 0.241179 -0.339207 -0.119627 0.335315 -0.347080 -0.401965 0.241173 0.386281 0.150985 -0.499997 0.303923 -0.052955 -0.080390 0.315691 0.394139 0.060784 0.378427 0.417644 -0.005887 0.135299 0.076452 -0.327451 0.064690 0.186277 0.201950 0.135284 -0.315693 0.088227 0.127450 -0.433343 0.131351 0.135309 0.021571 -0.009827 0.480391 -0.264707 -0.437253 -0.237247 -0.201955 -0.068612 -0.088222 -0.339218 0.456879 -0.264703 -0.092164 -0.405879 -0.386267 0.237245 0.139204 0.068626 -0.076474 0.052936 -0.096077 0.417643 0.225502 0.080394 0.154900 0.084321 0.303922 0.005886 0.249016 0.123533 0.484319 -0.033339 0.182356 -0.103909 0.103921 -0.045104 0.464715 -0.445092 0.394119 -0.429421 -0.123544 -0.229415 0.268624 0.154904 0.323539 0.409779 -0.233328 -0.209810 0.198047 0.272552 -0.217644 -0.009808 0.037264 -0.347067 0.425482 -0.276475 -0.190183 -0.346721 -0.198670 -0.292528 0.456954 -0.362402 0.036731 0.295622 -0.017987 0.205498 0.378404 0.103862 -0.378434 0.138773 0.092478 0.088312 0.225544 0.116130 -0.382186 0.155289 0.437652 0.252033 -0.079927 -0.245086 0.370278 -0.381992 0.009525 0.370501 0.350764 0.487800 -0.095391 -0.245236 -0.052863 0.377674 -0.452636 0.452785 0.409520 -0.429087 -0.468401 0.201771 -0.009761 0.288197 -0.409665 -0.150818 -0.393743 -0.127121 0.445221 -0.170916 -0.421857 0.484160 0.248792 0.009951 -0.225528 -0.372069 -0.073508 -0.001665 0.186174 0.354688 0.268419 -0.441435 0.049169 -0.234039 0.362490 0.158527 -0.021536 0.057642 0.339175 -0.095441 -0.252885 0.115435 -0.319221 0.256994 -0.057131 0.331126 -0.009266 0.158503 0.382182 0.088105 -0.029333 0.393225 0.076716 0.287645 0.421570 -0.370649 0.288595 -0.009792 0.169806 0.452742 -0.025572 -0.182355 0.409700 -0.378603 -0.115532 0.127379 0.312492 0.044882 0.155108 0.197903 0.041190 -0.131031 0.339222 0.299864 0.154894 -0.500382 -0.198227 0.265181 -0.127706 0.288084 -0.025060 -0.025448 0.225566 -0.229034 -0.472591 -0.304112 0.291759 0.370911 0.221643 -0.433246 0.009712 0.472299 0.222126 -0.386561 -0.147191 -0.237547 -0.479968 0.252838 -0.303889 -0.288313 -0.480254 -0.194757 0.433426 0.060612 -0.076546 -0.217682 -0.138816 -0.260300 0.068648 -0.147244 -0.161922 -0.159056 0.354994 0.167408 0.182256 -0.437278 0.495516 0.319710 -0.095753 -0.268671 0.021592 -0.307894 -0.339365 -0.488754 0.367104 0.060855 0.143451 -0.139063 0.260952 0.394324 -0.162785 -0.091881 -0.091842 0.303941 0.139048 -0.252324 -0.319408 0.123492 0.394265 -0.158524 0.190229 -0.347186 -0.370996 0.088517 -0.425856 0.256689 -0.292241 -0.205476 -0.433568 0.260776 0.084420 0.177923 0.292096 0.240929 -0.080114 -0.272759 -0.182564 0.350583 -0.351037 0.472529 0.330937 -0.021675 -0.006214 0.491562 -0.311849 0.279936 0.445153 -0.280638 0.445133 -0.381896 -0.057419 0.304270 0.178291 -0.276687 -0.045651 -0.351372 0.355641 -0.476002 0.178855 0.481020 -0.307206 -0.013919 0.002016 0.354956 0.241061 0.355224 -0.056092 0.225154 0.402007 0.119788 -0.280449 0.025372 -0.115503 0.060652 0.213786 -0.339282 0.461053 -0.018019 -0.056910 -0.292297 0.107425 0.441485 0.315579 -0.331525 0.112047 0.303909 -0.264638 0.335327 0.429530 0.056789 -0.425655 0.119459 0.193538 -0.303256 0.127494 -0.072270 -0.378207 0.358833 -0.335638 -0.351290 -0.193954 -0.040957 0.425373 -0.229340 -0.311437 0.237102 0.425767 -0.405624 -0.154745 0.271190 -0.407899 0.224120 -0.172147 -0.245185 -0.017162 0.445786 0.376175 -0.236937 0.206353 0.425707 0.390314 -0.065890 -0.300582 0.152947 0.449636 -0.334903 0.033700 -0.214695 0.338675 -0.010599 0.349481 -0.276391 -0.302889 0.051636 -0.215265 0.043575 0.340790 0.307297 -0.263494 0.165901 0.196227 0.039145 0.443478 -0.267526 -0.428229 0.405154 -0.403216 0.295443 -0.048185 0.259775 0.065320 0.312626 -0.400207 0.107099 -0.375596 0.375382 -0.101457 -0.064893 -0.236582 -0.244195 0.047320 0.368164 0.048952 0.302156 -0.373865 -0.393769 0.114419 0.348656 -0.147259 -0.189843 0.263923 -0.213942 -0.309266 0.087959 -0.027349 -0.096033 0.297654 -0.123561 -0.048787 0.197501 -0.063954 0.033647 -0.164131 -0.277252 -0.310974 -0.461190 0.443929 0.051764 0.102304 -0.104010 -0.355196 -0.132148 -0.008798 0.070370 0.429071 0.101047 0.405233 -0.466128 -0.172267 -0.495292 -0.393589 -0.098963 0.433247 0.263995 -0.083246 -0.377165 0.418076 -0.475903 0.267534 -0.003100 -0.483109 0.195898 -0.122145 0.459840 0.241962 0.054909 -0.186337 -0.488879 -0.153424 0.141008 -0.391387 -0.138117 -0.226602 0.410544 -0.158504 -0.100719 0.032179 -0.115099 0.267927 0.451979 -0.297607 0.078520 0.259473 -0.037499 0.168356 0.324260 -0.334533 -0.380663 -0.228657 -0.258620 0.432060 -0.021882 -0.386050 0.197068 -0.173820 -0.114642 0.426757 -0.115343 -0.119521 -0.484637 -0.306969 -0.057963 -0.349021 -0.150105 -0.058828 0.227532 0.394294 -0.433541 0.097728 -0.057781 -0.061679 -0.146431 -0.149129 0.171312 0.006150 -0.231170 -0.283672 0.434468 0.038643 0.126035 0.378116 -0.198854 -0.271615 0.314355 0.218370 0.067475 -0.015283 0.451405 -0.149687 0.334424 -0.424951 0.014642 0.074019 0.125874 0.147990 -0.468093 0.291651 0.381481 0.311622 0.128102 0.110611 0.463883 0.069880 -0.457609 -0.374498 0.195134 -0.425504 0.470753 0.192818 0.118838 -0.270622 -0.107169 0.408818 0.267682 -0.269889 -0.474845 0.491450 0.198100 0.329170 0.442454 0.347771 -0.362163 0.137726 -0.436800 -0.345242 0.410589 -0.421138 0.340488 0.474961 0.125463 0.389786 0.132141 0.427347 0.419889 -0.036106 -0.201734 0.356246 -0.381560 0.482994 0.492101 -0.050670 0.185685 -0.365057 0.145558 0.083086 -0.355923 -0.278456 -0.059272 0.164516 -0.299542 -0.257407 0.473518 -0.303891 0.288667 0.349567 -0.372955 -0.286139 0.375787 0.198042 -0.266914 0.214149 -0.253703 0.112805 -0.336066 0.243807 0.269626 0.207412 0.266654 -0.277480 -0.365198 -0.116228 -0.017909 0.285393 0.262914 0.498911 0.357508 0.314803 0.447806 -0.486204 -0.082416 0.431946 0.314127 0.269048 0.178800 0.245408 0.454327 0.029387 0.456546 0.457515 0.150890 0.241886 0.371101 0.004234 0.264210 -0.055183 0.267754 0.424392 -0.061588 0.065282 0.000435 -0.102995 0.330789 0.154941 -0.073326 0.081575 -0.070471 0.276519 0.370815 0.256796 -0.186080 0.228476 0.174087 -0.207430 0.091425 -0.285599 0.157443 -0.368824 0.025693 -0.290468 0.413514 0.044865 -0.406965 0.018315 -0.422505 -0.400223 -0.080729 0.103065 0.317708 0.434503 -0.202477 -0.151805 -0.220172 0.085998 -0.453161 0.132030 -0.434764 -0.315744 -0.394270 -0.412664 0.216371 0.389353 0.375241 0.281718 0.274710 -0.494633 0.334608 0.293712 0.269718 -0.361220 -0.391537 -0.029175 0.287143 -0.081127 -0.476062 0.011568 -0.090933 0.076077 -0.203972 0.381576 0.302345 0.130374 -0.125048 -0.342333 0.020218 0.192532 0.406475 0.466057 -0.104698 -0.385451 0.134434 0.336630 -0.285675 0.028132 0.118827 -0.283668 0.054236 -0.108064 0.159825 0.071130 -0.419769 0.300153 -0.498505 0.435507 -0.367337 0.270434 -0.425755 0.474261 -0.490916 0.298351 0.267297 -0.297837 -0.461737 0.451048 0.174201 -0.431732 -0.450511 0.056704 -0.292992 -0.192638 0.017107 0.007827 0.235752 0.396280 -0.204853 0.169261 0.419740 0.253412 -0.253821 0.202283 -0.157859 -0.160665 0.032312 -0.415944 -0.414149 -0.044909 0.076146 0.433728 -0.120141 0.144219 -0.202360 0.312195 0.217288 -0.247755 -0.431273 0.320141 0.223442 -0.122267 0.150853 0.127611 0.184940 0.354208 -0.274726 0.488119 -0.218920 -0.116986 0.250971 -0.250264 -0.014166 0.081248 -0.173564 0.109811 -0.282189 0.265513 -0.448621 -0.424620 -0.056255 -0.335509 -0.326223 0.075561 0.490627 0.130859 -0.247848 0.030436 0.444118 0.122322 -0.451394 0.183750 -0.153102 -0.100413 -0.095445 0.462677 0.313243 0.344248 -0.069513 -0.067341 0.316802 0.096207 -0.120369 -0.338408 -0.140187 0.109462 -0.497638 0.483012 0.026909 0.328719 0.485880 0.199794 0.173320 -0.061217 0.332135 0.049116 -0.261507 0.227821 -0.340276 0.048980 -0.309356 -0.388054 0.449862 -0.440903 -0.204232 0.336246 0.428312 0.083013 -0.499154 -0.006143 0.408097 -0.400843 0.305870 -0.112030 -0.374102 0.289471 0.335269 0.399217 -0.331703 0.101978 -0.102779 0.159528 0.373043 0.303695 0.186098 -0.071813 -0.466324 0.141317 -0.240230 0.039831 0.276975 -0.256321 0.497829 0.253051 0.379102 0.159940 0.288266 0.071824 0.451784 0.371164 0.065909 -0.460863 -0.454097 -0.194272 0.171581 -0.002617 -0.163790 0.137931 0.225134 0.139222 -0.183716 0.110640 -0.096391 -0.267153 -0.496335 -0.370154 0.124792 -0.053310 0.310347 -0.362901 -0.142100 -0.032717 -0.335658 0.243603 0.461684 -0.285363 -0.089047 0.206907 -0.194183 0.383748 -0.443592 -0.366120 -0.135153 0.321222 0.432216 0.009685 -0.383426 0.505883 -0.357013 -0.326936 -0.201898 0.414264 -0.258405 -0.487742 -0.447913 0.220989 -0.175931 -0.398219 0.248864 0.178329 -0.165108 -0.096689 0.076870 0.281555 0.444381 0.477588 0.266457 0.166594 -0.315734 -0.014633 0.046344 -0.189213 -0.180518 -0.219057 0.418539 0.109927 -0.189971 0.475222 -0.213724 -0.463594 -0.110657 0.071442 -0.350526 0.168164 0.209410 -0.430287 -0.291512 -0.305429 -0.066722 0.231714 -0.079426 0.096512 -0.061079 -0.435118 0.190510 0.409809 -0.212056 0.421632 -0.238035 -0.462167 -0.013597 -0.482503 -0.240015 0.103122 0.291998 -0.402416 0.108932 0.069929 0.043024 0.170534 -0.134868 0.087821 0.356445 -0.434689 0.374823 -0.389414 0.375621 0.486995 -0.478643 -0.379458 -0.053339 -0.123158 -0.285850 -0.348231 0.119908 -0.237663 -0.097594 -0.020908 -0.371593 -0.383937 -0.394445 0.016840 -0.062728 -0.190124 -0.350342 -0.369593 0.001834 0.257508 -0.306800 -0.291279 -0.161148 -0.504428 -0.243889 -0.325354 0.260897 0.350482 0.001142 -0.408908 0.409424 -0.067901 -0.395437 0.357857 -0.103642 -0.069176 -0.201364 0.007698 0.439018 0.164885 0.356595 -0.326261 0.343521 0.072792 0.467043 0.223445 0.342735 -0.170160 0.331848 0.209123 0.507377 0.214292 -0.084945 -0.011180 -0.414609 -0.153636 0.479506 -0.001177 -0.159551 -0.456183 0.076299 0.049701 0.304400 -0.193579 0.444188 0.426005 0.245691 -0.096299 -0.025047 0.313166 0.126994 0.011114 -0.384821 0.208167 -0.001343 0.013409 -0.317320 0.291684 0.063325 -0.042170 0.273124 -0.483085 -0.471951 -0.174085 -0.401019 0.051221 -0.226312 -0.482137 0.354066 -0.237709 0.441500 0.057050 -0.434461 0.385266 0.035644 0.348157 -0.349792 0.035821 0.244309 0.466993 -0.198903 0.413674 0.449149 0.421401 0.266543 -0.084609 0.350908 0.475029 -0.168935 -0.361221 0.356251 0.346377 -0.416495 0.320586 -0.237745 -0.257300 -0.451449 -0.139490 -0.448499 -0.361936 -0.178554 0.321982 -0.144067 -0.342999 0.115639 0.152573 -0.189453 -0.309449 0.232594 -0.222349 -0.131262 -0.428938 -0.395695 -0.460604 -0.201805 -0.083675 0.363074 0.139425 -0.260293 0.424522 -0.219253 0.228536 -0.261816 -0.485891 0.054167 -0.018560 -0.230963 0.284008 0.421753 -0.139711 0.362955 0.004625 -0.058097 0.231526 -0.437280 0.361444 -0.374274 0.250407 0.330240 -0.227270 -0.085294 -0.317955 -0.208802 0.115855 0.153101 0.505390 -0.128586 -0.094718 -0.300494 -0.300450 0.275147 -0.033581 -0.369210 -0.352135 0.110837 0.235725 -0.207470 -0.106170 0.470506 -0.304900 0.237547 -0.408288 -0.308620 0.375221 0.328585 0.186124 0.460654 -0.365272 -0.053531 0.500809 -0.473490 -0.231325 -0.070845 0.036410 0.109493 -0.041826 0.379067 0.062922 0.197275 -0.057339 -0.412381 0.136344 -0.233961 -0.403536 0.392042 0.099269 -0.431535 0.111743 0.340434 -0.247260 0.044567 -0.208305 -0.332807 0.208028 -0.296255 -0.267246 0.022354 0.316509 -0.328290 -0.184415 0.247261 0.056028 -0.025690 -0.073816 0.456291 0.400858 -0.006727 0.368569 0.088510 0.107787 0.070250 0.428036 -0.410598 0.066679 0.056414 -0.072476 -0.302087 -0.463302 -0.275276 -0.367842 -0.084573 0.299603 -0.059517 0.115571 0.054764 -0.422148 -0.266819 -0.010224 -0.179884 -0.439794 0.413412 -0.083043 0.406534 0.056125 0.280385 0.481559 -0.255188 -0.229215 0.158869 -0.478528 0.167943 0.313471 0.304988 -0.101568 -0.413714 0.123034 -0.324264 -0.184852 0.072852 0.068974 -0.081341 0.233524 0.320235 0.008423 0.083021 -0.348250 -0.115701 -0.355851 -0.280626 0.212065 -0.388330 -0.366395 -0.318603 -0.247645 0.095611 0.328479 -0.500398 -0.069091 -0.176976 0.289444 -0.021455 0.241880 0.244526 -0.026684 -0.206392 -0.002652 0.081337 -0.448609 0.436033 -0.112198 -0.203461 0.180216 -0.130709 -0.475703 -0.082318 0.452872 0.079519 0.129063 0.032310 0.255021 0.031075 0.112337 -0.413991 -0.126392 -0.351929 0.070904 0.291307 0.441041 0.421315 0.121317 0.051168 0.069321 -0.366607 0.121258 -0.150724 -0.337585 -0.259174 -0.291131 -0.243515 0.120414 0.074516 0.456741 0.401635 -0.475764 0.001529 -0.175395 0.298602 -0.508297 -0.313913 -0.214129 0.334096 -0.435264 0.026575 0.092395 0.098121 0.117499 -0.324452 0.293512 -0.407669 0.310198 -0.423969 -0.309530 -0.332170 -0.397146 0.455938 -0.018776 0.426713 0.094734 0.425247 -0.043681 -0.054707 0.478618 0.420503 -0.223372 -0.261946 -0.076258 0.168441 0.327257 -0.260883 0.418941 0.059090 -0.304297 -0.109615 0.460707 0.080665 0.030355 -0.020598 -0.073185 0.060326 0.094972 -0.166329 -0.490097 0.387826 0.060045 -0.204270 -0.485618 -0.035887 -0.035509 0.073320 -0.093370 -0.022479 0.413694 0.516048 -0.136023 -0.327775 0.181409 -0.011850 0.340580 -0.022814 0.130394 0.218049 -0.310363 0.164934 0.211669 -0.387635 0.073974 0.300182 0.322288 -0.470591 -0.103127 0.382422 -0.138518 -0.446730 0.150233 -0.486184 0.452065 0.407341 0.355083 0.411471 -0.366700 -0.404540 -0.005025 -0.096057 0.183906 -0.034924 -0.149372 0.486237 -0.271704 -0.034027 0.278060 -0.337119 -0.163557 0.468980 -0.183366 -0.239477 -0.453062 0.302083 -0.370584 0.214671 -0.376363 0.370519 -0.431785 0.426102 0.170680 -0.178600 0.334090 0.139695 0.201243 -0.513148 -0.229835 -0.053154 0.450457 0.381289 0.254952 -0.284687 0.401893 0.400893 0.136810 -0.270829 -0.381721 -0.162400 0.479212 -0.148328 -0.082800 -0.194120 -0.322883 0.289843 -0.360755 -0.102377 -0.062277 -0.235913 -0.241304 -0.324579 -0.266781 -0.085580 0.358196 0.085298 0.307253 -0.418728 0.221906 -0.275122 0.426416 -0.240460 0.171123 0.190613 0.027506 0.118149 0.298139 0.376171 -0.272873 -0.468760 0.340838 0.349570 0.358059 -0.254430 -0.086438 -0.162909 -0.339300 0.387445 0.470839 -0.042892 0.311432 -0.418059 0.090493 0.062493 0.024674 0.149876 -0.371137 -0.416783 0.230419 -0.375804 -0.080573 0.047784 0.073170 -0.225376 0.268688 0.297106 0.373550 -0.001119 -0.158114 -0.409276 0.138020 -0.274736 0.491249 0.380301 -0.311969 -0.238827 0.105119 -0.396146 -0.281744 0.090482 0.272781 0.081556 -0.085944 -0.470837 0.333535 -0.441151 -0.170625 -0.145252 -0.176805 -0.517155 -0.087512 -0.426038 0.373676 0.227741 -0.170274 0.064885 0.190537 -0.450319 0.356997 -0.385756 -0.142404 0.182461 -0.445179 -0.261376 -0.254309 0.042116 -0.504621 0.231096 -0.259871 0.068115 0.198328 -0.349405 -0.038768 -0.052576 0.322214 -0.285129 -0.334309 -0.038852 -0.285729 0.482902 0.381922 0.255101 -0.242624 0.364831 -0.190255 -0.253398 0.419082 0.413359 -0.223107 0.471868 0.303012 -0.423339 -0.065449 0.132893 -0.336754 -0.473679 0.444112 -0.128840 -0.128962 -0.360978 -0.263674 0.304400 -0.333455 0.077198 0.394012 0.239604 0.027942 0.188642 0.322199 0.003567 0.393217 0.328770 -0.351499 0.281883 0.306013 -0.176507 -0.269980 -0.400809 -0.248078 0.299034 0.298087 -0.140183 -0.076331 0.148297 0.246797 -0.401030 0.176874 -0.020877 -0.014833 -0.090306 -0.335509 -0.124872 -0.084220 0.487272 0.071253 0.077391 -0.233729 0.320243 -0.017336 0.256376 0.484709 0.392294 0.232336 0.290295 -0.322849 -0.077319 -0.196534 -0.011884 0.314345 -0.265613 0.308600 -0.238310 0.297299 0.301212 -0.306584 -0.006798 -0.055115 0.069411 -0.029598 0.212842 -0.454948 0.406353 0.452527 -0.135489 -0.444203 0.096632 -0.104708 -0.271270 -0.401145 0.006063 -0.324715 -0.433134 -0.292248 0.115780 -0.331724 0.281107 0.381837 0.205696 0.485595 -0.161980 -0.213991 -0.495779 -0.455553 0.045669 -0.224607 -0.299346 -0.161037 -0.288290 -0.410646 -0.114590 -0.441346 -0.137910 -0.085257 0.271038 0.261464 0.263115 0.153095 0.088774 0.138903 0.183566 0.192255 0.310141 0.203566 0.468985 0.228295 0.192898 -0.364854 -0.260416 0.482454 -0.477953 0.262661 0.313448 -0.172093 -0.363286 0.334481 -0.057030 0.192728 -0.163524 -0.411536 0.110670 0.109256 -0.334592 -0.121240 -0.268923 -0.201107 -0.471861 0.063821 0.431015 -0.349947 -0.010763 0.178431 -0.437633 0.347763 -0.385550 -0.280978 -0.489293 0.413171 -0.424679 0.110609 -0.104992 -0.408651 -0.328860 0.165429 0.333389 -0.007373 0.020204 0.423371 -0.091938 0.022625 -0.187758 0.276364 0.238977 -0.349548 -0.302437 0.171000 -0.181005 -0.407680 -0.008128 -0.330234 0.301347 -0.055105 -0.260352 -0.163365 0.080601 -0.293485 0.269908 -0.349173 -0.227752 0.441625 0.106269 -0.111385 0.277378 0.052688 0.438591 -0.429398 0.254009 0.516520 -0.270713 0.284833 0.049683 -0.467476 -0.374450 -0.470741 -0.039859 0.030757 -0.061244 -0.333679 -0.509493 0.063518 -0.087521 -0.424698 -0.264248 -0.493896 -0.288728 0.205642 -0.445747 -0.057386 0.041105 0.117787 -0.049192 0.062041 0.310344 0.420282 0.041148 0.041342 -0.385630 0.363492 -0.045954 0.517447 0.308760 0.196583 0.354324 -0.224608 0.331150 -0.060936 -0.210169 -0.278207 -0.088233 0.461528 0.211910 0.103912 0.398319 -0.033756 0.481958 -0.274582 -0.476520 0.336720 0.395649 0.359124 -0.287436 -0.208901 -0.294900 -0.075914 0.034956 0.310667 0.026477 0.194551 -0.274364 -0.446162 -0.220099 0.396578 -0.154341 0.208527 -0.131958 0.197020 0.494411 -0.100580 -0.427710 0.173530 -0.212835 -0.481715 0.249990 0.008169 -0.234294 0.070942 0.053074 -0.114242 0.185095 -0.133629 0.431657 -0.119535 -0.046167 -0.422396 -0.021594 -0.110749 0.404303 -0.139365 0.320550 -0.076256 -0.086664 -0.048734 -0.095797 -0.502628 0.080441 -0.026028 -0.350237 0.218781 -0.105653 -0.356777 -0.031348 0.306798 0.195876 -0.004494 -0.455230 -0.164848 -0.339826 -0.322115 -0.241977 0.095089 0.059577 -0.155959 -0.339171 0.119132 0.503922 0.170797 0.246489 -0.418147 -0.157554 0.518768 -0.432717 -0.516064 -0.407672 0.366176 -0.003007 0.274614 0.178736 -0.379760 -0.225496 0.218918 0.078582 -0.339271 -0.246214 -0.190668 -0.117934 0.382689 -0.397378 -0.021596 -0.434435 0.393028 -0.291398 -0.054120 -0.141503 -0.001545 -0.508714 -0.259448 0.007327 -0.474008 -0.016385 -0.245492 0.212810 0.455724 0.073357 0.336892 -0.010284 -0.137598 0.251337 0.140054 0.170483 -0.312599 -0.476786 0.111283 -0.442433 0.226875 -0.068355 0.307701 0.338066 -0.392045 0.474870 -0.393056 0.211143 -0.379853 -0.095230 0.076003 -0.248693 -0.267467 0.334894 0.491839 0.222081 -0.078631 0.086943 0.065184 0.345966 -0.127626 -0.465384 -0.352821 0.469448 0.082281 -0.369809 -0.414461 -0.104954 -0.340661 -0.285789 -0.269836 0.457738 0.243281 0.425316 -0.306120 0.186690 0.302249 0.001416 0.384694 0.468738 -0.098780 -0.414208 -0.235987 -0.310000 0.209142 -0.334584 0.139387 0.117699 -0.284221 0.126678 -0.483016 0.244313 0.376701 -0.181735 0.134877 -0.440267 -0.092491 -0.097112 -0.018292 -0.056564 -0.161515 0.236719 0.461127 -0.267521 0.035661 -0.471243 0.254081 0.126999 -0.102363 0.308499 -0.374830 -0.309871 0.360777 0.421713 -0.478187 -0.197790 0.268481 -0.299374 0.275242 -0.022482 -0.422822 0.102790 -0.152521 0.374184 -0.412507 0.243762 0.313537 -0.363269 0.083598 -0.084111 0.114621 -0.074822 0.040421 0.406618 -0.340785 -0.366065 -0.031318 -0.407390 -0.265698 -0.137910 -0.026246 -0.209773 -0.191953 0.399084 0.358810 -0.128296 -0.252426 -0.416785 -0.238039 -0.277957 0.264446 0.321366 -0.450703 -0.003705 -0.181998 0.079006 -0.010996 -0.010930 -0.436225 0.272916 -0.144731 0.087932 -0.195341 0.547498 0.176376 0.355335 0.199244 -0.210525 -0.168336 0.522295 -0.412827 0.330263 -0.255947 0.101430 0.303387 -0.435656 -0.351877 0.369210 -0.467933 -0.274000 -0.516704 0.122361 -0.266152 0.497757 -0.000742 -0.196425 0.070303 0.173000 0.219369 0.453307 0.332972 0.395959 -0.157637 0.112687 0.410378 0.345436 0.500273 -0.264120 0.066229 -0.124166 -0.239277 0.089504 -0.004415 -0.406863 -0.043732 -0.168746 -0.051323 0.116895 0.095223 -0.245638 0.158700 0.070927 -0.021391 -0.468482 0.269481 -0.302872 -0.097212 0.135663 0.023565 -0.452687 -0.438847 -0.200688 -0.130024 0.425683 0.388931 -0.184133 0.432503 0.229841 -0.377609 0.027430 -0.104694 -0.333684 0.020478 -0.090803 0.484631 0.255337 0.404604 -0.111193 0.143630 0.428100 -0.323443 0.474176 -0.205005 -0.230814 0.212465 -0.234961 -0.384106 -0.274426 -0.096844 -0.352504 0.087600 -0.007735 -0.160313 -0.256597 -0.501836 0.295772 -0.297260 -0.485981 -0.277913 -0.152362 0.130107 0.017539 0.170980 -0.111744 -0.357123 0.272964 -0.269083 -0.135457 0.072956 -0.303926 -0.360617 -0.345603 0.423528 0.203310 0.220576 0.418557 0.196122 0.246383 0.396355 0.357199 0.396470 0.271299 -0.092377 0.001572 -0.236822 -0.422323 -0.099090 0.470259 0.004135 0.465582 0.296172 -0.028958 -0.098924 -0.144526 0.346713 0.139158 0.189487 0.463097 0.422652 -0.279451 -0.160651 0.464746 0.220534 0.099395 0.504236 0.187536 0.195574 0.005282 -0.512688 -0.155133 -0.136314 0.026753 0.487479 -0.024289 -0.076124 -0.268708 0.481885 0.017741 0.025251 -0.347247 0.164913 0.107972 0.068306 -0.020938 -0.221531 -0.319407 -0.301511 0.353172 0.195303 -0.183705 -0.332507 0.035307 -0.393971 0.450903 -0.377591 0.171017 0.401089 0.029043 0.460387 0.134525 -0.200636 0.291532 0.157904 0.066998 0.153336 -0.383169 0.180694 -0.300577 -0.146391 0.355888 -0.329558 0.524423 -0.105200 -0.396685 0.225770 0.172814 -0.103665 -0.491322 0.210332 -0.223326 0.273328 -0.393444 0.180833 0.251272 0.196360 0.337191 -0.506893 -0.209566 0.429192 0.106133 -0.048025 0.024446 -0.081161 0.185982 0.240890 -0.363707 0.329625 -0.193680 0.127225 0.015610 -0.076435 -0.359683 0.329364 -0.274531 0.256859 0.046562 -0.054132 -0.421286 -0.183899 -0.068683 -0.163676 -0.467527 -0.051652 -0.453850 -0.447533 -0.465386 0.232866 -0.020864 -0.198939 -0.284043 0.417895 0.072851 -0.158480 0.057725 0.069033 -0.032593 0.071785 0.153352 0.090862 -0.208637 -0.177157 0.158122 -0.247942 -0.259133 -0.136349 0.432047 -0.210057 0.225670 -0.291421 0.095842 -0.194421 -0.456586 0.131974 -0.234969 0.104114 -0.180906 0.487798 -0.419714 -0.359757 0.344059 -0.072359 -0.203778 -0.045939 0.438769 0.004215 0.055503 0.044485 -0.147662 0.140048 0.073489 0.319888 0.293739 -0.314734 0.321568 -0.092977 -0.126408 -0.063534 -0.413205 0.196271 -0.489229 0.239355 -0.375406 -0.009293 -0.473358 -0.319999 -0.327232 0.096700 0.168984 -0.391043 -0.121649 0.321577 -0.026839 0.023244 0.485896 -0.351786 -0.436974 0.527215 0.235333 0.470604 0.086457 0.112951 0.080807 0.409442 -0.206304 0.407688 -0.478482 0.050128 -0.255665 0.476624 -0.240456 -0.220704 -0.255592 -0.158450 0.058333 -0.258047 -0.391786 0.394571 0.178072 0.093471 0.375445 0.217154 0.275517 -0.461542 0.355994 -0.058723 0.238142 0.337692 0.275946 -0.054770 0.164913 0.013918 0.033108 0.093628 0.432442 0.334887 -0.321987 0.199266 0.455727 0.488958 0.152262 -0.254117 -0.292254 0.192693 0.459920 0.405032 0.057183 0.171545 -0.053872 -0.461728 -0.328734 -0.093749 0.055375 -0.152138 0.251955 0.109922 -0.307827 0.502457 0.436524 0.506070 0.166833 0.034039 0.110500 0.338110 0.002351 0.014385 0.234827 0.405496 -0.296225 0.045362 0.427117 -0.163201 -0.474005 0.047232 0.428948 0.166998 0.213344 -0.353739 -0.001694 0.227993 -0.241692 0.021876 -0.119099 -0.486047 -0.242095 -0.422964 -0.469021 0.452996 0.502061 0.216552 -0.103313 0.187749 -0.079318 0.368792 -0.337308 -0.447402 -0.394723 -0.367620 -0.171737 0.017019 -0.484291 0.041854 -0.185675 0.145000 0.362784 0.181856 -0.374220 0.495435 0.336111 -0.036660 0.315451 0.461626 0.456041 -0.206029 -0.121124 -0.123893 0.061744 -0.237194 -0.092164 -0.068834 0.215346 -0.262596 0.506777 -0.476374 -0.293245 -0.260819 -0.287095 -0.254896 -0.192237 0.238091 0.240096 -0.358772 0.473556 0.171321 0.266465 0.241963 -0.446671 -0.186575 -0.434064 -0.481881 -0.071026 -0.196409 -0.363353 0.161617 0.317247 -0.388899 0.156853 0.492067 -0.106619 -0.356684 0.226496 0.044842 -0.464424 -0.188613 0.337689 -0.188851 -0.091975 -0.185282 -0.066658 0.121415 0.431926 -0.139175 -0.108149 0.085331 0.255184 0.103526 0.434048 0.314940 0.036529 0.365688 0.084774 -0.204357 -0.465588 -0.269861 -0.364488 0.353828 0.088722 -0.277542 0.150305 -0.110786 0.094261 -0.402694 -0.005965 0.199593 -0.471195 -0.023160 0.230886 0.252303 0.414090 0.084373 -0.036222 -0.249068 0.215613 0.265474 -0.393040 0.103055 -0.135902 0.245534 -0.228571 0.436988 0.010903 -0.396240 -0.234846 -0.175577 0.375527 -0.019640 0.434413 -0.448347 -0.022603 0.082715 0.151363 -0.261305 -0.117103 0.122058 -0.025877 -0.145584 0.234802 -0.077335 0.066672 -0.509145 -0.258707 0.322486 0.084325 0.451424 0.116169 -0.455756 0.499929 -0.002439 0.228520 -0.141143 -0.149412 -0.301905 -0.215427 0.391981 -0.089035 0.312763 -0.188196 -0.294506 -0.264293 -0.239296 -0.427728 0.272660 -0.391333 -0.197248 -0.008654 -0.160736 0.077006 0.193826 -0.296095 -0.096832 0.049368 -0.306330 -0.056444 0.412045 -0.124945 -0.130147 -0.236466 -0.453942 0.157366 -0.442093 0.185630 -0.440023 0.184610 -0.210844 0.066134 -0.057271 -0.001523 -0.251348 0.284617 -0.189610 0.462001 -0.307052 0.148932 0.072865 -0.427835 -0.110979 -0.156712 0.201434 -0.086953 -0.139515 -0.161654 0.092408 -0.453965 0.266530 0.163337 -0.098380 0.328766 0.184765 0.316752 -0.001644 -0.316573 -0.495105 -0.388568 0.156952 -0.464208 -0.417741 -0.295084 -0.012945 -0.181154 -0.415189 0.482698 -0.064425 0.476817 0.121811 0.288539 -0.204200 0.096676 -0.460402 -0.172323 0.247128 -0.245746 -0.237164 0.078309 -0.069535 -0.316241 0.435264 0.043232 -0.429113 -0.234281 -0.254315 -0.035647 -0.215181 0.160116 0.123310 -0.432110 -0.503183 0.035786 0.503682 0.340761 0.264500 0.119925 0.333699 0.294949 -0.252597 -0.019737 0.256818 -0.199734 0.394665 -0.125813 0.326315 -0.456494 -0.461979 0.126105 0.412473 -0.122458 0.435043 -0.413110 0.511567 -0.346614 -0.000634 0.149158 -0.046418 -0.008922 -0.356651 -0.184227 -0.077011 -0.160366 -0.020554 -0.395269 0.075127 -0.232451 0.404203 -0.235750 0.510631 0.273869 -0.089675 -0.081854 -0.252672 0.236734 -0.013574 0.399649 0.268491 -0.443606 0.441381 -0.433302 -0.401613 0.142154 -0.414399 -0.253700 -0.300012 0.071537 0.193872 0.140066 0.020498 0.443682 -0.408270 0.233915 -0.301768 0.046303 -0.319204 0.344145 -0.401104 0.454393 -0.473066 0.200840 -0.477809 -0.444944 0.493824 0.126415 -0.316221 -0.334444 0.486739 -0.368921 -0.274288 -0.229469 -0.253461 -0.208611 -0.149113 -0.148201 0.042334 0.247756 0.079493 -0.342644 0.202695 -0.445591 -0.492515 0.200028 0.313427 -0.309200 0.086348 -0.479539 0.442309 -0.357255 0.167361 -0.507933 0.177654 0.060671 0.023340 -0.018779 0.441281 0.351858 0.139513 0.397003 0.296902 0.150350 0.397167 0.198145 -0.105115 -0.084329 -0.304021 0.226426 0.487503 -0.167050 -0.036110 0.190509 -0.290814 -0.429455 -0.455245 -0.434185 -0.182000 0.409812 -0.416190 0.321371 0.082376 -0.248934 0.156259 0.104069 0.000146 0.221017 -0.015610 -0.320427 0.203785 0.390527 0.078116 0.033171 -0.068233 -0.222957 -0.497324 -0.138916 0.110089 0.221863 -0.432508 -0.125862 -0.335085 -0.466581 0.013243 0.365375 0.268368 0.313896 -0.385521 -0.306920 -0.009685 -0.345136 -0.051358 -0.122607 -0.348824 -0.450592 -0.403830 0.404477 0.429857 0.350638 -0.097405 -0.251533 -0.320296 -0.255609 -0.177366 0.252520 0.392177 0.039492 -0.387098 -0.035658 -0.464960 -0.008584 -0.377140 -0.086131 0.443524 0.029661 -0.030003 0.378439 -0.323498 -0.420190 0.160385 -0.149155 -0.475124 0.083949 -0.302469 -0.468877 -0.027265 0.450908 0.433128 -0.125155 0.134730 -0.279786 0.475230 0.435727 -0.301605 0.056151 0.060873 -0.481182 0.090189 -0.039154 0.028103 0.388418 0.306554 0.134920 0.105597 0.144212 0.095416 0.457273 -0.013795 0.351577 -0.449561 0.433444 -0.158395 0.465101 0.135096 -0.151230 -0.250208 0.065901 0.005156 -0.260477 0.172811 0.436393 0.297846 0.117067 0.076290 0.437274 0.396074 0.381071 -0.253617 0.274581 0.285091 -0.096414 0.130280 0.232863 0.389395 -0.312145 0.286253 0.177370 -0.491358 -0.272413 0.244670 -0.467631 -0.085874 0.425716 0.026610 -0.337535 0.089449 0.084309 -0.363282 0.145848 -0.111328 0.138791 -0.321762 -0.026228 0.204649 0.094004 0.342320 0.192311 -0.255720 -0.204783 0.343290 -0.093933 -0.172577 0.083805 0.303533 -0.142024 0.306639 0.345207 -0.211428 -0.225700 0.301803 0.131417 0.137558 -0.065181 -0.256670 0.499409 -0.391024 -0.125022 0.351766 0.489557 0.277599 -0.059466 -0.137490 0.261545 