6
784 256
-0.092157 0.413725 0.201961 0.296078 0.339216 -0.292157 -0.401961 -0.021569 -0.350980 0.158824 0.339216 0.472549 0.139216 0.331373 -0.107843 -0.347059 0.445098 0.072549 -0.107843 0.249020 0.405882 -0.437255 -0.445098 0.409804 -0.158824 -0.347059 -0.100000 0.260784 0.049020 0.401961 -0.280392 0.154902 -0.374510 -0.092157 -0.252941 -0.358824 0.409804 -0.103922 0.052941 -0.468627 -0.256863 0.198039 -0.323529 -0.425490 0.252941 -0.143137 -0.452941 0.449020 -0.472549 0.496078 -0.366667 -0.245098 0.209804 -0.209804 0.170588 -0.347059 -0.464706 0.468627 0.401961 -0.021569 0.139216 -0.045098 -0.127451 0.217647 0.143137 0.339216 -0.213725 -0.037255 0.049020 -0.303922 0.201961 -0.288235 -0.084314 0.135294 0.052941 -0.496078 0.264706 0.319608 -0.362745 -0.252941 -0.154902 0.323529 -0.311765 0.288235 0.135294 0.484314 -0.147059 -0.315686 -0.500000 0.229412 0.484314 -0.194118 -0.464706 -0.025490 -0.315686 0.107843 -0.496078 -0.492157 -0.386275 0.300000 -0.303922 -0.135294 0.056863 0.033333 -0.041176 -0.080392 0.433333 -0.331373 -0.343137 0.311765 -0.154902 0.429412 0.178431 -0.464706 0.052941 0.096078 -0.174510 -0.088235 -0.213725 0.468627 -0.296078 0.241176 0.268627 -0.013725 -0.292157 0.409804 0.182353 0.260784 -0.347059 -0.119608 0.288235 0.288235 -0.088235 -0.500000 -0.425490 0.245098 -0.123529 0.076471 0.378431 -0.409804 -0.409804 -0.401961 0.339216 -0.225490 0.276471 -0.398039 -0.323529 0.441176 0.323529 -0.472549 0.100000 0.154902 -0.072549 0.374510 -0.033333 -0.425490 0.127451 0.480392 -0.194118 -0.374510 -0.174510 -0.033333 0.256863 0.496078 0.296078 0.052941 -0.300000 0.484314 -0.072549 0.374510 -0.292157 0.452941 -0.056863 -0.300000 -0.092157 -0.452941 -0.343137 0.147059 -0.068627 0.366667 -0.339216 0.060784 0.303922 -0.225490 0.131373 -0.052941 -0.421569 0.229412 -0.307843 -0.194118 0.241176 0.468627 0.280392 0.096078 -0.319608 0.166667 -0.343137 0.147059 0.252941 0.268627 0.292157 0.280392 -0.162745 0.370588 -0.452941 -0.060784 -0.056863 0.374510 0.072549 0.154902 0.049020 0.398039 -0.496078 -0.464706 -0.201961 -0.213725 0.205882 -0.417647 -0.186275 -0.103922 0.166667 -0.260784 -0.174510 -0.441176 -0.025490 -0.382353 0.127451 0.449020 0.445098 0.198039 -0.021569 0.472549 -0.041176 -0.064706 0.084314 -0.115686 0.033333 -0.182353 0.154902 0.315686 0.464706 0.488235 0.456863 -0.288235 -0.201961 0.021569 -0.154902 -0.162745 -0.194118 0.217647 -0.013725 0.111765 0.488235 0.100000 0.080392 -0.084314 0.080392 -0.096078 0.394118 -0.147059 0.237255 0.347059 -0.025490 0.017647 0.382353 -0.401961 -0.335294 0.147059 -0.017647 0.037255 -0.139216 0.441176 -0.366667 0.033333 0.370588 0.225490 -0.300000 -0.311765 0.452941 -0.021569 -0.068627 -0.241176 0.107843 0.123529 -0.115686 0.092157 0.107843 0.319608 0.496078 -0.288235 -0.213725 0.005882 -0.339216 0.021569 0.213725 -0.209804 -0.147059 -0.182353 0.103922 -0.229412 0.343137 -0.056863 0.276471 0.362745 -0.052941 -0.488235 0.354902 0.350980 0.476471 0.307843 0.464706 0.315686 -0.460784 0.135294 0.319608 -0.123529 0.260784 -0.492157 0.272549 -0.445098 -0.225490 -0.484314 -0.115686 -0.496078 0.292157 0.484314 0.154902 0.378431 0.484314 0.429412 -0.374510 0.480392 -0.264706 0.001961 0.268627 0.237255 0.331373 -0.335294 0.390196 -0.033333 -0.186275 -0.358824 -0.358824 0.217647 0.370588 -0.025490 0.362745 0.358824 0.029412 0.158824 -0.147059 0.123529 0.394118 -0.354902 -0.100000 -0.198039 -0.303922 -0.252941 -0.480392 0.060784 -0.143137 0.425490 -0.029412 0.127451 -0.213725 0.319608 -0.417647 0.256863 0.135294 0.460784 -0.417647 -0.166667 -0.131373 0.111765 -0.154902 0.131373 -0.237255 0.033333 0.245098 0.049020 -0.472549 -0.480392 -0.480392 0.405882 0.354902 -0.005882 -0.166667 0.186275 0.425490 0.476471 0.327451 0.394118 0.143137 -0.249020 -0.194118 -0.488235 0.382353 0.303922 -0.190196 0.260784 0.049020 0.413725 -0.029412 -0.401961 0.182353 0.484314 0.401961 0.441176 -0.492157 -0.111765 -0.029412 -0.276471 -0.315686 -0.072549 -0.021569 0.452941 -0.343137 -0.135294 0.382353 -0.292157 -0.123529 -0.088235 -0.409804 0.166667 0.390196 -0.476471 -0.331373 0.413725 0.029412 -0.115686 -0.064706 -0.225490 0.076471 -0.100000 -0.429412 0.315686 0.421569 0.323529 -0.303922 -0.162745 0.437255 0.017647 0.496078 0.182353 0.335294 -0.460784 -0.170588 0.331373 0.021569 0.417647 0.319608 -0.143137 0.017647 0.421569 -0.362745 -0.460784 0.111765 0.029412 0.072549 -0.158824 -0.158824 -0.100000 0.339216 -0.174510 0.382353 -0.080392 -0.135294 -0.186275 0.437255 -0.425490 0.292157 -0.237255 -0.468627 -0.158824 -0.005882 0.374510 0.394118 0.178431 -0.492157 0.256863 0.225490 0.170588 0.296078 -0.229412 0.213725 -0.049020 0.198039 0.468627 0.307843 0.331373 -0.190196 -0.405882 -0.284314 -0.119608 0.245098 -0.190196 -0.060784 -0.158824 0.056863 0.229412 0.417647 0.256863 -0.358824 -0.131373 -0.174510 0.452941 0.076471 0.005882 0.362745 -0.280392 0.339216 0.339216 -0.362745 0.280392 0.331373 0.370588 0.437255 0.017647 -0.492157 -0.307843 -0.194118 0.194118 -0.456863 -0.288235 0.252941 -0.366667 -0.268627 -0.378431 -0.072549 -0.092157 0.115686 0.052941 -0.158824 -0.174510 0.088235 -0.480392 0.123529 0.096078 0.280392 -0.409804 0.123529 -0.386275 -0.056863 -0.456863 0.131373 0.131373 0.127451 0.198039 -0.009804 0.433333 0.158824 -0.452941 -0.452941 0.221569 -0.300000 0.111765 0.115686 -0.303922 0.017647 0.229412 0.225490 -0.245098 0.241176 0.182353 -0.409804 0.103922 -0.405882 -0.190196 -0.307843 -0.311765 0.021569 -0.405882 0.127451 -0.394118 -0.284314 0.335294 -0.245098 -0.460784 0.107843 -0.331373 0.084314 0.084314 0.335294 0.115686 0.500000 -0.056863 -0.480392 -0.127451 0.296078 0.045098 -0.123529 -0.284314 0.374510 -0.221569 -0.056863 -0.452941 -0.421569 0.484314 0.052941 -0.178431 0.092157 0.229412 0.449020 -0.252941 -0.021569 -0.147059 -0.041176 0.170588 0.056863 -0.280392 0.488235 -0.119608 0.382353 -0.307843 0.249020 -0.221569 -0.347059 0.139216 0.123529 0.252941 -0.068627 -0.103922 0.358824 0.190196 0.303922 -0.103922 -0.237255 0.378431 -0.488235 -0.472549 0.268627 -0.135294 -0.268627 -0.103922 -0.049020 -0.033333 0.249020 -0.280392 0.350980 -0.127451 0.390196 -0.045098 -0.288235 0.401961 0.362745 -0.488235 -0.343137 -0.374510 -0.456863 0.068627 0.496078 -0.421569 -0.252941 0.488235 0.088235 0.217647 0.080392 -0.433333 -0.198039 -0.017647 0.056863 -0.147059 -0.484314 0.272549 0.123529 -0.300000 -0.135294 0.417647 0.182353 0.378431 0.135294 -0.307843 0.170588 -0.386275 -0.476471 -0.143137 -0.405882 -0.386275 -0.405882 -0.307843 0.268627 -0.217647 -0.480392 -0.205882 0.307843 0.264706 -0.264706 -0.041176 -0.041176 0.276471 0.158824 0.398039 0.488235 0.221569 0.217647 0.480392 0.221569 -0.056863 0.154902 -0.217647 -0.339216 -0.252941 -0.139216 -0.045098 0.229412 -0.076471 0.374510 0.084314 0.225490 -0.319608 0.409804 -0.119608 0.025490 0.217647 -0.319608 0.260784 -0.280392 -0.229412 -0.292157 -0.213725 0.429412 -0.390196 0.311765 0.052941 -0.060784 0.186275 -0.347059 -0.350980 0.343137 0.252941 -0.009804 -0.201961 0.143137 -0.178431 0.068627 0.209804 -0.370588 -0.182353 -0.421569 0.460784 -0.264706 -0.190196 -0.452941 -0.072549 -0.421569 -0.429412 0.386275 -0.150980 -0.492157 0.331373 0.147059 -0.041176 0.264706 0.154902 -0.260784 0.452941 0.217647 -0.119608 0.449020 -0.080392 0.182353 -0.417647 0.300000 -0.213725 -0.217647 -0.472549 -0.225490 0.178431 -0.354907 -0.488235 -0.037255 0.084307 -0.488236 0.150980 -0.111764 -0.378433 0.123528 -0.409802 0.315686 0.398039 0.064706 0.041175 -0.307842 -0.280393 -0.358822 -0.127451 -0.017647 0.496078 0.476470 -0.229421 0.370588 0.178431 -0.382353 0.315686 0.076462 -0.299996 -0.429409 0.033340 0.280392 0.378435 0.292153 -0.005889 -0.394119 0.343137 -0.347059 0.205882 0.296061 0.190196 0.362745 0.449020 0.139219 -0.296078 0.068638 -0.147057 0.084304 -0.201961 -0.327451 0.092158 0.045097 0.233333 -0.205883 0.064706 0.496070 0.237255 0.249020 0.425486 0.496077 -0.335294 -0.401961 0.041176 0.492157 0.343137 -0.307843 0.296078 0.468627 0.323520 0.296078 -0.284312 0.037255 -0.343136 -0.154898 0.358825 -0.464707 -0.496088 -0.241177 0.315686 -0.068627 -0.150982 -0.045098 0.076468 -0.041176 0.103923 0.347059 -0.284314 0.339211 0.150982 0.276471 0.221564 -0.480387 0.072549 0.080395 -0.217647 -0.500000 0.488240 -0.350980 0.100000 0.437255 -0.409804 -0.296071 0.366665 0.009803 0.052940 -0.209802 0.496078 -0.464706 0.347059 -0.437255 -0.147066 -0.198039 0.162742 -0.311764 0.249020 -0.374509 -0.166667 0.049020 -0.162745 0.060785 0.041176 -0.237255 -0.033333 0.096078 0.468628 -0.103922 -0.292156 0.433341 0.221569 0.056853 0.182353 -0.445101 -0.033329 -0.245105 0.354902 0.417647 -0.029412 -0.249025 -0.033333 -0.378431 0.170588 -0.452942 0.029412 -0.296087 0.433333 -0.025497 -0.288237 -0.049020 -0.343132 -0.460797 -0.115689 -0.225490 -0.025491 0.186275 -0.084313 0.241175 0.123534 -0.437255 0.401960 0.103912 0.209804 0.331373 0.084326 0.009804 0.390196 -0.013725 -0.370591 0.174505 -0.103930 0.362742 0.449020 0.335301 -0.382353 0.170588 0.100000 0.166668 0.119612 -0.072550 0.484314 0.276471 -0.205886 0.127453 0.468627 0.241177 0.496078 0.198046 0.276464 0.476481 0.272551 -0.425490 0.221565 0.300010 0.260793 0.025491 0.135296 -0.488236 -0.315687 -0.331373 -0.096076 -0.460780 -0.323535 -0.119608 0.021569 0.162749 -0.076471 0.186275 0.249021 -0.347055 0.492154 0.217648 0.170588 -0.021570 0.178434 -0.241178 0.354912 -0.386272 -0.409805 -0.194118 -0.162745 0.100000 0.307844 -0.445099 0.166666 -0.029412 -0.068627 0.186276 -0.272560 -0.201961 0.013718 0.143135 -0.370583 0.150973 0.001961 -0.209804 0.115686 -0.268632 0.252944 0.088235 0.174497 -0.413725 0.217644 0.350980 -0.233331 -0.409804 0.033333 -0.500000 -0.445099 -0.445109 0.017638 0.252949 0.480392 0.225490 0.001967 -0.288235 0.096073 0.264706 0.237255 -0.194855 -0.299998 0.037397 0.468066 -0.095897 0.241459 0.468724 -0.464937 -0.052967 0.280677 -0.214601 0.158886 0.299914 0.464982 -0.021853 -0.464963 -0.417390 -0.190271 -0.284593 -0.182309 -0.374535 0.091484 0.292345 0.087293 -0.139088 0.182391 0.499399 0.426130 -0.472348 0.500481 0.245112 -0.131056 0.178440 0.111190 -0.190141 -0.484442 0.252621 0.135088 0.138405 0.186160 0.139188 0.143128 0.155448 0.244840 0.449827 -0.276543 0.412687 -0.449025 0.025090 0.159306 -0.041476 0.166629 0.096677 -0.017932 -0.053632 -0.315655 -0.052653 -0.484616 0.064667 -0.281044 0.358839 0.421791 0.221500 0.303888 -0.484356 -0.413727 0.312224 0.028821 -0.425375 -0.146494 0.342695 0.233736 -0.271686 -0.048873 0.225098 -0.454700 -0.413628 0.108000 0.437296 0.303765 0.461758 0.409730 0.405611 0.441206 -0.213672 -0.425741 0.479879 0.029304 -0.025445 0.075768 0.339430 0.264861 0.163112 -0.178317 0.496228 0.379419 0.233244 0.425538 -0.205810 -0.222009 0.308470 -0.280472 0.154926 0.292077 0.417675 0.241019 -0.253834 -0.356345 -0.127671 -0.434113 0.452682 0.362295 -0.303783 -0.308622 0.166609 -0.084169 0.272211 -0.284315 -0.155021 0.033473 -0.025579 -0.245096 0.492184 -0.338690 0.499891 -0.017201 -0.220796 0.001884 0.173117 0.480410 0.404800 0.064956 0.248533 -0.499895 0.115572 0.174429 -0.037201 -0.241391 0.288462 0.441641 -0.057286 0.123528 -0.273613 0.021572 0.189465 0.084168 -0.449211 -0.217186 -0.364368 0.378363 -0.307896 -0.186194 0.218033 0.386188 -0.449003 0.178849 0.033691 -0.362792 0.271201 -0.178763 0.476414 0.367791 -0.241508 -0.300062 -0.378566 0.283901 -0.350985 -0.406643 0.236373 -0.237310 0.402151 -0.158935 0.440890 -0.406003 -0.437058 -0.166470 0.378479 0.237266 -0.362693 -0.092524 0.343034 -0.084328 0.111781 -0.417702 0.458172 -0.085011 0.485529 -0.193589 0.394226 -0.217382 -0.412531 0.202534 0.346710 -0.264726 -0.154987 0.056736 0.339132 -0.059193 0.151720 0.009436 -0.131108 -0.147370 0.378591 -0.033282 -0.464738 -0.303555 -0.425519 -0.112185 0.217691 0.001702 0.068430 -0.467506 -0.002062 0.442441 -0.134738 -0.256966 0.111344 -0.449050 -0.025475 -0.088101 0.358457 0.244627 -0.237172 -0.496009 -0.495927 0.052087 -0.217897 0.197597 0.382330 -0.036576 -0.383082 0.061399 0.135194 0.092131 0.013420 0.488803 0.488213 0.396908 0.006291 -0.210122 0.374561 0.276424 -0.331263 0.088211 -0.280628 0.021406 -0.493055 -0.442173 0.366884 0.045092 -0.213846 0.218483 0.291809 0.193653 -0.311798 -0.159109 -0.367907 -0.476778 -0.129748 -0.000785 -0.053036 0.495951 0.102293 0.144096 -0.281767 0.192767 -0.388851 -0.322553 0.152954 0.028738 -0.240051 -0.011800 0.300056 -0.431524 -0.344228 0.073788 -0.066237 -0.187123 0.013730 0.008259 0.387057 0.092352 0.137597 0.495897 0.062518 -0.201028 0.209974 0.299722 -0.226394 0.153490 0.065092 0.445450 0.032542 -0.081921 0.099756 0.212230 0.102308 -0.488455 -0.102867 -0.489082 0.409718 0.078477 -0.273311 0.026627 0.184597 0.054296 -0.419619 -0.415191 0.082873 -0.197389 0.198635 -0.347193 0.410818 0.182448 0.345437 -0.392566 -0.073328 -0.255550 -0.174103 -0.155008 0.283633 -0.464813 0.073933 0.022519 0.311233 0.216390 -0.281231 0.089487 0.458233 -0.032836 -0.496506 0.459080 0.130818 -0.230240 -0.448523 -0.040923 0.046056 -0.134347 -0.163365 0.302076 -0.173789 -0.081574 -0.206831 0.356984 0.210233 0.197295 -0.101197 0.386381 -0.441175 0.195720 0.344357 0.059420 0.118944 0.009534 -0.207917 -0.183034 -0.387298 0.195294 -0.149987 0.290002 -0.065157 0.254257 -0.110501 -0.009252 0.440477 -0.384831 -0.229595 0.318648 -0.083747 -0.399382 0.107124 -0.342486 0.319016 -0.499940 -0.188560 0.243876 0.068295 -0.449942 0.073180 0.268407 -0.493404 -0.114603 0.178350 -0.219038 0.449252 -0.075914 -0.216931 0.406866 0.250897 -0.228969 -0.228856 0.156566 -0.095832 -0.420359 -0.211493 0.163378 0.438934 -0.477005 -0.078050 -0.327113 0.380271 0.268333 0.347894 -0.444237 -0.250207 0.111162 0.251153 -0.339302 -0.156217 -0.478713 0.196324 0.358956 0.076971 0.220507 -0.427217 -0.303770 0.281298 0.143866 0.254342 -0.250487 0.260954 -0.336402 0.253928 -0.230577 -0.172651 -0.225963 -0.140523 0.002903 -0.033787 0.207486 -0.296375 0.498908 -0.355174 -0.212067 -0.454555 0.224470 0.075061 0.125057 -0.364699 -0.311565 0.387662 -0.498208 -0.143907 -0.367352 0.088049 -0.252161 -0.125739 0.483700 0.441021 -0.377493 0.162689 0.296138 0.438256 0.016302 0.487935 -0.322483 0.315001 0.466291 0.088529 -0.017385 0.170361 0.277929 0.009752 0.220529 0.368662 0.251686 0.353013 -0.435487 0.335907 0.477885 -0.254582 0.358058 -0.363856 0.323130 0.076711 0.277073 0.032369 0.427985 0.154713 0.269836 0.184040 0.306468 0.422661 -0.023380 -0.362563 0.360883 -0.473829 -0.256995 -0.089453 0.311265 -0.166659 -0.343713 -0.260027 0.258794 0.205972 0.196428 -0.343355 0.016886 0.407061 -0.096116 0.371229 -0.079653 0.243233 -0.269409 -0.285986 0.237326 -0.310167 0.247427 -0.402800 -0.491634 0.375755 0.490822 -0.342324 -0.406774 -0.229208 0.109475 -0.276430 0.210303 0.122053 0.425826 0.130697 -0.321481 0.076297 -0.499059 0.358151 0.398383 -0.007980 -0.247169 0.142366 -0.104273 -0.178663 -0.343970 0.191286 0.457599 0.458221 0.064796 -0.435609 0.255967 -0.457740 0.109054 0.130768 0.109975 0.387400 0.036058 -0.412623 0.099732 -0.461735 -0.037521 0.401047 0.366376 0.247894 0.463945 0.110592 0.170832 0.406874 -0.291631 0.014205 -0.498007 -0.414692 -0.259599 0.452031 -0.111868 0.481474 0.006674 0.494307 0.176365 -0.165789 0.219037 -0.441170 0.026862 0.344663 0.055664 -0.048836 0.179803 -0.432814 -0.032376 -0.163070 0.280008 -0.225500 -0.154781 -0.077495 -0.318146 -0.225629 -0.406638 -0.333353 0.419422 0.053688 -0.032755 0.288442 0.470241 -0.212592 0.480430 -0.036336 -0.438823 0.093034 0.337034 0.006174 -0.027688 -0.134101 -0.169039 0.086995 -0.219933 -0.066160 0.251633 0.273664 -0.212084 0.052399 0.367983 -0.381192 -0.317043 0.033785 -0.324275 -0.377280 -0.232488 -0.410838 0.360428 0.096524 -0.051053 0.031871 -0.043958 0.340441 -0.419873 0.092982 0.278750 0.153979 -0.395703 0.450673 0.167822 -0.020214 -0.240840 0.488622 -0.330518 -0.438310 0.382337 0.169545 0.282009 -0.002337 0.403017 0.203558 -0.101296 -0.269895 -0.004588 0.269103 -0.349217 -0.241323 -0.102520 0.310788 0.007196 0.291432 -0.000717 -0.205685 0.175375 -0.406726 -0.086076 -0.008479 -0.359638 0.440583 -0.028125 -0.191063 -0.386297 -0.326223 0.509287 0.481349 0.040098 -0.247717 0.321251 -0.064252 0.144160 0.125671 -0.127648 -0.502901 0.270551 0.301345 -0.053183 0.034323 0.463774 -0.364526 -0.248230 -0.137340 0.040111 0.114087 0.140298 0.096689 0.272978 -0.465092 0.289959 0.329488 -0.359612 -0.175662 -0.192892 -0.045603 -0.355985 -0.478641 -0.105357 -0.377153 0.378123 0.469523 -0.144642 0.258074 -0.106275 0.077609 -0.201405 0.052035 0.355941 -0.003018 0.094133 0.260488 -0.205625 -0.255135 -0.025064 0.117511 -0.480813 -0.264894 -0.203625 -0.080890 0.317892 -0.042414 -0.130052 -0.241158 0.446918 0.206885 0.121796 0.146798 0.005807 0.232471 -0.373375 0.199060 -0.176618 -0.385646 -0.022906 0.394590 -0.453284 -0.164749 0.161721 0.002479 -0.137693 0.224252 -0.227255 0.045985 0.356415 -0.246575 0.363213 -0.339868 0.489820 0.246305 0.292415 -0.136261 -0.148818 0.123429 0.095579 -0.346634 0.137521 -0.304481 0.016357 0.228811 -0.108107 0.472442 -0.261638 -0.168850 -0.259839 -0.145550 0.308063 0.398093 -0.179421 -0.165746 -0.490712 -0.066987 -0.416127 -0.231825 0.142953 -0.065961 -0.283393 0.114557 -0.321037 0.176283 -0.049363 0.286526 0.493694 0.284491 0.255746 0.222767 0.063319 -0.435421 -0.352760 -0.101049 0.059891 -0.013334 0.235443 -0.141629 -0.188467 -0.211834 -0.235214 -0.015510 0.474143 -0.267878 0.453326 -0.120044 0.417608 0.446623 -0.402886 0.297343 0.194365 -0.162167 0.143207 0.396458 0.255758 0.291840 -0.241032 -0.081412 0.387505 -0.027613 0.302190 -0.134892 -0.392318 0.145723 -0.056290 -0.060288 0.249992 0.316817 -0.040329 -0.223445 0.366290 -0.003037 0.054042 0.467107 0.054142 -0.302007 0.440930 0.265984 0.007723 0.141185 -0.499790 0.242461 -0.327011 0.471164 -0.158606 0.474848 0.207139 -0.228774 -0.374999 -0.290276 0.112967 -0.445084 0.219693 -0.476599 0.312326 0.119216 0.248165 -0.001243 0.505678 -0.493136 -0.023068 -0.486674 0.400581 0.485404 0.242719 0.348946 0.174154 0.342053 -0.379622 0.186550 0.477167 -0.373016 -0.150562 -0.488183 0.116036 -0.140485 -0.135609 -0.225871 -0.055231 0.345645 -0.329436 0.256947 0.010884 0.442335 0.136203 0.152885 -0.319577 0.415355 0.293810 -0.026630 0.059266 -0.246638 0.263914 -0.305812 0.157432 -0.024197 0.061037 -0.219158 -0.254974 -0.155041 0.031215 -0.460765 0.086457 -0.357876 -0.229696 -0.266040 0.237859 0.309442 0.264526 -0.019884 -0.116316 0.092083 0.469715 0.472883 0.051479 0.354566 0.343159 0.464450 0.126048 -0.467816 0.251328 0.297201 -0.237036 -0.309907 0.071562 -0.099988 0.485584 0.041232 0.464812 -0.330525 0.219729 0.219343 -0.463630 -0.022950 -0.072841 0.190181 -0.439422 -0.338285 -0.167193 0.194747 0.414220 0.022636 0.124595 -0.177727 0.481917 0.409300 0.207418 0.409312 -0.181393 0.186890 0.273677 -0.446432 0.303895 -0.251649 -0.391908 -0.251231 0.141810 0.473208 0.369241 -0.209122 0.005076 0.350664 -0.068564 0.397138 0.230319 -0.118412 -0.044947 -0.127531 -0.177568 0.096872 -0.411869 0.194105 0.393795 0.234515 0.387842 0.274802 0.377655 -0.331892 0.051001 0.405357 0.093683 -0.289038 0.073439 0.281527 0.202826 -0.383473 0.250771 -0.398476 -0.079259 -0.310434 0.263298 -0.214410 -0.246222 0.109744 0.483726 -0.208061 -0.330808 -0.316679 -0.475561 -0.182870 -0.143710 0.376476 0.397901 -0.380154 0.260739 0.305747 0.227468 0.288323 -0.362821 0.261049 0.478505 -0.449900 -0.246796 0.156043 0.060280 0.434479 -0.339791 -0.417401 0.333948 0.202971 -0.484563 0.167953 -0.240714 0.182505 -0.267343 0.246299 -0.167057 -0.212811 -0.176610 0.104018 0.460173 0.319747 0.436949 0.377868 0.052716 0.136193 0.122922 0.468414 -0.089586 -0.165176 0.220673 0.044333 -0.262397 -0.019926 0.277405 0.167149 -0.431522 0.244169 -0.307413 -0.495274 -0.242754 0.279976 0.171453 0.365259 -0.452451 -0.306298 -0.407261 -0.071456 -0.228834 0.273981 -0.154073 -0.105281 -0.310737 -0.233891 0.368477 0.146980 -0.219111 -0.396131 -0.163717 0.138847 0.222676 0.221088 0.019570 -0.237743 -0.146249 -0.287863 0.066673 -0.429777 0.050839 0.001796 0.093902 0.398103 -0.314953 0.098976 0.358659 -0.003347 -0.272330 -0.148842 -0.405899 -0.040619 -0.428156 0.329198 0.065638 -0.130948 -0.098891 -0.442126 -0.119402 0.205223 0.065852 -0.351755 0.400007 -0.117019 0.233460 -0.411406 0.365317 -0.431976 0.411230 -0.368336 0.397805 0.402979 -0.020173 -0.008569 0.149561 -0.062930 0.406893 0.436098 0.247890 0.057911 0.004788 0.193046 -0.412753 -0.453114 0.206919 0.244182 0.126464 -0.072098 -0.384555 -0.125958 0.094891 0.442899 0.265014 0.059731 0.191552 -0.496566 0.392183 0.274233 0.294007 0.206414 0.190333 0.020019 0.379743 0.185390 0.237270 -0.108940 -0.151889 -0.136226 0.111436 0.359593 0.300059 -0.473436 0.201947 0.027709 -0.232991 -0.232263 -0.099369 -0.051338 -0.012550 -0.401051 0.110120 0.221892 0.025739 -0.166017 -0.124096 -0.005798 -0.351077 0.330042 -0.415807 -0.403052 -0.423028 0.180720 0.192251 0.488240 -0.191218 -0.474098 0.283026 -0.265436 0.481037 -0.416876 -0.376959 -0.326631 0.040582 0.169139 0.488586 -0.400252 -0.095881 0.490622 0.239433 0.296941 -0.432006 0.352410 0.308812 -0.021090 -0.162038 -0.498482 -0.081106 0.414371 -0.359298 -0.285475 0.183379 -0.041071 0.234594 0.493128 0.202834 -0.173761 -0.269715 0.113166 -0.182239 -0.477989 0.242228 0.014980 0.031559 0.135732 -0.327051 -0.097788 -0.329878 0.448730 0.050609 0.256069 -0.291215 0.416880 -0.179534 0.083193 -0.477456 0.047282 0.172432 -0.440900 0.482000 0.245776 -0.006549 0.368125 0.389389 -0.441291 -0.476556 -0.305765 -0.400399 -0.394752 -0.100908 -0.115108 0.437819 -0.418621 -0.042567 -0.477488 -0.359770 0.191182 -0.171795 0.183645 -0.205773 0.350042 -0.237381 0.368835 -0.476918 -0.194676 -0.207871 0.093869 -0.315207 0.355240 -0.428837 -0.349891 0.077532 0.129174 0.020015 -0.344346 -0.218589 0.012621 0.361898 -0.140973 -0.116109 0.229082 -0.150384 -0.446940 -0.183623 -0.441555 0.244230 -0.335634 -0.190119 0.050395 0.253448 0.486141 0.253726 -0.201916 -0.124488 0.120830 -0.229086 0.129387 0.004341 0.287320 -0.146983 0.346741 -0.036202 -0.016784 -0.312096 -0.177811 -0.068363 0.427586 -0.028732 0.234973 -0.231877 0.064808 -0.328270 0.411553 0.253908 0.126729 0.246532 -0.429072 0.055972 0.247558 -0.248444 -0.237460 0.488603 0.047053 -0.196490 -0.349992 0.455857 -0.033590 0.389882 0.073908 -0.114317 0.192947 0.039629 -0.128378 -0.137023 -0.039776 0.129627 0.475652 -0.396271 0.492765 0.318523 0.126149 -0.457605 0.181896 0.237322 -0.077018 -0.011359 -0.398248 0.042719 0.049406 -0.365081 0.415652 0.496686 -0.359250 -0.130400 -0.059615 -0.355436 0.362240 -0.339224 0.268435 -0.055669 0.258997 0.186405 -0.327134 0.029627 -0.137304 -0.013609 -0.406415 0.473020 -0.461107 0.403082 -0.316096 -0.480912 -0.060636 -0.361321 -0.189815 0.387842 0.295993 0.448756 -0.397853 -0.288093 0.245811 -0.222355 0.171880 0.033260 0.281928 0.228629 0.366775 -0.262423 -0.021254 0.474904 0.288239 0.149509 -0.249979 0.217104 -0.248197 -0.047790 -0.500492 0.395314 0.088006 -0.315595 0.191253 -0.225094 -0.451152 -0.255726 -0.307453 0.155584 0.254684 0.240328 -0.279334 0.240918 -0.166924 0.064776 -0.395174 0.076746 -0.057285 -0.393033 -0.311906 0.249441 -0.174423 0.166714 0.237124 -0.337574 -0.283794 0.476914 -0.291408 -0.419605 0.315919 0.156603 -0.144443 0.374827 0.429691 0.201622 -0.023592 -0.024524 -0.096053 -0.267759 -0.213269 0.431749 -0.183597 -0.401321 0.500295 0.294725 -0.256818 0.307259 -0.283392 -0.362254 0.210624 0.337589 0.342045 -0.103670 -0.432992 0.255949 -0.256568 0.499440 -0.088793 -0.318128 -0.177597 -0.321342 -0.284810 -0.095617 0.209514 0.222522 0.170942 0.484193 0.071857 -0.335197 0.471638 0.053615 -0.460039 -0.204807 0.191282 -0.016400 -0.366396 -0.025929 0.426021 0.147696 -0.180303 0.430139 -0.022718 -0.471313 0.433506 -0.479332 -0.237707 -0.143498 0.162479 0.371315 0.040959 0.364271 -0.152612 -0.467148 0.232716 0.137634 -0.050256 -0.360086 0.186334 0.259685 0.222167 0.276135 -0.192810 -0.032725 0.417222 0.275976 -0.151811 -0.010758 0.001204 -0.497669 -0.479961 0.036581 -0.161310 -0.323086 -0.100729 0.237404 0.302948 0.013288 0.088949 -0.415286 -0.120469 -0.284392 0.047497 0.444769 0.081006 0.011516 -0.181701 0.371272 0.155642 0.336290 0.273109 0.210525 -0.243256 0.386323 -0.351488 -0.046176 0.453102 -0.294334 0.428630 -0.229656 0.319870 0.156250 -0.406233 -0.197738 0.366948 -0.480062 0.143186 -0.268546 -0.299378 -0.115034 -0.497903 0.102782 0.096516 -0.441223 0.460694 0.304120 -0.345103 0.169586 0.363118 0.057890 -0.182050 -0.355875 0.382604 -0.347151 -0.335043 0.441289 -0.363233 -0.150719 -0.468381 -0.044751 0.021746 0.139363 0.269467 0.288389 -0.495909 -0.112018 -0.246770 0.146887 -0.261052 -0.433428 0.127431 -0.323742 -0.118990 -0.413953 -0.364062 0.330531 -0.496045 0.194222 0.453075 -0.354738 -0.096209 0.385872 -0.367103 -0.120413 -0.256676 -0.134747 -0.233313 -0.491995 0.249143 0.123995 -0.119953 -0.327421 0.182277 0.186148 0.225430 -0.377662 0.417568 -0.072686 -0.343074 -0.123414 -0.414121 0.276670 0.178297 0.496534 -0.445229 -0.033398 -0.457021 0.072619 -0.276661 0.037216 -0.041873 -0.096051 0.347372 0.244894 -0.138235 -0.260687 0.433045 0.056864 -0.029394 -0.225096 -0.480391 -0.014129 -0.225454 0.422137 -0.229246 0.306540 -0.005803 0.029473 -0.307676 0.048942 -0.429281 0.158566 0.373504 -0.386152 -0.244623 0.213397 0.025480 0.013189 -0.405562 0.240688 0.260448 0.444377 -0.053210 -0.146927 0.131941 -0.419252 -0.460799 -0.268242 0.010051 -0.100037 -0.122874 -0.315554 0.491440 -0.366182 0.409729 -0.496873 0.405345 -0.495810 0.390547 0.449448 -0.029813 0.382344 0.213471 0.358869 0.107869 0.327807 0.303723 0.456953 -0.425226 0.115485 -0.154786 0.488475 -0.166453 -0.005863 -0.091936 -0.457227 0.154942 -0.132211 -0.155191 -0.338998 0.476503 -0.449197 0.167066 0.110641 -0.041930 -0.158669 0.331183 -0.059919 0.464054 -0.236656 -0.111801 -0.469106 -0.076449 -0.048847 -0.440627 0.421771 -0.107846 -0.000322 0.307854 0.421663 0.327462 0.045352 -0.296155 0.456683 0.158914 0.107262 -0.342937 0.177567 -0.276659 0.010371 -0.229353 0.288406 0.158841 0.374502 -0.339428 -0.468428 0.132639 -0.197494 -0.181890 -0.401616 0.112149 0.194243 -0.409314 -0.394129 -0.374473 0.492412 0.397442 -0.087916 -0.465195 0.162468 -0.169784 0.414253 -0.331106 -0.071282 -0.374666 -0.205831 -0.335447 0.114869 -0.010651 -0.303864 0.013713 -0.296570 -0.401282 -0.108068 0.119291 0.009901 0.182556 -0.417635 0.087959 0.335252 -0.119456 0.381854 -0.107972 0.327187 0.323102 0.205593 0.241087 -0.229500 -0.349256 0.307985 0.107791 -0.076549 0.265837 0.284277 0.045398 0.444415 0.464501 -0.060752 -0.202586 0.378506 0.417792 -0.487705 -0.193860 0.276636 -0.319432 -0.448640 -0.025340 0.477121 0.409258 0.005995 -0.009890 0.268150 0.064960 -0.464240 0.217552 0.354940 0.480519 0.115084 0.375528 0.319818 0.057062 -0.417470 -0.103962 -0.394130 0.048748 -0.217540 0.460878 -0.150627 0.013998 0.413567 0.104092 -0.178286 -0.265341 -0.327860 -0.009515 -0.205056 0.468815 0.260465 -0.068608 0.139114 -0.123154 -0.390315 -0.072575 0.111917 -0.449064 -0.107648 0.307954 -0.436931 0.174542 -0.397944 0.194230 -0.362828 -0.234295 0.138992 -0.492023 0.437063 0.382357 -0.492192 -0.170171 0.449232 0.499942 0.229195 0.268606 -0.061126 0.018247 -0.135090 0.154936 0.119362 -0.476488 0.044952 0.394373 0.496095 0.064767 -0.276198 0.233340 -0.460576 -0.394091 0.284409 -0.315508 -0.292114 -0.084151 0.154769 -0.225471 -0.457274 -0.296065 -0.084180 0.389998 -0.048930 0.441234 -0.417104 -0.040939 -0.155195 -0.351168 0.123604 0.233387 -0.350910 0.437153 0.186029 0.272485 0.080422 0.072596 -0.182348 -0.146851 -0.037149 0.245223 -0.123214 -0.342974 -0.394136 -0.272497 -0.347013 -0.248831 -0.382859 0.335430 -0.209765 0.417969 0.374540 -0.261276 0.154739 -0.300054 -0.405804 -0.041326 -0.366607 -0.025530 0.037213 0.213384 0.072149 0.316076 0.476406 -0.445146 -0.068617 -0.139281 -0.390263 0.229232 0.343151 0.284378 0.095730 -0.009701 0.304007 0.358430 -0.193980 0.021616 0.084373 0.202095 0.190256 0.397629 -0.288317 0.460834 0.401864 -0.225497 -0.080458 0.049150 -0.499953 0.292293 -0.350985 -0.449044 -0.182332 0.425397 -0.464683 -0.307697 -0.186280 0.221436 -0.170560 -0.013929 0.499786 -0.006311 -0.225591 -0.080102 -0.225471 0.319939 0.433245 -0.409906 0.425956 0.072419 0.029542 -0.013819 0.060715 -0.233392 -0.072452 0.464502 0.021561 0.060641 -0.456860 -0.303628 0.397890 -0.127756 0.499960 -0.429339 0.441088 0.119530 0.315384 0.162615 0.429501 -0.284299 -0.159089 0.085099 0.096493 -0.096075 -0.476987 0.315341 0.017608 -0.253245 0.296001 -0.217479 0.233171 -0.240935 0.088244 -0.311745 0.448882 -0.460805 0.076428 0.362797 0.256781 -0.111768 0.323688 -0.382257 0.264720 0.233351 -0.076458 -0.409812 0.257125 0.257118 0.433413 0.468613 0.221540 -0.386141 -0.268712 0.460834 0.198072 0.393743 0.295890 -0.496450 -0.037272 0.476573 -0.119648 -0.201976 0.307990 -0.221569 -0.021455 -0.119708 -0.068770 0.107825 0.284327 0.355015 0.045102 -0.248889 0.350895 0.484358 -0.123510 -0.444635 0.041031 0.433453 0.268356 0.311769 0.115733 0.381594 0.405896 -0.421553 0.315939 0.457065 0.127335 -0.182333 -0.385775 0.448989 -0.425454 0.351054 0.052935 0.378742 -0.053111 -0.449231 -0.115501 0.394075 -0.013496 -0.307861 0.245120 0.056632 0.209975 -0.170590 0.307855 -0.500013 -0.307948 -0.096292 -0.202383 -0.378095 0.174554 -0.347077 -0.335291 0.001906 -0.139210 -0.174883 -0.017566 -0.198035 0.370874 -0.331163 0.080197 0.480394 -0.370729 -0.370611 -0.017644 0.182311 0.425506 0.492113 -0.354907 0.311746 -0.072219 -0.425522 -0.472534 0.092158 -0.402042 0.013041 0.170554 -0.440961 -0.100045 0.100036 -0.260775 -0.060457 -0.327256 0.311866 -0.151156 0.127459 -0.119625 0.139320 0.158959 -0.409801 -0.472646 0.158736 -0.496072 -0.201953 0.303742 0.484310 0.155163 -0.280399 0.417807 -0.249025 -0.429342 0.206020 -0.319596 -0.331222 0.064683 -0.303910 0.072622 0.131337 0.096148 0.464528 0.009939 0.433443 -0.127205 -0.311659 -0.010107 0.444877 0.472582 -0.488089 -0.343003 0.248938 0.268305 -0.127542 -0.088217 -0.052949 0.252928 0.229425 -0.331390 -0.370338 -0.103876 -0.037192 0.139193 0.460754 -0.241189 -0.072432 -0.300044 -0.374540 0.088209 -0.190217 0.331357 0.271837 0.456771 -0.268574 -0.272521 -0.296104 0.355032 0.225495 0.021547 0.271996 -0.088702 -0.115526 0.166753 0.252948 -0.158813 -0.045145 -0.315670 0.350871 -0.229395 0.390221 0.154761 -0.476400 -0.492230 -0.421597 0.252929 0.405882 0.174492 0.488303 -0.049032 0.452460 0.174450 0.480393 -0.354990 -0.143134 -0.060862 -0.245051 0.456838 0.127630 -0.150907 0.143127 0.284281 -0.151017 0.103898 -0.013694 -0.198062 0.319446 -0.021398 0.413691 0.390164 -0.205985 0.233279 0.347095 -0.272526 -0.370647 -0.162732 -0.154971 -0.123015 -0.162757 0.311733 -0.178776 -0.405879 0.017648 -0.319560 -0.198170 -0.354902 0.197870 0.370583 -0.448995 0.480461 -0.488171 -0.456923 0.127242 0.135143 0.021553 0.052669 0.139207 0.053083 -0.445048 -0.260850 0.426330 0.127597 -0.119638 0.197570 0.048667 -0.033338 0.421552 -0.284263 0.292117 -0.068688 0.229475 -0.366702 0.397945 0.460728 -0.084283 -0.488356 -0.441163 0.311637 0.178476 0.053035 -0.444982 0.441189 0.252957 0.437176 0.174541 0.092396 0.041204 -0.029441 -0.441193 0.166646 -0.327074 -0.131481 0.237253 0.292096 0.296009 0.209618 -0.170776 0.343144 0.284312 -0.041236 0.048995 -0.350997 0.005939 0.221598 -0.100304 0.111729 0.060781 -0.182384 0.390299 -0.001912 0.378493 0.033319 0.013757 -0.260955 -0.249072 0.394221 -0.491913 -0.358710 0.362747 0.268710 -0.151462 -0.041187 0.307829 -0.284252 0.249031 -0.339375 -0.245172 0.324034 -0.154993 0.280381 -0.213782 0.366695 -0.150952 0.107818 0.115441 0.260851 0.154895 0.402014 0.288236 -0.150911 -0.476436 0.441142 -0.303902 -0.315695 -0.147201 0.005865 0.350964 0.390199 0.350930 0.272460 -0.237264 -0.370500 -0.260895 -0.437253 -0.214184 0.375036 0.429412 0.409872 -0.174481 0.201814 0.433635 0.366676 -0.201795 0.127179 -0.358903 -0.115693 -0.068613 0.107988 -0.010181 0.162748 0.025684 0.080621 -0.080410 -0.190144 0.460795 0.307844 -0.213629 -0.186317 0.417674 0.335473 0.009700 0.127446 0.068665 0.315580 -0.182608 -0.476459 -0.347068 -0.092101 0.390241 -0.429348 -0.296161 0.092271 -0.488371 -0.327537 0.001963 -0.233260 0.346959 -0.182195 0.390084 0.166651 0.194531 -0.060795 0.072313 0.253009 0.386292 -0.111712 -0.213716 -0.496102 -0.053161 0.158895 -0.327434 0.417692 -0.307960 0.421542 0.241154 -0.201783 0.041455 -0.096161 0.052900 -0.358800 0.296232 0.276484 -0.354837 -0.409873 0.186475 0.197933 -0.029249 -0.233333 -0.342993 0.484242 -0.327461 0.115678 0.303960 -0.143053 -0.202017 -0.103836 0.288084 0.099775 -0.131456 -0.052912 0.100062 -0.174527 0.260874 0.221739 0.076572 -0.155308 -0.401975 0.037212 0.260541 0.237320 0.483959 0.049005 0.127438 0.272572 0.311795 -0.480325 0.088344 -0.002225 0.288370 -0.347068 -0.276465 -0.045153 -0.366686 0.468404 -0.496110 -0.303896 0.311835 -0.150716 0.194114 -0.264745 0.198148 0.484431 -0.456990 0.362749 -0.378412 -0.037120 -0.158772 -0.053017 -0.170440 -0.115925 0.170609 0.307740 -0.449088 -0.099898 -0.327482 -0.394504 -0.056783 0.127430 0.021473 0.296118 0.147051 -0.029212 0.394131 0.213800 -0.209742 0.233382 -0.111821 -0.048988 0.252868 0.303889 -0.115554 -0.096078 0.080564 0.040742 -0.229278 0.064792 -0.123530 0.009763 0.347005 0.084064 -0.076608 -0.374627 -0.009782 -0.468437 -0.421546 0.052936 0.323585 0.468628 0.347239 -0.104167 -0.288254 0.205889 -0.472093 0.288278 0.021560 -0.338912 -0.464806 0.268604 -0.037368 0.139139 -0.327309 0.217533 -0.213774 0.135226 0.072553 -0.205851 0.303907 0.421609 -0.339352 -0.127471 -0.237216 -0.249065 0.217938 -0.182389 -0.319616 0.480323 -0.017560 -0.190189 -0.225563 0.436937 0.240976 0.429260 -0.139271 0.355095 -0.143068 -0.311969 -0.194181 0.193968 0.500094 0.441196 0.119592 -0.295863 0.441198 0.366701 0.370774 -0.237151 0.425521 -0.343137 -0.068647 -0.021624 0.440995 -0.484258 0.335276 -0.217523 -0.245260 -0.386279 -0.111865 0.217469 -0.492251 -0.256832 -0.256854 0.358837 0.405667 0.398285 -0.499956 0.146819 0.272388 -0.005836 0.421721 0.307894 0.421562 0.413719 0.484366 -0.119613 -0.464773 0.272626 -0.096083 0.292149 0.327479 -0.265290 -0.005964 -0.123472 0.190232 -0.241062 -0.421559 -0.221441 -0.041391 -0.241240 -0.355001 0.401892 -0.347134 -0.182246 0.029474 -0.378380 0.072545 0.131391 -0.425814 0.350646 -0.029628 0.334954 0.463877 0.041246 -0.123934 0.469638 -0.291490 -0.134444 0.441507 -0.182301 -0.322678 -0.222427 0.098761 0.465113 0.435654 -0.460957 0.496163 0.268671 -0.236505 -0.296425 -0.238438 -0.492842 -0.005513 0.315591 -0.386839 0.402578 0.346826 0.346829 0.212731 -0.284979 0.434102 0.166974 0.491740 -0.228870 0.072743 -0.444382 -0.387428 0.088915 0.308458 0.178513 -0.241200 -0.404814 -0.009661 -0.186059 -0.057399 -0.225435 0.490475 0.037669 0.147240 0.123370 -0.488984 0.468998 -0.113191 0.460855 0.244654 -0.090896 -0.014675 0.123350 -0.178932 0.225691 0.257005 -0.158471 -0.336102 -0.335334 0.499293 -0.217249 -0.214655 0.452671 0.382484 -0.374941 0.209582 0.205303 -0.033057 -0.488444 -0.499827 -0.033306 -0.166604 0.307130 0.396765 -0.097050 0.488526 -0.319152 -0.398237 0.500661 -0.407093 -0.402725 0.201827 -0.465393 -0.205053 0.280245 -0.052782 0.463479 0.028457 -0.495374 -0.256043 -0.323687 0.016923 -0.174232 0.079615 -0.256938 0.436840 -0.480885 -0.485027 0.189948 -0.456536 0.351946 -0.374014 0.280183 0.068508 0.112267 -0.374793 0.303975 -0.103828 0.292597 0.491644 0.190348 -0.421735 0.151897 -0.064459 0.496098 0.338788 0.448470 -0.169886 0.051846 -0.241634 0.484518 -0.064366 0.456635 -0.236995 0.448190 0.248154 -0.114875 -0.177333 -0.032406 0.294881 -0.312808 -0.292284 -0.017762 -0.138771 -0.002127 -0.382432 0.088258 0.257218 0.486112 -0.059680 -0.139585 0.083179 0.170184 -0.123694 0.158075 0.412688 0.190106 -0.147206 0.228451 0.344521 -0.001997 0.272324 -0.265779 -0.002419 -0.339654 0.061282 -0.283372 -0.475488 0.052567 0.002320 -0.421527 -0.194072 -0.280635 0.430461 0.354469 0.069115 0.205810 0.304043 0.234732 -0.049362 0.037473 0.309426 -0.389819 0.335026 0.019466 -0.167092 -0.256958 -0.076416 -0.026798 0.268287 0.327110 0.425386 0.269646 0.100927 -0.418113 0.366136 0.166329 0.084718 0.197518 0.244804 -0.140096 0.323273 -0.352073 -0.348161 0.018242 -0.386277 -0.457460 -0.319152 0.292170 -0.055572 -0.005494 0.265146 0.374880 -0.165563 -0.225301 -0.421170 -0.471139 -0.139520 -0.272561 -0.006583 -0.021506 -0.433503 0.374899 0.371253 -0.354680 0.111078 -0.099443 0.170536 0.084995 0.401695 -0.248765 0.146608 0.079885 -0.249134 -0.032188 -0.256566 0.393935 -0.053642 -0.465306 0.239892 0.468429 -0.182592 -0.117051 0.084558 -0.197061 -0.225318 -0.471956 0.123750 -0.475385 -0.433073 -0.170287 -0.028931 0.190133 0.204824 0.500613 -0.432859 0.472467 -0.112997 0.221101 0.158234 0.173484 0.359318 0.180793 -0.320968 0.086055 -0.382752 -0.111887 0.194823 0.392067 0.249554 -0.186277 -0.408620 0.317673 -0.058956 0.186452 -0.380180 0.237450 0.018840 0.166739 -0.103064 -0.464407 0.302235 0.424163 0.379064 0.276298 -0.202277 0.433265 0.033270 -0.233543 0.419365 0.474028 0.403415 0.253213 -0.378947 -0.376713 -0.229469 0.434670 -0.438833 -0.149388 -0.388732 -0.472898 0.055203 -0.171812 -0.412993 -0.378243 0.405793 -0.315247 0.354789 -0.392840 0.035137 0.343689 0.226881 0.206169 0.313252 -0.019784 0.060186 0.182285 -0.312465 0.479940 -0.042399 -0.018126 0.321724 0.242106 0.322659 0.237224 -0.446491 -0.286423 0.031788 0.169235 0.170839 0.392252 0.040506 -0.472516 0.123387 0.186211 -0.165865 0.237168 -0.143485 0.134178 -0.411577 -0.011192 0.233928 -0.267813 0.245010 0.292525 0.155470 0.372514 0.284355 0.310413 -0.176817 -0.383466 0.115614 -0.382620 -0.418865 -0.428078 -0.073942 -0.053212 -0.229415 0.163314 0.010394 0.400580 -0.006721 -0.027767 0.053179 -0.036005 0.227088 -0.033841 -0.106808 0.111637 0.056874 0.122312 0.051809 -0.362651 -0.021270 0.449067 -0.274763 0.234183 0.484052 0.282247 -0.012218 0.460656 -0.459749 0.306678 -0.424716 -0.094328 0.467273 0.362933 0.089236 -0.017885 0.085901 -0.280755 -0.112395 0.371437 -0.376082 -0.242110 -0.248566 0.365086 0.468844 -0.233674 0.220281 -0.288594 -0.147969 0.170399 -0.345456 -0.486355 -0.149964 -0.480989 0.066911 0.400931 0.009368 -0.347959 -0.024737 -0.052621 0.280477 0.378716 -0.298976 0.393722 -0.250951 -0.376430 0.201213 0.138074 0.458162 0.202794 -0.220486 0.220737 -0.366309 -0.383426 -0.197381 0.308263 -0.236169 -0.469095 -0.016964 0.341694 -0.304043 -0.080414 0.146089 -0.213019 -0.172627 -0.231763 0.158251 -0.350670 -0.336080 -0.072047 0.263951 0.069711 -0.272140 -0.347654 0.361938 -0.004561 0.124320 0.353858 0.392538 -0.304653 -0.487540 -0.474557 0.464679 -0.398197 -0.234142 -0.431242 0.015767 -0.250215 -0.119232 -0.106062 -0.165923 -0.397985 -0.377859 0.358312 -0.235237 0.101406 -0.209723 -0.040251 -0.208388 -0.332228 0.478492 0.307215 0.190862 0.484356 0.467749 -0.154104 -0.351854 -0.221429 -0.263597 -0.427239 0.346883 0.336178 -0.085019 0.446498 -0.268263 0.397057 -0.464651 -0.170516 -0.317833 0.290321 -0.265980 0.440449 0.030208 0.004612 0.071856 -0.073529 0.182431 -0.280625 0.430650 -0.494657 -0.105667 -0.215663 -0.299416 -0.354200 -0.311888 0.323185 -0.207990 -0.028026 -0.237732 0.457060 0.368914 -0.467901 0.240639 0.103410 -0.161198 0.421311 -0.324398 -0.023704 0.102705 0.441454 0.397283 -0.137510 -0.052938 0.399547 -0.332042 -0.123458 -0.050878 -0.370570 -0.180514 0.037029 -0.451521 0.234435 -0.246517 -0.272212 -0.402810 0.304970 0.095536 -0.023849 0.385130 0.459033 0.305254 0.229603 0.247981 0.426799 -0.497880 -0.290470 0.412979 0.053382 -0.206300 -0.466696 0.015999 -0.184891 -0.079221 0.334334 0.407525 0.179796 0.306761 0.464451 -0.441099 0.406122 -0.162957 0.223554 0.493270 0.255813 -0.201217 -0.307182 0.153611 0.501769 -0.484638 0.337866 0.354956 -0.482915 -0.217852 0.330755 0.345195 -0.092061 0.366021 -0.003187 -0.331066 -0.428037 -0.314960 0.196852 -0.302437 -0.177445 0.090938 0.440278 -0.483545 -0.400514 -0.489926 -0.424588 0.297266 -0.398473 -0.010761 0.472078 -0.170596 0.177880 0.477123 0.253565 0.158849 -0.447133 0.021230 0.087557 0.166030 -0.212597 0.315353 0.158374 0.358127 -0.424209 -0.126405 -0.010127 -0.107693 0.227742 0.163913 0.117176 -0.412304 0.391899 -0.132433 -0.121186 -0.338089 0.271044 0.202298 -0.444085 0.393922 0.307982 -0.485526 0.341501 -0.059118 0.418178 0.210809 -0.389326 0.302603 -0.137140 0.345846 -0.027409 -0.448145 -0.211442 -0.200325 0.031808 0.029476 -0.397055 -0.414336 -0.419448 0.457986 0.023802 0.103339 -0.022267 -0.426462 0.283199 0.326274 0.377514 -0.190729 0.174783 0.256499 -0.336049 -0.253028 -0.255071 0.063013 -0.176386 -0.039819 -0.482846 -0.206295 0.269933 0.419666 0.185792 0.041638 -0.051530 0.372507 -0.053603 -0.469018 0.124331 0.372609 -0.343341 -0.413451 -0.214755 0.376683 -0.261705 0.292819 -0.106126 0.082439 -0.055147 0.277230 0.273715 -0.177284 -0.018890 0.066071 -0.470927 0.397568 -0.391836 0.496487 0.361114 -0.071342 -0.020152 -0.253133 -0.311610 -0.148668 -0.193904 -0.162827 0.434743 -0.203162 -0.079491 0.408216 -0.338731 -0.288405 0.243922 -0.356582 -0.100707 0.323686 -0.368968 -0.425760 0.401045 0.386991 -0.285322 0.486148 -0.428198 -0.141095 0.409352 -0.049587 -0.458296 0.069809 0.477217 -0.156806 0.435346 0.142143 0.071209 -0.312706 -0.226043 -0.443256 -0.439222 -0.284338 -0.093284 -0.371199 0.162007 -0.456405 0.125175 0.330027 -0.005255 -0.119083 0.451704 -0.487506 -0.054060 0.114640 0.218108 0.020795 0.386044 -0.446695 0.139939 -0.490667 0.428816 0.268793 0.060411 -0.237349 0.406088 -0.379899 0.050750 -0.079343 -0.361662 0.278414 0.350194 0.265983 0.480881 -0.184008 0.391328 -0.035658 -0.313732 -0.235842 0.436575 -0.035921 0.500905 -0.182537 0.159072 0.240209 -0.176442 -0.477316 0.461706 0.027361 -0.216458 -0.092833 0.257558 0.370735 -0.283595 0.369984 0.104900 -0.227759 0.358879 0.016311 -0.455546 -0.125095 0.218294 0.447070 0.391118 0.326081 0.175443 -0.462389 -0.122482 0.482510 0.370567 -0.400285 -0.171356 -0.001984 0.010204 0.303512 0.484936 -0.370709 -0.462159 0.398630 -0.277079 0.322278 -0.344492 0.002089 -0.137872 0.028659 -0.363272 -0.166724 -0.060964 0.002674 -0.336888 0.079161 -0.044316 0.492487 -0.365889 0.164924 -0.490120 0.081567 -0.004313 -0.465161 -0.483770 0.033276 -0.282251 0.054518 0.033358 -0.298377 -0.059297 -0.429753 0.439630 -0.269668 -0.101180 0.252297 0.370274 -0.069503 -0.433664 -0.357673 -0.049344 -0.180549 -0.429398 0.179522 0.266629 -0.507033 0.030547 0.350157 0.412829 0.284851 0.346192 -0.280407 -0.135584 -0.106319 -0.278420 0.062125 -0.201776 -0.402688 0.215610 -0.195399 -0.435282 0.239695 -0.028126 -0.423998 0.433806 0.314059 -0.333113 0.493053 0.038178 0.378384 -0.128496 0.252335 -0.081032 0.389733 -0.443031 0.389003 0.058020 -0.238120 -0.258439 0.166116 -0.259991 -0.327434 0.296547 -0.214561 0.029198 -0.443285 0.054057 0.355680 0.404340 -0.058448 -0.154186 -0.065955 -0.098659 0.119844 0.482050 0.434044 -0.424462 0.191543 0.276787 0.088779 -0.464530 0.370498 0.122500 0.146479 0.363941 0.156171 0.025713 -0.457227 0.062512 -0.342029 -0.126659 -0.335059 -0.111831 -0.227664 -0.155888 -0.265634 0.144184 -0.343799 0.209047 0.360717 -0.473539 0.210963 -0.257110 0.337255 0.475772 -0.405894 0.366640 0.147046 0.452465 0.300508 0.204557 -0.416088 0.283325 0.407655 0.316540 0.269335 0.496397 0.351058 0.487223 0.429502 -0.446053 0.491897 -0.480762 -0.099332 -0.055610 0.085843 -0.274170 -0.291536 0.105665 0.408044 -0.491052 0.465277 0.086706 -0.392630 0.216746 -0.125088 0.323817 -0.465719 -0.186022 0.389977 -0.331821 0.401238 -0.168061 0.444024 0.141231 -0.337434 -0.473121 0.247556 0.432617 0.051379 0.471779 0.287219 -0.229337 0.202937 -0.171928 -0.264201 0.163272 -0.105885 0.287848 -0.332020 -0.081330 0.020818 0.306023 0.202048 -0.491537 -0.265256 0.066904 -0.459181 0.473871 0.406587 0.123630 -0.090385 -0.368385 0.232978 -0.049149 0.073816 -0.196691 -0.101574 0.145118 0.412307 -0.397420 0.467287 0.425825 -0.478517 -0.355983 0.429699 0.024609 0.480240 0.190267 -0.066165 0.299615 -0.064794 -0.201388 0.338931 0.156212 0.161645 -0.250526 0.279211 -0.420054 0.499062 -0.244649 0.172632 0.410719 0.005799 0.186339 0.050876 0.011449 0.013135 -0.078780 0.365440 -0.409580 0.006226 0.366884 -0.032970 0.439984 -0.468034 -0.469163 0.143964 -0.363183 -0.127064 -0.134068 -0.435703 0.052738 -0.119305 0.057743 0.239061 -0.478902 0.189004 0.216286 0.216683 0.027310 0.316691 -0.466273 0.099268 0.327613 -0.034052 -0.283942 -0.150831 -0.151418 0.022002 -0.493980 0.005493 -0.481681 -0.331146 -0.341005 0.315559 -0.079849 -0.408697 0.480392 -0.121841 0.342212 -0.077384 0.033742 -0.197356 0.290587 -0.201522 -0.247955 0.097514 0.403494 0.409775 -0.224135 0.194162 -0.487973 0.164461 -0.449119 -0.368764 -0.257908 0.421409 0.174266 0.337662 -0.407067 -0.262836 0.186180 0.165710 0.129052 0.305547 -0.059881 0.077715 -0.171375 -0.381261 0.340488 -0.011902 -0.428411 0.338665 0.166049 0.317696 -0.020081 -0.151912 -0.352340 -0.027082 -0.466412 -0.397736 0.355405 -0.036274 0.307210 0.397476 -0.348824 -0.250284 0.084577 0.467157 0.065214 0.290660 0.190329 -0.243852 0.473956 0.106379 -0.437820 0.162901 -0.352401 -0.489255 0.061620 0.005066 -0.221942 0.420891 -0.092094 -0.370589 0.192301 0.016625 -0.445256 0.311536 0.044842 0.157870 0.303653 0.185953 -0.285135 -0.285639 -0.098848 -0.039808 -0.374474 -0.101380 0.085129 -0.218847 0.357402 -0.298517 -0.423511 -0.267921 -0.290003 0.348123 -0.285761 -0.168561 -0.435787 -0.136836 0.252753 0.314110 -0.398665 -0.401246 0.455492 0.381801 0.343506 -0.309081 -0.286978 -0.406795 0.294435 -0.032730 -0.125705 0.133797 -0.414752 -0.158804 0.446077 0.111398 0.001151 -0.284004 0.082528 -0.500879 0.307812 0.064028 -0.241864 -0.063106 -0.103794 -0.382389 0.254456 0.234068 0.413767 0.393388 -0.312024 -0.335476 0.217022 -0.405810 0.127863 -0.151170 -0.174388 0.374672 -0.403062 -0.385590 0.457549 -0.010222 0.427221 -0.249332 0.283557 0.421088 0.062674 0.456405 0.249096 -0.340004 0.021927 -0.441286 0.174414 0.189829 -0.174784 -0.469298 0.252103 0.359687 -0.092337 0.200772 -0.461296 0.425434 0.227043 -0.060436 -0.062996 0.276645 -0.400764 -0.064455 -0.131559 0.040443 -0.023203 0.481678 -0.471398 0.373833 0.229196 0.209591 0.347609 0.393775 0.491330 0.198266 0.421731 -0.162262 0.392116 0.332403 -0.040673 0.475271 -0.188053 0.263292 -0.084087 0.377514 -0.142163 -0.122164 0.416627 -0.068599 -0.150312 0.135907 0.432524 0.292547 -0.476672 -0.173073 0.431016 0.447569 -0.225879 -0.425872 -0.180145 -0.057874 0.442476 0.483846 0.482012 0.190156 0.386802 0.104675 -0.454992 0.322794 0.116673 0.437922 0.123234 0.021067 -0.209326 -0.233632 -0.264681 -0.347393 0.464888 0.355614 0.222377 -0.096811 0.499719 -0.107170 0.487903 -0.140517 0.332185 -0.302292 0.488470 0.284348 0.425477 -0.034677 0.133811 0.350650 0.398337 -0.119612 0.409795 -0.394024 0.108126 0.225507 0.174191 0.319269 -0.198333 -0.130949 -0.038026 -0.044699 -0.327462 -0.284622 -0.081056 -0.424246 0.300384 -0.028591 0.421416 -0.338842 -0.154862 0.100815 -0.221245 -0.143447 0.174375 -0.367016 0.086979 0.338631 0.115784 -0.279464 -0.284837 0.170210 0.028160 -0.131296 0.210295 0.150382 0.468146 0.475641 -0.248328 0.252692 0.339211 0.393877 -0.272551 -0.065693 -0.033249 -0.072615 -0.079803 0.103879 0.037186 -0.252919 0.472597 0.233640 -0.484292 0.123519 0.288261 0.475079 -0.288253 0.421463 -0.413742 0.021143 -0.037962 0.480270 -0.413706 0.255666 0.217445 0.178984 0.244163 0.140017 0.217878 -0.330967 -0.351504 -0.076898 0.409399 0.099705 -0.233510 0.441166 0.088108 0.193538 0.303906 -0.241432 0.088772 -0.092084 0.452833 -0.191052 0.185757 0.303934 -0.163058 -0.186257 -0.469178 0.488357 0.308239 -0.428865 0.303458 -0.206349 0.209801 -0.179264 0.310929 0.134978 0.186287 -0.064896 -0.291864 -0.343093 0.242569 -0.135226 0.245000 0.053188 0.415519 0.460658 0.068102 0.361378 -0.212626 0.037477 0.370962 -0.265643 0.239112 -0.241185 -0.276553 0.052720 0.351213 -0.450957 -0.131034 -0.433337 0.377116 -0.123425 -0.209849 -0.364202 0.253206 0.215353 -0.126956 0.276452 0.358663 -0.331621 0.024783 0.458709 0.272572 -0.252994 0.185391 0.495677 -0.213742 -0.164387 -0.413536 -0.150970 0.088099 -0.463915 0.319830 -0.394266 0.460643 0.404503 0.472953 -0.119416 -0.151227 0.394257 -0.048816 0.273580 0.319563 -0.193455 -0.170637 -0.323369 -0.256231 0.353809 -0.194252 0.347054 -0.386263 -0.122879 -0.186657 -0.483362 0.120043 0.123387 -0.417630 -0.201476 0.392691 0.280222 -0.453006 0.241089 0.394548 0.092148 -0.253067 -0.283693 -0.052852 0.268172 -0.352304 -0.119405 0.319335 -0.252864 0.319524 0.359314 0.095883 0.409811 -0.288315 -0.350667 -0.401653 0.131399 0.496196 -0.391761 0.378258 -0.319120 0.288344 -0.354898 -0.084455 -0.327481 -0.008997 0.382208 -0.385429 -0.190399 0.291953 -0.249102 -0.084151 0.244562 0.414133 -0.335241 -0.041097 0.405903 0.464657 -0.425247 -0.076549 0.100039 -0.063177 0.013680 -0.248999 0.339129 0.100116 -0.103999 -0.244557 0.022647 0.390286 -0.041123 -0.362740 0.044314 -0.498717 -0.339200 -0.284200 -0.154870 -0.405777 -0.401579 0.025386 0.278933 0.308362 0.060661 0.224272 0.126962 0.390112 -0.087430 -0.432885 0.398304 0.152419 0.144006 0.475286 -0.331819 -0.200760 0.218287 -0.277239 0.064835 0.134695 0.418948 -0.227749 0.162148 -0.016138 -0.457047 -0.128648 -0.489259 0.476524 -0.016816 0.379129 0.071648 0.092499 0.322935 -0.022852 -0.385368 -0.406553 0.162262 -0.417290 -0.037335 -0.036538 -0.448180 -0.190292 0.100126 -0.079426 0.502306 0.241529 -0.054180 0.270589 -0.108090 0.490904 0.408447 0.416669 0.334656 -0.492014 -0.499437 -0.426622 -0.332109 -0.246217 0.313358 -0.468086 -0.491477 -0.063683 0.373549 -0.147056 0.377816 0.370097 0.204846 -0.021539 0.432771 -0.134116 0.048992 -0.266171 0.107771 -0.095492 0.472892 0.335698 0.095925 0.424384 0.048074 -0.068281 -0.026225 -0.364093 -0.068814 -0.069643 -0.378960 -0.070676 0.104195 -0.327171 -0.296657 0.330118 0.023042 0.402452 -0.403988 0.456215 -0.476775 0.300558 0.311857 -0.017395 -0.017723 -0.500246 0.013556 -0.131709 -0.061670 -0.197630 -0.072145 0.122285 -0.224152 -0.123113 0.241167 -0.116505 -0.151146 -0.099729 -0.468246 -0.318039 0.483663 0.201007 -0.378475 0.229421 0.272997 -0.352687 0.389863 -0.040265 -0.331621 0.335944 -0.154489 -0.050178 0.221777 0.468517 -0.190808 -0.043911 0.500002 -0.014395 0.110156 0.065434 -0.428243 0.475510 -0.120291 -0.455649 -0.041393 0.060312 -0.221464 0.053196 -0.122001 0.312820 -0.458405 0.117710 0.186641 -0.064193 -0.298874 0.421681 -0.036272 0.281645 0.449257 0.076184 0.130297 -0.179481 0.099686 0.130973 -0.481623 0.162193 -0.453010 -0.190194 -0.104920 0.427878 -0.468647 0.100391 -0.304053 -0.123286 0.103620 0.342292 0.310256 0.441450 -0.189116 -0.484200 -0.334770 -0.468374 0.402703 0.083164 -0.201261 0.381979 0.084733 0.433710 -0.223640 0.184286 -0.201539 0.294400 -0.182240 0.413378 0.026838 -0.240380 -0.138752 0.198852 0.328106 -0.364163 0.155951 -0.276079 -0.319826 0.034742 -0.255741 0.161379 -0.020369 -0.023741 0.452781 0.460700 -0.323550 -0.414787 0.190472 -0.425491 0.238199 -0.276094 -0.480763 -0.056972 0.405996 0.368388 0.049522 -0.275628 -0.103929 0.139214 0.425118 0.421785 0.154894 0.417813 -0.380428 -0.107654 0.413817 -0.040196 -0.115896 -0.306179 -0.112442 0.241702 0.213464 -0.410065 -0.047846 0.131544 -0.402022 -0.103619 -0.456381 0.421266 0.401872 0.045247 0.072449 -0.088090 0.398188 -0.342987 0.263860 -0.119145 -0.286495 0.088199 -0.426986 -0.425631 0.412738 -0.482980 0.269404 0.099476 0.158560 0.351185 -0.337396 0.229437 0.268413 0.480580 0.358692 0.358902 -0.143769 0.347273 -0.200890 0.225137 -0.366726 0.445958 -0.087311 0.162197 0.366501 -0.468528 0.485789 0.099526 -0.296208 0.095711 -0.333627 0.294421 -0.476820 0.364329 0.232641 0.497693 -0.096663 0.292652 -0.370316 -0.170171 -0.394321 -0.421668 0.353597 0.354338 0.434192 0.315216 -0.198385 0.067072 -0.169237 -0.432893 0.383342 0.413960 -0.382741 -0.354256 -0.239995 0.072606 -0.299413 -0.328262 0.418640 -0.380710 -0.446042 -0.034528 -0.213359 -0.123530 0.253522 0.243580 -0.495391 -0.104172 0.048684 -0.459963 -0.025293 -0.446027 -0.301010 0.236544 -0.483249 -0.186000 -0.383197 0.081292 -0.452957 0.426655 0.150977 0.118557 -0.409336 -0.061078 0.214849 -0.032823 -0.409308 -0.464467 -0.252423 -0.452847 -0.123811 -0.346468 -0.315715 -0.469187 -0.136249 -0.322741 -0.168990 0.289471 -0.217896 -0.397764 0.206628 -0.248654 0.422929 -0.125126 -0.018148 0.071696 -0.452978 0.002068 0.147010 -0.386063 -0.171374 -0.409671 -0.390091 -0.181319 -0.268526 -0.069300 -0.004746 -0.487609 -0.221477 -0.069056 0.487003 -0.440724 -0.057050 -0.465829 0.359049 0.409396 -0.056907 -0.429339 -0.163003 0.420176 0.366631 0.434113 -0.393647 0.182290 0.303961 -0.086808 -0.260643 0.103529 -0.243826 -0.066698 -0.376623 0.389137 -0.415248 0.306955 -0.198590 -0.413575 -0.405733 -0.137066 -0.480406 0.374595 -0.068744 0.084492 0.454770 -0.350222 -0.026250 0.475116 -0.333007 -0.143278 -0.414785 -0.110863 -0.436161 -0.310249 0.428996 0.064784 -0.272907 0.419698 0.345840 -0.335277 0.327393 0.273098 0.045350 -0.472801 0.062299 0.492356 -0.405967 -0.049597 -0.064715 0.406991 -0.194146 0.279759 0.400454 0.269178 0.292398 -0.292391 -0.183381 -0.229612 0.242189 -0.287862 0.088705 0.130982 -0.056272 -0.182295 0.350952 0.142529 0.052638 -0.489973 -0.229831 -0.307439 0.270126 -0.283963 -0.101166 0.418487 0.339997 0.067758 -0.397508 -0.028568 -0.103965 -0.204785 0.421700 -0.437315 -0.157753 0.323921 -0.488664 0.165315 -0.242107 0.314784 0.068625 -0.478778 0.166650 -0.079950 0.215021 -0.457673 -0.209973 -0.086024 -0.080418 -0.476137 -0.178929 0.127001 -0.166247 0.017375 -0.484095 -0.201759 0.163768 -0.339453 0.100413 -0.008967 -0.166590 -0.481558 -0.330704 -0.041006 0.213731 -0.407150 -0.397382 0.166927 -0.123632 -0.343943 -0.414162 -0.248591 -0.030742 0.039227 0.469170 -0.202461 0.040378 -0.426167 0.112444 0.351802 -0.286428 -0.496064 0.105405 0.276271 -0.158592 -0.331887 0.003081 -0.233455 0.315171 0.488762 0.139199 0.084314 0.041159 0.096107 0.378431 0.178425 0.401818 0.264705 -0.166611 -0.060786 0.017610 -0.029431 0.021746 0.139195 0.033281 0.080435 -0.492182 -0.347021 0.386279 -0.252937 0.233394 -0.409867 0.170594 -0.452923 0.170608 -0.460785 -0.064931 0.480443 -0.084305 0.472768 -0.178437 -0.445107 0.158817 -0.037319 -0.225467 0.201730 -0.452947 0.405841 -0.209751 -0.072498 -0.311706 -0.131379 -0.327452 0.327460 -0.009730 -0.096083 -0.335365 0.241166 0.351013 0.303850 -0.484342 0.021233 0.456697 0.021569 0.217657 -0.280456 0.060752 -0.437255 -0.256967 -0.119606 -0.272574 -0.468589 0.178418 -0.437236 0.033333 0.252936 0.319524 0.496076 -0.092330 0.088255 0.056827 -0.406217 0.100025 -0.115540 0.154971 0.154960 -0.425517 -0.104061 0.433284 0.343139 -0.272587 -0.237263 0.401950 0.170851 -0.194298 0.425709 0.303950 0.150918 0.060742 -0.370704 0.292400 -0.464632 -0.441112 -0.190197 0.037264 0.017618 0.249166 -0.131366 -0.072624 -0.374513 0.170581 -0.366778 -0.010044 0.303933 0.307846 -0.457265 -0.386323 0.351078 -0.460784 0.256778 -0.099951 -0.252948 0.492203 0.127448 -0.123516 0.147040 -0.496084 -0.394118 0.386264 -0.448908 -0.315699 -0.233334 -0.492159 0.135400 -0.041156 0.307925 -0.186272 0.190182 -0.433130 -0.390284 0.037254 -0.496064 -0.100345 -0.256871 0.111945 0.084331 -0.123656 0.256578 -0.013792 -0.068639 0.484308 -0.186264 0.484042 0.025527 0.111752 0.343095 0.468628 0.362741 0.252866 -0.296123 0.217712 -0.382372 -0.217637 0.210062 -0.433417 -0.488644 -0.445104 0.025437 0.060783 0.339273 -0.029402 -0.119610 -0.472627 0.260858 -0.150965 0.496153 -0.284397 0.154954 -0.488529 0.307612 -0.409767 -0.092149 -0.033314 0.060783 -0.280288 -0.064561 -0.107813 0.468529 -0.382327 -0.084528 0.401985 -0.452909 -0.213768 0.107843 0.197989 0.186263 0.296074 0.386108 0.339275 -0.413459 -0.119632 0.366721 0.119638 0.292104 -0.186285 0.307985 0.064637 -0.209900 -0.492162 -0.480465 0.225229 -0.162753 0.158807 -0.009803 0.052940 -0.405936 -0.182364 0.096329 -0.323440 -0.315626 -0.068872 0.335259 0.358797 -0.445005 -0.225502 -0.315715 0.468636 -0.460693 -0.182328 -0.084322 0.017661 0.198058 0.182352 0.288100 -0.351002 0.182497 -0.135284 0.170528 -0.229518 -0.162848 -0.009781 0.205891 -0.382355 0.480513 0.182099 0.292169 -0.397916 0.111744 -0.354902 0.252974 0.480457 -0.025336 -0.213738 -0.299964 0.088207 -0.166792 0.480462 -0.233277 0.390446 -0.076576 0.394121 -0.221510 -0.284314 0.327348 -0.186983 0.076505 0.213739 0.315686 -0.284301 -0.335275 -0.460775 -0.084314 -0.052941 0.323528 0.174489 -0.472567 0.343136 -0.401958 -0.143137 -0.123501 -0.374510 0.413725 0.445107 -0.405891 -0.076469 -0.127455 0.052941 0.374520 0.488234 -0.472545 -0.323529 -0.241175 -0.378429 -0.390215 0.225507 0.123529 0.119602 -0.358827 -0.021613 -0.013726 0.417651 -0.088249 -0.276469 -0.072553 -0.374506 -0.303922 0.150983 -0.445097 -0.072534 0.029410 0.107846 -0.103945 -0.433333 -0.362741 0.052953 -0.194118 0.347067 -0.056862 0.135294 -0.139218 0.460789 -0.417636 -0.217647 -0.480396 -0.139216 0.194118 0.468628 -0.056865 0.492157 -0.449034 0.319624 -0.072550 -0.099980 0.033342 -0.131372 -0.390214 0.139209 -0.394117 -0.382349 0.060783 0.303923 0.284316 0.100001 0.323527 -0.076492 -0.088230 -0.288232 -0.425489 -0.292158 0.072550 0.045082 -0.382355 -0.154857 0.300002 0.013704 -0.150970 -0.409806 -0.186275 0.323562 0.088245 -0.005853 -0.096078 -0.056863 -0.029412 -0.472524 -0.492158 -0.303917 0.190193 0.260785 0.150976 0.472562 0.045098 -0.186275 0.354910 -0.323529 0.303929 0.080392 0.468651 0.056865 0.174520 -0.147055 0.256882 -0.166650 -0.370588 0.068634 0.347027 -0.437255 -0.382352 -0.013724 -0.307843 -0.115690 -0.390196 -0.021575 0.139201 0.198032 0.025507 -0.476471 -0.166667 -0.413700 -0.056891 0.119590 -0.354900 0.143137 -0.147059 -0.425490 0.425483 -0.311766 -0.350976 0.201967 0.303912 0.194118 0.449024 -0.021571 -0.417649 0.158824 0.100000 0.398038 -0.068593 0.143147 -0.484310 0.025491 -0.225488 -0.268643 0.005887 -0.370588 0.103937 -0.405886 -0.327451 -0.009822 0.339210 0.292155 -0.241170 -0.072567 -0.421565 0.201968 0.296082 0.484310 -0.303916 -0.464732 0.147059 -0.358845 -0.229418 -0.260786 0.401972 -0.378434 0.417652 0.233335 -0.174511 -0.096062 0.311765 -0.049021 -0.178431 0.186272 -0.033272 0.421572 0.445089 -0.049038 0.468652 -0.182356 -0.303903 0.370588 -0.268625 0.300010 0.021525 -0.084301 0.386295 -0.452907 0.158825 0.441176 0.162746 0.366667 -0.445111 -0.237259 0.488237 0.425475 0.276470 -0.052942 -0.076473 -0.201967 -0.205884 -0.158826 0.300001 -0.233326 0.103910 0.429417 -0.378435 -0.378436 -0.421581 0.060784 0.472549 0.229410 0.307844 -0.131385 -0.370597 0.496080 -0.139216 0.017647 0.299976 0.464699 -0.221572 -0.209774 -0.045087 -0.096096 -0.394111 -0.237255 0.182353 -0.331380 0.409783 0.037252 -0.127452 -0.005875 0.174487 -0.009810 0.245105 -0.417652 -0.241178 -0.284319 -0.398056 -0.241176 -0.158806 -0.041171 0.076479 -0.225482 -0.480392 0.252947 -0.311756 0.417652 -0.221569 0.088235 -0.029413 0.174499 0.209796 0.135294 0.362747 -0.378431 -0.123515 0.366667 0.245098 0.496082 -0.049025 -0.401960 -0.343138 0.256863 0.425495 -0.488235 0.350982 0.386275 0.033333 0.107844 -0.064717 -0.374502 0.041176 0.052938 -0.154904 0.111743 -0.009805 -0.288233 -0.362753 0.201962 -0.225491 -0.374508 0.288235 -0.299999 -0.343136 -0.456856 -0.025491 0.100002 -0.429424 0.327451 -0.021566 0.284321 -0.331373 -0.464702 -0.013725 0.092158 -0.280393 0.354904 0.405887 0.178431 0.233331 0.103922 -0.362745 0.150980 -0.480393 0.158823 -0.280400 -0.147051 -0.476471 -0.441165 0.229416 -0.421568 -0.500009 -0.237258 -0.135294 -0.268625 -0.456864 0.174510 0.084315 0.323530 0.256862 0.245087 -0.068625 0.264707 0.103923 -0.013726 -0.154902 0.268619 -0.386277 0.103943 -0.123528 0.413715 -0.068622 0.366666 0.460784 0.292174 0.111770 -0.472534 0.005882 0.209804 0.190196 -0.492144 -0.217647 -0.209801 0.480391 0.221569 -0.233335 0.068634 -0.500000 -0.343137 0.115689 0.311765 0.362749 0.021569 -0.217635 0.115686 -0.194113 0.009806 -0.147049 0.092166 -0.331373 0.362749 -0.068642 0.041176 0.445099 0.221570 -0.378431 0.049019 0.382353 0.147056 0.037248 -0.496082 -0.307834 0.256863 -0.107843 0.366680 0.390182 0.452932 -0.013724 0.158824 -0.347059 -0.100000 0.225488 0.413725 0.017649 -0.456859 0.303917 -0.119608 0.060786 0.190194 0.150979 0.394118 -0.092157 0.009804 -0.272533 0.001967 -0.225489 0.315687 0.150981 -0.205890 0.354905 0.374510 0.347067 0.150978 0.174510 -0.260793 -0.429415 0.064705 0.335298 -0.358832 0.288237 0.452945 0.256865 0.449018 0.264709 0.119595 0.162745 -0.347069 0.350977 -0.135294 -0.296073 -0.468629 -0.476469 0.049020 -0.001962 0.033340 -0.300000 0.166666 0.013725 -0.409806 -0.350949 0.194120 -0.154907 -0.025498 0.064719 0.209802 0.331382 0.201961 -0.037254 0.225495 0.374488 -0.284307 0.229423 0.445114 0.421569 -0.135294 0.158825 -0.205882 -0.190202 0.339214 0.096079 0.378423 -0.296078 0.303922 -0.221570 0.147056 -0.347060 -0.072550 0.370589 0.150984 -0.241181 0.056865 0.315685 -0.300002 0.154896 -0.378431 -0.174510 -0.088236 -0.017646 -0.194124 -0.339220 -0.025490 -0.009804 -0.115686 -0.449032 0.429408 0.452940 -0.033317 0.460789 0.441166 -0.343134 -0.394118 0.115686 0.366663 0.143127 -0.009805 -0.064707 -0.017644 0.382340 0.272547 -0.366664 -0.249023 0.433332 0.123526 0.347050 0.409804 0.476480 -0.358821 0.284317 0.143137 0.331373 -0.484314 0.303922 0.390196 0.170588 -0.468627 0.158824 0.350980 -0.500000 -0.382353 0.500000 0.119608 0.056863 -0.060784 0.064706 0.398039 0.449020 -0.033333 -0.288235 -0.174510 0.068627 0.205882 0.135294 0.303922 0.496078 0.072549 -0.303922 0.166667 0.421569 -0.449020 -0.092157 -0.331373 0.037255 -0.092157 -0.452941 0.300000 -0.029412 0.335294 -0.456863 0.386275 -0.343137 -0.072549 0.029412 0.331373 -0.013725 0.013725 -0.319608 -0.429412 -0.092157 0.009804 0.433333 -0.343137 -0.488235 0.339216 0.433333 0.421569 -0.045098 -0.405882 0.500000 -0.280392 0.107843 -0.111765 -0.005882 0.166667 -0.084314 0.245098 -0.480392 -0.147059 -0.354902 -0.170588 0.327451 -0.480392 0.037255 -0.296078 -0.429412 0.445098 -0.472549 0.166667 -0.009804 -0.390196 -0.072549 0.260784 -0.084314 0.174510 0.398039 -0.143137 -0.205882 -0.241176 -0.174510 -0.331373 0.213725 0.033333 0.366667 0.284314 -0.194118 0.468627 -0.201961 -0.127451 -0.358824 0.264706 0.013725 -0.131373 0.049020 -0.249020 -0.021569 -0.088235 0.315686 0.268627 -0.292157 0.315686 0.249020 0.319608 -0.370588 0.249020 0.092157 -0.037255 -0.288235 0.456863 -0.484314 0.068627 -0.158824 0.045098 0.370588 -0.386275 -0.335294 0.021569 -0.417647 0.456863 -0.276471 0.194118 -0.217647 -0.225490 0.417647 0.347059 -0.080392 0.339216 -0.288235 -0.452941 -0.170588 -0.060784 -0.025490 -0.158824 -0.409804 0.492157 -0.284314 0.272549 0.064706 0.037255 0.001961 -0.307843 0.198039 0.162745 -0.370588 -0.225490 0.190196 -0.386275 -0.221569 0.452941 -0.449020 0.060784 -0.386275 0.154902 0.456863 -0.174510 0.268627 0.409804 0.288235 -0.205882 0.213725 0.464706 0.084314 0.374510 0.162745 0.366667 0.111765 -0.382353 -0.115686 -0.135294 -0.111765 -0.249020 -0.398039 0.307843 0.496078 -0.370588 0.331373 0.205882 0.123529 0.264706 -0.064706 -0.186275 -0.217647 0.347059 0.307843 0.237255 -0.147059 -0.205882 -0.225490 -0.354902 0.276471 -0.229412 0.268627 0.319608 -0.405882 0.311765 0.201961 -0.476471 0.166667 -0.056863 -0.001961 0.350980 -0.331373 0.319608 0.068627 0.017647 -0.245098 0.492157 0.378431 0.484314 -0.425490 0.378431 0.374510 -0.500000 -0.288235 -0.401961 -0.190196 0.327451 0.323529 -0.217647 0.378431 -0.488235 0.096078 -0.335294 0.049020 0.401961 -0.170588 0.088235 -0.452941 0.449020 -0.056863 -0.500000 0.205882 0.080392 -0.237255 0.158824 -0.256863 -0.484314 -0.347059 0.190196 0.209804 -0.131373 -0.464706 0.045098 0.080392 -0.252941 -0.421569 0.064706 -0.005882 -0.190196 0.449020 -0.441176 -0.347059 0.068627 0.166667 0.194118 -0.119608 0.445098 0.268627 -0.354902 -0.005882 0.311765 0.154902 -0.323529 -0.307843 0.068627 -0.194118 0.135294 -0.139216 0.496078 0.288235 -0.390196 -0.390196 0.245098 -0.421569 0.013725 0.327451 -0.033333 -0.488235 -0.017647 0.280392 -0.158824 0.064706 0.131373 0.221569 0.229412 -0.292157 0.500000 0.080392 0.178431 -0.390196 -0.409804 -0.060784 -0.449020 -0.115686 -0.064706 -0.115686 0.198039 0.205882 0.300000 0.374510 -0.260784 -0.323529 -0.276471 -0.398039 -0.229412 -0.468627 0.354902 -0.158824 0.088235 0.460784 -0.452941 -0.354902 -0.017647 0.174510 -0.327451 0.158824 -0.492157 0.237255 -0.315686 -0.249020 0.382353 0.386275 0.111765 0.370588 0.229412 0.107843 0.413725 -0.080392 -0.468627 -0.025490 -0.409804 0.429412 0.288235 -0.264706 0.468627 -0.268627 -0.182353 0.480392 -0.162745 0.366667 0.088235 -0.421569 0.017647 0.464706 0.213725 -0.131373 0.339216 -0.107843 -0.296078 -0.084314 -0.296078 -0.237255 0.460784 -0.221569 0.249020 -0.233333 0.060784 -0.209804 -0.398039 0.013725 -0.409804 0.252941 0.096078 0.084314 0.366667 0.452941 -0.417647 -0.468627 0.300000 -0.213725 -0.221569 -0.347059 -0.096078 -0.370588 0.307843 0.401961 0.017647 0.292157 0.013725 -0.429412 0.409804 0.472549 0.409804 0.139216 0.049020 0.323529 0.484314 -0.029412 -0.421569 0.252941 0.445098 0.084314 0.245098 -0.119608 0.245098 -0.488235 0.358824 -0.060784 0.445098 0.190196 0.484314 0.217647 -0.311765 -0.217647 0.382353 -0.300000 -0.037255 0.150980 -0.492157 0.217647 -0.072549 0.292157 0.252941 0.366667 -0.017647 -0.162745 0.017647 -0.398039 -0.186275 -0.347059 -0.060784 -0.405882 0.405882 -0.041176 0.198039 0.296078 0.496078 -0.064706 0.449020 -0.319608 -0.092157 0.170588 -0.327451 0.500000 0.327451 -0.139216 0.084314 0.315686 0.268627 0.201961 -0.445098 0.484314 0.292157 0.084314 0.417647 0.068627 -0.115686 0.103922 -0.347059 -0.178431 0.080392 -0.476471 0.049020 -0.398039 -0.350980 0.154902 0.401961 0.264706 0.417647 -0.276471 -0.264706 0.209804 -0.492157 0.158824 0.049020 -0.331373 0.264706 0.237255 0.433333 0.374510 -0.413725 0.433333 -0.178431 -0.347059 0.131373 -0.209804 0.182353 -0.205882 0.017647 -0.229412 0.182353 0.354902 -0.072549 0.417647 -0.017647 0.350980 -0.276471 -0.343137 0.245098 -0.276471 0.386275 -0.041176 -0.456863 0.280392 -0.084314 -0.409804 0.488235 0.374510 -0.292157 -0.445098 -0.472549 -0.080392 -0.429412 -0.033333 0.029412 0.005882 0.468627 -0.041176 0.256863 -0.307843 0.335294 -0.272549 -0.017647 0.194118 0.170588 0.060784 0.386275 0.303922 0.056863 -0.190196 0.484314 -0.237255 -0.005882 -0.221569 -0.041176 0.456863 0.394118 0.005882 -0.366667 0.060784 0.480392 -0.068627 0.005882 0.405882 -0.017647 -0.394118 0.476471 -0.233333 -0.190196 0.096078 -0.025490 -0.398039 0.382353 0.347059 -0.311765 0.182353 0.350980 -0.147059 0.429412 0.284314 -0.409804 -0.237255 -0.378431 -0.480392 0.052941 -0.084314 -0.076471 -0.064706 -0.115686 -0.158824 0.139216 0.209804 -0.260784 0.127451 -0.060784 -0.064706 -0.170588 -0.296078 0.166667 -0.049020 -0.288235 -0.041176 -0.029412 -0.335294 -0.307843 0.225490 0.452941 -0.252941 -0.378431 0.060784 -0.350980 0.060784 0.347059 0.303922 -0.084314 -0.405882 0.005882 0.241176 -0.174510 -0.421569 0.017647 0.103922 0.201961 -0.115686 -0.496078 -0.343137 -0.186275 -0.221569 0.096078 -0.409804 0.201961 0.052941 0.382353 0.154902 0.186275 0.127451 -0.272549 -0.452941 0.378431 -0.131373 -0.315686 0.280392 -0.025490 0.021569 0.100000 0.084314 -0.268627 0.115686 0.307843 0.260784 -0.092157 -0.456863 0.429412 -0.107843 0.264706 0.417647 -0.421569 -0.029412 0.413725 -0.323529 -0.394118 -0.119608 -0.123529 -0.272549 0.029412 -0.217647 0.201961 0.041176 0.158824 0.354902 -0.190196 -0.323529 -0.052941 -0.096078 -0.315686 -0.174510 -0.327451 -0.374510 0.472549 -0.127451 -0.005882 -0.311765 -0.437255 -0.100000 0.323529 0.386275 -0.076471 0.366667 -0.084314 -0.135294 0.480392 0.425490 0.452941 0.237255 0.041176 0.013725 0.323529 -0.205882 -0.327451 -0.229412 0.001961 0.198039 0.229412 0.452941 0.237255 -0.343137 -0.358824 -0.417647 -0.056863 0.178431 -0.307843 0.233333 -0.339216 0.347059 -0.111765 -0.158824 0.174510 0.433333 -0.005882 0.009804 -0.221569 0.425490 0.147059 -0.178431 0.343137 -0.052941 0.245098 -0.076471 0.252941 0.456863 -0.256863 -0.209804 -0.049020 -0.005882 0.366667 -0.500000 0.256863 -0.025490 -0.064706 0.025490 0.358824 -0.335294 0.292157 0.162745 -0.233333 0.001961 0.229412 -0.327451 -0.127451 0.492157 -0.103922 -0.480392 0.174510 0.441176 -0.001961 -0.370588 -0.472549 -0.107843 -0.170588 -0.154902 -0.370588 0.229412 0.072549 0.315686 0.335294 0.292157 -0.217647 0.272549 0.221569 0.468627 -0.496078 0.013725 -0.237255 0.249020 -0.049020 0.111765 -0.080392 -0.374510 -0.005882 0.284314 -0.256863 0.413725 0.268627 0.292157 -0.464706 0.268627 0.092157 -0.001961 0.319608 0.319608 -0.182353 -0.072549 0.398039 -0.182353 -0.339216 -0.484314 -0.076471 -0.409804 -0.198039 -0.370588 -0.343137 0.284314 0.072549 -0.072549 0.303922 0.260784 0.009804 0.460784 -0.213725 0.092157 0.437255 -0.409804 0.429412 -0.143137 0.100000 0.339216 -0.170588 0.143137 -0.335294 -0.252941 0.096078 0.205882 0.135294 -0.045098 0.394118 -0.292157 0.213725 0.378431 -0.123529 -0.072549 -0.119608 -0.178431 -0.029412 -0.056863 0.476471 0.131373 -0.390196 -0.452941 0.276471 0.264706 0.425490 0.245098 0.205882 -0.201961 0.296078 0.088235 -0.190196 -0.445098 0.252941 -0.245098 -0.076471 -0.131373 0.201961 0.209804 -0.417647 0.452941 0.103922 -0.119608 -0.335294 0.068627 0.084314 0.064706 0.327451 0.119608 0.500000 -0.378431 -0.366667 0.358824 -0.166667 -0.441176 -0.060784 -0.139216 -0.401961 0.323529 -0.366667 -0.311765 -0.037255 -0.323529 0.182353 -0.460784 -0.001961 0.480392 0.311765 0.437255 -0.182353 0.158824 -0.276471 -0.237255 0.398039 0.449020 0.013725 -0.154902 -0.300000 0.300000 0.488235 -0.029412 0.135294 0.190196 -0.429412 -0.119608 0.464706 0.174510 0.280392 0.217647 -0.405882 0.209804 -0.245098 -0.233333 -0.256863 0.001961 0.217647 0.162745 0.480392 -0.009804 -0.201961 0.009804 0.029412 -0.123529 -0.441176 -0.213725 -0.264706 -0.492157 0.221569 -0.060784 0.209804 -0.025490 -0.358824 0.064706 0.288235 0.123529 0.135294 0.096078 0.139216 0.366667 0.029412 -0.339216 0.452941 -0.421569 0.272549 -0.056863 -0.225490 -0.001961 -0.072549 -0.123529 -0.445098 -0.072549 0.225490 -0.213725 -0.347059 0.476471 -0.464706 0.311765 0.276471 -0.107843 -0.492157 0.068627 0.496078 -0.472549 0.217647 0.492157 0.198039 0.154902 0.217647 0.115686 -0.272549 -0.068627 -0.041176 0.300000 0.103922 -0.405882 0.209804 0.147059 0.260784 0.437255 -0.382353 0.347059 -0.064706 0.217647 -0.425490 -0.468627 0.296078 -0.150980 0.103922 -0.049020 0.323529 -0.029412 0.241176 0.045098 0.084314 -0.452941 -0.209804 0.049020 0.484314 -0.045098 -0.135294 -0.472549 0.252941 0.005882 0.131373 -0.452941 -0.500000 -0.288235 0.327451 0.029412 0.213725 0.186275 0.425490 -0.119608 0.213725 0.158824 0.350980 -0.252941 -0.284314 -0.449020 0.362745 -0.147059 0.001961 0.139216 -0.339216 -0.288235 0.319608 0.413725 -0.394118 0.029412 -0.017647 -0.296078 0.041176 0.413725 0.456863 -0.170588 0.280392 0.017647 0.327451 -0.249020 -0.256863 0.370588 0.488235 -0.303922 0.241176 0.017647 0.413725 -0.433333 0.068627 0.072549 0.150993 -0.499995 0.449008 -0.013732 -0.441190 -0.484318 -0.194125 -0.201963 0.245081 -0.249016 -0.221569 -0.347057 -0.158828 -0.100001 0.307830 -0.225496 0.339219 0.256861 0.111784 0.111771 0.166662 -0.154886 0.150986 -0.205895 -0.409804 0.350979 0.492143 0.343141 -0.229419 0.249028 -0.488233 0.496082 0.080395 0.162746 0.394111 0.315688 0.307845 -0.488234 -0.064715 0.382353 0.088260 0.029412 -0.311771 0.001978 -0.264701 0.245100 0.268618 0.248999 0.143136 0.021571 0.350981 -0.001972 0.119598 0.056860 -0.080399 -0.315689 -0.178432 0.158818 -0.021572 -0.315687 -0.449031 0.456860 0.343147 -0.194116 -0.241164 -0.260783 0.256882 0.068627 0.460779 -0.386270 0.174507 0.135290 0.299999 0.209819 0.370589 0.045105 0.123527 0.488234 -0.001979 -0.233327 -0.421572 0.060780 0.205890 -0.237246 -0.127445 0.343132 -0.421572 0.029407 -0.315690 -0.409814 -0.441176 -0.021570 0.060785 -0.037250 0.107835 0.276475 0.390193 -0.339216 -0.096077 0.350967 0.347053 -0.009806 0.135294 0.405872 0.280395 0.194119 -0.456863 0.268625 -0.264708 0.021561 0.366680 0.088243 -0.476492 -0.111767 -0.429393 0.300004 0.107843 0.300000 -0.111762 -0.221576 0.449021 0.135288 0.237249 -0.480380 -0.198044 0.107821 -0.041187 0.405884 -0.417642 0.284318 -0.307849 -0.049021 0.209817 -0.319586 0.452984 0.366676 0.135292 -0.037252 0.217647 0.256860 0.413732 0.233335 -0.260788 0.049001 -0.292152 0.280401 -0.441177 -0.362744 -0.052940 0.496073 -0.460791 -0.441201 -0.088233 -0.096074 0.405883 -0.198039 0.433347 -0.378432 0.143138 0.029400 -0.076468 -0.225493 -0.233319 0.256879 0.268631 0.127453 -0.080393 0.241173 -0.339220 -0.119626 0.335305 -0.347078 -0.401966 0.241169 0.386281 0.150985 -0.499997 0.303923 -0.052952 -0.080398 0.315686 0.394129 0.060784 0.378427 0.417644 -0.005886 0.135293 0.076466 -0.327451 0.064702 0.186269 0.201955 0.135286 -0.315698 0.088227 0.127452 -0.433335 0.131363 0.135302 0.021577 -0.009800 0.480389 -0.264707 -0.437252 -0.237251 -0.201957 -0.068612 -0.088227 -0.339217 0.456861 -0.264713 -0.092163 -0.405879 -0.386268 0.237245 0.139204 0.068625 -0.076477 0.052939 -0.096075 0.417643 0.225491 0.080394 0.154905 0.084322 0.303922 0.005877 0.249016 0.123533 0.484320 -0.033334 0.182356 -0.103913 0.103922 -0.045107 0.464711 -0.445107 0.394119 -0.429412 -0.123537 -0.229411 0.268624 0.154904 0.323531 0.409776 -0.233328 -0.209809 0.198048 0.272551 -0.217651 -0.009805 0.037269 -0.347067 0.425482 -0.276475 -0.190189 -0.346841 -0.198398 -0.292512 0.456898 -0.362479 0.036747 0.295672 -0.017741 0.205512 0.378286 0.103975 -0.378543 0.139104 0.092300 0.088343 0.225470 0.116094 -0.382127 0.155137 0.437599 0.252119 -0.080072 -0.245026 0.370370 -0.382071 0.009841 0.370525 0.351152 0.488022 -0.095938 -0.245219 -0.052971 0.378212 -0.452969 0.452793 0.409774 -0.429451 -0.468449 0.201707 -0.009780 0.288386 -0.409902 -0.150916 -0.393687 -0.127168 0.445370 -0.170926 -0.421834 0.484184 0.249029 0.010032 -0.225615 -0.372001 -0.073311 -0.002167 0.186170 0.354676 0.268283 -0.441444 0.049004 -0.233769 0.363047 0.158494 -0.021552 0.057253 0.339235 -0.095478 -0.253008 0.115461 -0.319640 0.256758 -0.057037 0.331365 -0.009192 0.158568 0.382109 0.088198 -0.029313 0.393270 0.076567 0.288132 0.421399 -0.370475 0.288373 -0.009520 0.170004 0.453085 -0.025620 -0.182333 0.409593 -0.378571 -0.115733 0.127232 0.312702 0.044937 0.155116 0.197853 0.041181 -0.131118 0.339187 0.300057 0.154887 -0.500259 -0.198245 0.265006 -0.127694 0.288065 -0.025262 -0.025508 0.225387 -0.229148 -0.472290 -0.304181 0.291697 0.370806 0.221563 -0.433299 0.009761 0.472464 0.221811 -0.386246 -0.147525 -0.237449 -0.479619 0.252725 -0.303809 -0.288228 -0.480290 -0.194734 0.433436 0.060511 -0.076461 -0.217814 -0.139037 -0.260667 0.068622 -0.147151 -0.161967 -0.159106 0.354840 0.166988 0.181991 -0.437440 0.495387 0.319419 -0.095891 -0.268503 0.021590 -0.308070 -0.339317 -0.488602 0.366714 0.060915 0.143435 -0.139252 0.260806 0.394470 -0.163046 -0.092208 -0.092248 0.303871 0.139175 -0.252186 -0.319313 0.123454 0.394401 -0.158730 0.189986 -0.347332 -0.370919 0.088380 -0.426190 0.256790 -0.292413 -0.205587 -0.433293 0.260789 0.084260 0.178072 0.291840 0.240748 -0.080457 -0.272762 -0.182559 0.350733 -0.351105 0.472512 0.331068 -0.021606 -0.005854 0.491327 -0.311985 0.280020 0.444835 -0.280582 0.445189 -0.381966 -0.057141 0.304161 0.178354 -0.276362 -0.044979 -0.351125 0.355626 -0.476324 0.178842 0.480975 -0.307347 -0.013877 0.001923 0.354761 0.241059 0.355152 -0.056298 0.225389 0.401925 0.119711 -0.280531 0.025405 -0.115545 0.060648 0.213732 -0.339351 0.460954 -0.017678 -0.056932 -0.292344 0.107567 0.441361 0.315546 -0.331405 0.112019 0.303900 -0.264561 0.335174 0.429525 0.056622 -0.425632 0.119630 0.193680 -0.303316 0.127438 -0.072231 -0.378261 0.358533 -0.335263 -0.351438 -0.193930 -0.041036 0.425227 -0.229223 -0.311305 0.236904 0.425467 -0.406108 -0.154770 0.269704 -0.409241 0.225489 -0.173333 -0.246419 -0.017924 0.446261 0.376702 -0.235279 0.205750 0.424640 0.388207 -0.065356 -0.300121 0.153179 0.448700 -0.335991 0.033993 -0.216202 0.340408 -0.009421 0.347385 -0.275706 -0.301466 0.050420 -0.215750 0.043836 0.344328 0.306562 -0.265811 0.167342 0.198567 0.043011 0.443334 -0.267910 -0.425766 0.403162 -0.402522 0.296247 -0.048315 0.261145 0.064842 0.310026 -0.399557 0.106136 -0.376013 0.376621 -0.099787 -0.064876 -0.236136 -0.244761 0.046998 0.369109 0.048575 0.298639 -0.374551 -0.394267 0.114229 0.348913 -0.147762 -0.190525 0.265317 -0.215085 -0.308513 0.085061 -0.026308 -0.093873 0.295760 -0.123507 -0.048763 0.197133 -0.063730 0.035728 -0.166418 -0.279141 -0.312451 -0.459134 0.443114 0.054226 0.101504 -0.102122 -0.355523 -0.132027 -0.010506 0.071846 0.428694 0.102167 0.405022 -0.465414 -0.174175 -0.495733 -0.394837 -0.099446 0.432296 0.264807 -0.083188 -0.378059 0.417491 -0.476263 0.267105 -0.003120 -0.482393 0.198214 -0.121791 0.457793 0.243595 0.054508 -0.187639 -0.488896 -0.152625 0.137959 -0.391970 -0.139031 -0.229401 0.410567 -0.161212 -0.101247 0.032606 -0.116015 0.269734 0.452806 -0.300958 0.077917 0.260320 -0.039972 0.169010 0.323727 -0.334106 -0.381110 -0.228433 -0.258528 0.431969 -0.025017 -0.387751 0.195832 -0.174157 -0.112998 0.424668 -0.113689 -0.120858 -0.485427 -0.309808 -0.057356 -0.348963 -0.149651 -0.059027 0.229917 0.394151 -0.432703 0.098226 -0.060218 -0.064456 -0.148143 -0.145686 0.170649 0.006001 -0.230624 -0.287859 0.431134 0.036525 0.127016 0.374978 -0.196517 -0.271882 0.314873 0.218113 0.066964 -0.015371 0.451042 -0.148865 0.333828 -0.425779 0.014723 0.071896 0.124845 0.149407 -0.465850 0.291269 0.382490 0.310972 0.128040 0.110493 0.463584 0.069898 -0.456585 -0.376358 0.195032 -0.425754 0.467746 0.194339 0.116922 -0.272620 -0.106761 0.405878 0.267451 -0.269108 -0.476207 0.494691 0.197433 0.329478 0.441599 0.345554 -0.362405 0.136707 -0.439024 -0.343658 0.410259 -0.422678 0.340613 0.475754 0.124845 0.390375 0.132422 0.425158 0.421013 -0.037594 -0.202849 0.356167 -0.381663 0.482519 0.492051 -0.050743 0.185540 -0.363226 0.147307 0.078845 -0.354699 -0.276229 -0.056582 0.164770 -0.299836 -0.256562 0.473217 -0.303623 0.288229 0.348647 -0.372657 -0.288636 0.375362 0.198762 -0.268323 0.215496 -0.252829 0.111465 -0.335739 0.247288 0.269172 0.206862 0.265535 -0.276900 -0.363893 -0.115419 -0.021829 0.281768 0.260641 0.498462 0.357988 0.317761 0.445083 -0.485013 -0.084315 0.432412 0.315199 0.270634 0.184752 0.245243 0.453448 0.030999 0.455132 0.459205 0.150028 0.244243 0.369309 0.005417 0.263638 -0.052928 0.269759 0.422838 -0.064743 0.068624 -0.000340 -0.102572 0.327921 0.154863 -0.072858 0.081932 -0.068789 0.271165 0.373189 0.256189 -0.186953 0.226673 0.177317 -0.207281 0.088717 -0.283791 0.154837 -0.369201 0.027672 -0.292582 0.413659 0.046121 -0.407923 0.018572 -0.418281 -0.401825 -0.080961 0.100702 0.317624 0.436034 -0.200827 -0.152251 -0.221956 0.085165 -0.452713 0.134053 -0.436124 -0.320246 -0.394024 -0.412019 0.214261 0.390161 0.372750 0.278106 0.273284 -0.495766 0.336665 0.296299 0.271786 -0.364596 -0.385222 -0.031093 0.290007 -0.079684 -0.472489 0.014079 -0.091733 0.074640 -0.204335 0.380020 0.299517 0.132748 -0.122704 -0.341194 0.022926 0.193158 0.408474 0.467772 -0.103639 -0.386303 0.135206 0.334653 -0.286739 0.028682 0.119280 -0.281831 0.050082 -0.108613 0.158926 0.073066 -0.421021 0.301369 -0.496601 0.433545 -0.366868 0.272513 -0.428408 0.472472 -0.490845 0.295699 0.264438 -0.301296 -0.461237 0.451862 0.172431 -0.431787 -0.450314 0.055945 -0.291080 -0.192936 0.019604 0.010806 0.236850 0.396746 -0.201452 0.165995 0.420768 0.251292 -0.254962 0.198331 -0.161579 -0.164349 0.030715 -0.417220 -0.413812 -0.047960 0.075028 0.431606 -0.119250 0.144261 -0.202947 0.312746 0.218344 -0.248344 -0.427108 0.324558 0.227614 -0.120657 0.148150 0.128089 0.182881 0.355076 -0.276349 0.486213 -0.221404 -0.114502 0.250256 -0.250275 -0.016971 0.083437 -0.173166 0.108799 -0.285852 0.267458 -0.445682 -0.425537 -0.061085 -0.335661 -0.324595 0.074773 0.487221 0.131969 -0.248443 0.029070 0.444726 0.122683 -0.445772 0.183712 -0.152364 -0.099789 -0.094819 0.462064 0.314490 0.342876 -0.067212 -0.068025 0.316223 0.095302 -0.119173 -0.337975 -0.140650 0.111835 -0.497970 0.482954 0.028095 0.330391 0.490167 0.198015 0.172689 -0.063988 0.330205 0.051164 -0.261966 0.224274 -0.339406 0.046846 -0.313145 -0.389184 0.450265 -0.446832 -0.205747 0.335946 0.430843 0.083124 -0.499261 -0.004855 0.404490 -0.397936 0.306096 -0.113312 -0.373743 0.291498 0.336624 0.400228 -0.334934 0.101137 -0.101292 0.159207 0.369340 0.300800 0.187148 -0.072522 -0.462643 0.143600 -0.246970 0.043054 0.274104 -0.257799 0.497298 0.252676 0.381564 0.160268 0.290915 0.072219 0.455920 0.370540 0.067799 -0.466115 -0.458089 -0.195313 0.170439 -0.001482 -0.165954 0.150196 0.217902 0.140946 -0.176976 0.108451 -0.090501 -0.265689 -0.488993 -0.369446 0.127182 -0.042501 0.307650 -0.367167 -0.133474 -0.022937 -0.334300 0.243933 0.461223 -0.288067 -0.093674 0.205193 -0.202021 0.380636 -0.444527 -0.365295 -0.145010 0.318530 0.437836 0.013020 -0.383281 0.496189 -0.368904 -0.326497 -0.201193 0.403234 -0.251393 -0.477178 -0.460805 0.227387 -0.183418 -0.396859 0.256276 0.171600 -0.156287 -0.080432 0.071549 0.276374 0.446776 0.476188 0.266404 0.153264 -0.312498 -0.005719 0.054988 -0.190090 -0.183934 -0.222525 0.416934 0.118305 -0.190349 0.468240 -0.214685 -0.462990 -0.106183 0.069828 -0.354430 0.168455 0.204422 -0.421796 -0.284469 -0.300828 -0.065608 0.235684 -0.076602 0.097837 -0.058910 -0.434927 0.185262 0.410952 -0.216456 0.421330 -0.238424 -0.454599 -0.022496 -0.473704 -0.240834 0.103130 0.281597 -0.396078 0.115485 0.070830 0.048611 0.168668 -0.129333 0.088619 0.353994 -0.432147 0.372448 -0.381907 0.377684 0.481911 -0.480294 -0.381153 -0.051526 -0.128866 -0.281876 -0.345605 0.119949 -0.240130 -0.098253 -0.022623 -0.370977 -0.376780 -0.396342 0.017755 -0.067210 -0.190015 -0.349784 -0.376428 0.002666 0.271681 -0.307051 -0.289837 -0.155073 -0.501037 -0.239565 -0.322496 0.268695 0.341950 0.009153 -0.414108 0.414762 -0.076115 -0.405865 0.352002 -0.114226 -0.067701 -0.206469 -0.005864 0.442953 0.165130 0.357425 -0.328136 0.339855 0.068951 0.475063 0.225173 0.345397 -0.166894 0.337168 0.211775 0.501514 0.214156 -0.082574 -0.009371 -0.422411 -0.155037 0.482864 0.006300 -0.164905 -0.454281 0.077956 0.057135 0.303812 -0.187569 0.431636 0.431762 0.247958 -0.099458 -0.026480 0.316286 0.122657 0.011765 -0.384200 0.210471 -0.008576 0.010418 -0.320145 0.290378 0.079149 -0.041802 0.276517 -0.482493 -0.478987 -0.176216 -0.401378 0.048843 -0.215916 -0.483433 0.354970 -0.236293 0.443549 0.064680 -0.435520 0.387976 0.038763 0.340913 -0.343891 0.032439 0.240786 0.470522 -0.206621 0.408710 0.445856 0.432174 0.272382 -0.084607 0.350931 0.474612 -0.182258 -0.361222 0.357505 0.344736 -0.421540 0.316050 -0.226505 -0.256271 -0.456206 -0.139669 -0.450975 -0.358305 -0.180108 0.314869 -0.146342 -0.340143 0.118089 0.149250 -0.195543 -0.309186 0.234609 -0.225229 -0.131917 -0.432381 -0.390855 -0.456615 -0.194394 -0.078327 0.343180 0.136224 -0.267351 0.421287 -0.225771 0.231775 -0.267484 -0.493309 0.054339 -0.016366 -0.221083 0.284170 0.422300 -0.141729 0.360911 0.004608 -0.056870 0.235837 -0.447127 0.373137 -0.381406 0.249441 0.334293 -0.235163 -0.066459 -0.316395 -0.208620 0.109407 0.152844 0.502335 -0.133974 -0.099235 -0.298500 -0.291204 0.270413 -0.042622 -0.369079 -0.350833 0.106053 0.231499 -0.215942 -0.103927 0.465990 -0.317808 0.249106 -0.423241 -0.301359 0.364305 0.320478 0.176476 0.470719 -0.361337 -0.057360 0.486497 -0.474446 -0.222537 -0.071195 0.035217 0.104539 -0.047458 0.389745 0.053638 0.195022 -0.061306 -0.405917 0.143790 -0.232217 -0.401815 0.387422 0.097705 -0.422007 0.107934 0.349012 -0.244799 0.041151 -0.215855 -0.334874 0.216831 -0.287617 -0.268850 0.012919 0.322395 -0.324397 -0.183921 0.252892 0.052115 -0.027894 -0.066836 0.461837 0.399692 -0.016836 0.364393 0.081137 0.111996 0.081696 0.430866 -0.409061 0.069630 0.052370 -0.068552 -0.303877 -0.462830 -0.279085 -0.364551 -0.075565 0.300720 -0.049767 0.115598 0.057516 -0.421437 -0.274415 -0.012886 -0.182023 -0.433025 0.419566 -0.084654 0.411307 0.058655 0.279433 0.465111 -0.260778 -0.227763 0.156124 -0.479124 0.172890 0.311425 0.306555 -0.104791 -0.415193 0.121833 -0.321037 -0.188276 0.058432 0.076145 -0.097594 0.244560 0.318618 -0.003163 0.081107 -0.350382 -0.112836 -0.350883 -0.278020 0.228070 -0.392414 -0.367198 -0.308806 -0.246210 0.102839 0.328775 -0.487497 -0.087826 -0.192361 0.305519 -0.019339 0.243160 0.245145 -0.030311 -0.209284 -0.001639 0.087750 -0.447046 0.448457 -0.112569 -0.200394 0.183466 -0.119540 -0.464627 -0.086240 0.453793 0.074884 0.126066 0.041680 0.256670 0.020131 0.119355 -0.406232 -0.129296 -0.358147 0.071166 0.287184 0.439531 0.427651 0.124841 0.034558 0.061227 -0.360095 0.127594 -0.151652 -0.328739 -0.263069 -0.287947 -0.240901 0.119896 0.082199 0.451516 0.396883 -0.474827 -0.001495 -0.176714 0.301794 -0.508682 -0.312239 -0.210648 0.329141 -0.433098 0.029710 0.098028 0.094775 0.116042 -0.319858 0.288708 -0.402931 0.313089 -0.419640 -0.311746 -0.333031 -0.395892 0.452809 -0.023039 0.411462 0.097051 0.423959 -0.033171 -0.055833 0.474964 0.416429 -0.220480 -0.280401 -0.066936 0.168323 0.312786 -0.265975 0.424949 0.065777 -0.308997 -0.117926 0.464042 0.078265 0.031128 -0.015634 -0.075448 0.059643 0.099202 -0.166016 -0.497548 0.397172 0.051546 -0.203841 -0.487386 -0.029632 -0.037669 0.073120 -0.092204 -0.020127 0.418832 0.505848 -0.149649 -0.322239 0.184023 -0.007125 0.332695 -0.016825 0.128843 0.226136 -0.306700 0.175796 0.219521 -0.390210 0.081906 0.294474 0.327792 -0.467079 -0.103580 0.367377 -0.129869 -0.456985 0.152387 -0.485026 0.441599 0.420328 0.357351 0.411332 -0.377681 -0.405162 -0.002769 -0.101482 0.183502 -0.036887 -0.140596 0.487211 -0.284720 -0.033318 0.279227 -0.340539 -0.161832 0.467955 -0.175008 -0.242644 -0.462911 0.318213 -0.387245 0.220560 -0.383676 0.366563 -0.439686 0.440310 0.166244 -0.181481 0.318790 0.136899 0.207454 -0.510376 -0.233149 -0.059094 0.444607 0.384562 0.247955 -0.290988 0.402281 0.408989 0.147036 -0.266036 -0.384202 -0.166752 0.476445 -0.153680 -0.091641 -0.184559 -0.320416 0.280960 -0.368221 -0.107306 -0.054478 -0.219769 -0.243429 -0.342709 -0.264982 -0.083550 0.360215 0.087850 0.301950 -0.419142 0.222989 -0.269868 0.420205 -0.252612 0.174666 0.175393 0.036735 0.124946 0.301231 0.372426 -0.270366 -0.467016 0.349064 0.348174 0.372502 -0.258552 -0.081360 -0.156997 -0.338187 0.394400 0.472927 -0.032249 0.308268 -0.426315 0.086265 0.064121 0.031586 0.160644 -0.365385 -0.415070 0.233988 -0.376384 -0.102057 0.040488 0.074432 -0.230273 0.267364 0.297750 0.373775 -0.001079 -0.162399 -0.411403 0.141492 -0.270123 0.488502 0.361361 -0.303003 -0.245530 0.118072 -0.391065 -0.290450 0.092433 0.265510 0.081515 -0.074068 -0.468794 0.350262 -0.444223 -0.165246 -0.133836 -0.174974 -0.513600 -0.084876 -0.417497 0.356237 0.208874 -0.151689 0.068010 0.192393 -0.454212 0.360294 -0.385338 -0.133703 0.187210 -0.442290 -0.256029 -0.255653 0.045210 -0.499831 0.238368 -0.254361 0.059611 0.202668 -0.361184 -0.041576 -0.043863 0.317240 -0.300450 -0.327098 -0.032808 -0.296778 0.479224 0.378617 0.251509 -0.240229 0.366391 -0.183861 -0.269189 0.410575 0.415574 -0.216843 0.476374 0.313342 -0.430862 -0.064539 0.134494 -0.336010 -0.467436 0.439754 -0.134967 -0.127980 -0.360893 -0.258803 0.307695 -0.334507 0.074512 0.403040 0.234553 0.029824 0.186652 0.325234 -0.004860 0.390217 0.327921 -0.356485 0.284216 0.309321 -0.171914 -0.269672 -0.397279 -0.250582 0.287730 0.297900 -0.151207 -0.071488 0.147978 0.257118 -0.403443 0.174194 -0.023651 -0.010161 -0.111894 -0.328670 -0.122515 -0.097263 0.482156 0.075793 0.082452 -0.236341 0.312901 -0.015748 0.255280 0.483477 0.395949 0.224174 0.287853 -0.315798 -0.075542 -0.206445 -0.005152 0.305671 -0.259875 0.306086 -0.234431 0.293843 0.292991 -0.302705 -0.001754 -0.051352 0.057265 -0.037757 0.224168 -0.451636 0.411393 0.448992 -0.133920 -0.446080 0.106445 -0.104559 -0.261918 -0.395854 0.003339 -0.315889 -0.433420 -0.289323 0.124256 -0.331949 0.270501 0.389240 0.203564 0.486272 -0.154699 -0.218450 -0.489415 -0.450368 0.052140 -0.238760 -0.300836 -0.164826 -0.290636 -0.408214 -0.118108 -0.442830 -0.136104 -0.094923 0.272102 0.258301 0.267431 0.158490 0.091722 0.156006 0.183209 0.189712 0.319737 0.192190 0.478170 0.226102 0.198145 -0.375162 -0.246608 0.478663 -0.478308 0.245454 0.314101 -0.166561 -0.364031 0.334730 -0.062610 0.186753 -0.163420 -0.420212 0.107914 0.109993 -0.329079 -0.114386 -0.261712 -0.203669 -0.473309 0.060080 0.423863 -0.359736 -0.005665 0.183951 -0.443454 0.341314 -0.387988 -0.279656 -0.477562 0.401795 -0.431434 0.104257 -0.105096 -0.406391 -0.338158 0.165044 0.339878 -0.014125 0.022195 0.420202 -0.083159 0.015585 -0.201653 0.291190 0.243373 -0.342861 -0.305127 0.168729 -0.164960 -0.397184 -0.011559 -0.320443 0.297814 -0.049337 -0.267522 -0.159789 0.090111 -0.287375 0.292479 -0.352969 -0.226317 0.442498 0.111845 -0.112662 0.286456 0.073746 0.432081 -0.423740 0.258226 0.497917 -0.272189 0.289985 0.045226 -0.472229 -0.375684 -0.476421 -0.039803 0.027666 -0.065364 -0.330757 -0.501241 0.057672 -0.089646 -0.417881 -0.257462 -0.491842 -0.281931 0.196365 -0.432230 -0.064121 0.040242 0.125136 -0.049626 0.077094 0.308323 0.421349 0.053518 0.043888 -0.379094 0.363451 -0.039105 0.514298 0.278694 0.208587 0.360442 -0.226696 0.331633 -0.050836 -0.211283 -0.273776 -0.082236 0.467372 0.212655 0.101407 0.399990 -0.024523 0.481979 -0.273049 -0.478042 0.351225 0.388126 0.358142 -0.283576 -0.216256 -0.305174 -0.069330 0.037542 0.295352 0.022456 0.194186 -0.279052 -0.448517 -0.223964 0.397737 -0.164618 0.204916 -0.127358 0.203257 0.498756 -0.098015 -0.445448 0.173234 -0.224596 -0.475059 0.251361 0.004347 -0.234836 0.072173 0.055103 -0.111036 0.189376 -0.135767 0.432262 -0.102460 -0.051568 -0.405957 -0.021019 -0.111788 0.393500 -0.139917 0.317981 -0.073537 -0.087713 -0.049379 -0.086077 -0.497683 0.082407 -0.029967 -0.358798 0.220337 -0.106716 -0.349848 -0.041031 0.305688 0.194843 -0.006775 -0.459731 -0.150826 -0.355596 -0.309967 -0.240073 0.064053 0.061823 -0.152566 -0.336557 0.119097 0.499394 0.171813 0.243585 -0.426301 -0.158101 0.499358 -0.425363 -0.511693 -0.404044 0.349783 -0.004834 0.272601 0.196186 -0.377971 -0.220785 0.218830 0.075812 -0.339282 -0.245771 -0.191638 -0.122628 0.393602 -0.401323 -0.021263 -0.432819 0.390940 -0.294266 -0.065128 -0.133154 0.000030 -0.498913 -0.252994 0.007389 -0.467603 -0.005712 -0.243384 0.215543 0.446303 0.069959 0.340475 -0.005936 -0.131927 0.264416 0.131132 0.182073 -0.305950 -0.461948 0.105498 -0.447701 0.212716 -0.075533 0.308566 0.346296 -0.396135 0.471676 -0.408410 0.217011 -0.384327 -0.091772 0.074655 -0.254281 -0.252330 0.339394 0.489042 0.229419 -0.086888 0.094869 0.059099 0.348720 -0.134602 -0.454355 -0.360907 0.471556 0.067127 -0.375635 -0.410419 -0.104524 -0.346578 -0.292773 -0.276441 0.460046 0.225614 0.418133 -0.305168 0.182892 0.309465 0.017660 0.379228 0.466357 -0.099789 -0.414304 -0.243128 -0.305958 0.220571 -0.336761 0.140165 0.121120 -0.286074 0.129822 -0.487280 0.231852 0.377224 -0.194341 0.139984 -0.454905 -0.097558 -0.086959 -0.017798 -0.051617 -0.160243 0.260489 0.453341 -0.279664 0.049049 -0.466917 0.264745 0.129284 -0.104310 0.319594 -0.369709 -0.318193 0.365953 0.423140 -0.471303 -0.207798 0.273783 -0.291737 0.281923 -0.003194 -0.423034 0.101310 -0.143612 0.381614 -0.414196 0.247341 0.328990 -0.376596 0.087795 -0.082195 0.107785 -0.060998 0.048129 0.405811 -0.345335 -0.364770 -0.054452 -0.412376 -0.272824 -0.143847 -0.036247 -0.201692 -0.201634 0.399510 0.362434 -0.131912 -0.252231 -0.411527 -0.240053 -0.267625 0.255748 0.320010 -0.447123 -0.009273 -0.158379 0.076925 -0.013742 0.003529 -0.429771 0.285994 -0.144109 0.102263 -0.195091 0.520407 0.183493 0.368485 0.197979 -0.203296 -0.155983 0.516073 -0.411786 0.329318 -0.248118 0.105175 0.299728 -0.435878 -0.344693 0.371216 -0.463173 -0.264097 -0.501532 0.110916 -0.263047 0.500898 -0.002099 -0.203814 0.076118 0.176822 0.214437 0.449595 0.338348 0.387611 -0.162254 0.111983 0.408613 0.335947 0.500961 -0.269926 0.079201 -0.127667 -0.237110 0.072584 -0.003566 -0.418497 -0.039766 -0.163030 -0.056213 0.119549 0.100173 -0.237970 0.145114 0.071917 -0.022611 -0.457692 0.283831 -0.304012 -0.082965 0.141378 0.036980 -0.467703 -0.441563 -0.204167 -0.117459 0.427323 0.387280 -0.175186 0.447989 0.224109 -0.386288 0.032670 -0.108282 -0.330067 0.029962 -0.100795 0.472248 0.254300 0.402286 -0.115172 0.157839 0.417344 -0.307675 0.475322 -0.240311 -0.224332 0.224936 -0.241110 -0.388263 -0.278588 -0.093461 -0.359667 0.080516 -0.008880 -0.178905 -0.246727 -0.501388 0.295669 -0.309559 -0.487556 -0.280373 -0.133830 0.145195 0.020768 0.177839 -0.111096 -0.360082 0.260010 -0.274041 -0.146380 0.091112 -0.301402 -0.365600 -0.340256 0.418054 0.197909 0.215384 0.424359 0.190225 0.252364 0.406860 0.363361 0.411503 0.275978 -0.090961 -0.005168 -0.250994 -0.425206 -0.092809 0.475583 0.014550 0.468025 0.291421 -0.019801 -0.095979 -0.130465 0.338148 0.133671 0.181595 0.455105 0.436414 -0.270025 -0.154040 0.467441 0.221422 0.107796 0.500448 0.193824 0.198052 -0.002313 -0.492013 -0.163384 -0.136844 0.034786 0.474996 -0.023486 -0.089106 -0.266048 0.477245 0.018350 0.024444 -0.342706 0.157524 0.111143 0.062178 -0.003384 -0.223371 -0.330196 -0.310071 0.358551 0.185343 -0.196341 -0.341087 0.039582 -0.369140 0.464241 -0.383316 0.172860 0.400508 0.048578 0.439925 0.138280 -0.198703 0.292709 0.147057 0.078181 0.152886 -0.379164 0.165111 -0.312496 -0.141737 0.352044 -0.326575 0.510117 -0.084504 -0.391283 0.221622 0.177363 -0.104380 -0.472042 0.201566 -0.233971 0.289393 -0.388921 0.173471 0.261783 0.198367 0.357627 -0.503729 -0.221149 0.434281 0.107337 -0.035713 0.039865 -0.080235 0.205403 0.246573 -0.358941 0.324472 -0.194718 0.133308 0.029193 -0.070050 -0.360815 0.342218 -0.268391 0.252158 0.043162 -0.065719 -0.422169 -0.168469 -0.067631 -0.158775 -0.467690 -0.081695 -0.459894 -0.441264 -0.473257 0.235656 -0.015176 -0.206876 -0.298018 0.423978 0.081545 -0.152512 0.054303 0.073764 -0.033371 0.074423 0.148291 0.082647 -0.205494 -0.143478 0.157993 -0.252876 -0.255456 -0.131498 0.447998 -0.211354 0.237358 -0.306038 0.064890 -0.178222 -0.445177 0.132571 -0.228238 0.108820 -0.182759 0.492854 -0.409737 -0.353667 0.352870 -0.075293 -0.211853 -0.036244 0.445654 0.017067 0.058843 0.057584 -0.156346 0.143240 0.070843 0.327642 0.287080 -0.302792 0.329598 -0.095703 -0.129033 -0.057734 -0.415628 0.187596 -0.487796 0.245412 -0.382745 -0.008604 -0.467802 -0.304519 -0.343450 0.113997 0.159839 -0.388295 -0.128683 0.322336 -0.017094 0.018406 0.481385 -0.346194 -0.433782 0.511296 0.243835 0.471230 0.090288 0.140769 0.081469 0.424106 -0.196910 0.411015 -0.491837 0.054127 -0.251806 0.479981 -0.240138 -0.220200 -0.249513 -0.154687 0.053347 -0.243036 -0.384782 0.398131 0.178694 0.094398 0.373281 0.209866 0.274121 -0.462240 0.350064 -0.053642 0.239223 0.352679 0.276632 -0.074411 0.165113 0.024115 0.031736 0.081957 0.430433 0.337632 -0.328500 0.197692 0.466288 0.480852 0.153230 -0.260199 -0.293284 0.187715 0.460853 0.403025 0.067504 0.171693 -0.060698 -0.459417 -0.321716 -0.101812 0.048040 -0.137643 0.243395 0.133320 -0.306832 0.498409 0.439700 0.486936 0.169996 0.036324 0.125612 0.338700 0.002673 0.023251 0.224993 0.405966 -0.286253 0.058595 0.432925 -0.169024 -0.475468 0.054483 0.429363 0.179001 0.214966 -0.355581 0.007187 0.231912 -0.232503 0.017453 -0.120673 -0.487735 -0.244634 -0.417012 -0.467731 0.462245 0.503959 0.215934 -0.096751 0.186217 -0.077361 0.369526 -0.344571 -0.433276 -0.396353 -0.368706 -0.169617 0.009907 -0.482679 0.038107 -0.185158 0.138582 0.360695 0.176802 -0.369749 0.486733 0.347228 -0.038534 0.320582 0.465069 0.445542 -0.211522 -0.117915 -0.129980 0.054687 -0.242826 -0.094219 -0.057250 0.227672 -0.264887 0.506404 -0.480669 -0.283406 -0.270183 -0.279412 -0.253900 -0.192942 0.231596 0.249019 -0.357561 0.476385 0.160496 0.267539 0.247360 -0.451134 -0.183283 -0.444757 -0.471771 -0.065948 -0.201843 -0.358342 0.158514 0.334683 -0.401797 0.154797 0.504370 -0.098748 -0.368047 0.233397 0.050164 -0.454165 -0.188637 0.328687 -0.188681 -0.095103 -0.177006 -0.058317 0.123215 0.443028 -0.133456 -0.104878 0.085962 0.257324 0.106710 0.442887 0.314197 0.037603 0.384748 0.084860 -0.210589 -0.466843 -0.280097 -0.368610 0.362417 0.089365 -0.274092 0.150868 -0.124135 0.086201 -0.400977 -0.004131 0.202452 -0.467260 -0.025242 0.216163 0.250941 0.428669 0.086549 -0.037137 -0.248955 0.217581 0.270356 -0.396061 0.102951 -0.132442 0.274682 -0.228186 0.433512 0.012526 -0.394443 -0.225267 -0.177543 0.391466 -0.033430 0.405270 -0.431347 -0.014544 0.080248 0.153356 -0.258548 -0.113186 0.131948 -0.017908 -0.143535 0.234709 -0.076602 0.058752 -0.499278 -0.253643 0.328701 0.086098 0.466339 0.112819 -0.456360 0.493966 0.001827 0.224252 -0.132576 -0.144242 -0.301104 -0.218002 0.395158 -0.089383 0.312809 -0.181287 -0.289539 -0.264785 -0.239441 -0.422053 0.281447 -0.403996 -0.186339 -0.017025 -0.158661 0.071810 0.196382 -0.289259 -0.100353 0.045643 -0.302033 -0.053478 0.401266 -0.120253 -0.131966 -0.233517 -0.439349 0.158177 -0.429232 0.197929 -0.440939 0.181112 -0.205420 0.068022 -0.055392 0.000814 -0.254192 0.288164 -0.188402 0.461739 -0.298907 0.153921 0.081979 -0.426246 -0.115700 -0.161976 0.196745 -0.083728 -0.140704 -0.158948 0.095637 -0.449208 0.279376 0.165125 -0.116957 0.324899 0.196417 0.316967 -0.006666 -0.316256 -0.491248 -0.394370 0.153897 -0.456608 -0.425267 -0.293587 -0.011725 -0.187435 -0.424607 0.475075 -0.067205 0.490086 0.117664 0.282039 -0.201989 0.103661 -0.467700 -0.178235 0.263819 -0.249839 -0.216290 0.075065 -0.071169 -0.313061 0.425215 0.041807 -0.430258 -0.219773 -0.248562 -0.032629 -0.204900 0.154950 0.122644 -0.422979 -0.496535 0.037888 0.496305 0.338379 0.269654 0.123852 0.347004 0.295831 -0.265340 -0.009592 0.262199 -0.194187 0.389545 -0.125822 0.335000 -0.461424 -0.469186 0.128673 0.417004 -0.119705 0.436868 -0.404308 0.508922 -0.341891 0.000564 0.147301 -0.047416 -0.012917 -0.351666 -0.180050 -0.086044 -0.160111 -0.023162 -0.396268 0.066723 -0.237189 0.400947 -0.232379 0.500889 0.288749 -0.087630 -0.083300 -0.251594 0.224464 -0.021666 0.397933 0.263967 -0.449305 0.434650 -0.441739 -0.401472 0.147803 -0.403530 -0.246552 -0.308793 0.071047 0.189089 0.148368 0.026918 0.439719 -0.404715 0.241419 -0.308139 0.051706 -0.326143 0.351117 -0.394873 0.452997 -0.471081 0.192550 -0.475416 -0.442833 0.486854 0.124980 -0.318013 -0.329461 0.484477 -0.371060 -0.263777 -0.222269 -0.267732 -0.209423 -0.146652 -0.146136 0.040642 0.246961 0.077782 -0.343741 0.204437 -0.455112 -0.498023 0.208676 0.319419 -0.309786 0.090407 -0.476935 0.447703 -0.348869 0.170688 -0.505875 0.194007 0.058035 0.019017 -0.019728 0.423470 0.349147 0.137128 0.400897 0.304947 0.148043 0.389286 0.189729 -0.100732 -0.080647 -0.298619 0.221327 0.481735 -0.182012 -0.037042 0.201291 -0.285613 -0.430596 -0.458392 -0.432114 -0.189641 0.390699 -0.414748 0.321791 0.094447 -0.252010 0.157433 0.105781 -0.000351 0.221667 -0.017581 -0.307879 0.195153 0.369373 0.106735 0.038699 -0.064277 -0.220169 -0.494324 -0.137162 0.118036 0.228210 -0.437300 -0.125901 -0.332202 -0.474220 0.018762 0.367958 0.268789 0.314880 -0.375507 -0.311517 -0.010417 -0.345023 -0.043638 -0.112032 -0.344171 -0.434554 -0.399490 0.404311 0.434289 0.347926 -0.093926 -0.242807 -0.321278 -0.254037 -0.178492 0.254972 0.403068 0.034309 -0.383171 -0.041411 -0.460078 -0.009483 -0.374773 -0.086859 0.444868 0.029764 -0.021714 0.380522 -0.319165 -0.422763 0.166471 -0.143120 -0.477432 0.080927 -0.296615 -0.470303 -0.027532 0.446266 0.429560 -0.125534 0.136339 -0.272540 0.469411 0.434754 -0.315602 0.056150 0.067597 -0.478243 0.104137 -0.033061 0.026281 0.380870 0.304469 0.136322 0.104744 0.149872 0.094266 0.451697 -0.000651 0.352225 -0.464996 0.429882 -0.152433 0.469718 0.127575 -0.151278 -0.250319 0.065805 0.003368 -0.247630 0.163743 0.436468 0.296276 0.102039 0.074060 0.431126 0.390428 0.390360 -0.257415 0.275480 0.279097 -0.093894 0.127791 0.229333 0.407620 -0.311045 0.287154 0.172787 -0.491614 -0.270634 0.249519 -0.470916 -0.088965 0.427441 0.032687 -0.341794 0.097033 0.079375 -0.361090 0.153820 -0.102338 0.139433 -0.330510 -0.024537 0.211212 0.089399 0.349421 0.191623 -0.261778 -0.189386 0.346551 -0.088946 -0.178010 0.085453 0.310305 -0.150341 0.306451 0.361443 -0.203270 -0.232998 0.302284 0.139250 0.123806 -0.058888 -0.255903 0.499497 -0.383413 -0.131083 0.348404 0.489333 0.268209 -0.054253 -0.134586 0.260066 